*****  test_err 
 0.215857359636
*****  Wemb 
 [[ -1.17937590e+00  -2.02792758e+00  -1.10349504e+00   1.06177558e+00
    7.80479390e-01   8.31644092e-01   6.82290666e-01  -1.44044011e+00
   -7.46853295e-01  -3.13492258e-01   7.88777520e-01  -1.29273088e-01
    4.82137729e-01  -9.84395954e-01   8.69410568e-01  -3.75673198e-01
   -2.48604349e+00  -5.64011305e-01   1.17074829e+00  -8.76336332e-01
    6.23588313e-01   6.02760231e-01   1.56659542e+00   1.14482791e+00
    1.13037513e+00   1.92408062e-01  -7.20791969e-01   4.80480460e-01
    2.07580363e-01  -1.37967606e+00  -2.00099469e+00  -7.46790675e-01
    4.55894302e-01   2.03980712e+00  -2.66487324e-01   5.65297356e-01
   -6.63856351e-01  -4.52303656e-01  -1.33692340e+00   3.34392032e-01
    2.75455770e-01  -1.88348318e-01   1.89434199e+00   9.45018965e-01
    8.99538964e-02   7.97778107e-02   7.73137263e-01   1.15888598e+00
   -3.91103709e-03  -2.62264676e+00   3.22322800e-01   1.13933246e+00
   -2.00062797e+00  -1.08584311e-01   7.83006749e-01  -4.89011320e-01
    1.49470941e+00   2.84709149e-02  -7.65774630e-01  -3.44238714e-01]
 [  1.06851259e+00   5.14070686e-01  -6.91975618e-01  -2.37245778e-01
   -6.26384045e-01   2.73173329e-01   8.24281450e-01  -1.03160031e+00
   -1.43219663e+00   7.03400969e-01   1.16611121e+00   8.38133815e-01
    8.64955254e-01  -1.28173210e-01   8.52561751e-02  -2.20415123e-01
   -1.26275620e+00   1.26893631e+00   7.19148021e-01  -6.63047710e-01
   -1.18001793e+00   1.03817454e+00   8.81938106e-01   1.70143386e-01
    3.02741173e-01   2.64928166e-01  -7.44368675e-01   6.04547843e-01
    5.34247738e-01  -1.61478379e+00  -1.71561514e-04   4.49906663e-01
    1.63790579e+00  -2.75395259e-01   1.33803056e+00  -8.14191484e-01
    1.22542292e+00  -3.71063288e-01  -3.29505644e-01  -1.18360396e+00
    1.96904339e+00  -1.12348589e+00   2.51729801e+00   5.42493827e-01
   -6.95699660e-02  -5.44143087e-01   2.44194477e+00   1.86260492e+00
   -1.00056189e+00   3.31577533e-02  -1.40783597e+00  -7.50747838e-01
   -7.64597382e-01  -1.25129027e+00   1.55363687e-01   1.08178724e-02
   -1.44192201e+00  -2.42911117e-01   9.05401350e-03  -2.22936556e+00]
 [ -2.10821847e+00  -1.25893499e+00   2.14039373e-01  -8.08274178e-01
   -1.76118724e+00   1.83759276e+00  -2.11997662e+00  -7.48511824e-01
   -9.55685482e-01   6.58037377e-01   4.67236082e-01  -3.67354762e-01
    2.10113107e+00   9.80075997e-01   1.14937514e-01   1.15695024e+00
   -1.36149833e+00  -7.97889579e-01  -5.67986154e-02   6.09796146e-01
    1.10569466e+00   6.68343187e-01  -2.36143859e-01  -1.05650066e+00
   -5.42661830e-01   2.70792264e+00  -1.57956621e+00  -6.31903154e-01
   -1.36443173e-01  -5.49968468e-01   4.04767780e-01  -5.39990030e-01
    6.93615039e-01   6.04907778e-01  -7.05391187e-01  -4.98171800e-01
   -2.05666523e+00  -2.64970641e-01  -5.07813073e-01   1.76199216e-01
    2.19545855e-02  -2.47811456e+00   2.29629988e-01   1.20161081e+00
    3.44420425e-01  -1.37166290e+00  -8.77187202e-02  -3.91368759e-01
   -5.15223134e-01   1.31194859e-02   5.56006536e-01   7.58472854e-01
    7.82511623e-01  -1.59991427e+00   4.18486994e-02  -1.17261879e+00
   -1.08078815e+00  -4.03865817e-02  -1.34816912e-01  -2.16225932e+00]
 [ -8.60239170e-01   2.82151658e-01  -9.00945535e-01   5.96820660e-01
   -3.93464311e-01   6.54917745e-02   1.17123574e+00  -1.09117689e+00
   -1.08710547e+00  -7.78953838e-01  -2.22511707e+00  -6.94977328e-01
   -3.56074268e-01  -6.77057215e-01  -1.75703427e+00   2.52444920e-02
    4.21748825e-03  -3.27430090e-01  -3.12651687e-01   5.28685641e-01
   -1.15702519e+00   2.92694827e-01   1.19998997e+00   1.96519815e-01
    2.73367780e+00   1.04981997e+00  -1.01904016e+00   9.68243590e-01
    1.41250972e+00  -1.28536355e+00  -5.01762536e-02   7.99956045e-01
    1.58676770e+00   3.45406285e-01   1.15529286e+00   6.19586290e-02
   -6.79719270e-01  -5.99946611e-01  -1.57908148e+00   4.66710110e-01
   -3.13654509e-01   1.16768372e+00  -1.08361385e+00   1.13387966e+00
   -1.73991549e+00   7.57362041e-01  -5.16069710e-02  -7.61201496e-01
    3.03302552e-01  -1.97284923e+00  -1.29464257e-01  -5.54092765e-01
    4.38318649e-01  -8.42883212e-01   1.64072071e+00   2.38913474e-01
    1.39304498e-01  -6.86410348e-01  -6.92922234e-01  -1.40187726e+00]
 [ -5.35097578e-01  -1.07930374e+00   1.69898470e+00  -6.42447589e-01
    2.18320640e+00   4.55560426e-01   5.24355813e-01   1.37173656e-01
   -1.06365232e+00  -1.80477088e+00  -1.08967111e+00  -1.42350827e+00
   -1.35786669e+00   1.98343948e-01  -9.98852477e-02   1.71071698e+00
    5.35019625e-01   4.33909183e-01  -1.49340716e+00  -1.32676726e+00
    1.74846592e+00  -8.59427829e-02  -2.38967966e+00  -2.10343527e+00
   -2.78271690e-01  -1.05700725e+00  -5.92171743e-01  -2.50166388e+00
    8.54321427e-01   1.40126371e-01  -3.14131924e-01  -8.58465941e-01
    1.91646347e+00  -4.11843509e-01  -5.22853773e-01  -1.20797136e+00
   -1.60254090e+00   9.30523562e-01  -5.08812962e-01  -3.82833148e-01
    3.32641278e-01   9.82870782e-01   2.79818748e-01   2.39792293e-01
   -9.17321268e-01  -2.94040208e-01   1.05881431e+00   1.16338353e+00
    1.44402451e+00  -1.78569074e-01   8.07012316e-01   3.07377258e-01
   -4.33806928e-01   1.16892660e+00  -4.86813476e-01  -1.11232013e+00
    1.64625200e+00  -6.49329612e-01   1.29048134e+00   1.37345745e+00]
 [  1.37659462e+00   4.02696606e-01  -1.22006817e+00  -2.09983318e-01
    1.58936771e+00   1.23193030e+00  -3.62690402e-01  -3.63027686e-01
   -9.76838058e-01  -1.02707880e-01   1.06966490e+00   3.73595342e-01
    4.04466030e-01   6.10155024e-01   1.76320714e-01   5.57705607e-01
   -4.61410301e-01   8.63718210e-02   8.43529816e-01  -1.15656070e+00
    2.23514500e-01   1.52824415e+00   7.28231931e-01   2.00901151e+00
    5.34460621e-01  -6.19040683e-01   8.03875724e-01   6.04498576e-01
    1.31021314e+00  -2.59797947e-01   1.60814268e+00   2.04037292e+00
   -4.16689560e-01  -2.90859394e+00  -2.15046430e-01  -9.81388122e-01
   -9.29983636e-01  -4.63071911e-01  -3.99501408e-01   4.28319073e-01
   -1.27312887e+00  -3.27904275e-01   2.89332477e-01  -1.91594695e+00
   -1.76375662e+00  -1.17251097e+00   9.41106779e-01  -7.38718550e-01
   -1.14317957e-02   8.61188300e-01  -1.58113727e+00   1.91999081e+00
   -4.25200553e-02  -5.66854501e-01  -1.08101854e-01  -8.87872989e-02
    9.50164856e-01   1.45476885e+00  -4.37983733e-01  -2.41535399e+00]
 [ -1.48537892e+00   1.37131768e-01   1.09812802e+00  -2.15141414e+00
    5.09959070e-01  -9.93278747e-01  -8.88515965e-01   7.28515252e-01
   -4.16548477e-01   1.29833036e+00   3.39511126e-01  -1.64708246e+00
    1.04012839e+00   1.62806016e+00   1.90943084e+00  -4.63665035e-01
   -8.96792708e-02  -2.41450027e-01   6.02353792e-01   1.95401309e-01
    8.20050704e-01  -1.54818880e-01  -2.84585031e-01  -1.60007815e-01
    5.20757543e-02  -1.64676813e+00  -2.73649573e+00  -6.29006725e-01
   -6.48567220e-01   7.92180660e-01   1.04700887e+00  -1.03933484e+00
    1.40707038e+00   2.55048185e-01  -5.72874521e-01  -2.88762204e-02
    1.63405494e+00  -7.35198139e-01   1.20349369e+00  -3.11735898e-01
   -1.19231187e-01  -1.54096122e+00   1.74250304e-01  -1.19935675e+00
    1.12730080e+00   5.70515114e-01   1.19097580e+00   1.12499031e+00
   -2.14683709e+00   2.49986404e-01   2.78731869e+00   7.29396197e-01
   -1.34296937e+00  -6.91800670e-01  -1.74701339e+00  -8.70057174e-01
    1.63935164e+00   9.54401319e-02  -1.38849559e-01   9.49133929e-01]
 [  3.50822115e-01  -3.68883955e-02   6.24486924e-01   1.74754627e-01
   -4.03706364e-01  -3.00311127e-01  -1.24855200e+00  -2.16380344e+00
    1.81287614e+00  -9.72981677e-01   1.72295294e+00   2.49277751e+00
   -1.42032144e+00  -4.61355013e-01  -7.75095996e-02   5.97341187e-02
    1.37755931e-01  -2.27923274e+00   1.69539855e-01  -5.53002029e-01
   -8.57837315e-01  -1.37189114e+00   2.42105833e-01   4.83787830e-01
   -1.60587670e+00  -6.49809227e-01   5.20578514e-01   5.00207967e-01
   -1.01270313e+00  -7.22224600e-01  -3.15961236e-01  -1.58282059e+00
   -1.13759656e+00   1.34371817e-01   4.13733206e-02   6.67414311e-01
   -3.43185113e-01  -1.89893752e+00   1.43446098e+00   1.15581466e+00
   -5.71017257e-01  -1.58105896e+00  -1.21433365e+00   1.19483868e+00
   -5.14667199e-01   2.68479374e+00   9.40422171e-01   1.88729565e+00
    1.22253014e+00   7.21505840e-03   1.31043190e+00  -1.30943276e+00
    5.22726707e-01  -8.49051652e-01   9.88594480e-02  -4.12363090e-01
    7.49753155e-01   2.35661891e+00  -4.85424031e-01   1.41127564e+00]
 [ -5.72142718e-01   6.74139277e-02   1.48640044e+00  -7.49732737e-01
    2.98666085e-01  -1.64892850e+00  -9.77651033e-01   1.29586107e+00
    6.20476160e-01  -6.99154278e-01  -4.94485448e-01  -1.23959337e+00
    2.79151811e-01  -6.93280387e-01   1.47317918e+00  -2.25019237e+00
    9.23919368e-01  -1.01411202e+00  -4.24877540e-01  -1.59214604e+00
    5.50524854e-01   7.02570277e-02  -1.16076644e-01  -1.39676108e+00
   -1.47137947e+00  -7.98286343e-01  -2.95928499e+00   4.04597618e-01
   -1.86519066e+00   8.68102655e-01   4.49964983e-01  -4.97205626e-01
   -3.98575705e-01  -4.99317426e-02  -4.52164551e-01  -3.23465338e-01
   -3.33648238e-01  -8.45564208e-01  -1.33437814e+00  -6.06627642e-01
   -1.78900064e-01  -1.30421969e+00  -5.68211707e-01   2.04690060e-01
   -3.54875547e-01  -3.16510650e-01   6.15941695e-01  -7.10721748e-02
    2.26612984e+00  -1.04399257e+00   8.73223652e-01  -1.49781995e+00
   -2.26013834e-01  -1.23035246e+00   8.81099557e-01   9.50367660e-01
   -4.95754294e-01  -2.22657132e-01   2.25165185e+00   6.04332366e-01]
 [ -8.61262217e-02  -1.81011675e+00  -7.89005316e-01  -5.58999608e-01
    4.84787310e-01   3.66355688e-01   1.37988881e+00   1.49140089e-01
    6.73976212e-01  -2.09523984e-01  -1.34548172e-01   9.86576459e-01
   -1.39762269e+00   4.88693162e-01  -3.60909888e-01  -1.55547619e+00
   -2.93925162e-01  -6.53772576e-02  -6.94218391e-01  -1.97529388e+00
   -1.93493411e+00   9.24097729e-01   5.52220679e-01   2.18635921e-02
    8.84791695e-01   3.21247670e-02   1.02928622e+00   1.59064176e+00
    9.77481914e-01  -2.11915807e+00  -2.74437980e-01  -5.39709416e-01
   -2.76470694e-01  -3.20318062e-01   2.11408127e-01   5.90084837e-02
   -1.63188597e+00  -1.36660554e-01  -5.00848273e-01   1.18769645e+00
   -4.08243244e-01  -9.55781688e-01   1.65876857e+00  -1.50715354e+00
    1.11051428e+00  -4.64318941e-01   5.03452415e-01   2.68208327e-01
    4.03827777e-01   1.16112586e+00  -1.12542559e+00   1.24616437e+00
   -4.95037744e-01  -3.15783689e-01  -9.77783236e-01   8.37533623e-01
    6.04728254e-01   1.93601142e+00  -2.99840389e+00  -3.21740541e-01]
 [ -1.90562632e+00  -8.42890578e-01   6.65362561e-01   1.12103379e+00
   -2.97002761e-01   5.64368437e-01  -2.17024380e+00   4.13270293e-01
   -5.48630769e-01   5.25948471e-01  -2.56325351e-01  -1.28826517e+00
   -1.94388410e+00  -4.51944803e-01   4.73045580e-01   3.93100878e-01
    3.04368947e-01  -7.71024365e-01   2.00593427e-02   6.32437221e-01
   -2.27856397e+00  -7.59656940e-01  -1.18807957e-01  -1.02847337e+00
   -6.52831483e-01  -5.57852138e-01   1.12088623e+00  -2.28869629e-01
    6.87343427e-01   1.19753801e-01   1.00900183e+00   8.63550645e-01
    3.51097392e-02  -4.76286037e-01  -1.25789785e+00  -1.67599785e+00
    1.18405119e+00   9.35857354e-01  -9.42401417e-01   1.54387111e+00
    4.08466827e-01  -2.60032371e-01  -8.48496764e-01   7.09899581e-01
   -1.28018427e+00   4.13745559e-01   9.41514320e-02  -7.07402782e-01
   -1.22519873e+00   4.83753117e-01   2.81976048e+00   6.16156315e-01
   -9.32149933e-01   1.73333698e-01   2.71508358e-01  -1.19859668e+00
   -1.45193041e+00  -1.00488145e+00  -4.65258675e-04   1.03306062e+00]
 [  1.18509376e+00   6.94928438e-02  -4.83326525e-01   2.90453627e-01
    1.40034331e-01  -3.67723633e-01   1.11150450e+00  -4.51607436e-01
   -6.67738124e-01  -8.48364902e-01  -1.90704912e-01   1.30481519e+00
   -1.01679853e+00   2.31390631e+00   1.30898991e+00  -5.58886772e-01
   -1.47395274e+00   3.04620724e-01   5.99982705e-01  -5.43999403e-01
   -1.44661787e-01  -2.94061282e+00   1.53662524e+00  -6.64355244e-01
    4.52824408e-01   4.47979423e-01   9.21311866e-01   9.10940908e-01
    1.80868323e+00  -9.93014821e-01   8.93813615e-01  -3.00496260e-01
   -5.91296627e-01  -1.25613550e+00  -2.35403333e-01   2.43244376e-01
   -1.21180890e+00   1.37244376e+00   1.92792097e+00   1.97544762e+00
   -6.08113601e-02   6.86451776e-01  -1.15770549e+00   9.23458515e-01
    1.27223415e+00  -1.54181063e+00  -1.55174423e+00   6.88898598e-01
    3.53694346e-01   1.16155684e+00  -7.84015098e-02  -1.17752868e+00
    7.51618486e-01  -8.66984619e-01   5.50724569e-01  -1.22124595e+00
   -3.30934662e-01   4.83458854e-01  -2.67778160e-01  -1.02719954e+00]
 [ -6.46891335e-01  -1.70503438e+00  -8.47052182e-01   5.13693778e-01
    9.94897917e-02  -3.24234381e-01   2.11104901e+00  -2.78649473e-01
    2.10529810e+00   6.91261351e-02  -1.39054598e+00  -1.92590345e+00
    1.02976385e+00  -1.31824553e+00  -1.50611499e+00   8.72739901e-02
   -1.69079889e+00   1.43831899e+00   3.16442194e-01   1.98219077e+00
    4.77201220e-01  -4.26759014e-01  -1.61847420e-01  -1.08454103e+00
   -1.12324314e+00  -1.38019564e+00  -2.12351112e+00  -7.35300828e-01
   -7.27039289e-01  -2.46350483e+00   1.48624181e-01  -1.52541144e+00
   -9.75928672e-02  -7.92762157e-01   5.74480435e-01   3.76101445e-01
    7.60191263e-01  -1.37467875e+00   5.53300735e-01  -6.86501299e-01
    4.45600365e-01   2.21817628e-01  -8.63812530e-01  -2.46140865e-01
   -1.51789916e-01  -6.74092680e-01   1.59253576e+00   1.12262484e+00
    6.36373132e-01   3.04650315e-01   1.94842809e+00   7.58901820e-01
   -1.81858586e-01  -8.80273755e-02  -1.65579575e+00   8.61401719e-01
    6.60145626e-01  -1.48167445e+00   9.85104492e-01   1.25105691e+00]
 [  1.10304728e+00   2.40016634e-01   6.88580716e-01  -5.30610140e-01
    1.74970582e+00   7.51416607e-01  -1.56046506e+00  -3.72234065e-01
   -2.45793283e-01   1.25011307e+00   3.18987979e-01   4.57421044e-01
   -3.71944205e-01  -1.14447451e+00   1.38823233e+00   1.48152852e-01
   -7.09753075e-01  -1.66991832e+00   7.80920770e-01  -6.94823623e-01
   -3.86315484e-01  -2.75154507e-01  -4.01092263e-01   1.60220744e+00
    1.09695895e-01  -1.76213213e-01   2.97255748e+00   3.10616699e+00
    1.69967315e+00  -7.47160733e-01   1.07790830e+00  -2.60353703e-01
   -2.81829967e-01   1.35520058e-01   1.06780214e+00   5.06490030e-01
    3.32941394e-01   1.91182769e-01  -4.61177145e-01   1.10370023e-01
    2.97721042e-01  -1.03334756e+00  -6.67154362e-01   2.30061322e-02
   -5.46570244e-01   1.60124980e-01  -6.32151623e-01   1.03548548e+00
   -6.07285920e-01   7.93926560e-01  -5.58721468e-02   5.76004273e-01
    3.19453229e-01  -4.60701172e-01  -9.84904276e-01   5.74017025e-01
   -8.19940040e-01   1.14175271e-01  -1.24161261e+00  -1.53343438e+00]
 [ -1.03684202e+00  -1.33786363e+00   3.31128675e-01   1.67683406e+00
    5.32869899e-01   2.68793348e+00   9.74589012e-01  -1.80947641e+00
    1.27366883e+00  -1.44215580e+00  -1.86564507e+00  -1.57140372e+00
    1.33465347e+00  -1.35780999e+00   4.74453012e-01  -7.06626368e-01
   -4.63342032e-01   3.11036319e-01   1.37269179e-01  -9.42656093e-02
    1.34783753e+00  -1.44255728e-01   3.32074606e-01  -2.03295144e-01
    1.60833692e+00  -1.32218621e+00  -3.93946267e-01   6.00026351e-02
    5.08357770e-01   1.19689888e-01   5.12272462e-01   1.94394240e+00
   -4.97718384e-01   1.72228653e+00  -5.95004886e-01  -1.97785686e+00
   -5.57467671e-01  -9.69440011e-01  -6.36534618e-01  -1.11708078e+00
    2.04227566e-01   1.50054731e+00  -1.78595467e+00  -1.08519456e+00
   -9.71245567e-01  -8.48338230e-01   9.23056815e-01  -6.63046727e-01
    1.37071907e+00  -7.84695650e-01   1.69634167e+00  -4.50975802e-01
   -1.65919531e+00   2.95176452e-01  -8.69393973e-01   1.34340992e+00
   -9.06013481e-01  -1.21088725e+00  -1.49948727e+00   2.08303525e+00]
 [  7.11364173e-01  -6.67823066e-01   1.20929484e-01   3.13650766e-01
    8.50423148e-02   5.47675200e-02  -3.99011924e-01  -1.29396090e+00
   -1.03912826e+00   1.77717542e+00   1.14793851e+00  -1.09059434e-01
   -1.54733176e+00  -1.25900839e-01  -8.60944444e-01  -6.47311389e-01
   -7.48831777e-01  -1.32700326e+00   4.63741233e-02  -7.26689333e-01
   -2.09806307e+00   1.44376544e+00  -5.92124042e-01   7.10880749e-01
    1.94903004e+00  -1.62601905e+00  -8.15295779e-01   7.20984522e-01
    6.02098261e-01  -2.45681333e+00  -4.82778977e-01   8.71299491e-02
    6.58539840e-01   1.24439474e+00   1.44154221e+00   9.90823789e-01
   -9.04535898e-01  -2.08210720e+00  -1.13005429e+00  -1.88320648e-01
    4.22584383e-01  -1.27872810e+00   1.69366653e+00   1.02714638e+00
   -7.02666355e-01   7.40920421e-01  -5.80668217e-02   5.51416305e-01
   -2.25766427e-01   7.46729104e-02  -4.86551959e-01  -2.03982251e-01
   -4.16355502e-01   2.25721793e+00   7.02794102e-01   1.45602696e+00
    4.75239711e-01   2.00584922e+00  -4.00998738e-02   2.37386172e-01]
 [ -8.39038122e-01  -4.65567639e-01   9.40284661e-02  -1.57474872e+00
    1.74202013e+00  -1.11581304e+00  -5.59106593e-01   3.01371416e+00
   -6.31622425e-02  -1.91973868e+00   2.04345102e-01  -1.80837246e+00
   -1.28146902e-01   1.16632032e+00   6.45997302e-01  -7.02185913e-01
    1.02715566e+00  -8.87154723e-01   5.43955078e-01  -3.86508795e-01
    4.04820541e-01   1.83420936e-01  -8.57091520e-01  -2.43178205e+00
    1.33208951e+00  -2.29185927e-01  -1.08168947e+00   2.54688541e-01
   -3.91382449e-01   2.39617052e+00   7.10710717e-01  -7.56336177e-02
   -1.35217511e+00   5.01111168e-01  -6.48866654e-01   1.46378425e-01
    7.02956009e-01  -9.85435602e-01  -2.32370596e-02  -3.20548227e-01
   -6.88264900e-01   4.23367742e-01  -1.32185246e+00  -9.04406494e-01
    1.25009944e+00  -3.17679013e+00   6.50623806e-01   9.35956008e-01
    9.28525224e-01  -1.83792095e+00   2.15266021e+00  -1.95421367e+00
   -1.35535600e+00   9.79585913e-01  -4.46597431e-01  -7.31430027e-02
   -1.93829714e-01  -1.34177441e+00   1.64038640e+00   5.57681800e-01]
 [ -7.69598297e-02  -9.38534580e-01   5.04590876e-01  -6.84282063e-01
    1.64411376e+00  -6.88582326e-03   1.15961503e+00  -2.05635607e+00
    3.29860502e-01  -1.18118030e-01  -2.22533365e-01   1.44218495e+00
   -1.18916332e+00  -3.59922147e-01  -4.85670141e-01   5.59209790e-01
   -9.83585737e-01   1.57844727e-02  -9.53064745e-01   1.39385371e+00
   -6.71929630e-02  -4.43955055e-01  -3.34923896e-01  -6.14084447e-01
    8.63926545e-01   1.83988871e+00  -1.63611603e+00   6.82773569e-01
   -4.55874124e-01  -1.32150866e+00   1.53035972e+00  -1.67907826e+00
   -2.56327236e-01  -5.43773748e-01  -1.47212298e+00   6.03131365e-02
    6.64803745e-02  -5.06369164e-01   1.00742887e+00   8.85236328e-01
   -1.74794039e+00   5.36510552e-01   5.02898176e-01   9.59724078e-01
   -4.43280554e-01   1.18097336e-01   4.98848158e-01  -3.70426814e-01
   -9.41900014e-01  -1.29241941e-01  -1.14239346e+00  -5.06164865e-01
   -1.51265384e+00  -3.60391722e-01  -1.37830238e-01  -6.45868591e-01
   -1.15761950e+00  -7.30973952e-01  -1.21610667e+00   4.08115348e-01]
 [ -9.24322169e-01   4.77053890e-01  -4.50846535e-01   1.02844105e+00
   -3.56024248e-01  -1.64276207e+00   9.54767670e-01   1.39081891e+00
   -1.03647446e+00  -1.88373677e+00  -3.07035272e-01  -8.82461522e-01
   -2.40354518e+00  -4.46087206e-01   1.31679878e+00   1.08586762e-01
    9.67309819e-01   7.07888382e-02  -3.00850309e-01   2.48464240e-01
    1.07544775e+00  -4.67750908e-01  -1.84708330e+00  -7.71056160e-01
    1.80494239e-01  -5.20136841e-01  -1.76452927e+00  -1.99559501e-01
    6.51114113e-01   1.30926846e+00   1.75879114e+00   3.66500497e-02
   -1.68266112e+00  -1.13769814e+00   1.41868628e+00   1.67795464e+00
    8.50617355e-01  -4.44228444e-02  -5.20923912e-01   2.01278733e+00
    1.63900564e+00   7.02605229e-02  -2.05136112e+00   1.21061841e+00
   -3.60328091e-02  -3.00239745e+00  -1.46997943e+00  -2.14522101e-01
   -7.73787994e-01   1.14922740e-01  -1.08617157e-01  -8.37733190e-01
    5.93055367e-01  -4.09138860e-01  -3.59134516e-01  -7.90315355e-01
   -3.28874279e-01  -1.75446266e-01  -1.68459956e+00   3.16383868e-01]
 [  2.57991635e-02   6.43343721e-01  -1.01046531e+00   8.59946170e-01
    1.70411437e+00   1.88434472e+00  -1.87889020e+00  -2.88223036e-01
    5.62260057e-01  -9.87483058e-01   6.99794614e-01  -2.63374858e-01
   -5.43586384e-01  -9.16712558e-01   3.44344633e-01   8.35821981e-01
    1.83367107e+00  -5.76300953e-01  -5.73037227e-01  -5.52551192e-01
   -9.18519650e-01   3.92058188e-01   1.35361352e+00   1.79097229e+00
   -3.74151614e-01  -9.39122363e-01   2.17912608e+00   1.44564183e+00
    1.95322428e+00  -1.69561297e+00   9.93366601e-02  -8.44793991e-02
   -1.72634108e-01  -4.32612336e-01   3.04337012e-02   8.39687825e-02
    2.08658840e+00   9.09374393e-02  -5.92513572e-01  -1.22430220e+00
    1.08689889e+00   9.71682706e-01   1.69179300e+00   5.78567299e-01
    1.87522493e+00  -2.03802921e+00  -1.12250788e+00   5.13825154e-01
    1.20368840e+00   1.47571127e+00  -8.98542789e-01   5.07581877e-01
    5.45216367e-01   1.31638821e+00  -7.22922857e-01  -1.53965408e+00
   -6.23168544e-02   1.12726089e+00  -7.27350963e-01  -3.96489865e-01]
 [ -1.98627207e+00   9.61018726e-01   4.93620748e-01  -2.46430742e-01
   -1.35872522e+00  -6.03052044e-01  -1.32551213e+00   1.74212493e+00
    9.82179550e-01  -1.76309317e+00  -5.76787183e-01  -1.00441586e+00
   -8.15097224e-01  -3.35994347e-01  -1.02539816e+00  -6.60124807e-01
    1.62781747e+00  -2.22270843e-01   1.09692546e-01  -2.89247892e-01
    9.23542034e-01   9.06418624e-01  -1.50804503e+00  -4.81476193e-01
   -2.50261578e-01   1.29154114e+00  -1.39141450e+00  -1.08801471e+00
   -2.17249779e+00   5.60812414e-01   6.45042215e-01  -2.40295864e-01
   -4.56294596e-02  -1.22458857e+00  -1.57830941e+00  -3.05716298e-01
    1.98062068e+00  -1.40343672e-02   1.24953755e-01  -6.92219238e-01
   -7.30776881e-01   2.27601522e+00  -2.28161513e+00  -1.68067909e+00
    5.52682582e-01   4.77109729e-01  -1.59609346e+00  -2.48407296e+00
   -4.16464718e-01  -5.53481012e-01  -5.20383229e-01   1.59344079e+00
   -1.46997646e-01  -8.24200821e-01  -7.72919907e-01   1.14772080e+00
   -1.61268327e-01  -1.42901116e+00   3.20861566e+00   1.96453120e-01]
 [  9.41173622e-01   3.00132066e-01  -1.09395027e+00   7.42507124e-01
    8.52289762e-02   8.26253927e-01  -5.91337776e-01   4.97414292e-01
    3.06639036e-02   5.72517493e-02   6.55317678e-01  -2.91740415e+00
    7.98036745e-01  -1.31229589e+00   6.47996986e-01  -1.16717292e+00
    3.06819672e-01   1.08174295e-01   1.67745953e-01   9.31624757e-01
   -1.69240137e+00   1.35137358e+00   1.55631511e+00   3.26026134e+00
   -6.54629665e-01  -2.39812068e-01   1.38909259e+00  -4.95687946e-01
    9.88245461e-01  -1.85292318e+00   2.98082228e-01  -1.40768463e+00
    1.11111141e+00   1.69925010e-01  -7.93336639e-01   1.04564844e+00
   -1.31554670e+00  -4.83126392e-01  -1.04881447e+00  -1.43536354e+00
    6.58509548e-01  -2.23401889e+00  -4.80298394e-02  -6.41404029e-01
    3.21593722e-02   7.11294374e-01   1.04310467e+00   3.53963771e-01
    7.19020737e-01   9.27144475e-01  -2.20159637e+00  -2.57455720e-01
    4.86995178e-01  -3.41745231e-01   4.14433893e-01  -2.22819182e+00
   -1.08501121e+00  -1.08575518e+00  -9.57756933e-01   6.79113258e-02]
 [  8.53622354e-04   2.18398144e-01  -2.40241777e-01   1.31770098e+00
    1.07050111e+00  -1.27333271e+00  -1.36372911e+00   2.13993075e+00
   -3.64864591e-01   2.19901819e-02   1.53414314e-01  -1.18159444e+00
   -7.35796889e-01   2.87343747e-01   2.07355625e-01   1.28157105e+00
    2.10784364e+00   9.95200509e-02  -9.97833479e-01  -1.66106173e+00
    1.96599640e+00  -6.73809943e-02  -1.82889405e+00   1.44527572e-01
   -9.46570935e-01  -1.62075271e+00  -1.66441463e+00   6.25273571e-01
   -3.99491859e-01  -1.93795428e+00  -3.75724501e-01  -1.86907385e+00
    1.76867846e+00  -1.65626057e+00  -3.42937614e-01  -1.02905417e+00
    1.85069765e-01  -9.56635189e-01  -2.84356736e-01   1.23039244e+00
    9.93581518e-01   2.59272301e-01  -9.26629584e-01  -1.28964098e-01
    1.59217286e-01   1.24070880e-01   6.49549064e-01  -1.83916416e+00
   -8.44317445e-01  -1.08308633e+00   2.00272325e+00   9.06626442e-01
    2.33113053e+00  -6.46909405e-01  -1.77994772e+00   7.43335087e-01
   -3.18284810e-01  -1.32919799e-01  -4.48587714e-01   7.84358060e-01]
 [  1.23797362e+00   6.64472395e-01  -5.39421809e-01   2.10945986e-01
   -1.05890375e+00  -1.43635017e+00  -8.87026296e-01  -8.90254905e-01
    1.34465130e+00   5.97450302e-01  -6.78280461e-01  -1.96909796e-01
   -7.49153772e-01  -7.09903665e-01   6.58518753e-01   1.11542784e-01
    9.89069156e-01  -1.76324770e-01  -1.08319621e+00   9.75818070e-01
   -2.01480492e-01   5.54254683e-01   1.49712908e+00   8.80312150e-01
   -1.98964943e-01  -2.67764606e-01   1.46367713e+00   2.30020838e+00
    4.39804307e-01  -1.32605919e+00  -4.63282920e-01   1.30360618e+00
    3.67122892e-01  -2.81413635e-01  -2.69075206e-01  -2.23135245e-01
    1.34747835e+00   1.48406837e+00  -1.62653077e+00  -2.61734272e-01
    6.77541367e-01  -3.64554384e-01   3.75799316e-01   2.14491697e+00
    7.63246221e-02   9.22203313e-01   2.58834222e+00   7.81749584e-01
    7.31681893e-01  -7.25479182e-01   4.67782980e-01   1.41913549e+00
   -6.05324653e-03   1.33020700e+00  -9.47675475e-01   2.81122948e-01
   -7.84107781e-01  -1.40477862e-01  -1.55299645e+00  -7.61989665e-01]
 [ -5.08957873e-02   2.38902669e+00   6.18949174e-02   1.00339577e+00
    1.38737874e+00   4.49426708e-01  -1.08603521e+00   2.80874405e+00
    2.36781249e-01   7.46104409e-01   1.27523835e+00   5.00246511e-01
    1.83275235e+00  -8.32139452e-01  -3.74867173e-02   8.48984683e-01
   -2.79193597e-01  -4.69655551e-01   4.37276968e-02   1.09199477e+00
    1.11201027e+00   1.27360161e+00   5.52591661e-01  -4.41997725e-01
    1.90942382e-01   3.04527412e+00  -1.13034416e+00   5.32414054e-01
    1.41726564e-01  -7.99999261e-01   7.82969389e-01   1.22292767e+00
   -6.88240710e-01  -4.55334501e-01  -1.82319790e+00   8.97793820e-01
   -6.72034374e-01   7.41787503e-01  -1.11133282e+00   1.28362925e+00
   -5.54148443e-01   5.68404297e-01  -4.76944167e-01  -1.18704353e+00
    9.40701859e-01  -4.61375934e-01   6.42249848e-01   2.80253301e-03
    9.27848073e-01   3.35958519e-01   5.29981868e-01  -9.34777548e-01
    2.46149626e-01   1.18939053e-01  -1.03001496e+00  -3.10861858e-01
    1.24798574e+00  -1.26855832e+00  -1.46105340e-01   5.47191251e-01]
 [  1.91220289e+00  -1.28686934e+00  -2.95740983e-01  -1.27511922e+00
   -6.91874382e-01  -8.98844540e-01   2.68629559e-01  -1.82109719e+00
   -1.47829742e+00  -2.65388675e-01  -7.71211977e-01   2.10141297e+00
    4.97374716e-02   2.07329944e+00  -4.62541278e-01   1.78030411e+00
    2.11666242e-01   2.19306299e+00   8.69657089e-02   7.55259090e-01
   -1.25221583e+00   1.03578418e+00   2.70761012e+00  -8.66115134e-01
    1.23127418e+00   7.90640928e-01   1.03561346e+00   1.56181118e+00
    1.23165914e-01  -1.50291492e+00   2.01135834e-01   1.39367603e+00
    8.26621910e-01   1.45207430e+00   8.67775797e-01  -9.39213079e-01
   -1.34142326e+00  -5.27773403e-01  -7.49571275e-01   1.40214391e+00
   -1.05831830e+00  -3.40670095e-01   2.38820677e+00   4.29954179e-01
   -4.48676490e-01   1.82928422e+00  -9.07415580e-01   2.43339583e-01
    5.39388220e-01  -4.85834092e-01  -8.64371128e-01  -1.64263589e+00
    3.98115230e-01  -8.13983085e-01  -8.51890019e-01  -1.03657736e+00
   -3.69875177e-01  -2.35936961e-02  -1.87295352e+00  -1.47761897e+00]
 [ -1.61533645e+00   3.69950353e-01  -2.46609469e+00   5.11991528e-01
    1.41470529e+00   4.69279654e-01  -1.18304724e+00   1.35502162e+00
   -2.72523345e-01  -5.73079689e-01  -1.13719320e+00  -1.15022779e+00
    8.32463851e-01   1.15307477e+00  -1.02503854e+00  -1.05837130e+00
    2.73582290e+00   8.67120615e-02  -7.52956871e-01  -1.44091499e-01
    2.25876423e+00  -2.17902756e+00  -8.08177440e-01  -1.98439665e+00
   -1.44404812e+00   1.08790257e+00   5.81425380e-01   3.68090802e-01
   -4.02217690e-02   8.38357944e-01  -1.11056784e+00  -6.06124069e-01
    9.53144705e-02   5.42560524e-01   2.14326618e-01   9.27187485e-01
    1.53707429e+00  -1.84597839e+00  -9.29068314e-01   4.28025747e-01
    3.97120215e-02   7.09585426e-01  -5.52456091e-01   7.89033504e-01
   -3.25631625e-02   5.93997012e-01  -2.00142151e+00  -2.80609549e-01
   -3.19093196e-01  -7.33850141e-01   1.96783289e+00   8.23067523e-01
    9.65945605e-01  -8.94719155e-01   5.06830751e-01  -2.31533032e+00
   -7.06805199e-01  -5.70531289e-01   2.96451146e+00   1.97665734e+00]
 [ -1.27061524e-01   1.01937365e+00  -2.53517066e-01  -3.10545875e-01
   -5.86174468e-01  -4.90895750e-01   6.00811644e-02  -2.08178769e+00
    3.32127211e-01  -1.06727263e-01   1.78761440e-02  -5.01262697e-01
   -1.13640202e-01   1.47225555e+00   9.99515556e-01  -2.38381878e-01
   -1.86094874e-01  -1.03900236e-01   1.83255743e-01  -3.95573978e-01
   -1.59079323e+00  -4.75111196e-01  -9.23190611e-01   1.11470987e+00
   -7.54183318e-01   2.32668553e-01   1.01937854e+00   1.06504697e+00
    2.98362483e-01  -3.81078365e-01   1.82426701e-02   2.39823781e-01
   -1.12486652e+00  -3.79754865e-01  -1.39694705e+00  -5.49143735e-02
   -3.06890551e-02  -2.58037314e-01   1.13931792e+00  -2.56118956e-01
   -3.71839025e-01   5.93186917e-01   3.41986285e-01   1.74098866e+00
    5.80192312e-02  -7.01429053e-01   2.52775310e-01  -4.71756952e-01
   -3.33334618e-01   6.99045819e-01   9.66035411e-01   2.25206752e-01
   -9.30559001e-01   6.28141223e-01   5.25300226e-01  -2.65664136e-01
    1.17416810e+00   1.10674270e+00   1.86365041e-01  -5.85843252e-01]
 [ -4.37047463e-01  -9.37636302e-01  -9.33849400e-01   1.00421526e+00
   -3.70682623e-01  -2.65375753e-01  -3.77442563e-01   1.89352933e+00
    9.70888336e-02   7.24375010e-01   1.42881699e+00  -2.09453751e+00
    1.33836907e-01  -1.12033851e+00   2.29088280e+00  -1.51377897e+00
    2.04410266e+00   8.68482183e-01   5.45106874e-01   3.48637408e-01
   -1.98771128e-01   8.99753437e-01   1.46113031e+00  -1.88954516e+00
   -8.87974024e-01  -1.07657148e+00  -2.04995033e+00  -1.69742997e+00
   -2.13842919e+00   1.52266077e+00  -1.63959198e+00  -3.48238705e-01
    8.50611534e-01  -7.89388595e-01   1.68064548e+00  -3.74662027e-01
    4.67137435e-01   7.47709577e-01   5.33451124e-02  -1.02305902e+00
    7.93776553e-01   4.17481660e-01  -1.38436907e+00   5.37731768e-02
   -9.68528744e-02   2.98138303e-01  -1.43390883e+00   1.89101221e-01
   -3.44892095e-01  -1.07501536e+00   3.58894143e+00  -9.03075712e-01
    4.92592601e-01  -2.65910285e-02  -1.05044884e-01  -4.47201918e-01
    2.90248468e-01   2.43911422e-01   2.00018252e+00  -9.27989795e-01]
 [  1.07844479e+00   2.61399798e-01  -1.49662129e+00   2.56583242e-01
   -2.10353473e-01  -1.10629611e+00  -2.00651931e-01   2.76617864e-01
   -6.33743912e-01   1.71014101e+00  -7.90191137e-01  -1.25490873e+00
    8.69871401e-01   2.04929818e-02   4.20443273e-01  -1.80455227e+00
    1.82865194e+00   1.42032963e+00  -9.97650468e-01  -2.48351945e-01
   -3.07245433e-01  -1.34422843e-01  -1.79429743e+00  -2.25158760e-02
   -2.18439476e+00  -1.06088099e+00   1.23932006e+00   6.06566127e-01
   -1.77841133e-01  -1.59113821e+00   1.01632960e+00  -5.99590310e-01
   -1.54807391e+00   1.46852512e+00  -1.67491160e+00   8.48882258e-02
    3.00931335e-01   4.81550158e-01  -1.70720196e+00  -2.17035555e+00
    2.03506394e+00   1.41461983e+00  -1.63160130e-01   5.13372313e-01
   -4.93166531e-01   9.70257365e-01   9.10333238e-01   8.57762539e-02
   -9.70262654e-01  -8.13663351e-01  -1.33014140e+00  -2.35094264e-01
   -2.22818808e-01  -1.25890184e+00  -4.10881785e-01  -2.46000872e-01
    1.11810639e+00   1.62107255e+00   7.30020256e-01  -1.59219296e+00]
 [ -3.92024433e-01   4.34297485e-01   1.40465288e-02  -1.10296690e+00
    1.58163668e+00  -1.49727138e+00  -8.62247663e-01   1.25546029e+00
   -5.37877312e-01   8.43699716e-01  -5.74021785e-01  -6.55431492e-01
   -1.32327417e+00   1.23537030e-01  -1.59519465e-01   1.07846431e-01
    5.71595254e-01  -1.39287745e+00   1.10818291e+00   1.88631167e+00
    5.87200772e-01  -6.63881414e-01  -1.94542821e+00  -3.06716955e-01
   -1.21181825e-01   6.03787813e-01  -1.01428332e+00  -9.71973064e-01
   -9.47887657e-01   4.08912214e-01   9.13447721e-01   1.22610120e+00
   -4.17223834e-01   3.07337430e-01  -1.39258685e+00  -2.87800216e-01
   -1.78347392e-01   4.69353929e-01   2.23205552e+00  -6.74456487e-01
   -4.35879760e-01  -3.17987720e-01  -1.70941389e+00   4.02775991e-01
    3.09937049e-03  -7.26072887e-02   1.44755151e-01   6.94252376e-01
   -1.78456692e+00   1.59314171e+00   1.36891418e+00   2.08127424e+00
   -8.92976494e-01   2.60591982e+00   1.77849001e+00   2.04561259e+00
   -5.15673601e-01  -5.07697907e-01  -1.73739596e+00   2.93358928e+00]
 [  8.95439369e-01  -1.22025098e+00  -8.28656838e-01   3.26407890e+00
   -8.49656947e-01   1.03815303e+00   8.05126982e-01  -1.14690319e+00
   -2.44767299e+00   4.96794382e-01  -6.06115782e-01   1.62084078e+00
    5.59406960e-01   1.59723013e+00   1.03420858e+00  -2.00428587e-02
   -1.98610627e+00   9.85227628e-01   1.74361240e-01  -7.16893777e-01
    1.03671376e-01   5.79249194e-01   5.37744511e-01   9.02462303e-01
    3.67982748e-01  -4.61459069e-02  -2.37515469e-01  -9.13387885e-01
    1.38511197e-02  -1.11171178e+00   1.08366194e-01   8.64467958e-02
   -3.24758479e-01  -1.87675395e-01  -1.80950023e+00  -1.69146516e+00
   -5.71043642e-01   6.45325805e-01  -1.14810822e+00  -8.95072860e-01
   -1.24757654e+00   3.05562532e-02   7.42453518e-01   8.68155467e-01
    7.04509657e-01  -1.45891473e+00  -6.49454375e-01  -5.02073600e-01
    6.43365030e-01   6.16790863e-01  -1.43059917e-01  -2.04381993e-01
   -3.59217022e-01  -7.72702969e-01  -9.93401548e-01  -1.32372498e-01
   -9.74447390e-02   5.98508104e-01  -1.67554669e+00  -5.24124679e-01]
 [ -1.58657580e+00   1.57549034e+00   2.41869549e-01  -1.17006180e-01
    1.49729952e+00  -2.05587542e-01  -4.73571264e-02   3.55413875e-01
    7.57717439e-01   1.35368112e+00  -6.14942089e-01  -2.54684048e-01
    1.26716147e+00  -5.68930624e-01  -5.13585315e-01  -1.74416812e+00
    1.64314305e+00   6.36136967e-01   6.19949534e-01  -5.11906630e-01
    2.00047412e+00   4.13610632e-01  -1.04399748e+00  -1.38207005e+00
    1.47677286e-01  -9.67045722e-01  -2.64868281e+00  -4.76670473e-01
    2.13705319e-01   1.72474840e+00  -7.94082917e-01  -3.13106546e-01
    2.48060733e+00   9.25640145e-02  -7.79323288e-01  -4.85876602e-01
    1.25325126e+00  -1.31886148e+00  -1.75153406e+00  -6.39150543e-01
    7.03440671e-01  -1.11187146e+00  -1.80068960e+00  -1.37080702e+00
    1.59259587e+00  -1.23984152e+00  -5.92946615e-01   2.22360508e-01
   -6.91814894e-01  -2.06206165e+00   4.20203080e-01  -8.87107924e-01
    1.07959208e+00   7.01329383e-01  -9.26569128e-01  -1.71174931e-01
    1.13548834e-01  -1.33555924e+00  -7.27365760e-01   1.07668311e+00]
 [  1.65983903e+00  -2.79752276e-01   5.10506555e-01  -4.73367539e-01
    2.32666479e-01   1.50545295e+00   5.90272253e-01  -1.73869625e+00
   -1.47401618e+00   9.50737014e-01   3.98854209e-01   9.54807086e-01
   -1.00472669e+00  -1.42012025e-01  -9.24911846e-01  -1.10706954e-01
   -1.20391291e+00  -1.81621949e+00  -9.31994208e-01  -2.66355509e-02
   -1.39524875e+00  -2.27068521e-01   1.31415720e+00   5.87819311e-01
    2.78446649e-01   2.45503435e-01   4.03022175e-01   1.15259659e+00
    3.85054250e-01  -1.65722254e+00  -9.52118869e-02   1.21390338e+00
    7.30943227e-02  -5.61703290e-01  -1.59206111e+00   5.11468256e-01
   -6.52902044e-01   1.00183536e+00  -2.58578504e-01  -2.59122444e-01
    1.34668515e+00   8.94912189e-01   6.91739270e-02   1.44931395e+00
   -6.05518398e-02   6.50984795e-01  -5.58895287e-01   1.08540395e+00
    1.25249874e+00  -6.65924310e-01   5.40643431e-01  -1.89915234e+00
    8.61944982e-01   1.14050604e+00  -2.02212771e+00   8.61311652e-01
   -4.70976167e-02  -1.26248646e+00  -1.22895729e+00  -1.11450266e+00]
 [ -7.61865720e-01  -1.80105771e+00  -3.33777104e-01   1.15914739e+00
    1.04151505e+00   1.09115709e+00  -9.53251633e-01   5.66286394e-01
   -1.77166557e-01  -7.95000701e-01  -9.27723972e-01   9.41976340e-01
   -1.40872449e+00  -1.13678299e+00  -2.64585670e-01  -1.19286443e+00
    3.02584869e-01   7.08145986e-01  -7.56905263e-01  -1.01026852e-01
   -7.61151759e-01   4.04076808e-01  -7.46368330e-01  -4.34902282e-01
    1.14042166e+00  -4.60258536e-01  -8.69385496e-01  -1.52279943e+00
   -5.12352989e-01   2.37679588e+00  -3.55644383e-01   1.10943620e+00
    6.30323029e-01   6.97925875e-01   1.03046442e+00   6.62434948e-01
   -1.57514213e-01   7.71062124e-01  -1.26537151e+00   1.83310616e-01
    2.99548075e-01   1.79845541e-01   5.33683057e-01  -1.14865671e+00
    1.03126230e+00   2.48573215e+00   3.79740172e-01   1.28700587e+00
    1.35675159e+00  -4.62044960e-01   2.01526539e+00  -4.30370305e-01
    9.45289581e-01   4.53558292e-01   1.95611355e+00  -2.17685491e+00
    5.20061111e-01  -7.74767503e-01  -1.09313976e+00   2.41891528e+00]
 [ -3.49710974e-01  -9.30834599e-02  -8.49180604e-01  -7.04907481e-02
    4.00246386e-02   5.87526888e-01  -8.22150132e-01  -1.58523855e+00
    7.45402057e-01  -5.28902086e-01  -1.10739709e+00  -2.21580263e+00
    6.74785783e-01   9.23079565e-01   5.54791385e-01   5.24790022e-01
    4.85288028e-01  -1.21267409e+00  -3.12224092e-01  -1.39023131e+00
   -8.20526084e-01  -1.23367122e+00   2.81402170e+00  -9.73607461e-01
    2.60037158e-01   1.02990155e+00   2.34963915e+00  -6.74642966e-01
    1.80005146e+00  -1.56440108e+00   2.41827658e-01   2.29552798e-01
   -8.37966076e-01  -1.94174473e-01   1.21363356e+00  -4.08829219e-01
    9.75548547e-01  -7.47798357e-01   4.02975017e-01  -2.45295064e-01
   -2.28533874e+00  -2.79845801e-01   1.93703149e+00   3.36207318e-01
   -5.70793328e-01   1.51099504e+00  -2.64177344e+00   1.00642738e+00
   -1.37781772e+00  -4.93292318e-01  -5.16658861e-01  -7.73706315e-01
   -1.97874602e+00  -3.34576266e-01  -2.84219668e-01  -1.06234873e+00
   -2.40763664e-01   4.13226763e+00  -6.69621430e-01  -2.06984556e+00]
 [ -1.75117827e+00  -3.43927080e-01   4.30576185e-01   4.98434135e-01
   -2.22673938e-01  -1.84601386e+00  -1.78121296e-01  -1.21591664e+00
   -2.78194518e-01  -2.47142987e+00   4.23796925e-01  -1.72234315e-01
   -8.30593320e-02  -1.46156964e+00   1.17693016e+00   9.10008235e-01
   -2.82866097e-02   3.93369594e-01   6.71230502e-01  -8.12418839e-01
   -8.21910398e-01  -6.54515889e-02  -9.31420765e-01  -1.74786876e-01
   -2.96637385e-01  -1.87079523e+00  -7.46806315e-01   3.28123169e-01
    5.59879572e-01   3.12999181e-01   7.38072393e-01  -1.38056073e+00
   -6.07297232e-01   5.32629717e-01   1.55868290e+00   9.54163882e-01
    8.80150360e-02  -2.52436825e-01   8.72285810e-01   8.61346689e-01
    1.90490813e+00   5.88877123e-01  -1.89580148e+00   1.90607390e+00
   -9.43276659e-01   8.81234798e-02  -1.09382373e+00  -6.13582178e-01
   -4.60161139e-01  -3.96208388e-01   1.04250878e+00  -4.01347251e-01
   -9.10853778e-01   1.31304473e+00   1.59920228e-01  -3.48303065e-02
   -7.16455019e-02  -1.27141938e+00   1.88968585e+00   3.89331572e-01]
 [  7.42199524e-01   3.63625599e-02   3.12838929e-01   1.06297053e+00
    5.96469731e-01   9.25503494e-01   2.35479856e+00  -6.20869446e-01
    6.11682717e-02  -1.63532018e+00  -2.35960769e-01  -4.42580785e-02
   -1.81217779e+00   6.44783803e-01  -9.23750644e-02  -2.99063127e-02
   -1.89102476e+00  -4.27361125e-01  -3.10017001e-01   6.49031526e-01
   -2.21895126e+00   2.44326436e-01   1.50573316e-01   1.59186499e+00
   -2.88050693e-01   1.36588717e-01   1.55100972e+00  -1.57326120e+00
   -3.05817549e-01  -2.05913906e+00  -2.71419982e-01   1.13988646e-01
    5.55000290e-01  -1.65229723e+00  -2.04102625e+00  -3.49364545e-01
   -1.67484948e+00  -1.19142822e+00  -1.32332255e+00  -5.08093228e-01
    1.88112637e+00  -5.17784828e-01   1.09292845e+00   1.52930486e+00
   -1.31028104e+00   3.74381427e-01   2.84531084e-01   2.99554065e+00
   -6.22248710e-01   1.56230796e+00  -1.15191997e+00   1.35532739e+00
    2.64702427e-01  -4.74823444e-01  -1.46673609e+00   1.40260897e+00
   -3.61966024e-01   5.35291370e-01  -1.37131956e+00  -1.33174146e+00]
 [ -1.70425833e+00   5.77329360e-01   2.12921516e-01  -4.18270415e-02
   -1.24229374e+00   1.44858527e+00  -1.30873516e+00   1.75465669e+00
    8.39136064e-01  -9.91063844e-01  -8.53213392e-01  -2.32794953e+00
   -2.06568792e+00  -5.51727692e-01   1.26594681e-01  -5.54873597e-01
    6.23108925e-02  -2.52385682e-01  -4.38898597e-01   4.67973858e-01
    9.30513958e-01  -1.88561664e+00   4.99384529e-02  -1.53354645e+00
   -1.02457961e+00  -8.38118653e-01  -1.03793272e+00  -8.91244106e-01
   -8.41075987e-01   1.25079216e-01  -3.52495750e-01  -4.40682710e-01
   -1.46953636e+00   8.72092086e-01  -3.14337117e-01  -1.19369825e+00
    8.26139368e-01   4.00495083e-01  -8.64380044e-02  -2.39211568e+00
   -9.41701968e-03   1.09824489e+00  -1.73124196e+00  -3.95981854e-01
    6.31372379e-01   7.22965079e-01  -2.11043182e-01  -6.22797293e-01
    3.93443111e-01  -6.89612780e-01   1.53419954e+00   1.30240087e+00
    1.72400574e-01  -3.51536838e-01   3.10294837e-01   8.43145822e-01
    3.42844644e-01  -1.39841021e+00   8.51382589e-01   2.12032444e-01]
 [  4.93881811e-01  -2.85211412e-01   1.21548820e+00  -5.65531073e-01
   -1.61294678e-01   1.77981640e+00   6.44484149e-01  -2.08467394e+00
   -6.77743561e-01   6.74134485e-01   1.53059954e+00   3.42334831e-01
   -3.64103264e-01   9.89951340e-01  -1.12579620e+00  -8.70073093e-01
   -1.46904909e+00   3.53885746e-01  -5.69661162e-01  -1.58151344e+00
   -1.58638018e+00   8.70134517e-01   1.49790436e+00   1.30840480e+00
    5.61559568e-01   4.06087491e-01   2.04830599e+00  -9.61722316e-01
    1.18796849e+00  -4.59132630e-01  -1.64134783e-01  -4.40537983e-02
   -1.29794622e+00  -2.06428187e+00   5.61174835e-01  -5.38520795e-01
   -1.56356514e-01  -2.87065869e-01   1.31970762e+00  -1.55204171e-01
   -1.08544473e+00   1.24332982e+00   1.06312874e-01  -9.52411490e-01
    8.61033858e-01   3.27761052e-02  -3.15455388e-01   6.45700041e-01
   -1.15220934e+00  -1.73986896e+00  -3.78894311e+00  -2.75642798e-01
    1.03175537e+00   1.23137835e+00   1.35271036e+00   3.96314849e-02
   -1.02610662e+00   1.72173838e+00  -5.24702763e-01  -9.13801708e-01]
 [ -1.25171855e+00   1.61132010e+00   1.71711656e+00   2.62143286e-01
    1.42702331e-01   1.63250408e-01   1.07109299e-01   1.07511516e+00
    6.79423153e-01   2.06260250e+00  -2.88665538e+00  -1.47089307e+00
    4.84788887e-01  -2.85596587e-01   1.13893597e+00  -1.12220709e+00
    1.39958680e+00  -4.80172735e-01  -4.05261404e-01  -1.59432260e+00
    1.79553554e+00  -8.02360339e-01   8.69246207e-01  -2.61436511e-01
    3.50340004e-01   1.36374804e+00  -2.71794492e+00  -7.74088012e-01
   -4.23730300e-01   1.15226544e+00  -1.04968804e+00   1.75449250e+00
    5.91341340e-03   2.41638495e+00  -6.18143297e-01  -6.38445169e-01
   -1.05736527e-01  -3.95850855e-01  -1.36103872e+00  -1.88065806e-01
   -7.47852301e-01  -5.97853206e-01  -1.52845140e+00  -9.46494866e-01
   -2.11356210e-01  -1.61064025e+00  -1.39499123e+00   4.43550820e-02
   -3.24438937e-01  -7.30730670e-01   2.16348414e-01   5.26551047e-01
   -1.07679997e+00   6.55619314e-01   1.08680736e-01  -1.09421032e+00
    1.48604151e+00  -1.82514949e+00  -6.14388355e-01   5.41034598e-01]
 [  4.82894395e-01  -2.20752756e-01  -6.99051228e-01   4.96575436e-01
    1.59881159e-01  -5.63079331e-01   8.43442216e-01  -1.20188799e+00
   -1.93770654e-02  -3.04609081e-01   8.68161896e-01   1.57621992e+00
   -1.36659745e+00   8.21856746e-01  -3.56103460e-01   7.69731224e-01
   -2.10853964e+00   9.30038413e-01  -1.73684291e+00  -2.26086158e-01
   -1.46132370e+00   1.70850629e-01   7.06434265e-02  -4.69988003e-02
    1.24704486e+00  -2.53086612e-01   5.83085365e-01   3.29258396e-01
    7.35540133e-01  -1.08024781e-01  -9.40472371e-01  -5.16026336e-02
    1.15675760e+00   1.10734916e-01  -1.28274514e+00   1.98997248e-01
    7.93359633e-01  -2.97492102e-01  -4.99678134e-01  -9.29444183e-01
   -6.19604066e-01  -7.34374627e-01   2.22666940e-01   3.95114273e-01
   -1.05300642e+00   3.39000367e-01  -2.95427902e-01  -1.52567680e+00
    2.34382454e-01   1.18166267e-01   6.50802746e-02   9.48357939e-01
   -3.54141303e-01  -1.26140855e+00  -8.63471576e-01  -5.27032777e-01
   -1.37968891e+00   3.07616887e-01   5.98576262e-01  -2.13141125e+00]
 [ -1.11640114e+00  -1.88458911e+00   7.51029308e-01   1.07479656e-01
   -1.46233417e+00  -2.53273091e-01   3.54430101e-01  -3.74044691e-01
   -8.21291897e-01   2.12433282e-01  -2.69555991e+00  -2.07270774e+00
   -6.50087773e-01  -1.16258087e+00  -3.79982360e-01  -9.57161973e-01
    1.49561134e+00   1.93418735e+00   1.12478286e-01  -4.72646007e-01
    1.32298907e+00  -7.93029929e-01  -6.68356332e-01  -2.03587199e-01
   -1.44185945e+00   4.52744461e-01  -2.00017418e+00  -2.41047622e-01
   -1.81672847e+00   4.15396791e-01   5.08979746e-01  -1.43770200e+00
    5.88674694e-01  -2.13304830e+00   5.71931123e-01  -1.63294063e+00
   -3.49768169e-01   9.61059992e-01  -2.14108040e+00  -2.24455092e+00
    1.27879356e+00  -6.07191166e-01   6.59663090e-01   6.63644281e-01
   -3.65481082e-01   1.31057423e+00  -3.17784643e-01  -2.86293858e-02
    3.00938462e-01  -1.12090471e+00  -2.42717582e+00  -1.42914588e+00
    1.31319163e+00   8.41996479e-01  -1.57894474e+00   5.59677577e-01
   -1.27134929e+00  -5.23689216e-02  -1.31578765e+00   1.56172303e+00]
 [  8.22962842e-01   1.33447407e+00   1.38131914e+00  -7.52336175e-02
   -1.17886505e-01  -1.17869360e+00  -1.10619787e+00  -6.15392910e-01
   -4.99678951e-02  -8.27007545e-01   4.80640494e-01   1.48056473e+00
   -2.95973017e-01  -1.62220795e+00   2.30229798e-01  -1.48769921e+00
    1.21662204e+00  -1.22313608e+00  -1.61158022e+00  -5.80203969e-01
    1.17840236e+00   2.88908421e-01  -1.52877066e-01  -7.13026702e-02
   -3.16332712e-02   3.67640481e-01  -1.22072485e+00   1.30309004e+00
    2.29827660e+00  -4.22295438e-02   4.67359965e-01  -8.99094330e-01
    9.78356780e-01   5.91026467e-01  -1.81984880e+00  -6.97381700e-02
    1.48271037e+00  -5.22146886e-01  -1.28194382e+00  -9.00931572e-01
   -1.81394175e-01  -2.75771710e-01   1.14586542e+00   1.10026451e-01
   -2.20354061e+00   1.36762668e+00   1.19357583e-01   9.78216478e-01
    1.17812179e+00   1.21224189e-01  -1.18799449e+00  -1.57367524e-01
   -3.28350509e-01  -3.88541019e-01  -1.69308636e+00  -5.94552381e-01
   -1.58458378e+00   1.46454243e+00   2.69053012e-01  -1.35742111e+00]
 [ -1.39223938e+00   4.06590528e-01   7.98594734e-01   1.77949886e+00
   -4.19445152e-01   4.03495299e-01   2.89656903e-01  -9.63202532e-01
   -1.15060336e+00  -4.57282767e-01  -3.00439321e-02  -8.55272789e-01
   -6.63878301e-01   6.16070172e-01   9.90750169e-01   2.51172963e+00
   -7.43695582e-01  -3.15121085e-01  -9.39889093e-01   1.62674858e+00
   -4.59261851e-01   4.81700541e-02  -1.33587300e-01  -5.41683646e-01
   -3.46820897e-01  -1.39032835e+00   1.85292351e+00  -8.07692184e-02
    8.22413666e-01  -1.52326515e+00  -9.65241667e-01   4.62191292e-01
   -4.16315900e-01  -4.66998948e-01   1.10115901e-01   8.22725627e-01
   -1.44629794e+00   1.10888206e+00   4.35795822e-01  -1.70956118e+00
    2.96344780e+00  -3.10547368e-02  -6.83671112e-01   1.74107630e+00
   -1.83151269e+00  -6.38466008e-02   5.93454351e-01  -4.03906620e-01
   -1.68613589e-01   3.11052847e-01   8.55590724e-01  -7.78404982e-01
    8.08710380e-01  -2.24759278e-01  -7.55858830e-01   4.16698344e-01
    9.89813874e-01  -1.06364523e+00  -4.11826774e-01   9.38632634e-01]
 [ -2.30173141e-02   2.74139595e-01  -8.37532908e-01  -5.47438595e-01
    3.27015806e-01  -7.37479606e-01  -8.02941007e-01   1.01529379e+00
    1.04226001e+00  -1.84475507e-02   7.18146171e-02   9.86976661e-01
    1.66260180e-01   7.00757289e-01  -8.68906622e-01  -1.10517835e+00
   -1.45206459e+00   1.03373076e+00  -2.81032672e+00   1.89495183e-01
   -2.23760452e-01   7.24270860e-02  -5.71473999e-01   1.11377766e+00
    5.54834327e-01   1.68663129e-01   1.99724341e+00  -7.80015732e-01
    3.07907522e-02  -8.03552796e-01  -2.01721055e-01  -1.65996799e+00
   -7.40116208e-01  -3.02828055e-01  -6.60274423e-02  -2.02626560e+00
    5.36119907e-01   1.43801678e+00   1.68782695e+00  -4.94027214e-01
   -1.55236664e+00  -1.35557302e-01   1.33574868e-02   9.05469193e-01
    8.85326096e-01  -1.13737119e+00   1.73161706e+00   2.90670879e-01
    1.08261004e+00  -1.33716864e+00  -2.55401580e+00  -2.93500510e-01
    3.11601963e-01   1.68176619e+00   7.38097600e-01  -1.81462807e+00
    4.77551420e-01   1.26287418e+00  -6.25953732e-01  -1.33670569e+00]
 [  1.69177787e-02   5.03426166e-01   1.63446801e+00   2.92178305e-01
    2.09450523e+00   4.46385166e-01  -1.33004872e+00   9.45165287e-02
    8.78915579e-01  -1.82746060e+00   1.95670160e-01  -1.12926746e+00
    9.53904110e-02  -8.18241525e-01   1.21409379e+00  -1.09804570e-01
    1.54889845e+00  -9.08768152e-01  -4.28077772e-01  -4.79086860e-01
    1.68882023e+00  -1.08403617e+00  -1.88188823e+00  -1.62488003e-01
   -8.58224999e-01   5.65876970e-01  -1.33466360e+00  -9.73724343e-01
    2.33905016e-01   1.56003563e+00  -1.00601317e+00   1.15032543e-01
   -1.44335903e+00   6.49637448e-01   3.88466204e-02   1.22049753e-01
    7.99338660e-02  -4.16472750e-01  -1.43235448e+00   7.66092827e-01
    9.14589151e-01  -2.42884594e-01  -8.61817007e-01  -3.09885353e-01
    2.22953539e-01  -1.63223704e+00   1.56414181e-01   8.84851743e-01
    1.80925229e+00   2.96915820e-01   2.16578213e-01   3.16458368e-01
    5.15607975e-01  -9.12141661e-01   1.48574420e-01  -2.23145602e+00
   -1.30793541e+00  -1.28480958e+00   4.17704430e-01   1.73632897e+00]
 [  2.63403697e-01  -4.51334851e-02   4.80841961e-01   7.94425582e-01
   -7.61283908e-01   3.24935424e-01   5.34183005e-01   5.56738382e-01
   -7.43013549e-03   1.52518999e-01  -1.42715314e+00  -1.04260226e+00
    5.54034438e-01  -2.99449767e-02   8.16883092e-01  -1.29389279e+00
   -1.30278393e-02  -5.82446011e-01  -9.27067613e-01   1.30347652e+00
   -3.51091715e-01   1.25248892e+00   6.41356984e-01   1.26664522e+00
    1.49755295e+00  -1.24088824e+00   2.54864403e+00  -1.78313701e+00
   -1.01080837e+00  -1.74052687e+00   1.60807382e-01   1.14347697e+00
    8.08016683e-01   1.46868161e+00   1.15261866e+00   1.56053168e-01
    8.65912891e-01  -3.13084227e-01  -3.29700317e-01   9.66345933e-01
   -4.57467854e-01   2.67887070e-01  -8.83215962e-01  -5.41257553e-01
    1.60365931e-01  -5.56738132e-01   6.68162811e-02  -9.54592969e-01
   -3.70759469e-01   8.98206691e-01  -2.07796253e+00   1.45187656e+00
   -1.73420111e+00  -1.95136313e-01  -2.59325765e-01  -3.43524093e-01
   -1.82145608e-01  -1.21428024e-01  -1.85946751e+00  -1.40663284e+00]
 [ -2.01535004e+00   7.40604864e-01   1.82537636e+00  -1.50316154e-01
    1.58633558e+00  -5.53737940e-01   6.75355111e-01   2.05825471e+00
    8.48602081e-01  -3.13255996e+00  -1.15594442e-01  -1.13182987e+00
   -1.37808048e+00  -5.62922854e-01   7.35775935e-02  -5.30894391e-01
    2.51701961e+00  -2.28906812e-01  -2.21661026e-01   1.75913206e+00
    2.96877585e+00  -6.60603198e-01  -8.93416091e-01  -1.07782124e+00
    1.01744603e-02  -4.94214399e-01  -1.95938348e+00   8.99569701e-02
   -1.83534998e-01   2.25013895e+00   2.01254015e-01  -8.81056384e-02
   -8.00189986e-01  -3.48366646e-01  -9.49165240e-01  -7.55288962e-01
    2.67530858e-01  -1.05240240e+00  -5.39530249e-01  -3.47856064e-01
   -6.49133257e-01   1.84118048e-01  -3.62625564e-01  -7.33550470e-01
    3.87410785e-01   7.03144021e-01  -2.12573970e-01  -2.15369355e-02
    4.34574011e-01  -1.39363118e-01   1.25302321e+00   4.58115140e-01
   -3.27976266e-01  -6.14710347e-02   7.56242036e-01  -1.75224396e+00
    1.67205301e-01  -1.79724878e+00   5.34316603e-02  -1.28459895e-02]
 [  2.51767794e-01  -1.35606242e+00  -6.64431028e-01  -8.08956263e-01
   -1.18000932e+00   9.52712530e-01   1.86817439e+00   5.84792944e-02
   -6.42673180e-01   5.71035048e-01  -3.99803041e-01  -5.82900190e-01
    2.03792769e-01  -1.94453519e+00  -1.18175904e+00  -5.47004482e-01
   -8.83866796e-01  -1.16115520e+00  -1.03895753e+00  -1.29125329e+00
   -4.74568227e-01  -3.25065814e-02  -2.99996622e-01   2.92274919e-01
   -1.39204601e+00   6.69880022e-01   5.95291827e-01   9.85253428e-01
    8.75583313e-01  -1.32438871e+00  -7.94512507e-01   1.99105825e-01
    7.79659836e-01   2.28431194e+00  -1.78067085e-01  -2.42968708e-01
    8.20670860e-01  -8.48477458e-01   4.32450193e-01   1.13179999e+00
   -6.88741917e-01   1.56863198e-01  -2.89508267e-01  -1.20696070e+00
   -7.49321252e-01  -2.55241156e-01  -2.25096123e+00  -7.11683808e-01
    1.00816542e+00   4.79203005e-01  -4.91632078e-01  -3.71213933e-01
    6.97144609e-01  -3.15465528e-01   1.48028735e-01   8.16710723e-01
   -1.64531145e+00   3.37555996e-01  -9.82745836e-01   1.14570982e+00]
 [  3.91496064e-02  -2.40917662e+00   2.27004299e+00  -1.99205931e+00
    8.99221431e-01   3.03790114e-01  -5.94864027e-04  -2.43641057e-01
    3.20771206e-01  -1.65644734e-01   8.17882795e-01  -7.71476660e-01
   -6.39363695e-02  -5.34920844e-01  -6.74446050e-01  -3.31309897e-01
   -5.44552830e-02  -1.32021031e+00   1.53586085e-01  -1.35861817e-01
    3.37106952e-01   1.78179936e-02  -6.20691843e-01  -2.80481034e-01
    8.40654968e-01   7.86210887e-01  -4.90783488e-01  -8.08720403e-02
   -3.03241586e-01  -1.01096584e+00  -6.44034659e-01   1.85246305e-01
    5.96093818e-01   1.59070369e+00  -8.26215520e-01   5.53365865e-01
    4.25086574e-02   3.44544764e-01  -2.01994479e+00  -6.68058480e-01
   -9.38631646e-02   4.73498884e-01  -1.57874134e+00  -1.08623020e+00
   -3.42472914e-01   5.37834491e-01   3.37183676e-01   1.08366063e+00
   -2.69590986e-01   9.43671658e-01   2.82266495e+00  -1.06386795e+00
   -2.02806096e+00   1.65767171e-01  -1.57038196e+00  -2.47980810e-01
    9.42459208e-01  -2.52207276e+00   1.65770001e+00   1.11863782e+00]
 [  1.70793994e+00  -1.25878496e+00   7.70620136e-01   8.41099496e-01
   -2.25541523e+00  -1.42462010e+00   1.06858223e+00   1.97594759e-01
   -1.47315462e+00  -1.08179429e+00  -2.22425409e-01   5.00514514e-03
   -3.95980852e-01   7.05443832e-01  -1.35929151e+00   6.11447531e-01
   -1.01826214e+00   4.68903097e-01   7.25174010e-01   6.35576778e-01
   -1.20808975e-01  -2.04012454e+00   2.01994622e+00   5.93761423e-01
    1.35181350e+00   1.49727642e-02  -1.56839043e+00   7.68576492e-01
   -1.23218906e+00  -2.56274236e-01  -5.52518337e-01  -4.82344913e-01
    1.31930140e+00   1.24691021e+00   1.06099457e+00   2.16879838e-01
    6.85629775e-01   3.15427379e+00   4.13665399e-01  -1.00761573e+00
    9.03891657e-01   5.88792448e-01   2.96032007e+00  -4.91461414e-01
   -5.93307918e-01  -5.49402294e-01  -4.87706111e-01  -4.89437524e-01
   -4.36380765e-01  -1.66406952e+00  -9.99915648e-01  -1.35492082e+00
   -1.10991383e+00  -9.26603353e-02   1.07569836e+00   5.64622810e-01
   -1.44648849e-02   4.10546334e-01  -6.49228334e-01  -2.10931161e+00]
 [  2.71804255e-02   2.83062433e-02  -8.87635290e-01   2.77705965e+00
   -2.85989907e-01  -1.06250310e+00   5.05518850e-01   1.19763461e+00
    8.39526496e-01  -5.43498603e-01   9.17347798e-04   5.43498099e-01
    2.89194250e+00   8.65814521e-01   5.95850936e-02  -8.46170383e-01
    3.99871517e-02  -2.47393777e-01  -7.40818258e-01   1.97982160e-01
    1.51386595e+00  -1.42177226e+00  -1.15707930e+00  -1.14519273e+00
   -1.46562779e+00   3.43216803e-01   2.07803324e-01  -4.11187603e-01
    1.61139776e+00   9.09436369e-01   6.81088014e-01  -3.32114305e+00
    1.27628801e+00  -2.20371474e-02  -1.82461752e-01   1.29603938e+00
    7.22409986e-01  -2.16317406e+00  -1.09825667e+00   4.07007241e-01
   -1.49824391e-01  -2.90809235e-01  -1.26020130e+00   1.12042751e+00
   -3.20205229e-01  -1.35878609e+00   7.20735687e-01   4.58720810e-02
    9.72513423e-01  -1.76964184e-01   1.13752854e+00  -6.49754400e-01
   -9.58904788e-01   1.32962448e+00  -2.53933606e-01   3.80071714e-01
    2.00992195e-01  -1.08539950e+00   2.06866910e+00   1.33203224e+00]
 [ -1.56820629e+00  -5.72410700e-01   1.92611283e+00  -1.67132519e-01
   -2.90060672e-01   1.37797256e+00  -1.15762925e+00   1.36737280e-01
   -1.26596310e+00  -8.94916168e-01   1.95616378e+00   3.77446655e-02
    3.37337322e-01   1.05294644e+00   6.79993761e-01   1.09678561e+00
   -1.95960459e+00   8.65625019e-01  -2.84665184e-02   5.04735380e-01
   -8.34177702e-01  -3.60525528e-01  -1.71991360e+00   1.22138203e+00
    1.79256812e+00  -1.30843249e-02   7.71962859e-01   1.03605882e+00
    1.34391443e-01  -2.10507907e+00  -2.09478997e+00   1.68098279e+00
   -2.16925051e+00  -1.29349376e+00   1.66591122e-02   1.49533992e+00
   -3.27176206e-01   1.40100222e-01  -2.78984684e-01   1.59591721e-01
   -1.62102056e+00   1.81768466e-01   7.96185274e-01   3.47196866e-01
   -1.23100457e-01  -4.66702115e-01  -2.67245591e-01  -6.70985501e-01
   -4.09435859e-02   1.37210751e+00  -2.16395133e+00  -1.03966629e+00
   -3.02362062e-01   1.26419966e+00   1.09997629e+00  -1.19449773e+00
    1.04281381e-01   1.07063648e+00  -2.08317795e+00  -1.32689420e+00]
 [ -1.75170125e+00   1.10084868e+00   3.35734479e-01   8.92893264e-01
   -2.05808725e-01  -6.68191652e-01  -8.96726503e-01   2.66861903e+00
    2.42451031e-01   5.09349697e-01   9.76105456e-01  -1.65955091e+00
    4.89957355e-01   1.89464903e-01   5.29729994e-01  -5.61447128e-01
    1.38181402e+00   6.64265524e-01   6.66385556e-01  -2.51817486e-02
    6.19571271e-01  -3.28913223e-01   2.73138209e-01  -8.26348904e-01
   -5.00096901e-01   6.90312898e-01   1.55862569e-01  -6.15021522e-01
    4.24661664e-01   3.03639127e+00  -3.65643580e-01   1.82409050e+00
    9.20688003e-01  -1.29468527e+00   2.10039225e+00  -8.31521664e-01
   -4.78474200e-01  -2.35378085e-02  -5.02270635e-01  -2.64794442e-01
    1.34967696e+00   5.41424515e-01  -3.58680605e+00  -1.22973501e-01
    4.84052934e-01   3.45085880e-01  -1.05593309e+00  -1.44666804e+00
   -1.43518147e+00  -6.61559300e-01   2.05153134e+00   6.93471723e-01
   -9.50456981e-01  -4.32905957e-01  -8.67838256e-01   1.15990426e+00
    1.56443146e-01  -1.42132502e-01   7.09260659e-01   2.13405237e+00]
 [ -2.25678542e+00  -1.22492315e+00   8.15285713e-01   2.17519487e+00
   -1.52969430e+00  -8.98332636e-01  -3.19234402e-01  -7.82624400e-01
   -1.57053063e+00   1.12404897e+00  -7.73918677e-01   1.53330811e+00
   -3.70369318e-01  -2.88616453e+00  -5.61858643e-01   2.94888941e-01
   -3.87784638e-01   4.45517499e-01  -1.07018542e+00  -2.26310139e-01
   -4.02607252e-01   8.96635055e-01   1.14332193e+00   4.33508257e-01
   -1.72748262e+00   4.46677111e-01  -1.59063838e-01   2.05991077e+00
   -4.46412861e-01  -1.22007221e+00  -9.68677177e-01   2.06537953e+00
    6.05932253e-02   1.32793695e+00  -7.15262111e-01  -3.86599052e-01
    9.29748553e-01  -3.50085708e-01  -4.29812299e-02   1.52502008e-01
    9.08581981e-01   1.04428473e+00   5.59550050e-01  -8.82024246e-01
   -2.26047581e+00  -1.25117150e+00  -4.44014063e-01   8.85756371e-01
   -1.57547796e+00   1.45739166e+00  -1.98829589e+00  -2.85386935e-01
    3.99774485e-01   3.62009891e-01   2.53117619e+00  -1.41931076e+00
   -6.45909378e-01  -4.55334120e-01   2.01481905e-01  -9.39039048e-01]
 [ -2.56020121e-01  -1.42143433e+00  -8.86759995e-01   7.87415165e-01
    8.07534846e-01   1.14343856e+00  -6.20876146e-01   1.27498139e+00
   -2.97301332e-01   5.32085012e-01  -6.72803586e-01  -2.05930769e+00
    7.27127628e-02   1.94758979e-01   5.49256575e-01  -2.03505772e-01
    6.82603219e-01  -1.61714925e+00   8.83282301e-01   1.46211614e+00
    2.47603494e+00   8.81251730e-01  -4.33285360e-01  -1.24027249e+00
   -1.24556311e+00  -4.45310764e-01  -1.32693576e+00  -1.68850369e-01
   -3.19671883e-01   1.75610423e+00  -9.74966867e-01   5.31236441e-02
    7.07920036e-01   1.57994391e+00  -2.59568171e-01  -7.97710646e-01
    1.53418939e-01  -1.41779532e+00   4.69368075e-01   7.32036037e-01
   -7.33676281e-01  -3.30007089e-01  -2.01361048e+00   4.74604056e-01
   -1.71311226e+00   9.12650012e-02  -6.97643170e-01   1.68362919e+00
    3.83720296e-01   1.90131602e-01   6.44031962e-01  -2.50730902e+00
    7.70105698e-01   4.90681344e-01  -6.58835084e-02  -1.23826963e+00
   -5.58322045e-01  -8.37333995e-01   6.32284669e-01   3.48866213e+00]
 [  2.87596160e-01   2.02244820e+00  -3.34297516e-01  -9.92264977e-02
   -4.24374344e-01   1.31346514e+00  -1.75464984e+00   1.49603367e+00
    1.44015169e+00  -8.80382085e-01   8.28639528e-01   4.30399464e-01
    1.78636605e-01   2.10187144e+00  -2.08792093e-02  -5.74292932e-01
   -1.40655194e+00  -1.01782419e+00  -1.54726045e+00   7.94293036e-01
    9.70212368e-02  -1.91379526e+00   1.29002634e+00   6.88045673e-01
    6.65862617e-01   5.59195701e-02   1.62187682e+00   9.45494405e-01
    1.02380169e+00  -1.65074619e+00   5.31246643e-01  -8.56669539e-02
    1.56651015e+00  -8.62536934e-01   8.12263469e-01  -2.74006034e-01
    2.09312644e-01  -4.84437654e-02   2.61196983e-01  -4.76749033e-01
    1.59521335e+00  -8.89469883e-01   2.78134920e-02  -6.31934810e-04
   -1.28513028e+00  -8.60286937e-01  -2.02649562e-01  -9.42421762e-01
   -6.32582365e-01  -4.17891234e-01  -1.08282991e+00   1.07360368e+00
   -6.76692560e-01   9.79508218e-01  -1.65452171e-01   1.36602303e+00
    1.12473991e+00  -1.65131976e-01  -1.71306520e-01  -1.65524078e+00]
 [  5.87505775e-01   3.91111577e-01  -7.14687275e-01   1.31117704e+00
   -1.33341389e+00   7.76758758e-01  -5.34093608e-01   1.09450501e+00
    4.11148451e-01  -1.17258771e+00  -1.89071726e-01  -4.15282874e-02
   -2.34474308e-01  -4.89978046e-01  -6.83514122e-01  -1.43794191e+00
    2.14372906e+00   3.46069845e-01   5.30314901e-01   6.74486890e-01
    1.35698935e-01  -7.49462936e-01   7.60485229e-02  -8.84016268e-01
   -8.62043091e-01   4.09100947e-01  -6.10988748e-01   6.75672928e-01
    5.37792000e-01   1.88597666e+00  -7.65849663e-02  -6.77165594e-02
   -4.53386757e-01  -1.58107592e-01  -1.00756341e+00  -1.14231375e+00
    1.93520860e-01   4.44428036e-01   6.18540129e-01  -2.98006290e-01
   -8.89090013e-01  -1.07317091e+00  -7.30880965e-01   1.63728494e-01
    1.86375989e-01  -2.80144468e-01  -3.49010266e-01   5.67679208e-02
    7.55276452e-01   1.68254643e-01   1.09672249e+00   2.54269617e+00
    7.97052415e-01  -4.17405203e-01   1.35387452e+00   1.07458129e+00
    4.14822621e-01  -3.76895626e-01  -1.09399987e+00   4.20392456e-01]
 [ -5.91461936e-01   6.62263552e-01  -3.36837494e-01  -5.65264679e-02
   -1.16006526e+00  -1.41098737e+00   2.11269790e+00   1.41823958e-01
    8.26548138e-01  -1.75676296e+00  -1.56606765e+00  -7.52329569e-01
   -4.28882866e-01  -3.14968463e-01  -3.07015037e-01   8.86335199e-01
   -2.01124349e-01  -5.29388250e-03  -1.18662579e+00  -7.40556882e-01
   -1.82544522e+00  -3.71812263e-01  -4.03360477e-01   1.31183757e+00
   -4.40680382e-01  -7.12518583e-01  -1.90131841e+00  -6.31198187e-01
    1.47447796e+00  -4.05304074e+00   1.30770957e+00  -6.01626598e-01
    1.03683426e+00   7.61949992e-01  -4.28865510e-01  -5.74981071e-01
   -5.12816956e-01   1.90323559e-01  -9.67540729e-01  -4.72657039e-01
    5.20249667e-01   4.14824754e-01  -3.48001695e-01  -7.50668881e-01
   -1.05835303e+00  -6.63824540e-01  -2.55174288e-01  -8.47040097e-01
   -8.34615778e-01   2.09173644e+00  -2.01182898e+00  -7.35301747e-02
   -8.97199765e-01  -2.07130102e+00  -2.58087201e-01   2.94034633e-02
   -1.68425352e-02  -3.24839997e-01  -6.71305779e-01   1.52511966e-01]
 [ -2.45012501e+00   5.44575927e-01   4.18111861e-02  -1.52661323e+00
    4.51277831e-01  -3.58825849e-01  -8.46166033e-01   2.38608472e-01
    8.92386814e-01  -4.60441169e-01  -1.72785171e+00   5.65411009e-01
   -4.09737255e-01  -2.60250019e-01   4.92987869e-01  -7.54346832e-01
    1.17871816e+00   6.89773095e-01  -1.11461601e+00   5.03773760e-02
   -2.33126958e-01   3.92636825e-01   9.63405147e-03   6.07219637e-02
   -7.05449341e-01   9.55318399e-01  -1.96835307e+00   2.23803616e-01
    3.26658938e-01   6.34795532e-01  -1.18896242e-02   8.68432931e-01
   -3.92377756e-01   7.56464421e-01   1.95977874e+00  -2.42956171e-01
   -4.98106668e-01  -1.75151615e-01  -7.83213016e-01   1.44099791e+00
   -7.15513995e-01   1.28507704e+00  -1.07369562e+00   6.38109437e-01
   -2.26220760e-01  -2.32932394e-02  -1.68233779e-01  -3.18739938e-01
   -9.15971479e-01  -3.24872911e-01  -8.06496972e-01  -4.91698113e-01
    4.44061032e-01   3.49398573e-01   9.64089503e-01  -9.24718459e-01
   -8.25482003e-02  -1.78943429e+00  -1.40871858e+00  -3.68440396e-03]
 [  1.55528044e+00   8.84878569e-01  -1.24986912e+00  -2.06592091e-01
    5.04067305e-01   3.12284456e+00  -2.87763949e-01   1.45153756e-01
    1.55330867e+00   9.91834007e-01   1.91277766e-01  -4.40523256e-01
   -2.75937345e-01   1.64617415e+00   9.56278283e-02  -1.23125523e-01
    2.46898717e-01  -5.99640715e-01  -9.78902960e-01   6.17217223e-01
   -9.05512192e-01  -1.91019826e-01   6.53656058e-01   1.34205211e+00
    1.30031068e+00   9.41009393e-01   1.60101255e+00  -5.55308276e-01
   -5.53314425e-01  -9.85802409e-01   1.38373990e+00   9.08851727e-01
   -1.45203175e+00   2.35693042e-01   1.51519599e+00   2.47500791e-01
   -1.20120695e-01  -4.65093778e-01   9.29638173e-01   1.23849903e+00
    6.95664968e-01   1.14235382e+00  -9.01983425e-01   2.74326925e-01
   -9.66454869e-01   6.01608761e-01   4.57109932e-01   7.95963895e-01
   -1.28970872e+00   7.07097649e-01  -1.61460818e+00   3.07502108e-01
   -2.53637193e-01  -1.46859637e+00  -2.01702737e+00  -4.46418014e-01
   -1.65279470e+00  -2.45397784e-01  -1.49817756e+00   1.92715031e+00]
 [ -9.45194784e-01  -9.61505858e-02   1.03692117e+00   1.50320920e+00
    4.75924776e-01   1.21970844e-02  -3.62637699e-01   3.60379081e-01
   -1.28348433e-01   6.21206466e-02   5.67982533e-01  -1.18504889e+00
    6.92852392e-01  -7.58376423e-01   1.86620959e+00  -7.75855529e-02
    1.99010421e+00  -1.76256617e-01   5.13884918e-01  -1.21940444e+00
    2.74226844e+00   9.15689981e-01  -8.50251792e-01  -7.95032480e-01
   -1.20544389e+00   2.82538502e-01  -1.21658244e+00  -3.18594271e-01
   -5.11497755e-01   1.98131542e+00   1.10667993e+00  -9.73384375e-01
   -6.83199903e-01   4.84431109e-01   1.62339714e-01  -2.33110126e-01
    3.05849122e-01   7.93797249e-01  -4.35599361e-01   1.06349946e+00
    1.63560717e+00   2.69247264e-01  -1.20276740e+00   1.37550269e-01
   -1.09623586e+00   2.24232074e-01  -5.05793934e-01  -9.02978435e-01
   -6.01874858e-01  -4.17439223e-01   1.39313495e+00  -1.21243019e+00
    1.16111299e+00  -1.73414469e+00  -1.46131670e+00   1.90538202e+00
   -1.21878329e-01  -6.36624335e-01   1.07658782e+00   2.86998050e+00]
 [  7.48022965e-01   5.24348015e-01  -8.14480759e-01  -3.79774381e-01
    9.98842430e-01  -9.79632629e-01  -4.61716533e-01  -1.93057055e-01
   -1.70713798e+00  -6.55752379e-01   8.02048521e-01   8.57983854e-01
   -1.53531690e+00   9.85070155e-01  -1.14888655e+00  -4.58457302e-02
   -3.17810577e-02   4.36654232e-01  -2.36728927e+00  -5.71671220e-01
   -2.28641354e-01   5.22967778e-01   2.43185937e+00   1.22693343e+00
   -5.67272692e-01  -1.53073190e+00  -3.89037069e-01  -3.00472921e-01
    1.70026931e+00  -1.96448543e+00  -4.31065626e-01  -7.11172640e-01
   -1.19582968e-01   3.23726527e-01   2.04262938e+00  -7.16027491e-01
   -3.47775191e-01  -2.48040777e-01  -9.14998013e-01  -1.49473040e+00
    1.63231784e+00  -1.03138914e+00  -2.60047900e-01   1.49144722e-01
    2.44002417e+00   3.59874579e-01   1.00224097e+00  -6.74184117e-01
   -1.44092736e+00   7.29416869e-01  -1.15663039e+00  -1.92811313e-01
    7.83633167e-01  -9.61062537e-01   1.02790475e+00  -1.18870272e+00
    1.33671579e+00   5.20121755e-01  -3.04869730e-01  -1.95413115e+00]
 [  2.50356110e-01   1.58359973e-01   1.23815013e+00  -8.53165826e-01
    8.13133861e-01  -5.13528027e-01   6.94079319e-01   1.36964562e-01
    1.47327526e+00   6.33096512e-01  -5.14176610e-01   2.08053335e-01
   -6.48627314e-01  -7.79680543e-01   3.71993060e+00   1.66432712e-01
    9.54739609e-01   4.07769786e-01  -4.08798226e-01   6.99538283e-01
   -4.29957116e-01  -1.20573646e+00  -4.31919254e-02  -7.28581505e-01
   -7.38093121e-01   1.48792264e+00  -7.99417590e-01  -8.87149928e-01
   -8.66566652e-01   7.14768306e-01  -1.75979629e+00  -2.14310857e-01
    1.80271117e+00   6.46851763e-01   1.24236442e+00  -2.48560917e-01
   -3.07324500e-01   2.08371766e+00  -8.78456750e-01   1.08460443e+00
   -2.18167573e-01  -1.75521792e-01  -2.88266326e+00  -3.15115958e-01
    3.13040176e-01   6.86834491e-01   6.31360385e-02  -2.08807754e-01
    6.42415617e-02  -2.86503302e-01   1.75313589e+00  -1.36230180e+00
   -1.66709071e+00   2.30838532e-01   1.15859657e+00  -8.59052752e-01
   -7.94772222e-01   7.26144233e-02   6.18344926e-01   1.68990885e+00]
 [  9.33572952e-01   3.90645738e-02   3.03091348e-01  -1.50880251e+00
   -1.22773030e+00   9.97125073e-02   1.28717514e+00  -5.63032584e-01
    2.18501019e-01  -4.30439451e-01   4.42450894e-01  -2.41458928e-01
   -7.86001400e-01   1.22112138e+00   2.67501792e+00  -3.13017943e-01
   -2.72308613e-01  -4.85685020e-01  -3.34359721e-01  -6.21378759e-01
   -9.75117889e-01   9.04614028e-01   9.71584542e-01  -5.21301368e-01
   -2.52665147e+00   7.60303088e-01  -3.99036513e-01   1.56440838e-01
    8.78941025e-01  -9.19164036e-01  -5.39424133e-01  -8.92240494e-01
   -6.59592245e-01   1.56688815e+00   5.93413819e-02   1.32832959e+00
   -1.70653461e+00  -7.34212028e-01  -1.17807708e+00  -5.95156981e-01
   -1.06701956e+00  -1.81950671e-01  -5.09657134e-02  -3.83048315e-02
    2.33907895e+00  -1.86128004e+00   7.56766341e-01  -7.32909878e-01
    7.31518473e-01   3.54803700e-01  -1.43655729e+00   8.25411320e-02
   -9.40996113e-01  -1.93714196e-01   1.29812292e+00   2.86965340e-01
   -8.25575488e-01  -1.65663335e+00  -2.01012198e+00  -5.04814022e-01]
 [ -1.07493800e+00   6.07516164e-04   9.41474172e-01  -1.30177057e+00
   -1.05410324e+00   1.78897303e-01  -7.48365320e-01  -3.76031233e-01
   -3.63109252e-01   7.79498460e-01   1.96160680e+00  -1.04902231e+00
   -4.90897259e-01  -1.63186512e+00   2.55282417e+00   3.60845611e-01
   -1.02092111e+00  -1.71953233e+00  -3.16164225e-02  -5.39682023e-01
   -2.53959397e-01  -1.17991297e+00  -6.91613607e-01  -1.40337331e+00
   -2.78989105e-01  -4.91217548e-01   2.02423556e-01  -1.51078704e+00
   -7.91355812e-01   1.21101534e+00  -4.93653936e-01   6.04074775e-01
    1.30473297e-01   3.91701593e-01   7.89276853e-01  -2.95435617e-01
   -1.15478571e+00   5.65976462e-01  -7.95624048e-01  -9.60987937e-01
    1.20669752e+00   2.53408512e-01  -5.68767994e-01   3.35143233e-01
    3.41537203e-01  -2.04973387e-01  -9.27151181e-01  -8.06828475e-01
   -5.13002949e-01  -1.64958762e-01   1.88595082e+00   1.54564757e+00
    3.95162666e-01   1.56810596e+00  -3.30511551e-01   2.68923903e+00
   -3.21893261e+00  -3.02597268e-01  -4.06759762e-01   9.62064131e-01]
 [ -2.86728127e-01   1.84684325e+00  -1.76799635e+00   1.12619306e+00
    1.04953560e+00   7.82832681e-02  -5.44043465e-01  -7.67952644e-01
    1.44621505e+00  -2.79231815e-01   2.72865972e-01  -6.86205545e-01
    9.82283361e-01  -7.99744683e-01   1.02754672e+00  -4.04522972e-01
   -3.39071130e-01   5.80815462e-01  -2.42461481e-02   7.98505048e-01
    2.51765718e-01  -9.52285879e-01   1.69236262e+00   2.93390124e-01
    4.63955068e-01   6.71999655e-01  -4.31079228e-01   1.11241458e+00
   -1.22770051e+00  -1.07942754e+00   1.25656713e+00  -1.49167365e+00
    1.07204259e+00   4.79608656e-01  -1.62603709e+00  -1.53187870e-01
   -1.56332318e+00  -2.31379058e-01   2.47048337e-01   7.59030494e-02
   -1.72789497e-01   2.22167059e-01   6.31191254e-02  -1.26202689e+00
    1.46601126e+00  -1.12028418e+00  -6.33876095e-01  -4.76306317e-01
   -1.09957642e+00   2.76154554e-01   5.05728697e-01  -9.33799314e-01
    4.55604432e-01  -4.97956732e-01   6.06803776e-01   5.78471636e-01
   -8.84056919e-01  -1.71843410e-01   7.01912404e-03  -3.42065412e-01]
 [ -2.09744690e+00  -4.72588044e-01  -1.01574521e+00  -5.05094265e-01
   -8.83114580e-01   2.15011198e-01  -1.34492683e+00   9.13489829e-01
   -3.66580975e-01   4.82467331e-01  -1.37561493e+00  -1.51130918e+00
    1.23613115e+00   1.40521627e+00  -3.08007638e-01  -1.46800948e+00
    3.82736607e-01   7.39949108e-01  -3.36723280e-01   5.50123358e-01
    6.17524709e-01  -6.78947734e-01   3.54568595e-01   1.01846466e+00
   -1.41636166e+00   1.38682449e+00  -8.17152076e-01  -5.25390917e-02
   -7.76895381e-01  -1.17408206e+00   2.32780996e-01   1.57659134e+00
   -6.46298392e-01   3.99132371e-01   1.38445242e+00  -2.50040104e-01
   -7.08852236e-01  -4.42334836e-03  -1.37940512e+00  -7.83860006e-02
    1.10557505e+00  -2.31211257e-02  -2.90875772e-01  -4.18041162e-01
    1.49080096e+00  -9.02214399e-01  -6.48078411e-01  -4.36404583e-01
   -2.80046841e-01  -2.35399558e+00   1.18491203e+00   5.52880200e-01
    5.28988139e-02   1.16728162e+00   1.14329651e-02   6.55768929e-01
    8.91547748e-01  -1.41055440e+00   2.02868655e+00   1.10491426e+00]
 [  4.46516935e-01   1.05217010e+00   1.21334870e+00   6.37168353e-01
   -4.19082334e-02   1.19865420e-01  -9.23138878e-02  -1.71611552e+00
    8.47857965e-01  -2.99562485e-01  -7.05045752e-01  -4.69924740e-01
   -6.57971601e-01   1.62858783e+00   4.83813304e-01  -9.47933220e-02
   -1.10524760e-02  -3.82347106e-01  -8.87651134e-02  -5.49190758e-01
   -5.35510210e-01   7.01539701e-01  -4.40870120e-01   1.37966569e+00
    5.23514452e-01  -7.53001046e-01   1.18441970e-01   8.65259115e-01
   -1.74247745e+00   1.21252766e-01  -1.07953903e+00   4.25111514e-01
    6.74420667e-01  -3.34141893e-01  -7.22955487e-01   7.99657718e-01
   -9.97330000e-01  -8.61013300e-01   6.57086323e-01   5.86412537e-01
   -7.35279903e-01  -3.31710646e-01  -3.96102198e-02  -3.04619612e-01
   -1.79297545e+00  -6.28493428e-01  -2.20042908e-01  -6.70735437e-03
   -1.66767513e+00  -1.63769295e+00  -6.29473682e-01   5.56526338e-01
   -3.56393807e-01   3.16832374e-01  -1.16118004e+00   3.78269544e-01
   -1.96611505e-01  -1.77028883e+00   4.56927656e-01  -1.62393787e+00]
 [ -1.92996317e+00  -2.66441740e+00  -5.74669184e-01  -1.10529471e+00
   -3.58707791e-01   2.34291513e+00  -1.20180168e+00   8.97896218e-01
    4.56879200e-02   8.44146877e-01  -6.41473080e-02  -3.19083219e-01
   -1.24884015e+00   8.19777962e-01  -3.47187511e-01  -5.00588850e-01
   -2.64441372e-01   6.38389944e-01   1.44354311e-01   3.67000407e-02
    2.75003094e+00  -4.55866659e-01  -2.28149804e+00  -9.15884996e-01
   -4.50412817e-01  -9.96695727e-01  -1.32797959e+00  -5.23717501e-01
   -1.76748485e+00   1.59510685e+00   5.45156699e-01   7.58506624e-01
   -1.12907595e+00   5.36307036e-01   1.66221057e-01   8.63087296e-01
    9.43102830e-01  -6.44261246e-01  -1.36632921e+00   3.92712947e-01
   -5.85150978e-01   2.02703429e+00  -1.42985186e+00   5.59003247e-02
   -4.43575735e-01   4.84700634e-01  -7.72728237e-01   5.26711368e-02
   -9.86244764e-01   3.30528358e-01   1.28489934e+00  -1.53044430e-01
    1.02478577e+00   3.72703709e-01  -1.57000568e+00   2.17403006e+00
   -2.21210176e-01  -5.45706688e-01  -1.44191821e+00   2.57015018e+00]
 [  1.70131045e-01   2.04177541e+00  -1.70999908e+00   1.14979205e-01
    4.38022787e-02  -4.78167820e-01   1.87468623e+00  -1.46090555e+00
   -7.28776351e-01  -7.42319581e-01   1.59802037e+00   1.83682668e+00
   -1.30240701e+00  -6.74994488e-01  -1.05651298e+00   8.30452558e-01
   -1.36392330e+00  -1.20607170e+00   7.52739485e-01  -1.84514210e+00
   -1.03213200e+00   1.61826078e-01  -8.76137922e-01   9.37315017e-01
    1.21211316e+00  -3.43729157e-01   1.14729315e+00  -9.91831931e-03
   -6.27574709e-01  -9.28431037e-01   1.59152948e-01   6.83358961e-01
    2.21362455e-01   4.45584089e-01  -1.82838730e+00   3.44747589e-01
    4.32490885e-01   3.97399593e-01   2.37384456e-01  -7.75780713e-01
   -1.06129492e+00   3.33518268e-01  -1.24536388e-01  -2.35886900e+00
   -6.32224166e-01  -7.37686155e-01  -2.10117605e-02   1.18766276e-01
   -6.41273467e-01   2.26888326e+00  -5.95791007e-01   4.58356450e-01
   -5.33819633e-01   2.08963713e-01  -3.69687380e-01   1.13209285e+00
   -1.74705141e-01   1.75166217e+00   5.13478572e-01  -1.80936204e+00]
 [ -1.85176416e+00   9.28324570e-02   3.82483087e-01  -1.61023411e+00
    8.80159290e-01  -1.16128983e-01  -1.15893625e+00   2.59016461e+00
   -8.23136188e-01   1.97271202e+00   7.52961517e-01   8.36887880e-01
   -1.85235483e-01  -1.84003277e+00   1.42523060e+00   1.39496371e+00
    1.69288056e+00   1.20783921e+00   9.87116367e-01   4.75723188e-01
   -7.24657242e-01   1.20812581e-01  -1.60752340e+00  -1.18281503e+00
    1.00124187e+00  -2.51443878e+00  -8.36200313e-01  -6.14192619e-01
   -6.10706725e-01   1.95806777e+00  -1.68394972e+00  -9.39348092e-01
    8.89107075e-01   1.34802662e+00   6.45378063e-01   5.46638397e-01
    1.93354843e-01   1.05117505e+00   5.20556159e-01   1.59473313e-01
   -6.92247048e-01  -7.81071734e-01   3.40412397e-01   1.26440567e+00
    7.51680844e-02  -2.22553335e-02   1.02243681e+00   4.68512967e-01
   -3.59725607e-01  -9.29213483e-01  -5.39630130e-01   6.29338273e-01
    1.36830428e+00   1.00912218e+00   3.11064273e-01   1.77596749e-02
    1.08495250e+00   3.76658057e-02   1.75045426e+00   5.23954112e-01]
 [  1.60758286e+00  -3.37223045e-01   1.71813234e+00  -4.48932542e-01
    9.46745562e-01   2.51744968e+00   9.55877277e-01  -9.17001994e-01
    4.12092658e-01   5.39469783e-01  -1.14605989e+00   7.37715292e-01
    5.06385110e-01  -1.51479035e-01  -8.97680993e-01   2.75927184e-01
   -5.47387714e-01  -6.90858880e-01  -9.53596715e-01   6.87098831e-01
   -1.93526003e+00  -2.99867819e-01   7.34019522e-01   4.33170123e-01
    2.36238089e+00   9.80549525e-01   5.43688699e-01   2.03353811e+00
    4.58833412e-01  -1.52359305e+00   6.10927391e-01   4.80486876e-01
   -2.21171420e+00   6.49860478e-01  -8.34469054e-01  -5.16536997e-01
   -2.22432904e+00   1.11229672e+00  -2.18789303e-01   6.00046879e-01
    8.83538565e-02   1.46678163e+00   6.68634180e-01   6.01527214e-02
   -1.98759994e-01  -5.94442519e-01   1.57751372e+00   9.82756587e-01
    1.23326603e-01   6.93233176e-01  -3.93587665e-01   1.59482758e+00
   -7.02287407e-01   1.63919010e-01  -1.24331581e+00   1.19326275e+00
   -5.82381125e-01   1.29933786e+00  -1.80176932e-01  -2.26057197e+00]
 [ -1.78616296e+00   8.92163139e-01   7.15429040e-01  -3.01303255e-01
    2.76070324e-02  -8.48502224e-01  -1.47133110e+00   6.43903898e-01
   -7.17802980e-01   6.07376546e-01  -1.32891715e+00  -6.37990588e-01
   -1.33899088e+00  -1.00860915e-01   2.36078861e+00   2.57756674e-01
   -6.25731606e-01  -1.28825154e+00   2.01403725e+00   1.05597693e+00
    2.81393876e+00  -8.78313102e-01  -5.79694239e-01  -1.04874476e+00
   -1.84729777e+00  -8.12903787e-01  -8.80000109e-01  -6.27298724e-01
    3.05938986e-01  -2.31584540e+00  -1.63639341e-01  -6.41149945e-01
   -2.31828215e-01   9.01195066e-02   1.49528731e+00  -1.03210701e+00
    3.72524844e-01  -3.02290225e-01   1.36678120e+00  -4.45563941e-01
    1.11347780e+00  -5.19433047e-01  -6.10824568e-01   2.19541372e+00
   -9.86930500e-01  -8.12253871e-01  -1.95693011e+00  -4.83783921e-01
   -1.16770099e+00   3.31189689e-01   1.46154053e+00  -3.64644743e-01
    2.26630436e-01  -2.16820782e+00   9.70504515e-01  -4.11387946e-01
   -5.80183171e-02  -4.73996791e-02  -2.24605781e-01   9.25984359e-01]
 [ -1.11039835e+00  -1.55029620e+00  -2.97571518e-01  -1.14408477e-01
    4.75916119e-01   1.74118184e+00  -1.36557629e+00   5.84716869e-01
    8.98691431e-01  -3.53211951e-01   7.98228996e-01   1.43311697e-01
   -8.27367263e-01   1.52378936e+00  -1.35969100e+00  -1.04695912e+00
    9.56342991e-01   3.90441567e-01  -6.78762776e-01  -4.92120925e-01
   -1.61862737e-01  -5.37331110e-01   1.09014572e+00  -5.76259006e-01
   -1.41546793e+00   7.32885591e-01   1.63998396e+00   3.95274620e-01
    1.52435061e-01  -4.41581044e-01   1.01815685e+00   2.97734084e+00
   -1.12461088e+00   6.14401630e-01  -1.02196196e+00   1.91740763e+00
   -1.74365891e-01   5.58759106e-01  -1.13989923e-01  -3.78133241e-01
    7.01807902e-01  -7.74545956e-01  -1.37329724e+00  -6.74789611e-01
   -1.33252361e+00   4.04713956e-01   3.96617727e-01  -4.95965435e-01
   -6.20410359e-01  -9.83113539e-01  -1.19139626e+00   1.51349199e-01
    4.69395017e-01   6.44326389e-01  -9.16307350e-01  -7.53832108e-01
   -2.48500776e+00   1.73151052e+00  -1.92826806e-01  -6.52720596e-01]
 [ -1.17498538e+00   2.80538207e-01   8.19655773e-01   3.77811538e-01
   -5.67991254e-01   6.77097587e-01  -8.93835168e-01  -3.80264321e-01
    9.01878144e-01   7.16723604e-01  -9.06693562e-01   4.32818533e-01
   -6.11636354e-01  -1.60664243e-01   1.72977722e+00   1.16451228e-01
   -9.06912433e-01  -6.17927863e-01  -1.68488817e-01  -6.14610137e-01
    3.09877710e+00  -2.18185617e-01   5.00476220e-03  -1.54728365e+00
    9.20516982e-03   5.68447687e-01  -1.14063603e+00  -1.29215543e+00
   -3.31757414e-01   1.80691096e+00   7.30706932e-01  -2.47233482e-01
   -1.04175068e+00  -8.22378985e-01  -5.31380305e-01   5.65947340e-01
    1.47838058e-01  -3.49566634e-01   1.19549081e-01  -8.48361935e-01
    7.28726031e-01   1.04223500e+00  -5.51688681e-01  -7.94272349e-02
    1.85055248e+00  -1.95152483e-01  -3.55495203e-01   1.09414641e+00
    7.76634369e-01  -4.12575028e-01   1.59083456e+00  -7.10383573e-02
    1.41166055e-01   1.91132811e-01  -1.90905082e-03   2.51165542e-01
    4.26996843e-01  -1.16886233e+00  -1.42676137e+00   9.01324331e-01]
 [  7.89075977e-02   4.41812484e-01  -1.97446647e+00   1.11256438e-01
    5.29262328e-03   3.53033180e-01  -1.76542644e+00  -7.67021248e-01
   -6.31896659e-01  -2.80797455e-01  -2.43495113e+00  -3.46821688e-02
    9.90511935e-02  -1.14930580e-01  -3.83948332e-01  -1.99779598e+00
    4.87527831e-01   2.81003535e-01  -1.13589164e-01   9.89604086e-01
   -1.38476292e+00  -5.25725289e-01   3.75030964e-01   1.36345164e-03
    2.31139371e-01   7.88389102e-01   2.06844735e+00  -1.78376025e+00
   -8.14287659e-01  -6.56432638e-01  -1.00277767e+00   1.65658230e-02
   -2.15374932e+00   1.26150275e+00  -9.00544127e-01  -1.33074666e+00
    8.85086983e-01  -1.13786507e+00   3.92461325e-02   9.87325706e-01
    4.84003161e-01   3.48463586e-01  -1.10047306e+00   5.02058934e-01
    2.52860966e-01   2.91046872e-01   6.39338823e-01  -7.29064323e-01
   -4.05254975e-01  -1.52856295e+00  -1.11151445e+00  -9.14074178e-01
    1.83217280e+00  -4.76323745e-01   7.72663369e-01  -1.54842982e-01
    1.67063364e+00   1.60010956e+00  -3.13471207e+00  -1.23230425e+00]
 [ -1.60770327e+00   1.39906911e+00  -1.27600299e-01  -2.78187242e-01
   -1.27893322e+00   9.59917511e-01  -6.53234894e-01   2.09456420e+00
    1.72486124e+00  -2.43726577e+00   3.89333356e-01  -5.69326811e-01
    1.76161182e+00  -1.26285637e+00   4.68679973e-01   1.42312006e-01
    9.74443880e-01   3.16889916e-01   4.01330885e-01  -3.55931323e-01
   -6.49287492e-01   1.34161288e+00   3.50837306e-01  -1.76207873e+00
   -1.02669186e-01  -1.62507370e-01  -1.67162025e+00  -9.17168448e-01
   -1.25419966e+00   1.41531657e+00  -1.58745552e+00  -1.71518954e+00
   -5.94740471e-01  -1.10882993e+00   2.59425768e-01  -7.81478378e-01
   -6.16918468e-01   7.29682216e-02  -5.10476296e-02  -6.56502867e-02
    6.81594116e-02  -8.46998439e-01   2.55915620e-01   1.20019647e+00
    2.39412621e-01   1.87003081e+00  -2.08995717e+00   1.38002558e+00
    2.48823364e-01  -1.05002808e+00  -1.17027770e-01  -7.68680762e-01
   -5.79777257e-01   5.89857284e-04   6.43772740e-02   6.86697527e-01
   -8.96989666e-01  -3.10548884e-01   1.32583774e+00   1.41825276e+00]
 [  5.55611822e-01  -1.12789254e-01   5.16318232e-01  -4.12149678e-01
    1.64908596e-01  -8.63862046e-01   2.36639057e-01   8.79308634e-01
    2.10830086e+00   5.96935288e-01   2.46656092e-01   2.32896313e+00
    2.27351888e-01   5.13110938e-01   1.32142564e+00  -1.36346887e+00
    9.57999490e-03   1.27258666e+00   2.78719212e-01  -1.38542007e+00
    1.10866988e+00   1.61112233e+00  -1.12935187e+00   1.21970291e+00
   -5.22655723e-01  -3.63295452e-01  -6.04842591e-01   6.53960245e-01
    1.43506127e+00  -7.33171661e-01  -2.54653914e-01   6.11793672e-01
   -1.30508197e-01  -5.98766637e-01  -1.40239230e-01   3.36283079e-02
   -4.19567424e-01   1.44225816e+00   1.06211387e+00   2.65332159e+00
    1.70310909e+00   4.34075859e-01   9.32972042e-01  -2.44059002e-01
    2.41784976e-01  -4.25521588e-01  -8.73222693e-01   9.79957917e-01
   -9.74912562e-01   1.06777418e+00  -1.73306859e+00   8.82319338e-01
   -1.46884494e-01  -3.81985669e-01   6.26401659e-02  -6.44628878e-01
   -8.14699581e-01   1.28459801e+00   4.11740687e-01  -8.26155154e-01]
 [ -3.75251666e-01  -2.23792783e-02  -1.14333659e+00   6.51633494e-02
   -8.16504759e-03   2.19253373e-01   7.23126132e-01   5.93213931e-02
    5.60453579e-01   9.01532205e-01  -7.97853918e-01  -1.03799164e+00
   -6.79586533e-01   3.63891462e-01   9.77319171e-01   6.32721776e-01
   -6.97778370e-01   2.19396863e+00  -6.94627257e-01   3.58355266e-01
    2.30206740e+00  -1.53988613e+00   9.19360194e-01  -2.75476504e-01
   -4.29615512e-01   5.24939757e-01   3.45853503e-02  -7.71406590e-01
   -1.11721765e+00   9.06084861e-01  -1.34435134e+00   1.05384789e+00
    4.87582140e-01  -5.59378294e-02  -3.76477183e-01   2.56249452e-01
   -6.32701557e-01   3.79255536e-01  -3.49726658e-01  -1.15782235e-01
    1.52298443e+00   1.07033863e+00  -1.27297109e+00   8.46888525e-01
    9.89809967e-02   7.64743528e-01   8.92457581e-01   3.65051791e-02
    1.58318939e+00   7.11414027e-02   1.63822144e+00  -3.00761534e-01
    3.20425140e-01   5.24340058e-01  -2.87182608e-01   3.34635611e-01
   -1.02231110e+00  -2.13378070e+00   2.87780535e+00   1.07973976e+00]
 [ -1.17716742e+00   1.26754207e+00   1.78704587e-01  -7.61931738e-01
    6.28933975e-01  -6.05177991e-01   9.70295844e-01  -1.59325877e+00
    5.40036486e-01   7.57109264e-02   1.33278125e+00   6.36957666e-01
   -9.98511167e-01  -1.33643694e+00   8.60098327e-01  -4.88651351e-01
   -6.51709696e-01   1.70135468e-01   6.16867590e-01   2.56062707e+00
   -1.71632401e+00  -6.83858361e-02   7.46584937e-01  -2.53860222e-01
    7.52589113e-01   1.58042206e-01   6.10650908e-01   1.57793015e+00
    7.28836206e-01  -2.66500523e+00   2.29237569e-01  -5.14767548e-01
   -1.30700708e+00  -1.32374431e+00   1.50578254e+00   3.17638065e-01
   -6.17322081e-01   3.44076315e-01  -1.67973106e+00   1.09348816e+00
   -1.07775006e+00   4.98814422e-01   1.80199371e+00  -1.30999929e+00
    7.59680727e-01   1.25438515e+00   1.45268641e+00   1.59029995e-01
    4.59531909e-02  -4.65113399e-01  -1.38810303e+00   6.14937169e-01
    9.79724855e-02   1.20521520e-01  -8.28453622e-01  -5.11678035e-01
    8.06867436e-01   9.55051038e-01   6.88683445e-02  -9.98730755e-01]
 [ -1.30743923e+00  -8.86905153e-01   1.92066948e+00   1.43594444e+00
   -1.66465607e+00   1.32815829e-01   2.74054137e-01   1.23981644e+00
    2.30937863e-01   5.91641726e-01  -8.04248621e-01   1.54806102e-01
    3.50843778e-01  -5.90210677e-01  -2.07435425e-01  -9.23732592e-01
   -6.04937611e-01   5.45729149e-01  -4.76181637e-01   6.94747059e-01
    2.44773046e+00   1.01422773e+00   6.77892122e-02   2.09260291e+00
   -7.52597079e-01  -1.50575652e-01  -1.88359130e+00   1.98189766e+00
   -6.13491116e-01   3.46459857e+00   1.13134644e+00  -1.33084044e+00
    5.37865082e-01  -1.18233142e-02   9.47176797e-01  -4.43848757e-01
    2.15380181e-01  -1.02083672e+00   1.19386858e-01   1.47048718e+00
    8.95710800e-01   4.10071764e-01  -6.64580564e-01   8.26089233e-01
   -1.96202133e-01   1.04987834e-01   1.14811958e+00  -9.66474234e-01
   -1.37407077e+00   5.34341776e-01   1.43952610e+00  -1.48284232e+00
    7.30448001e-01  -5.71147845e-01  -3.32853503e+00   9.17586329e-01
    4.63811230e-01  -1.35554632e+00  -8.36591093e-01   1.19907813e+00]
 [  2.59366627e-01  -1.14558359e-01  -9.03639466e-02   8.71411046e-01
   -4.82172649e-01   1.67653892e-01   1.06725326e+00  -8.48271330e-01
    1.11547094e+00   2.77610854e-01   1.86339809e+00  -3.26336521e-02
    1.97284932e+00   2.94970039e-01   1.12085397e-01  -8.07318808e-01
   -6.56137281e-01   8.75989123e-01   8.02204759e-01   3.77411714e-01
    2.75575575e-01   7.11600401e-01  -1.31773788e+00   1.96457355e-02
    1.84949698e+00  -8.07334468e-01   1.38823378e+00  -1.92874363e+00
   -1.02387067e+00   1.61705110e-01  -3.29685495e-01  -1.84637926e+00
   -2.18496813e-01  -2.36690445e+00  -8.21967206e-01   1.21422425e+00
   -1.69622540e+00  -1.25375518e+00   7.66981915e-01  -2.51894553e-01
    1.46283402e+00  -9.64874800e-01   1.13627877e+00   2.56302613e-01
   -5.37733132e-02   6.06817363e-01   1.84430135e+00  -3.14840245e-01
   -1.43505766e-01  -1.15104824e+00  -1.71080148e+00   7.50959268e-01
    1.93941272e+00   8.03341684e-01   1.84083587e+00   1.55733714e+00
    7.22974876e-01  -1.76791546e+00  -1.28398019e+00  -1.36648885e+00]
 [  3.75525933e-01  -1.03540785e+00  -1.29322208e-01  -5.03360955e-01
    1.43547636e+00   5.29631170e-01  -6.81892530e-01  -1.86271261e-01
   -3.34245175e-01   4.20611837e-01   1.55678412e-01  -2.99036982e+00
   -1.79952146e-02  -9.24333675e-01  -8.76110229e-01  -5.90453027e-01
    4.46098719e-01  -1.00731006e+00  -4.92083761e-01   4.09777131e-01
   -9.37523441e-01   6.15093635e-01  -1.71247113e-01  -2.33053661e+00
    2.07662203e-01  -1.20957966e+00  -1.30242824e+00  -3.43227792e-01
   -6.98157208e-01   9.78604460e-01  -7.03784584e-01   1.75400558e+00
    1.55649432e+00   1.25404563e+00   6.06760036e-01   4.86647720e-01
    3.35977535e-01   9.33491031e-01  -3.40873607e-03  -1.33572603e+00
    2.22918746e+00  -2.30808049e+00  -2.60303742e+00   8.16616554e-02
   -1.89660971e+00   2.67623610e-01   3.42324652e-01   6.70296100e-01
   -9.77971676e-01   1.79624609e+00   1.30044610e+00  -4.35891371e-01
   -2.66217120e+00   1.73351116e+00  -9.19631064e-01   9.92820066e-01
    8.39991404e-01  -1.28316062e+00   1.11678379e-01  -2.29308309e+00]
 [ -4.99914760e-01  -3.82920753e-01   1.75934883e+00  -2.96727871e-01
    4.41594234e-01  -2.98907845e-01   1.98257117e+00  -1.68056648e+00
    4.14530139e-01   4.86873411e-03   1.19349950e+00  -1.58549347e+00
   -8.58248664e-01   7.28981820e-01  -3.83289064e-01   1.34094427e+00
   -4.15910906e-01   8.60023405e-01  -2.54194973e-01   1.57969438e+00
   -1.89533302e+00   3.32783388e-01   2.52967390e+00   1.27439902e+00
    2.00261995e-01   5.67717077e-02   3.66405425e-01   1.46521159e-01
    1.30385322e+00  -2.66404091e+00  -1.20802287e+00  -2.44247763e+00
   -1.29846303e+00   4.48966334e-01   6.57333392e-01  -1.94154176e-01
    8.53512897e-01  -6.68116620e-01   1.76731797e-01   8.74490932e-01
    4.74628782e-01   1.60093040e-01   1.40825696e+00  -1.53000179e+00
   -3.70633850e-01   9.59267309e-01  -2.68369889e+00   2.60147795e-01
   -1.39515082e+00  -5.58786198e-02  -8.03713338e-01   2.90589938e-02
    1.47935203e+00  -4.82420770e-01   1.93331099e+00   1.63612792e+00
    1.65192195e+00  -3.66056342e-03  -1.35769171e+00  -3.67653725e+00]
 [ -3.88246445e-01  -1.12228410e+00  -3.85270095e-01   7.56262535e-01
   -2.07592536e+00   1.50380394e+00   4.43202063e-01  -8.51613307e-01
   -9.07993150e-01   1.70189497e+00   3.22901764e-01  -7.01142974e-01
   -1.52762970e+00  -5.36128602e-01   4.77229200e-01  -2.43923680e-01
    5.02169810e-01  -1.44688604e+00   1.42367499e+00  -7.69350571e-03
    3.51071404e+00   4.01635574e-01  -6.59503629e-01  -5.00808224e-01
   -2.12148719e+00   2.47986157e-01  -1.43616877e+00   2.26824601e-01
   -8.44712579e-01   9.24031134e-01   7.36507871e-02   1.95373057e+00
   -5.02014134e-02   7.90330846e-02  -4.27011738e-01  -1.60795805e+00
    1.65364484e+00  -4.73852376e-02  -3.32804480e-01  -1.47793028e+00
    5.41378187e-02   2.93806083e-01  -7.16511648e-01   5.25211939e-02
   -5.64979728e-01  -1.03973317e+00  -3.13530602e-02  -1.06291033e+00
   -1.14448312e+00  -8.67728000e-01  -1.14221257e+00  -3.56630217e-02
    6.21821022e-01   5.13334801e-01  -4.77185541e-01  -4.90543916e-02
   -3.71018944e-01  -5.41716800e-01   1.14631838e+00   3.19443481e+00]
 [  7.76047267e-01  -5.21654623e-01   6.03114284e-01   7.49575731e-01
   -2.91223113e-01   2.07602542e-01   6.96982789e-01  -9.15215996e-01
   -3.03754176e-01  -1.02601737e+00  -8.58634509e-01   1.82342383e+00
    3.18219255e+00  -1.35222465e+00  -1.15545218e+00  -4.87901697e-01
   -1.56343898e+00  -1.06141795e+00  -8.46911775e-01  -1.17371380e-01
   -2.14369345e+00  -1.03816067e+00   6.00452177e-01   4.40870483e-01
    3.90266830e-01   1.90534753e+00  -1.69277879e-01   1.44223375e+00
    1.92437381e-01  -9.07619476e-01  -8.10866652e-01  -6.22547152e-01
    5.95952603e-01  -7.12186505e-01   2.39367868e-01  -7.26765269e-01
   -1.51225131e+00   1.28861300e+00   3.94216233e-01  -3.69515158e-01
   -1.03113854e+00   1.71335886e-01   3.64892446e-01  -6.13463711e-01
    9.13453648e-01   3.05131266e-01   1.39571441e-01   5.04875167e-01
   -1.73784931e+00   6.08122875e-01  -1.03921088e+00   1.05034711e+00
    3.77004914e-01   6.59732870e-01  -5.23137024e-01  -3.58972786e-01
   -2.01258116e-01   3.54147525e-01  -4.37491605e-01  -1.76748488e+00]
 [  1.37754127e-01   3.66613715e-01  -3.91448297e-01  -3.90149972e-02
    6.99985369e-02  -7.27092218e-01  -4.41228327e-02  -2.46543505e-01
    1.20733911e+00  -9.58182850e-02   1.48055968e+00  -1.31082671e+00
    5.81605627e-01  -1.25984185e+00  -1.32097275e+00   2.22468576e+00
    7.36329220e-01   2.00150957e+00  -1.65098157e-01  -7.39891096e-01
    1.96569079e+00   5.73198915e-01  -4.77686452e-01  -3.14835891e-02
    5.22571602e-02  -7.89513044e-01  -2.52384926e-01   8.11137781e-01
   -7.24718246e-01   2.47036920e+00  -1.65221021e+00   1.59599643e+00
   -3.98833911e-01  -1.10390321e+00   5.22922155e-01  -7.29027123e-01
    1.01520632e+00   1.67175822e+00   1.43982594e+00  -2.69589322e-02
    1.87927821e+00  -9.94148016e-01  -1.28040519e+00   1.21634753e+00
    1.53897653e-01   1.71174673e+00  -4.05726283e-01  -3.44862899e-01
    1.94872007e+00  -2.20168113e+00   1.15788723e+00  -3.21959137e-01
   -1.40643226e+00   7.44355684e-01   1.30361179e+00  -4.50380021e-01
    1.22305016e+00  -1.40290814e+00   1.08233444e+00   3.14230073e-01]
 [ -2.61265676e+00   8.27643086e-01  -3.70853107e-01   1.69753178e+00
    3.61944629e-01   1.82316332e+00  -2.21148772e-01   1.63081747e-03
    1.75269028e+00  -5.02207797e-01   1.64152741e+00  -3.90051018e-01
    4.45430814e-01   8.06585480e-01  -4.90950085e-01   4.11260915e-01
    7.79467986e-01  -4.55123698e-01  -8.93402821e-02   2.24622583e+00
   -9.26648341e-01   1.88715062e+00  -9.22898696e-01  -2.02147337e-01
   -4.83142071e-01   4.29828847e-01   2.81637397e+00  -2.51639612e+00
    3.82805295e-01  -6.20679274e-01   1.09633583e+00   3.82608884e-01
   -2.65608850e-01   1.37498205e+00   5.70289274e-01  -1.78941547e+00
   -6.83402416e-01   5.46478018e-01   1.58261635e+00   4.45268386e-01
   -6.93399883e-01  -1.22947728e+00   1.46226648e+00   3.19599994e+00
    1.12631497e+00  -7.69429552e-01  -2.85897659e-01   1.34875010e+00
    2.92873343e-01   1.73064012e+00  -4.04451824e-01   4.35951591e-01
   -7.61360932e-01   1.34197879e+00  -7.13016004e-01   1.40512615e+00
    9.14333449e-01   1.06530040e+00  -5.88844665e-01  -1.25735209e+00]
 [  1.86242307e-01  -4.75641527e-01  -7.62158923e-02   1.41673990e-03
   -3.06390039e-01  -3.00200109e+00   9.40243192e-03   1.70455088e+00
   -3.72659016e-01  -2.79022859e-01  -7.78773299e-01  -1.75254357e+00
    8.32116686e-01   2.39334663e-01   3.85635473e-02  -3.28351472e-02
    1.57903742e+00   9.60173265e-01   2.26738896e+00   1.81766915e+00
   -5.44272734e-01  -1.40821053e-01   1.14455305e+00   5.77303842e-01
   -9.20102044e-01   4.12048096e-01  -1.34612271e+00  -3.12153155e-02
    5.01746658e-01   9.60546926e-01  -1.18716475e+00   6.84522295e-01
   -5.15901243e-01   2.04998112e+00  -9.79676664e-02   1.50862015e+00
   -7.08507707e-01  -4.42912403e-01  -6.97619484e-01  -3.47350433e-01
   -5.73995822e-01   5.24137441e-01  -5.69790223e-01   8.65141280e-01
    1.19864282e+00   6.46727669e-01  -1.12738939e+00  -1.42230547e-02
   -9.09106732e-01  -1.01861381e+00   1.32470458e+00   1.84117512e+00
   -2.15505146e-01   8.42856916e-01  -1.47208055e+00  -1.34795748e+00
   -1.42208191e+00   7.23677143e-01   2.37919451e+00   1.51341445e-01]
 [ -8.66182648e-01   3.94868788e-02  -1.69036066e+00  -6.54159365e-01
    1.76317789e+00   5.64102668e-01   6.28766904e-01  -6.66440180e-01
    1.16610520e+00  -3.22216372e-01  -1.27246153e+00   1.35577586e+00
    1.21830446e+00   2.20421032e+00  -5.79276720e-02  -7.02455190e-01
   -2.20318221e+00   1.43841655e+00   1.26809544e-01   4.38660328e-01
   -1.00065477e+00   1.38650918e+00  -3.31820184e-01   3.40695296e+00
   -1.35621756e+00  -3.14405400e-01   6.05000528e-01   2.04140793e+00
    2.28649899e+00  -1.73188033e+00  -4.47741618e-01   9.65322269e-01
    6.36934333e-01  -2.97741823e-01   8.40804623e-01   2.47971034e+00
    4.36517927e-01  -7.46373657e-01  -2.00042080e-01   9.38661885e-01
   -1.57716982e+00  -2.29443336e+00   2.76632939e+00   6.36804615e-01
   -2.35311939e+00   1.95692893e-01  -2.38303663e+00   2.37607267e-02
    1.87326465e+00  -1.18581129e+00  -5.60787312e-01  -7.43283595e-01
    5.32632230e-01  -5.46991537e-01   4.16636106e-01   4.17778373e-01
   -1.44432222e+00   1.07547722e+00  -8.67305186e-01  -2.21270532e-01]
 [ -1.39594812e+00  -8.39482048e-01  -1.30800763e+00   1.69391970e+00
   -1.22959230e+00  -1.04044337e+00  -5.11008274e-01   2.65730484e+00
    2.56354693e+00  -1.38616768e+00  -1.16734280e+00  -5.31833114e-01
   -7.30508875e-01  -1.47694236e+00  -1.37824164e-01  -3.28990743e-01
    1.58431026e-01  -1.63692411e+00  -1.20332071e-01  -1.54350054e+00
    1.84350501e+00  -1.68602709e-01   9.09584433e-01  -7.91139460e-01
    3.79629680e-02   1.27511627e+00   1.63032838e-01  -5.07553604e-01
   -5.30277060e-01   8.60053153e-01   2.67456764e-01  -4.88115113e-02
    6.22934625e-01  -1.36467998e+00   8.76811379e-01  -3.22935175e-02
    3.90588763e-01  -5.32204570e-01  -7.65462363e-01   1.06486798e+00
   -1.05572365e+00  -1.69873918e+00  -7.75902947e-01   9.32332724e-01
   -1.30844564e+00   1.34323589e+00   4.67703644e-01   8.09785072e-01
    5.78664583e-01  -1.81544113e-01  -1.06289258e+00   4.95238613e-01
   -1.30945982e+00  -1.32629699e+00  -1.08687603e+00  -3.21645460e-01
   -9.06798063e-01  -1.56029255e+00   4.46079014e-01  -1.73839796e-02]
 [  1.40760931e+00   3.87920777e-01   5.30524504e-01  -7.82556333e-02
    1.88313430e+00   1.52250756e+00  -1.19751452e+00   1.40779609e+00
   -1.69156319e+00   8.00184897e-02  -9.39308741e-01   7.81027283e-01
    2.32276882e-01  -5.23407627e-01  -5.17695795e-01   1.25797924e+00
   -1.49683675e+00  -8.62993181e-01   1.05093941e+00   3.31395168e-01
    1.50944239e-01  -2.08361322e-01  -2.40687629e-02  -4.63061910e-01
   -1.13725292e+00  -1.02062863e+00   1.36291888e+00  -1.11827561e-01
    2.40526229e-02  -5.46782206e-01   1.74121832e+00   1.05665615e+00
   -1.21731447e+00   1.64156232e+00   2.48394568e-01  -1.05717371e+00
    2.11789573e+00  -7.82403315e-01   8.34014722e-01   1.33010803e+00
   -1.14895012e+00   5.17710689e-01  -4.60377431e-01  -9.71609692e-01
    8.86907830e-01   3.56261949e-01  -5.49565404e-01  -1.48565334e+00
    1.05597482e+00   7.17497016e-01  -1.55413049e+00  -1.46775359e+00
   -3.93442568e-01  -3.97714805e-01  -2.87933597e+00  -9.67484977e-01
    8.59938328e-01  -1.01894683e+00  -9.50883697e-01  -4.24126303e-01]
 [  1.15435190e+00  -1.84644444e+00  -1.36622282e+00   1.36038651e+00
    6.86252748e-01  -2.01365282e-01   1.11180603e+00   9.89420078e-01
    5.34872028e-02   3.93449362e-02  -2.35202352e-01  -1.67501121e+00
   -1.33287083e+00  -3.68683051e-01  -1.24786492e+00  -6.22772811e-01
    4.19943227e-01  -4.24037154e-01  -2.92503913e-01   1.01587963e+00
   -8.78641343e-01   8.88282472e-01   8.64681681e-01  -1.72928708e+00
   -1.68119883e-01   4.86905424e-01  -4.24289483e-01   2.64301973e-01
   -8.85413919e-01   3.44794032e+00   2.47317633e+00   3.99059260e-01
   -1.52787081e-01   1.69121546e+00   3.55710801e-01  -7.79463454e-01
   -3.32128610e-01   2.99971031e-01   1.06696030e+00   3.13867669e-01
    9.05780806e-01  -1.73249035e-01  -5.22665370e-01   8.84877693e-01
   -1.51232856e+00  -1.66883376e+00   4.09954446e-01  -8.11950333e-01
    2.73883901e-01   6.53339785e-01   1.10091514e+00  -9.11312352e-01
   -7.78687092e-02  -1.70256515e+00  -1.95262924e+00  -7.68722028e-01
   -8.34988811e-01  -1.90955344e+00   9.88201043e-01   1.26058273e+00]
 [ -1.14004634e+00  -9.63805899e-01   1.48250895e+00   1.50832957e+00
