test_err   0.464658016962
Wemb   [[ -4.35505277e-03  -5.78518022e-03  -6.60397394e-03   7.12807631e-03
   -4.41927326e-03  -1.35234431e-02  -1.13063132e-02  -1.35651216e-03
   -1.81489520e-03   4.90743786e-03   3.82692409e-03   3.87973326e-03
    9.70766455e-04  -3.31840741e-03  -9.57481024e-03  -9.62810557e-03
   -3.24047218e-03   4.02039820e-03  -5.89420675e-03  -7.55629028e-03
   -6.78624103e-03  -2.13941217e-03   8.50975639e-03  -6.70183291e-03
   -1.18497440e-02   4.42483932e-03  -1.79397555e-03   1.18962497e-02
    1.69649233e-03   9.57144096e-03   6.44580243e-03  -6.19349178e-03
    7.38944302e-03  -2.43910555e-03   9.44147313e-03   1.12189205e-03
    3.76653570e-03   9.97251111e-03   5.25300720e-03   1.03681463e-02
   -3.56256600e-03  -1.82854955e-02  -8.54495265e-03   8.22132778e-03
   -1.20160443e-02   9.84797398e-03   9.96418764e-03  -6.50702460e-03
    3.81874548e-03  -2.43842685e-02]
 [ -5.16788901e-01   1.20701046e-02  -1.35768030e-01   1.60399992e-01
   -2.67454963e-01   7.39308357e-01  -3.16394984e-01  -3.93661457e-01
    2.45892496e-01  -1.17827712e-01   3.06457094e-01  -4.62759378e-01
    5.89814296e-02  -3.64101014e-01  -4.93708115e-01   3.34548656e-01
   -6.65527708e-01   5.27165806e-02  -2.08630599e-01   3.34700111e-01
    2.32261015e-01   3.69573480e-01   7.74429568e-02   1.93791812e-01
    1.26546457e-01  -2.66480613e-01   4.18586209e-01   4.49945990e-01
    9.56400745e-02   3.06133148e-01   1.40811737e-01   2.07053524e-01
   -4.20781775e-02   5.92701828e-02  -4.71960947e-01   4.54981876e-01
   -7.49194722e-01  -8.12038779e-03   1.42246970e-01   1.47462296e-01
   -2.56460557e-01  -1.62991234e-03   3.78848518e-01   5.03377591e-03
    1.60470601e-01  -2.19539895e-01   1.18146145e-01  -1.96341799e-01
    8.10845742e-02   1.42627861e-02]
 [  3.46629410e-01  -1.93464594e-01  -3.40660626e-01   6.44953185e-01
   -2.07183498e-02   5.31577314e-02   1.37715291e-01  -2.53215616e-01
    9.70313799e-02  -3.04763163e-01  -2.29746928e-01  -3.01911750e-02
   -1.24227870e-01  -1.76785847e-01  -2.93559250e-01  -9.52185771e-03
    1.17288439e-01   4.64310840e-01   3.60844697e-01  -3.75203164e-01
   -1.14627782e-02  -1.80915748e-01   2.98768404e-01   6.19684267e-01
    2.32398617e-01  -2.86301868e-01  -2.65841938e-01   3.37546589e-01
   -4.53118420e-02   2.59765062e-02   6.49459976e-02  -5.17269299e-02
   -5.26136649e-01  -9.10747718e-02  -5.74910508e-01   4.23476529e-02
    2.20523489e-01   1.17992715e-01  -1.97848793e-01   5.80319574e-02
    2.62735142e-01   3.69916821e-01   6.04274943e-02  -4.78861999e-01
    2.58650104e-02  -4.28924636e-01  -3.31012366e-01  -1.09263283e-01
   -4.28323601e-02   4.44902796e-02]
 [  2.15528133e-01  -5.52761385e-01  -7.49545129e-02   7.08629965e-02
   -5.23279844e-01  -1.09182374e-01  -6.79445763e-01  -1.01763056e-01
   -3.61730316e-02   3.50353912e-02   4.95988467e-01  -1.06003692e-01
    5.25060002e-01  -2.78126658e-01  -6.21094482e-01  -3.63034977e-01
    2.06639996e-01   3.84771005e-01  -3.43733994e-01  -2.06889846e-01
    3.19941574e-01   1.61203208e-01  -9.87092180e-02   4.49838537e-01
    3.83300814e-01   3.07323073e-01   1.60636974e-01  -3.56948041e-02
    1.41769313e-01  -5.27165792e-02   2.45485763e-02   1.02999918e-01
   -3.87563273e-01  -1.18375079e-01  -1.71087924e-01  -1.04177029e-01
    1.66900715e-01   2.08578110e-01   2.40073792e-01   1.92983252e-01
    5.65317268e-01   4.57059586e-02  -2.52506706e-01  -4.83003204e-01
    2.91971620e-02  -7.48472084e-01   9.42972477e-02   3.52125355e-01
   -1.88179983e-01  -7.63958383e-02]
 [  2.78824895e-01  -4.57904418e-01  -2.60548086e-01   3.75507335e-02
   -1.50965714e-01   6.19326011e-01  -1.40656793e-01   1.43420466e-01
    4.61858895e-01  -1.76944477e-01  -2.38022996e-01  -1.76315757e-01
    6.17343974e-01  -6.27762311e-02  -1.81212596e-01   3.39843099e-01
    1.53205788e-01   2.75300268e-01   1.49159053e-01  -4.01843198e-01
   -9.13314581e-02   8.07180293e-02   4.60132352e-01   1.23355580e-01
   -1.17853429e-01  -4.75038578e-01  -4.25340284e-02  -2.36860359e-01
    4.28712515e-02   1.82807797e-01   3.73830676e-01   4.40157677e-01
    6.47518462e-01   8.11002314e-02   1.98889099e-01   3.92803543e-01
    8.04594883e-01  -2.07566759e-01   8.74128649e-02  -1.89630041e-01
   -1.96108897e-01   1.63417115e-01  -2.07187839e-01  -2.65014201e-01
   -5.42348387e-01  -3.92991101e-01  -8.27364810e-02   2.46529771e-01
    1.58812261e-03   2.53235646e-01]
 [ -2.14280872e-01  -4.98016771e-01   1.35092612e-01  -2.90380019e-01
   -5.14956983e-01  -3.73669122e-02   2.78459507e-01  -1.76717908e-01
    2.02433381e-01  -2.11368727e-01  -5.38634323e-01  -5.17441859e-01
    3.02710395e-01   2.95502615e-01  -5.86423965e-02   8.95635935e-02
   -5.33693238e-01   8.70891021e-01  -2.66579255e-01  -4.33287984e-01
   -3.06583269e-01   8.96952928e-02   8.16757437e-02  -2.45277827e-01
    1.44656664e-01  -3.19705710e-01   3.68912124e-01   1.16992251e-01
    2.91451910e-01   2.51357432e-02  -3.80067558e-01  -1.25250379e-01
   -2.74031665e-01  -1.95609682e-01   6.87079793e-02  -9.80784657e-02
   -1.19646302e-01  -1.87890159e-01   1.32784282e-03  -3.31946511e-01
    1.23636517e-01  -4.01202205e-01   6.54507610e-01   1.79341141e-01
   -7.71439792e-01  -5.86501901e-01   2.47363388e-01  -9.02909190e-02
   -1.22948402e-01   2.17271796e-02]
 [ -1.94069008e-01   7.45136990e-02  -1.75237582e-01  -4.48053362e-01
   -1.46200921e-01   2.64025771e-01  -1.95284144e-01   4.33885810e-01
    2.75508870e-01  -4.02075626e-02  -2.71820345e-01   1.24317840e-01
    6.41299804e-01   6.05534990e-01   2.75213198e-01  -5.49308096e-01
   -1.16363213e-01   2.33745912e-01  -8.17335453e-02  -1.40601787e-01
    2.82159893e-01   1.08574402e-01   4.29390200e-03  -1.67955912e-01
    6.24551809e-01   1.54155144e-01   8.17372258e-02   4.19052361e-01
    6.10503494e-02   2.67650640e-01  -1.53207895e-01   1.02238025e-01
    1.36218772e-01  -2.75435980e-01  -5.30729093e-02  -4.29364409e-02
   -4.40443789e-01   1.58559483e-01   3.11682782e-01   1.63837499e-01
   -2.87819611e-02   1.37005202e-01   8.24157714e-02  -6.80996192e-01
   -4.35219283e-01   1.35221727e-01  -3.75316511e-02  -2.64626686e-01
    3.32155792e-01   5.19494646e-01]
 [ -3.57657224e-01  -5.28067255e-02  -2.54455958e-01  -2.61671776e-01
    6.77760614e-01  -8.80273465e-02  -1.32501368e-01   2.83748153e-01
    3.36449639e-01   1.41861305e-01   1.24580926e-01  -6.07598011e-01
    5.63346058e-01   2.73397471e-01   3.17067747e-01  -4.16582409e-01
   -2.68833354e-01  -7.19016410e-02  -4.33613205e-02   1.24851405e-01
   -5.77148371e-02  -4.13873976e-01  -1.03740498e-01  -1.07281470e-01
   -7.46048099e-02   1.57250105e-01  -1.03273210e-01   9.84259109e-02
    1.58797829e-01   9.80445166e-02   7.13820931e-01   1.85855275e-01
   -2.06184907e-01  -7.23130577e-01  -4.97633191e-01   3.96875274e-01
   -2.06300734e-01   4.30002940e-01   5.09861025e-01  -9.39968758e-02
    3.92801230e-02  -7.69137557e-02  -9.80672306e-03   3.65024799e-01
   -1.39459849e-01  -6.61293314e-01  -3.17940429e-01   2.19381338e-02
   -2.02451380e-01  -1.12960918e-01]
 [ -1.95703614e-01   4.20617099e-03  -2.66562245e-01  -6.46829255e-02
    2.03000341e-01   2.96593855e-01  -3.01667149e-01   2.50778860e-01
   -2.40943988e-01  -1.16774620e-01   8.34807596e-02   3.11649232e-01
    2.83474047e-01   5.59389205e-01   4.12279473e-03   1.42394725e-01
    3.45622340e-02   4.13188681e-01   7.35443164e-01  -2.56493949e-01
    6.56997047e-02  -2.95306317e-01  -3.78378209e-01  -9.08934450e-02
    2.72726670e-02   1.47765871e-01  -4.30351036e-01  -3.99781978e-01
   -4.93170968e-01  -3.24772637e-02   7.15006735e-01  -2.97843039e-02
    1.14787419e-01  -1.83174365e-01  -3.95253740e-01  -6.49087318e-02
    1.41042584e-01  -4.02006612e-01  -2.16062226e-01  -1.23854448e-01
   -2.61607966e-01  -2.89511833e-04  -4.19599149e-02  -2.44243604e-02
   -1.98927528e-01  -3.35420778e-01   4.49060551e-01   2.96560738e-01
    3.67438900e-01  -5.82669649e-01]
 [ -1.36871553e-01  -1.08527099e-01  -2.01648500e-01  -2.67036749e-01
   -1.37164314e-02   1.39553198e-01  -2.27220915e-01   6.37838993e-03
    2.61062964e-01   7.76869108e-02   6.73419776e-01   2.77487734e-01
   -3.90302066e-01   7.88475519e-01  -6.23925691e-02  -1.94515970e-03
   -2.98428093e-01   2.86313117e-01   7.62417160e-02  -1.32180547e-01
    1.19587260e-01  -6.06223351e-02   2.45162309e-01   6.47347735e-01
    2.42256996e-01   2.48795034e-01  -7.67987024e-01  -5.20991814e-01
    3.99150963e-01  -4.26862002e-01   5.16887086e-01   7.02040820e-02
    2.35783209e-01  -9.22854162e-02  -8.48045379e-02   7.74539043e-02
   -2.03005783e-01   1.53803422e-01  -2.37495780e-02  -2.30518966e-01
   -2.30186816e-01  -4.43694981e-01  -1.42596913e-01   3.66050657e-01
    8.56783892e-02   1.64664492e-01   1.66036500e-01   5.86786553e-01
    9.03555439e-02   5.42487875e-01]
 [ -1.19587839e-01  -3.12765106e-01  -7.20407300e-02  -1.15684631e-01
   -8.33332216e-01   3.21934351e-01  -1.77147426e-01  -6.09086097e-01
    2.03390092e-01   7.00739516e-01  -1.11361167e-02  -2.40658984e-01
    6.25457852e-01  -3.62956299e-01   4.02855401e-01  -6.16698327e-02
    4.16815114e-01  -3.69855247e-01   8.69349291e-01   4.45276786e-01
    5.83991550e-03  -4.44167078e-01  -1.45677162e-01   7.52512112e-01
   -1.31854625e-01  -2.94500317e-01  -5.10176707e-01  -9.46924436e-02
    2.86745757e-01  -4.03359100e-01  -1.89412814e-01   2.35355666e-01
   -1.70445870e-01  -6.62713187e-02   6.84353112e-02  -1.93003650e-01
    1.84133279e-01   4.99389039e-01  -1.33015045e-01  -1.81158550e-01
   -5.12187214e-02  -3.57681049e-01   2.37247234e-02   5.20364835e-01
    3.98708521e-02   1.30386924e-01  -2.00829893e-01  -5.23558181e-01
    8.59847107e-01  -2.83270653e-01]
 [ -7.35431475e-03   8.52190972e-02   6.78013349e-02  -3.27989474e-01
   -1.63913929e-01   4.47971858e-02  -6.05334367e-01  -9.05114284e-01
   -5.42191296e-01   3.81229755e-01   2.35113423e-01   1.30370599e-01
   -8.11213995e-02   1.29864504e-01  -1.24150303e-01  -3.30249889e-01
   -2.04808072e-02  -8.92515569e-02   1.71527931e-01  -4.47171809e-03
    3.65865678e-01   4.51620587e-01  -2.81083287e-01   6.13381769e-01
    1.48762716e-01   2.42923490e-02  -5.65406212e-01   5.84969279e-01
   -1.50600797e-01  -5.62204874e-02   3.83832073e-01   5.30025757e-02
    2.12687802e-01  -1.12663240e-01  -4.98149447e-02  -6.72964122e-01
    4.13525021e-03  -1.11924436e-01   3.41482927e-01  -4.56919125e-01
    3.67678545e-01  -2.38163045e-01  -7.13216464e-03   1.44375202e-01
    5.30328896e-01   6.68113218e-01   5.44330821e-01  -3.07258944e-02
   -6.15409167e-01   2.02639829e-01]
 [ -1.00039738e-01   4.02964881e-02   3.56607770e-01  -5.07253151e-01
    2.04507028e-01  -4.30611104e-01   1.76306848e-01  -7.46942997e-01
    7.33907855e-02  -5.68166196e-02   1.06778760e-01  -4.70822721e-01
   -3.00874797e-02  -3.11998857e-01  -1.21670373e-01  -6.36868757e-01
    1.49434895e-01   2.38633670e-01  -3.35624007e-02   2.21336421e-01
   -1.77257983e-01   7.98581396e-02  -1.80665384e-01   2.90197626e-01
   -5.85226883e-01  -4.29896144e-02   5.43835407e-03   1.43962677e-01
   -3.82498134e-01   5.57517156e-01   3.48278175e-01  -4.53961707e-01
    1.02064874e+00   8.67756437e-02  -2.16684070e-01  -1.68536739e-01
    2.66923721e-01   1.67247688e-01   1.13051263e-01   3.57439280e-01
    9.80470301e-02  -2.69166174e-01  -5.21215875e-01   3.41126045e-01
    1.34897657e-01   5.44912634e-01   1.31296052e-01  -8.37146458e-03
    3.07919649e-02  -2.41766502e-01]
 [ -1.60880413e-02  -6.13204435e-01  -1.59828913e-01  -3.98883830e-01
   -4.48371847e-01  -5.04514960e-02   2.54151669e-01  -4.29946775e-01
   -5.76864853e-01   6.74753305e-02  -5.84220751e-02  -2.94610643e-02
    5.49351350e-01   1.00495652e-01  -5.17430430e-01  -9.89445209e-01
   -8.89565580e-02  -3.05893252e-01   1.48149085e-01  -3.42637375e-01
    6.28655336e-03  -2.50024274e-01  -1.57865375e-01   5.39192000e-02
   -8.35239402e-01   5.91391244e-02   1.96558197e-02  -7.55651038e-02
    1.17655445e-01   9.03425419e-01   7.44193868e-02  -6.87836325e-01
    6.03198490e-01   1.08511544e-01  -1.20427498e-01  -1.05327247e-01
   -4.23489996e-01   7.28339352e-01  -4.83540201e-02  -1.97743633e-01
   -3.74855902e-01   2.38061947e-01   1.20267701e-01   2.14217233e-01
   -3.09243165e-01  -5.33809265e-01   5.55756886e-02   3.37674803e-01
    2.11414361e-02   2.00967135e-02]
 [  1.10249107e-01   2.29456583e-01   3.30477810e-01  -8.14745138e-01
    4.96360173e-02  -1.17268878e-01   8.15071385e-01   3.06225489e-02
   -5.74413356e-03   1.42819308e-01  -6.71615566e-02  -2.04521972e-01
    2.73119937e-01  -5.09977287e-02  -5.43515455e-02  -3.02240671e-01
   -3.30530291e-01  -4.10096515e-01   2.87523908e-01  -7.87177624e-02
    6.08076209e-03   2.87368493e-01   2.43830951e-01  -1.07337015e-01
   -5.80010498e-01   3.40069091e-01  -1.19531853e-01  -5.44455816e-01
    3.73562443e-01  -1.56457345e-01   9.44216701e-02  -1.49553137e-01
   -1.39315695e-01  -3.27912632e-01  -9.87487454e-02  -4.08225749e-01
   -2.92201586e-01  -1.81968733e-01  -3.12071439e-01   1.38064467e-01
    4.74971446e-02   4.72883425e-01   5.68811510e-02  -3.27853738e-01
    8.37891857e-01  -6.96223946e-01   6.10641043e-01  -9.55385262e-02
   -5.26073649e-02   1.57556018e-01]
 [  3.29511660e-01  -4.39910591e-01   3.33186763e-01  -3.98193756e-01
    2.91907317e-01   4.75924625e-01   3.32575701e-01  -1.39461157e-01
   -7.82709411e-02  -1.92410146e-01   2.26901925e-01  -4.83236939e-02
    2.41806572e-01  -2.45327560e-02   5.20469632e-01  -1.20340524e-01
   -6.55640195e-02  -5.36963682e-01  -3.02819530e-01  -7.62340768e-01
   -3.86787023e-01   1.78428871e-01  -7.76596393e-01   1.80718735e-01
    4.67645551e-01   4.58407743e-02  -3.27610354e-01  -1.11649380e+00
    1.90324906e-01  -5.52251758e-02  -1.72103426e-01  -4.36960746e-02
    2.09254341e-02   2.15638081e-02   9.56885165e-02   6.60477472e-01
    4.40405443e-01   9.71651649e-01   1.69962680e-01   1.93042640e-01
   -6.48687916e-01   6.75548814e-02   1.76955540e-01   5.57946373e-02
   -1.43014041e-01   1.24834346e-01  -1.90477860e-01  -9.08886381e-01
   -7.38387985e-02  -3.53849256e-01]
 [ -2.42465540e-01   1.97702024e-01  -2.27183821e-01  -3.36795742e-03
    1.53470877e-01  -3.21054298e-01   7.45247019e-02   3.79130924e-01
   -1.53625556e-01  -1.57953779e-02   5.92021335e-02   3.02292440e-01
    1.99978373e-01   1.64570497e-01  -7.38639899e-02   6.24075284e-01
    8.55506449e-02   1.78970680e-01   7.37119063e-02  -5.40748984e-01
   -5.69535433e-01   5.56121135e-01  -3.90793958e-01  -5.87348422e-01
   -1.77949120e-01   3.16149894e-01  -4.83268551e-01  -1.80448425e-01
    1.44305333e-01   1.46886271e-01   2.80828421e-01  -8.64804630e-01
    3.49911524e-01  -7.72596561e-01   1.84378053e-01   5.30389142e-01
    4.21509753e-02   1.14625080e-01  -2.59283968e-01   9.49945200e-01
   -7.56683186e-02  -7.54378449e-01   4.20854602e-01  -7.22395195e-01
    7.48506182e-01  -2.86429850e-01  -1.02643618e-01   3.39035448e-02
   -6.18346035e-01  -4.09813797e-01]
 [  5.74221003e-01  -1.98519365e-01   6.42747545e-02  -5.63996779e-01
    1.99170337e-02  -2.34504337e-01  -1.90596184e-01  -9.70862050e-02
   -4.39776040e-01   1.97744469e-01  -1.72437064e-01   5.84690730e-02
   -2.05408611e-02  -2.84000029e-01  -3.03822676e-01   7.43645764e-01
    1.00747173e-01  -4.94677917e-01   6.59472166e-01  -6.59467035e-01
   -2.79120383e-01  -9.23718332e-02  -5.80985381e-02   3.24713675e-01
    4.44457309e-01   6.99520345e-01   5.07114943e-01   1.14284283e+00
    6.79573996e-03   1.62845303e-01   2.02232496e-01  -3.42185916e-01
    2.99262322e-01   7.63513104e-01  -3.12531203e-01   5.82982243e-01
   -1.59177593e-02  -6.17213424e-01   2.14168746e-01   2.78096578e-01
   -5.50520714e-01  -1.13681692e-01  -1.84406514e-02  -4.91252124e-02
    7.13498483e-01   2.97686247e-01  -4.74587005e-02   7.35816243e-02
   -3.17232856e-02  -3.70519685e-01]
 [  2.02979917e-01  -3.75912639e-01  -4.83107283e-01  -4.30710036e-01
    6.82971936e-01  -1.24481151e-01  -1.04804941e-01   4.51224436e-01
    4.95467882e-01  -8.11348604e-01   6.72825801e-02   6.58807140e-01
   -6.67982189e-01  -4.21639154e-01  -5.64552492e-02   4.61432900e-01
    2.78956406e-01   3.59184300e-01   1.04493887e-01  -6.19582509e-01
    2.35727905e-01  -7.70582754e-02  -6.51665931e-04   1.48705342e-01
   -5.67146124e-01   6.96609084e-01   5.72153277e-01   7.51749228e-01
    4.43114507e-01   2.23892534e-02   3.75144765e-02  -9.06045434e-01
    6.63228486e-02   5.28665717e-01   4.86614347e-01  -2.23760125e-01
   -1.04444242e-01   3.11406614e-01   3.29816698e-01  -4.07675570e-01
   -4.04431429e-01  -5.26011111e-01   4.25659793e-01  -1.05775892e-01
   -3.59958366e-01  -7.03607654e-01   8.84467908e-02  -5.89246753e-02
    6.12585649e-01  -1.81407045e-02]
 [  4.20104121e-02  -2.69082922e-02  -8.63317152e-02  -3.45143921e-02
    3.18093919e-01  -6.77681584e-01   2.04851174e-02  -1.45156137e-02
   -7.73418812e-01  -6.30331116e-01   1.44504574e-01  -6.29030225e-01
    4.44569659e-01  -3.54775237e-01   3.10451602e-01   4.21549740e-01
   -6.58848649e-01  -1.67818020e-01   2.98111950e-02   2.28321587e-01
   -4.84874599e-01  -5.00879479e-01  -2.52162067e-01   4.47695415e-02
    6.72418329e-01   1.24849748e+00  -1.52684056e-01   4.80578667e-01
    4.81368031e-02   4.75806741e-01  -2.60619617e-01   3.83014834e-01
   -3.22889341e-03   5.07532983e-01   2.00882039e-01  -3.50225951e-01
    3.94105461e-01   2.45297909e-01   3.23980364e-01  -8.60326344e-01
   -4.01049005e-01  -4.51087942e-02   6.87854698e-01   1.47192479e-01
   -1.28814026e-01  -9.53718681e-02  -2.45706805e-01   3.90676224e-01
    6.44397279e-01   8.75724824e-01]
 [  3.47829509e-01  -8.95006031e-01  -2.66947322e-01  -1.87648853e-01
   -2.66679823e-03   1.33846063e-03   5.63011526e-01   2.09013225e-01
   -1.28309001e-01  -4.61722983e-01   1.98865065e-01   2.35011784e-01
    2.58371442e-01  -3.16868797e-01  -6.32979848e-01  -3.88714218e-01
   -3.44702430e-01   1.81051878e-01   2.87652181e-01  -6.09014787e-02
    8.09050975e-02  -8.84285320e-01  -7.48019877e-01  -5.71670082e-03
   -3.77105574e-01   7.90092811e-01  -5.30680208e-01   5.01153092e-01
    9.64516133e-01   7.35781645e-02   8.40336294e-02   7.40231983e-01
    2.99677176e-01  -3.87550560e-01  -2.78875646e-01   6.77215612e-01
   -8.86202723e-02  -5.13639405e-01  -2.97958485e-01   7.87253314e-01
   -1.20032750e+00  -6.63412918e-01   4.09809023e-01  -2.28345144e-01
   -2.38228523e-01  -7.40853565e-01   3.43276620e-01   7.24100452e-01
   -1.61093002e-01   3.78501393e-01]
 [  5.72990974e-01  -2.71735989e-01  -1.19408816e-01   2.43848743e-02
   -4.58442982e-01   1.68918896e-01  -6.77145065e-01   4.83132832e-02
   -4.23787672e-01  -8.66479960e-01   1.05584548e+00  -1.58228716e-01
   -2.41616078e-01   2.19412706e-01   1.82522320e-01  -4.78912752e-02
    4.94498164e-01  -2.93955654e-02   3.56246372e-01  -2.18174729e-01
    1.00075009e-01  -3.69039062e-01  -5.02567222e-01  -4.13375982e-02
    3.71517039e-01  -2.91256064e-02   3.37607163e-01   6.07942746e-01
   -4.46241816e-01  -1.48356422e-01   4.56219203e-01   3.63945709e-01
   -4.68097511e-01   1.84341819e-01   2.30395510e-01  -1.63634462e-01
    4.24797602e-01   1.64790656e-01  -8.54212825e-01   7.22965176e-01
   -3.09143983e-01  -5.25484448e-01   2.93231267e-02  -3.23298561e-02
    3.82265020e-01   1.04405937e-01   3.51298010e-01  -7.93848657e-02
   -3.80522402e-02   7.47373007e-01]
 [ -9.06416230e-01   6.27278399e-01  -4.73049400e-01  -1.63460648e-01
   -4.27969566e-01  -1.37752966e-01  -3.71525717e-01  -3.68959931e-02
   -1.18280832e-01  -7.22812644e-01  -3.74784319e-01  -6.42399290e-02
    6.54245282e-02  -2.41857959e-02   1.45580501e-01  -3.69787490e-01
    6.90033797e-01  -3.82269621e-01   5.50088766e-01   2.43346292e-01
    6.08588110e-01  -1.17570743e-01  -8.78319877e-01  -8.79248593e-02
    6.98853385e-01  -9.22006839e-02   2.75101029e-01   8.02047987e-01
    1.05407988e+00  -3.15213632e-01   2.67208031e-01  -4.71547153e-01
    6.00836650e-02   1.20334509e+00   3.52580416e-02  -5.76453191e-01
    7.95508838e-02  -2.04521499e-01  -3.51036920e-01   1.80687756e-01
   -3.91179557e-01   5.48927786e-01  -4.08496262e-01   6.85322736e-02
    2.53507887e-01  -1.26693044e-01   1.70839002e-01   7.86764772e-01
   -5.12654221e-01   2.15621590e-02]
 [ -3.72284010e-01  -2.25332794e-01  -1.81616083e-01   2.58038179e-01
    2.01651943e-01   2.44136479e-01   1.01172884e-01   2.07676861e-01
   -9.21588102e-02  -4.77740592e-01   1.94571471e-01  -2.28751658e-01
    5.25003284e-03  -1.03637999e-01  -1.06078549e+00  -5.69355420e-01
   -8.65425975e-02  -1.40839216e-01  -1.94310328e-01  -1.50030658e-01
   -3.94576630e-01   3.69044048e-01  -3.41512831e-01  -5.95451518e-01
    2.75297463e-01   1.91550567e-02  -2.14098291e-01   2.17518365e-01
    1.75655885e-01  -5.18102259e-02   1.00746566e-01  -3.23191343e-01
   -8.00726760e-02   5.43278377e-01   1.66002147e-01  -7.80776705e-01
   -4.70212538e-01   1.42755930e-01  -7.00618491e-01  -6.36097303e-01
   -7.01572061e-01  -6.10846495e-02  -2.88064625e-01   3.86887128e-01
    1.19770586e-02   2.34337645e-01  -5.81594392e-01   3.64051428e-01
   -8.10840797e-02   1.19220989e-01]
 [ -1.02619880e+00  -8.03780795e-02   2.11662989e-01   2.03916767e-01
    2.70622222e-01   1.20055445e+00   3.26934324e-02  -4.05259145e-01
   -6.28572658e-01  -3.15942618e-03   1.01863367e-01  -2.04205277e-01
   -1.75776039e-01   5.40879488e-01  -7.96734254e-01   7.65172621e-02
    3.86341542e-01  -1.17907002e+00   4.13149257e-02  -5.04082851e-02
   -6.93720308e-02   3.05137561e-02  -6.75628616e-02   3.41272248e-02
    5.06423248e-01   2.20632860e-01   2.43885912e-01   5.99966582e-01
   -3.50547864e-01   6.71726742e-01  -8.74887706e-02  -1.03976236e+00
   -5.73214541e-01  -5.79514828e-01   3.00646440e-01  -3.59620897e-01
    1.17371882e-01   1.92236389e-01  -4.46142586e-01  -3.38409529e-01
   -2.28325573e-01   5.15586894e-01  -7.88413282e-01   1.98945899e-01
   -1.79635691e-02  -1.17324890e-01  -1.74333427e-02   3.59125384e-01
    5.55758489e-01   2.87182434e-01]
 [ -8.08336102e-02  -5.10308856e-01  -6.25055787e-01  -4.04468373e-01
   -1.45783581e-02  -8.35698999e-01  -4.48882598e-02   4.25907145e-01
    1.56948700e-01  -2.45875535e-01  -1.41286993e-01  -1.47556754e+00
    2.18871930e-01   6.20990503e-01  -3.46111386e-01  -1.99497515e-01
    8.84534696e-02   1.62753820e-01  -8.40168826e-01   1.02869652e-01
    5.08918023e-01   5.95655910e-01   3.93260784e-03   4.50359449e-01
    3.44175957e-01   2.81604738e-01   5.53549688e-01  -1.90405547e-02
   -1.54596860e-01   7.67254790e-01  -4.34551370e-01  -5.66213638e-01
    2.67774699e-02  -4.89059278e-01   7.16234396e-01  -2.73275921e-01
    5.38902172e-01  -2.94776144e-01  -9.95133181e-01   2.60454060e-01
   -8.37926639e-01  -6.87778089e-02  -3.29506849e-02  -5.02481961e-01
    1.68736954e-02   9.18456566e-01   2.46899814e-01  -6.13596342e-01
    5.50659705e-01  -3.66662886e-01]
 [  4.81965285e-02  -9.20004478e-01  -4.05027488e-01   6.43838613e-01
   -3.08602958e-01   7.70596770e-01   3.92549108e-01   4.35313994e-01
   -6.95253880e-02  -4.23030792e-01  -1.70338444e-01  -1.70364173e+00
   -7.34412500e-01   1.96271482e-01  -1.42327486e-01  -3.35096070e-01
    1.48528519e-01   8.36190497e-01  -2.72110366e-01   4.42926590e-01
    2.90962413e-01  -3.41265885e-01  -4.64987423e-01  -2.19955883e-01
   -8.41262531e-01   9.54231367e-01   7.36752468e-02   4.29064842e-01
    3.82282442e-01  -2.63132425e-01   1.90907683e-01  -2.39628427e-01
   -1.41825357e-02  -3.48453988e-01   1.60292877e-01  -1.04351675e+00
    4.00139638e-01  -1.87889866e-02  -5.97098246e-01   3.18523139e-01
   -1.25825014e-01   6.29995044e-02   1.55461924e-01  -4.11037094e-01
    6.23555646e-01   3.65549693e-02  -4.60905325e-01   1.79546362e-01
   -7.80648421e-01  -5.60081438e-01]
 [ -3.33216519e-01  -9.67059097e-02  -4.04931976e-01   6.03038584e-01
    5.07700663e-01   5.50850143e-01  -1.37343259e+00  -2.34089953e-01
    6.58615535e-01   1.02891968e-01  -1.15288114e-01  -2.35233508e-01
   -3.77371232e-01   2.96097541e-01  -6.64962232e-01   1.89821185e-01
   -2.68915493e-01  -3.13276027e-01  -2.63938962e-01   2.69016511e-01
   -9.51667221e-01  -4.92654442e-01  -3.02389037e-02   4.45856369e-01
   -1.97804729e-01  -1.73436993e-01   5.09516151e-01  -3.82009393e-01
   -1.14250106e-01   1.75626287e-01   3.58566961e-01   5.42227810e-01
    6.86824627e-01  -4.13969412e-01  -2.40909740e-01  -1.07955234e+00
   -2.21002948e-01   7.96298475e-01  -7.03472338e-01   4.06718736e-01
    5.48699509e-01   2.33167228e-01   1.66719159e-01  -4.51326964e-01
    3.73061054e-01  -1.11075008e-01  -2.48253667e-03  -1.75364260e-01
    6.94871751e-02  -3.03390575e-01]
 [  2.80935377e-01   8.01119341e-01   2.33886946e-01   8.26656725e-01
    1.71084351e-01  -7.20792646e-02  -2.89732818e-01  -4.61221732e-02
    1.02123645e+00  -9.44685531e-01  -8.82183351e-02  -6.76251578e-01
   -3.33648145e-01  -3.22404378e-01  -1.16938022e+00  -2.10216898e-01
   -4.24312854e-01  -3.23498917e-01   1.98434380e-01   3.04235494e-02
    4.72636064e-02  -7.42702939e-01   1.51956060e-01  -8.67016199e-02
    1.19491002e+00  -2.60997643e-01   1.01339256e+00  -4.59369310e-01
    2.45836333e-01  -4.84424631e-01   4.78289350e-01  -6.70970113e-02
   -4.96909095e-01  -2.85949943e-01  -3.81689387e-01  -2.51903381e-01
   -8.60376630e-01   1.73354331e-01   2.09844147e-01  -1.21797391e-01
   -1.04600817e+00  -2.53826864e-01  -4.60075258e-01  -2.38239419e-01
    6.73954664e-02   8.62952091e-01   1.12970481e-01   2.77997208e-01
   -2.22707726e-01   1.80013401e-01]
 [  7.12674847e-01  -3.35693007e-01   8.87929244e-01   8.45793623e-02
   -2.76115714e-01  -7.10481704e-01   1.14559245e+00  -1.59952659e-01
    1.10175656e+00  -2.24175867e-01   4.42149970e-02  -6.48423508e-01
   -6.19958730e-01   3.23447972e-01  -1.45640465e+00   1.17821315e+00
   -1.19916445e+00   3.71323731e-01  -2.82671022e-02   4.18346353e-01
    9.70867260e-01  -5.83837165e-01  -5.10943221e-01   5.12114988e-01
    1.12395141e+00   6.64976100e-02   1.14312584e+00  -8.82811666e-01
   -5.96270194e-01  -1.09014299e-01   3.21773957e-01   1.57626520e-01
   -3.06889161e-02  -6.70959632e-01   3.33772057e-01   3.01487829e-01
   -4.29421580e-01  -1.11161725e-01   3.62218083e-01   4.96572365e-01
   -1.08552591e+00   1.05282363e+00  -1.50488466e-01  -9.55093051e-01
    5.15608312e-01   4.40674696e-01   6.61180265e-01   4.16630787e-01
    4.63996734e-01  -2.90147287e-01]
 [  4.07687334e-01   3.43734073e-01   1.04397302e+00  -1.72339625e-01
   -6.42276853e-01   4.61309847e-01   4.40942023e-01  -1.41423076e-01
    4.46216471e-01  -2.30327770e-01   5.41186535e-01  -7.87267671e-01
   -3.39082057e-01  -9.44593734e-03  -7.10874911e-01  -5.58995897e-02
   -9.02344045e-01  -5.45338109e-02  -2.25292275e-01   1.81404706e-01
    7.57287523e-02   2.92088151e-02   5.20007008e-01   4.91736132e-01
   -9.51704680e-02  -1.86243692e-01   1.49854918e-01  -3.80649714e-01
    6.25749918e-01  -1.07443199e-01   4.71640164e-01  -5.47597516e-01
    4.83169011e-01  -2.49486816e-01  -9.02132388e-02  -1.54656966e-01
   -4.04314866e-02   1.99657466e-03  -9.21314941e-01   3.54048963e-01
    4.01663803e-01   8.48443802e-01   1.87752321e-01  -3.83791687e-01
    7.38586426e-01   1.12928745e-01   3.34760780e-01   2.90570106e-02
   -5.55461530e-01  -2.81538172e-01]
 [  4.02617804e-01  -9.00773007e-02   6.90490305e-01   6.13003943e-02
   -2.60717758e-01  -5.15879939e-01   1.12704471e+00   3.73141074e-01
   -2.64816598e-01  -2.66666161e-01  -2.24558722e-01   3.20002806e-01
    4.49258137e-02  -5.72646874e-01  -4.70087424e-06   1.09961049e-01
   -6.59311810e-01   1.12817648e-01   2.49190879e-01   4.32014983e-01
    5.43369669e-01  -2.00152919e-01   1.01410400e+00   5.47461869e-01
    6.86044858e-01  -6.72680723e-01   3.91569016e-01   2.78489840e-01
   -1.45224589e-01  -4.86234536e-01   1.92272355e-01  -5.28604997e-01
    6.93770721e-01   6.69106894e-01   6.72234144e-01  -1.13227518e+00
   -3.95357126e-01   1.54485411e-01  -3.47832513e-01   2.76840340e-01
    9.93006482e-02   2.35656881e-01   3.43439471e-01  -7.51182264e-01
    1.69583239e-01   1.84158284e-01  -8.70129323e-01  -4.74103639e-01
   -8.93275913e-02  -8.70350981e-01]
 [ -1.44666658e-01   9.25228425e-01   1.00532340e+00   7.71628465e-02
   -3.24666686e-01   2.97640019e-01   6.22907511e-01   4.92498701e-01
   -9.26697244e-01  -2.45529008e-01  -8.01196461e-01   1.18764676e-01
   -6.12527249e-01   5.89150848e-01   1.39315223e-03   8.04949918e-01
   -3.45335968e-01   1.07825715e+00  -5.94752050e-01   2.57576058e-01
    7.43612339e-01  -7.57228497e-01   5.47672353e-01  -4.12371406e-01
    4.87935250e-01   7.74419458e-03  -3.76612352e-01   1.52907286e-01
    7.14243253e-01   4.72939065e-01   1.42439764e+00   2.84305237e-01
    6.36927344e-01   1.07003875e+00  -6.05368471e-02   4.41223420e-01
   -5.65863244e-01  -3.30750667e-02  -6.53830725e-01  -1.12156123e-01
   -1.21749233e-01  -5.29761520e-01   2.79580461e-01   2.09889311e-02
   -2.31951596e-01  -6.98975516e-01  -2.57456382e-01  -2.31484358e-01
    1.74066362e-01  -6.91781247e-01]
 [  7.83870742e-01  -1.74718360e-01  -3.96311433e-01   8.18142191e-02
   -2.87006695e-01   2.81942123e-01   1.44901710e+00   3.86288634e-01
   -6.00816170e-01   5.90661907e-01   2.54359335e-01  -2.73762298e-01
    4.19887963e-02   2.23760380e-01   1.70365859e-01   5.00452900e-01
   -3.58941346e-01   1.17652072e+00  -6.11709356e-01   1.08418775e-02
    4.20016255e-01  -7.06412211e-01   5.42692603e-01   7.31816561e-02
   -5.13379600e-01  -6.04539497e-01   5.51093183e-01   5.39133596e-01
    3.26895953e-01   1.22784780e-02   1.06189663e-01  -2.16754715e-01
   -1.76811341e-02  -1.38845463e-01   1.44829521e-01  -2.03338472e-01
    1.26229931e-03  -5.31218219e-01  -5.60539292e-01  -1.67283212e-01
   -2.51528092e-01  -2.60290614e-01   3.19542661e-01   1.07279875e-01
   -1.30429258e-02  -4.43328973e-01  -2.26471513e-01  -1.28338582e+00
   -6.92582449e-01  -1.09939574e+00]
 [ -3.42111236e-01  -9.34332289e-02   1.00178048e+00  -3.82031121e-01
   -6.58111412e-01  -4.48886652e-02   1.01783573e+00  -1.04617823e-01
   -2.96063057e-01   4.05606209e-02   1.33872985e-01  -1.82118733e+00
   -7.31941476e-01   2.24224927e-01  -4.29605802e-01   4.56295227e-03
    1.12997693e-01  -5.86501051e-01  -1.77033479e-01   7.20505139e-01
   -1.05016380e-01  -2.05447216e-01  -2.72621276e-01   1.45934919e-01
    4.23431005e-01  -1.52337937e-01  -3.33267050e-01   2.12043488e-01
   -2.50716664e-02   1.64643722e-01   4.64696908e-01  -5.94871099e-01
   -4.06862283e-01   2.18020056e-01  -6.31362791e-01   1.40437778e-01
   -6.85415752e-01  -3.21134808e-01   1.74987081e-01   9.04199363e-02
    8.76115371e-02   2.27975565e-01   4.30858097e-02   5.97131633e-01
    1.11637307e+00   9.81784221e-01  -6.74945566e-01  -2.22236665e-01
   -3.97840985e-01  -1.55943159e-01]
 [ -3.26272794e-01  -8.10182525e-01   1.66543636e-01   2.54000941e-02
   -8.03821537e-01   8.66951443e-01  -5.00587429e-01   1.44592261e-01
    2.55254544e-01   7.00418963e-01   1.16350834e-01  -1.66013173e-01
    8.77648778e-01   6.99539036e-01   2.16284194e-01   1.12259663e-01
    1.32484904e-01  -4.66118768e-02  -2.49550699e-01   3.29573826e-01
    1.31556365e-01   5.34754472e-01   5.82129515e-02   2.56532049e-01
    1.02824517e-01   3.20243145e-01   4.11537203e-01  -2.92767869e-01
    5.04169266e-01   3.30396155e-01   4.72162298e-01  -7.12677591e-01
   -6.74175487e-01   2.11450803e-01   1.87061049e-02   5.47052106e-01
    2.56544024e-01  -7.24295605e-01   1.12710971e+00  -2.60596848e-01
    3.36055948e-01   9.33707638e-01   8.27842527e-01   9.80516057e-01
   -4.07689453e-01  -1.42914930e-01  -1.32496229e-01   7.63884989e-01
    1.14573240e-01   4.36416169e-01]
 [  4.89131898e-01  -9.66303095e-01   1.03132788e+00   4.28511819e-02
   -7.71821904e-01   4.21170368e-01  -5.63941407e-01  -1.18045223e-01
    1.04716851e+00   8.41224048e-01   4.52637316e-01   2.77905666e-01
    1.08286879e-01  -1.79362745e-02   5.31624422e-02   1.74549210e-01
    2.70646616e-01  -8.93148075e-02  -6.01208199e-01   4.06814537e-01
    9.95074045e-01   5.30401737e-01   7.44837608e-01   1.13647422e-01
    5.27408892e-01   2.86709368e-01   1.72985187e-01  -3.92759752e-01
    1.30425358e+00   1.01172418e+00   6.10080814e-01   1.35118549e-01
    3.52851973e-01   5.05987232e-01   5.24338282e-01  -1.13182073e-01
   -2.82136325e-02  -1.04177732e+00   3.40706334e-01   5.30351440e-02
    9.02051670e-01  -2.43310187e-03  -1.89641810e-01   4.19787316e-01
   -4.08986058e-01  -9.54119018e-01   8.41891285e-02  -7.39278324e-02
   -7.72379992e-01   7.71035527e-01]
 [  5.61665354e-01  -1.22305599e+00   2.34396029e-01  -2.04064814e-01
   -3.13656805e-01   5.97427424e-01   9.92330451e-02  -5.24665480e-01
   -1.98367719e-01   6.78156541e-01   1.82200063e-01  -5.26197484e-01
   -7.30343570e-02   5.91269558e-02  -9.77343903e-01  -1.84182111e-01
   -3.76852365e-01   2.76538156e-01  -6.46813495e-01  -4.71744601e-01
    5.04020623e-01   6.53073396e-01  -1.47056143e-01   1.58370773e-01
   -9.36301518e-02   6.44998811e-01   1.85843679e-01   3.45759236e-01
    2.58150696e-01   7.15241134e-01   4.19623224e-01   5.28713098e-01
   -6.04658746e-02   1.64296447e+00   2.69245561e-01  -2.32482290e-01
   -8.84632818e-01   2.68467637e-02   4.13255313e-01  -2.84827154e-02
   -7.54656742e-01   6.99293063e-01  -3.70245396e-01   4.74962191e-02
    5.22329295e-01  -1.66280638e-01   9.43447896e-01   3.55488164e-01
   -7.14215668e-02  -3.32329927e-01]
 [  5.42548689e-01  -8.03130710e-02  -2.09604835e-01   3.74437216e-02
   -1.06104740e+00   3.30151359e-02   4.62793356e-01  -3.05539876e-02
   -3.48669032e-01   6.04923079e-01   1.66562285e-01  -2.44875739e-01
   -9.77195434e-02   3.37236806e-01   7.29730870e-01  -2.23381360e-04
   -7.34137732e-02   2.07562134e-01   4.36209481e-01   2.02268180e-01
   -2.72419903e-01   3.03243271e-01   5.01178827e-01   2.50684956e-01
    3.19239945e-01   6.63858092e-01   5.16916034e-01   3.29070138e-01
    4.00695497e-01  -1.75054535e-01  -3.42860311e-01  -9.85528969e-02
    1.27987143e-01   4.66030388e-01  -2.73974260e-01   2.67326034e-01
    1.13197195e+00  -6.97784084e-01  -1.36569431e+00   6.32690877e-01
   -3.38084023e-01   6.16332941e-02  -5.91880042e-01   2.06471302e-01
    4.77516302e-01   4.95840332e-01  -4.92031680e-01  -8.14255424e-02
   -3.55493631e-01   7.37551337e-03]
 [  4.38457558e-01  -4.87430211e-02   6.78240202e-01   5.63776413e-01
   -3.18769170e-01  -1.79955355e-01   5.07984730e-02  -5.05168697e-01
    4.00104835e-01   1.19129409e-01   6.67070029e-01   5.44054837e-01
    7.65118557e-01   8.47744669e-01   4.61952870e-01  -8.43893509e-01
    1.86777843e-01   1.22921266e+00   6.54361744e-01  -4.51067004e-01
    3.12896937e-01   6.83775790e-01   7.99163518e-01   6.44469595e-01
   -7.28220040e-01  -3.84305151e-01   2.28679087e-01   7.29249965e-01
   -7.74997135e-01   2.58552044e-01   3.68761449e-02  -8.32451929e-02
   -3.95537908e-01  -4.03675519e-01   4.10459935e-01   2.63287505e-01
    8.67177763e-01   1.32510166e-01  -1.04605896e+00  -5.31409349e-01
    4.00958961e-01  -3.78019394e-01  -4.16704145e-01   6.87149241e-01
   -7.12921001e-01   1.30116179e+00  -1.24305408e+00  -3.52103487e-02
   -1.06284559e+00  -4.17541201e-03]
 [ -3.95666912e-01   9.05444699e-03   5.55262856e-01   5.32667760e-01
    2.18262707e-01   5.04341156e-01   6.00450744e-01  -9.27806876e-01
    3.17188939e-02   4.56303763e-01   1.06353884e+00   2.69630159e-01
    4.53481114e-01  -3.10375912e-01   3.86954133e-01  -7.55045412e-01
   -1.86060917e-01  -5.20353746e-01   8.72365787e-02  -2.15772038e-01
    4.33862939e-01   6.92616819e-01   6.06812384e-01   9.38417343e-01
   -4.47177617e-01   6.46199337e-01  -1.53518517e-01  -7.77526572e-01
   -7.23486390e-02   4.39183841e-01  -4.60945221e-02  -3.95426755e-01
   -2.31166108e-01   5.61751401e-01   1.94058192e-01   7.49103639e-01
    6.08140714e-01  -3.83627092e-01   7.10588907e-01   1.10089414e+00
    2.89406420e-01  -2.41568607e-01  -1.07867124e+00   1.67522629e-01
   -3.95094717e-01  -3.97033352e-01  -8.05354091e-03   4.38777085e-01
   -1.75761202e-02  -1.51891412e-01]
 [  3.79756197e-01   1.19983941e-01  -3.05786744e-01   9.26484192e-01
    3.76922599e-01  -4.37111357e-01   4.03152181e-01  -7.72145888e-01
   -5.64074302e-01  -1.13410535e-01   1.03867645e+00  -2.60706872e-02
   -1.38905067e-01  -6.46430776e-01  -1.07113556e-01  -3.68555301e-01
    2.99504144e-01  -1.25422497e-01  -2.29475496e-01   5.64412456e-01
    9.51339328e-01   1.54535563e-01   2.52343515e-01   7.95570020e-01
   -1.11962542e+00   6.48879931e-01  -1.59654769e-01   4.51030437e-01
    3.07384870e-02   1.02644507e-01   6.97559735e-02  -2.09872549e-02
   -4.81330684e-01   5.70925785e-01   6.28574609e-01   6.33585393e-01
    9.16643394e-01  -3.64056616e-01   4.80576998e-01  -7.25027236e-01
    2.66417717e-01   9.47572141e-01   3.70898293e-01   5.68144268e-02
   -1.45417367e-01  -7.21726127e-02   1.41136773e-01   4.55911119e-01
   -5.30655311e-01  -2.30834231e-01]
 [  1.29307507e-01   3.02567718e-01   1.04613338e+00   5.04373855e-01
   -1.72378011e-01  -2.26359394e-01  -1.41999442e+00   2.40476088e-01
   -1.82920413e-01  -1.02486842e-01   6.93665980e-01   6.64862315e-01
    5.03428692e-01  -7.57780686e-01  -5.19717531e-01  -2.68406939e-01
   -4.09511432e-02   7.72760357e-01  -3.91974453e-01   5.11525838e-01
    8.61609596e-01  -2.63023318e-01  -4.66641053e-01  -5.13293215e-01
    2.39039457e-01   1.27719360e+00  -5.66784751e-03   5.32763339e-01
    4.21104098e-01   6.04856139e-02   5.68453117e-01   3.39578777e-01
    8.67586222e-01  -6.07874739e-01   7.34647091e-01  -5.37425259e-01
    5.93601358e-02  -4.36867883e-01  -2.96983796e-01  -2.18895187e-01
    7.22362058e-01   1.29847734e+00  -6.34169992e-01   1.65466482e-01
   -2.56882218e-01  -1.06671059e-01   3.80730287e-01   5.34213785e-01
   -1.02991830e+00   5.32017805e-01]
 [  3.13960328e-01  -5.80936185e-01   5.76493956e-01  -4.08094453e-01
   -3.22524380e-01  -1.81556966e-01   8.89684195e-01   3.18562585e-01
   -8.31360489e-02  -6.46118262e-01   3.56480259e-01  -2.85230244e-01
    8.71915644e-02  -4.47541860e-01  -1.75643304e-01  -1.43114373e+00
   -5.68802377e-01  -4.36303383e-01  -4.07683919e-01   6.42606817e-01
    4.66263917e-01  -2.56500005e-01  -1.19964375e-01   2.37622288e-02
    3.67932932e-01   7.11223514e-01   2.16915963e-01  -3.32252192e-01
    3.31696139e-01   1.17747349e-01  -1.58306186e-01   1.03431450e+00
   -5.46927193e-02  -8.57229336e-01   5.59874288e-01  -2.98599641e-01
   -2.05405884e-01  -4.89031172e-01  -3.46081026e-01   3.24806524e-01
    6.62419455e-02   6.93319915e-01   5.96860189e-01   1.69875242e-01
    2.46825893e-01  -6.80335475e-01   1.45937397e+00   3.85517696e-01
   -1.38728415e-01   1.14014454e-01]
 [ -2.62920486e-01  -1.13317055e+00  -3.32349773e-01  -4.23885968e-01
    1.44597969e-01   9.16531101e-01   2.39316114e-01   2.65121152e-01
   -1.61113910e-02  -4.90978228e-02   1.97460657e-01   2.40599681e-01
   -2.91065255e-01  -4.69496703e-01  -1.42464698e-01  -3.31977674e-01
   -8.46698100e-02  -6.07418722e-01   3.27308468e-01   3.31991734e-01
    3.13044406e-01  -6.49582030e-01   2.83349566e-01   2.23732603e-01
   -7.21794983e-01   3.45680586e-01   1.26955372e-01  -8.37121303e-01
    1.23354496e-01   7.36327051e-02   5.23519733e-01   6.61994608e-01
    7.48684640e-01  -2.21907919e-01   4.43204989e-02   4.66238941e-01
    3.35492877e-01  -1.53845196e-01  -3.38841293e-01  -5.76100096e-01
   -9.70415667e-01   7.40190854e-01  -3.22478918e-02   6.27438220e-01
   -3.42449258e-01   6.48023464e-01   3.89100410e-01   3.62355559e-01
   -4.20980250e-01   2.76350208e-01]
 [  6.53803426e-01  -1.85196130e-01   5.09665992e-01   4.22170884e-03
    4.39529920e-01   4.22037952e-01   7.30255929e-02   2.64908513e-01
   -6.74267752e-01   3.46212379e-01   4.95115813e-02   2.11643017e-01
   -7.85851908e-01  -6.86595240e-01  -2.73889588e-01  -1.62815556e-01
   -2.72571761e-01  -6.05559473e-01  -9.07534971e-01   1.21981459e+00
    9.66869026e-01  -2.16063363e-01   1.88411329e-01  -8.33553053e-01
    4.08769812e-01   8.26124017e-01  -7.14453147e-02  -5.80599791e-01
   -1.61775381e-02  -1.06107712e+00   2.77181572e-01   5.83468208e-01
    3.29927242e-01  -4.05970676e-01   3.55185012e-01   1.10001873e-01
   -7.26906233e-01   5.88770203e-01  -4.02134836e-01  -7.84648013e-01
    2.29570372e-01   4.23761651e-01   1.00133508e+00  -4.52707015e-01
    2.73417261e-01   6.25751379e-02   9.43170918e-02   1.55587543e-01
   -1.37878051e-01  -6.93380000e-01]
 [  8.03956600e-02   7.33887925e-01   1.19805603e+00  -5.76228713e-02
    3.55805720e-01   6.21267288e-01  -7.87540632e-03   1.09142208e-02
   -5.38141780e-01   1.04513478e-01  -2.32943760e-01   5.44401543e-02
   -6.98519123e-01   2.88715473e-01  -7.99289720e-01   1.96921238e-01
   -7.70830721e-02  -6.67329382e-01  -6.89492522e-01   5.90120287e-01
    4.80306160e-01  -4.78293373e-01   2.62411948e-01  -1.01670059e+00
    9.81466063e-02  -3.89896567e-01   4.39744856e-01   4.83394882e-02
   -5.93016384e-01  -1.44001871e-01   2.61073714e-01   5.31198433e-03
    7.73498678e-01   3.77847077e-01   4.84293300e-01   1.41648516e-01
    3.10436663e-01   3.26850955e-01   3.89256441e-01  -4.08051467e-01
    3.65666624e-02   1.54872269e+00   5.09078860e-01   9.39628753e-01
   -8.22537008e-01  -3.87500981e-01  -1.40322641e-01  -1.59559062e-01
   -8.36032781e-01  -1.98342891e-01]
 [ -6.94368341e-01   4.95228999e-01   9.43068947e-02   3.50237786e-01
    1.86041678e-01   7.24653821e-01  -5.48638901e-01   3.58320687e-01
    7.64225568e-02   9.55612479e-01  -3.90912472e-02  -2.99414004e-01
    1.32012371e-01   7.87715679e-01  -9.48419952e-03  -2.27084774e-01
    2.63456954e-02  -1.42595120e-01  -1.71780696e-01   9.68443843e-01
    1.88989663e-01  -4.02689443e-01  -4.54215085e-01  -8.44636482e-01
    1.15333356e-01   4.04812873e-01   3.65112726e-02   1.09057194e-01
    5.10298439e-01  -6.93117264e-01   6.94792284e-01   2.94822997e-01
    4.72390684e-01  -4.11100469e-01   5.15592964e-01   1.58098193e-01
    2.62996039e-01   4.64258824e-02  -1.32691892e-01   1.64318204e-02
   -2.06529799e-03   3.30555506e-02  -7.56022783e-02   3.24043568e-01
   -9.83631308e-01   1.02415630e-01  -2.77574428e-01   2.18645210e-01
    6.19720478e-02   1.14803316e-01]
 [ -2.13741311e-01   2.56355288e-01   4.28870426e-01  -2.53850058e-01
    4.14167428e-02   5.56506556e-02  -2.76190817e-01  -7.75956917e-01
   -5.46200134e-01   5.80299709e-01   2.27925721e-01  -3.82139748e-01
   -1.32295327e-02   5.69348679e-01  -4.70426508e-01  -9.54890120e-02
   -1.35224173e-01  -5.76716599e-01  -1.40523394e-01   1.41567009e-01
    3.56371100e-01   3.26531361e-01   2.29204653e-01   5.53731217e-01
    1.28065752e-01   1.51379261e-01   4.41867869e-02  -2.74236970e-01
   -7.61132300e-01  -5.03402887e-01   2.89037905e-01   4.70123909e-02
    6.01637418e-01  -2.23324931e-01   5.54943727e-01  -2.10352122e-01
   -2.52590932e-01   4.53950000e-01   3.32442135e-01  -3.68797879e-01
    5.52124053e-01   8.36455395e-01   4.56252110e-02   3.54845338e-01
    1.54460224e-01  -2.06154960e-01   5.37075005e-01   5.83592588e-01
   -1.53209237e-01  -8.74799071e-02]
 [ -1.49322545e-01   2.03777498e-01   1.25610791e-01  -7.25714706e-02
    5.14627724e-01  -1.14824745e-01  -2.26055679e-01   1.72547960e-02
    3.81540302e-02  -8.08275680e-02  -1.90917250e-01  -1.77316014e-01
   -4.65771629e-01  -1.70236071e-01  -4.17385882e-01  -4.63526156e-02
   -3.44691265e-01   4.26233164e-02  -2.56405375e-02   1.90042939e-01
    3.05726058e-01  -2.95158861e-01   2.75056525e-03  -2.32041168e-01
   -1.83915265e-01   1.93233997e-01  -1.10786401e-01  -3.65336871e-01
    3.95115918e-02  -3.31012124e-01   4.25694671e-01   3.45483533e-01
    4.06199674e-01  -3.05797546e-01   1.53043228e-01  -3.72299742e-01
    4.36865982e-03   4.63563511e-01   5.08443105e-01  -4.32830050e-01
   -2.31061495e-01   5.49996515e-01  -1.34732830e-01  -2.20716160e-01
    6.54876336e-02   2.56996395e-01   2.15363753e-01   5.92151130e-02
    1.83951985e-01  -1.08724093e-01]
 [ -1.60819502e-01  -8.45031484e-02   2.40176728e-02  -2.37789999e-01
   -5.65753556e-02  -1.60175983e-01  -1.05311226e-01   1.25754434e-01
   -2.42606480e-01   2.57066463e-01   3.07465816e-01   2.82261216e-01
    1.22589080e-01   5.44469133e-01   2.11726152e-01   5.35277717e-02
    3.28359133e-01  -1.93161696e-01   3.17403292e-01   1.32402936e-01
    6.42786930e-03  -1.57871071e-01   4.01762118e-02   4.14620245e-01
   -2.69971674e-01   1.86043967e-01  -1.45522174e-01  -1.71394772e-01
   -9.96393704e-02  -1.84673107e-01  -2.98477983e-01   8.55837376e-02
    1.98510279e-01  -2.52159539e-01   1.27931310e-01  -1.75962465e-01
    5.55525516e-01  -8.06506445e-02  -1.79433301e-02  -4.14287013e-01
    1.62442492e-01  -1.34550206e-01  -2.30579165e-02   2.90875254e-01
   -3.20015301e-01   6.09206911e-02  -7.78149395e-03   3.12052124e-01
    3.41398699e-01  -2.17351692e-01]]
b   [  1.06116191e-03   1.80648902e-01  -4.28065158e-01  -3.40196030e-01
  -2.51027151e-01  -4.04930893e-01  -5.63454447e-01  -5.26492503e-01
  -7.01116981e-01  -5.20978390e-01  -5.62271747e-01  -6.39115325e-01
  -6.12885155e-01  -9.41793255e-01  -7.45912582e-01  -7.95016288e-01
  -9.40224996e-01  -7.52270411e-01  -7.87215857e-01  -1.19769926e+00
  -7.22458808e-01  -1.01276247e+00  -7.38524855e-01  -7.38973399e-01
  -9.29104665e-01  -8.95918880e-01  -7.35242523e-01  -9.78870475e-01
  -1.08546656e+00  -1.15355834e+00  -1.60256649e+00  -1.24833998e+00
  -1.15650114e+00  -1.13773377e+00  -1.80566721e+00  -1.32170444e+00
  -1.58278582e+00  -1.60659990e+00  -1.74242363e+00  -1.53823698e+00
  -1.37992457e+00  -1.34421809e+00  -1.00525143e+00  -7.38251018e-01
  -8.31282675e-01  -7.36657049e-01  -8.10930625e-01  -1.17850478e+00
  -1.94465216e+00  -2.72869989e+00]
train_err   0.453359495625
U   [[  1.42401725e-01  -1.34468016e-01   2.68941457e-01   1.93323355e-01
   -9.68624680e-02   2.66489359e-01  -3.15903236e-02   8.13424114e-02
    8.96345583e-02  -1.04202536e-02  -2.39906328e-01  -2.06502602e-01
    2.60258559e-01  -7.54763858e-03   1.62247515e-01  -1.93718017e-02
   -3.39766765e-02   3.14683093e-01  -4.57170496e-02   1.81717582e-01
    3.61421022e-01   2.71595257e-01   5.69593786e-01   2.17028665e+00
   -2.31618411e+00  -7.49588286e-01  -6.31094868e-01  -3.24064911e-01
   -1.69415736e-01   6.78721748e-02   3.04630520e-01   2.37750957e-01
    3.95865912e-01   2.03933846e-01   4.30446536e-01   2.44696352e-01
    1.55712769e-01   3.89109859e-01   5.45648487e-02   2.66311052e-02
    7.45112014e-01   7.70421920e-01   5.24663680e-01   4.59950435e-01
    2.62562184e-01  -4.85910805e-01   1.37973520e+00   1.25043381e+00
    6.64804288e-01   7.05505590e-01]
 [ -5.79195867e-01  -5.39189144e-01  -6.20318674e-01  -6.07070864e-01
   -5.55404515e-01  -7.07068234e-01  -7.71313418e-01  -2.34945868e+00
    2.48678880e+00   6.10910630e-01   4.16491422e-01  -4.32082888e-03
    9.51224150e-03  -1.51380274e-01  -6.35461171e-03  -4.38863323e-01
    8.05045912e-02  -1.37977712e-01  -3.04831325e-01  -5.21282804e-01
   -7.05471670e-01  -9.05076612e-01  -4.33484876e-01  -7.27568422e-01
   -5.61373714e-01  -7.62021418e-01  -3.27092333e-01  -6.50802040e-01
   -5.94104180e-01  -6.33654623e-01  -3.62981756e-01  -3.70736867e-01
   -3.04833571e-01  -3.36553624e-01  -1.04815310e+00  -7.82482416e-01
   -1.01965011e+00  -3.49074614e-01  -3.23509182e-01   2.78074638e-02
   -6.55150454e-01  -1.68197989e-02  -9.51149408e-01  -1.12842585e+00
   -5.40483480e-02   2.53582442e-01  -8.73695583e-01  -1.76739401e+00
   -1.13382194e+00  -1.39780746e+00]
 [  1.27701184e-01   1.90475325e-01   4.12694696e-01   3.03952256e-01
    2.38164021e-01   4.65657164e-01   7.28688998e-01   4.68824976e-01
    1.29171170e+00   2.41284448e+00   1.82595944e+00   2.06244072e+00
    1.83472046e+00   2.28581753e+00   1.44756501e+00   2.08489866e+00
    1.95799040e+00   1.62855081e+00   1.43690488e+00   1.90241021e+00
    8.41731853e-01   1.06779139e+00   1.04993023e+00   1.24043684e+00
    1.21735068e+00   6.48390280e-01   3.58069146e-01   9.29170639e-01
    9.81916161e-01   8.47356443e-01   1.19250388e+00   8.02537032e-01
    6.35094917e-01   5.23631390e-01   1.08187352e+00   1.05550806e+00
    8.80733932e-01   4.34471086e-01   6.23725256e-01   3.47054345e-01
    1.30368704e+00   9.51596019e-01   1.35849796e+00   1.15361549e+00
    1.95039764e+00   3.12128092e+00   2.67075013e+00   2.57975826e+00
    2.60587577e+00   1.68180047e+00]
 [  2.35093096e-01   1.65228237e-01   5.61077971e-02  -6.72035583e-01
    1.10829355e-01  -9.46946208e-01  -3.64912350e-01  -7.57439743e-02
   -3.06568693e-01  -5.50984360e-01  -1.89333583e-01  -5.37838289e-01
   -2.06795929e+00  -5.24958583e-01  -3.34552438e-01  -3.59631632e-01
    8.72790699e-02  -2.30552856e-01  -1.82597323e-01  -2.22927039e-01
   -3.75585128e-01  -6.09468352e-01  -9.93866020e-01  -3.52522572e-01
   -4.16098063e-01  -2.54641935e+00  -1.24648036e+00  -6.28859676e-01
   -9.42015184e-01  -5.52260439e-01  -1.33083251e+00  -3.82038829e-01
   -9.75342587e-01  -2.34312154e+00   1.62347469e+00  -6.01395578e-01
    2.93988307e-01  -2.00295258e+00  -1.42375195e+00  -5.63495245e-01
   -1.11681660e+00  -1.06818230e+00  -2.73929538e-01  -7.70744463e-01
   -1.25354987e+00  -4.71872434e-01  -1.25740473e+00  -1.05149017e-01
   -7.15058539e-01  -7.62074898e-01]
 [  5.92401411e-01   5.87355615e-01   8.69074836e-01   3.33281329e-01
   -2.05089206e-01   6.66711329e-01   4.65921141e-01   2.19735179e-01
    5.26209273e-01   6.82311770e-01   6.43823932e-01   2.78263840e+00
   -2.21138186e+00  -6.70889808e-01  -5.97301643e-01  -2.10520081e-01
   -4.43464923e-01   4.02571162e-02   3.53512832e-02   5.05572603e-01
    7.32475462e-02   3.22425616e-01   3.75258330e-01   3.44582887e-01
    3.49987173e-01   4.49818436e-01   4.14815124e-01   7.12810642e-01
    5.37442138e-01   4.31063124e-01   4.85505912e-01   2.84348502e-01
    2.22391762e-01   3.55022235e-01   4.70010910e-01   4.73714150e-01
    1.03701748e+00   7.46336426e-01   4.33204062e-01   7.49016983e-01
    4.61579540e-01   3.74382162e-01   1.05572823e+00  -2.63594492e-01
    2.13944893e-01   2.16570497e-01   6.51065773e-01   1.38537685e+00
    1.34932077e+00   1.40545060e+00]
 [  1.90175815e-02   9.42987315e-02   2.36340607e-01   7.47132977e-02
    1.55996028e-01   3.71265287e-01   4.11640120e-01   5.83950457e-01
    4.36312985e-01   8.73226123e-02   5.05575769e-01   3.58489327e-01
    5.84569662e-01   5.10846425e-01   2.42151527e-01   4.01797585e-01
    3.49774998e-01   7.07574425e-01   4.17425268e-01   4.48461882e-01
    1.16872497e-01  -7.48745859e-02   1.24239612e+00   5.64600354e-01
    8.74345583e-01   1.00490914e+00   6.54695184e-01   1.00128034e+00
    1.12562990e+00   1.08717211e+00   9.04044963e-01   7.14083100e-01
    2.77394692e-01   7.75265062e-01   1.41015880e+00   1.45928648e+00
    8.68671198e-01   3.90696730e-01   5.23060676e-01   4.80832499e-01
    8.36370611e-01   5.90145095e-01   3.90222089e-01   4.23276659e-01
    4.21213268e-01   4.24503887e-01   1.31493298e+00   8.66283410e-01
    1.05669068e+00   1.63182324e+00]
 [  1.66567709e-01   8.37755800e-04   7.60541145e-02  -6.04430099e-02
    2.49830212e-01   3.99739450e-01   4.30121771e-01   3.97844549e-01
    3.09948321e-01   3.63658592e-01   3.67380978e-01   2.39067604e-01
    3.27993790e-01   5.03529102e-01   3.09103212e-01   1.56446624e-01
    3.10286221e-01   4.03526966e-01   3.40847394e-01   4.05441091e-01
    3.93935961e-01   2.37689054e-02   2.12316788e-01   1.82785568e-01
    1.37571707e-01  -1.52499349e+00   2.30362704e+00   9.08899797e-01
    8.62951615e-01   3.72597377e-01   7.31784639e-01   3.72345490e-01
    2.40491477e+00  -3.05689599e+00  -2.09639472e+00  -1.19916417e+00
   -9.22198744e-01   2.99460256e-01  -9.31741416e-01  -9.70146143e-01
   -7.96798441e-01  -1.39910146e+00   4.99161796e-01  -1.06206548e-01
    5.27985174e-01   2.02709665e-02   3.76561409e-01  -9.38493231e-02
    5.25110849e-01   6.13463646e-01]
 [  4.39927953e-01   3.53508519e-01   6.30179993e-01   1.02020425e+00
   -1.27003177e+00  -4.01991761e-02   3.54722415e-01  -3.32215192e-02
   -1.45460914e-01   2.21275232e-01   5.18027435e-01   1.74213680e-01
    1.75992876e-01  -3.79777284e-01   1.87013675e-01   1.28728132e-01
    3.64441700e-01   1.05635184e-01   1.73427502e-01   4.78287953e-03
    1.52258138e-01   4.64778846e-01  -9.39855068e-03   2.07650104e-01
    2.66129563e-01   3.66078070e-01   4.00512608e-01   4.11365235e-01
    3.67138423e-01   4.27809389e-01   4.46080657e-01   4.55913502e-01
    4.78313329e-01   3.33959772e-01   1.68723459e-01   1.01910778e-01
    1.57160075e-01   7.42476431e-01   1.17530331e+00   6.21523119e-01
    1.26153570e+00   6.01454416e-01   8.59788298e-01   6.95730021e-01
    4.32462313e-01   3.49072482e-01   5.72916358e-01   1.81407277e-01
    1.36712803e+00   1.00327150e+00]
 [ -9.43479694e-02   4.54348087e-02  -6.53303492e-02  -1.15862582e-01
   -1.78987851e-01  -1.86312945e-01  -1.53571584e-01  -1.60755164e-01
   -1.97384946e-01  -1.27334748e-01  -3.92520390e-01  -3.27442846e-01
   -2.93797916e-01  -6.24080373e-01  -2.48975782e-01  -3.41978898e-01
   -3.61537126e-01  -4.34865325e-01  -4.48346302e-01  -4.36807605e-01
   -3.82229201e-01  -7.70325476e-01   1.92519106e-02  -4.03966169e-01
   -1.22619367e-01  -4.28395063e-01  -4.30920111e-01   1.18175077e+00
   -2.92917829e+00  -3.08959573e+00   3.59146480e-01  -6.54841719e-01
   -2.25470200e-02  -7.69782067e-01  -1.60672916e+00  -1.49223666e+00
   -1.03942583e+00  -1.10098525e+00  -1.34247557e+00  -2.99947374e-01
   -5.66893503e-01  -8.29819990e-01  -5.39306923e-03  -2.10102001e-01
   -9.09212454e-01  -5.34015677e-01   4.27344829e-01  -9.43298232e-01
   -1.48254478e+00  -1.11739321e+00]
 [ -3.91115994e-02  -4.62531965e-01  -4.77201814e-02   1.51121395e-02
   -2.28818300e-01   6.28783858e-02  -2.40867501e-01  -1.48977056e-01
   -6.67437190e-02  -2.28081367e-01  -2.33099339e-01  -2.36277448e-01
   -2.94576317e-01  -6.91230946e-02  -2.46063409e-01  -3.61909236e-01
   -6.36463816e-02  -7.30909854e-02  -1.23661950e-01  -4.45938109e-01
    9.34273949e-02  -2.03504754e-01  -2.27345514e-01  -3.64956494e-01
   -1.99768514e-01  -9.12955358e-02   1.63471239e-01   6.25792887e-01
    1.56427090e+00  -2.05079406e+00  -2.55752117e+00  -1.34302161e+00
   -5.27008967e-01  -1.13681932e+00  -4.45856110e-01  -7.87784439e-01
   -8.36812957e-01  -8.51363456e-01  -9.67130658e-01  -3.89368024e-01
    2.97700715e-01  -1.08223668e-01   3.27405963e-01   3.29092307e-01
    3.87174867e-01  -5.59017155e-01  -4.89470195e-01  -5.06032160e-01
   -2.20812449e-02   1.89231016e-01]
 [  1.07024930e+00   5.80136949e-01   1.32544584e-01   9.28858546e-02
   -2.48078689e-01   2.58322289e-01   2.81940271e-01   1.39741419e-01
    4.97820747e-01   7.53253837e-01   7.56614744e-01   5.86294304e-01
    3.17376512e-01   4.78772888e-01   4.67019411e-01   7.77723052e-01
    7.44587364e-01   8.16305690e-01   4.58898102e-01   4.66534291e-01
    8.10990406e-01   1.27146224e+00   2.03425194e-01   2.36099448e-01
    1.61538858e-01   5.31039144e-01   9.47166583e-01   1.33626597e+00
    9.23222894e-01   5.99882379e-01   5.66328803e-01   5.51546863e-01
    9.62885130e-01   7.24133099e-01   1.29280016e-01   7.30835952e-01
    9.95103968e-01   4.98427538e-01   9.93521547e-01   1.47552878e+00
    6.63027730e-01   2.68451222e-01   9.09118987e-01   2.86992081e-01
    2.42709708e-01   8.16075357e-01   2.70254328e-01   1.41313952e+00
    1.46190644e+00   1.68754297e+00]
 [  1.91343499e+00  -3.88483484e-01  -4.00266028e-01  -3.83492917e-01
   -4.57139890e-01  -2.86493286e-01  -2.23535752e-01  -1.90945473e-01
   -2.92252594e-01  -2.61699077e-01  -1.52581611e-01  -2.22698675e-01
   -2.06103519e-01  -9.87596860e-02  -2.40702926e-01  -3.01074946e-01
   -2.45132862e-01  -2.04495446e-01  -1.80445328e-01  -3.52198100e-01
   -2.07347248e-01  -3.28704701e-01  -6.44285054e-02  -1.78180803e-01
    1.06292232e-01  -1.21241508e-01  -7.28632239e-02   9.26245979e-03
   -1.99561754e-01  -1.28915963e-01  -1.46529616e-02  -2.51967937e-01
   -4.20173573e-01  -1.74919813e-01  -9.83346104e-02   3.30285908e-01
   -5.59967065e-03  -1.71228761e-01  -1.43041990e-01  -2.08620618e-01
   -6.74875326e-01  -4.69036028e-01  -2.80478020e-01  -4.57313026e-01
   -9.66878254e-02   2.11963739e-01   5.45260781e-01   2.14735472e-01
    4.63748185e-01   8.22266314e-01]
 [ -1.01910332e-01  -1.37528827e-01  -1.13519731e-01  -6.00668426e-02
   -6.83442560e-02  -8.00516563e-02  -5.89754657e-03  -4.97284243e-03
   -4.24900701e-02   2.41989794e-02  -6.97483877e-02  -1.00178618e-01
   -2.37564912e-01   2.19714083e-02  -3.22003740e-01  -6.09921118e-03
   -7.32339208e-02  -2.54617119e-01  -2.89982237e-02   1.85451959e-01
    1.22755308e+00  -2.81815833e+00  -1.33061015e+00  -8.42084171e-01
   -7.51946816e-01  -6.60511331e-01  -8.06879010e-01   3.57579312e-01
    3.06663291e-01   1.19944803e-01   6.42493670e-01  -7.01697997e-02
    1.30860934e+00   2.02522114e-01   2.25444659e-01   1.03273082e+00
    3.33703146e-01   8.90008513e-02  -1.66448932e-01   2.86803106e-01
    2.59701198e-01  -3.04533340e-01  -2.73348189e-01  -3.97414676e-02
   -5.50039630e-01   9.37918345e-03  -1.75099973e-01   8.08205304e-03
    5.92958202e-02   1.93502557e-01]
 [ -1.96936307e-02  -1.19243504e-01  -1.02604265e-01   1.89692392e-01
    1.81698125e-01   2.13243601e-01   1.88433905e-01   3.82721669e-01
    4.61853554e-02   1.28595034e-01   2.42450340e-01   5.53601764e-01
    5.43335429e-01   1.14136898e+00   3.63289546e-01   4.59976090e-01
    2.13987752e-01   9.92899581e-02   1.14132268e-01   3.47382887e-01
    6.24303192e-02  -1.99463795e+00   7.85126563e+00   4.40317524e+00
    4.01377853e+00   1.99888443e+00   2.96372763e+00   2.88870437e+00
    2.21670367e+00   2.38419835e+00   5.99856768e+00   3.65421133e+00
    3.16125915e+00   3.12939612e+00   4.01961028e+00   2.37663341e+00
    3.17858246e+00   3.66789301e+00   3.68717990e+00   3.28234492e+00
    2.28518115e+00   1.62537136e+00   2.69852683e+00   2.07352740e+00
    2.23647712e+00   1.59401200e+00   1.46457104e+00   1.11117872e+00
    1.80303447e+00   1.33930531e+00]
 [  6.46462207e-01   5.32480220e-01   6.75434544e-01  -1.96496236e+00
    1.95342144e-01   4.32863512e-01   5.78127862e-01   2.32523440e-01
    1.77826556e-01   2.95248893e-01   3.84733910e-01   3.42029700e-01
    2.03957484e-01   2.97642962e-02   2.81029838e-01   2.07502186e-01
    3.00186626e-01   1.18511908e-01   2.06173356e-01   2.10602683e-01
    2.11207531e-01   6.35216735e-01   2.08928182e-01   3.92035370e-01
    1.40746160e-01   1.31898992e-01   4.18354733e-01   4.05014240e-01
    2.58366837e-02   2.19503618e-01   1.18868231e-01   5.63612417e-01
    5.82306219e-01   3.59093875e-01   1.81208747e-01   4.52088439e-01
    5.32185316e-01   8.41456782e-01   3.14807283e-01   1.82556247e-01
   -8.78561813e-01   1.46217086e-01   1.22589541e+00   7.19321381e-01
   -7.70911340e-02  -6.70989027e-01  -4.37265270e-01   5.49631621e-01
    5.20840350e-01   9.41474883e-01]
 [ -2.03519083e-01  -2.25321870e-01  -2.95027338e-01  -1.81204123e-01
   -1.23231165e-02  -1.67062880e-01  -2.04541555e-01   2.15963290e-01
   -1.29141649e-01  -1.92130245e-02  -5.80441186e-02   7.37104039e-02
   -2.65087128e-02  -5.16224704e-02  -7.20754656e-02  -2.93428798e-01
   -1.74571884e+00   3.05139875e+00   1.24927995e+00   8.19950802e-01
    6.21606394e-01   4.90650857e-01  -2.56063955e-02  -3.14944178e-01
   -1.52732169e-01  -3.28390362e-02  -1.38060995e-01  -2.75126752e-01
    1.36686248e-02  -2.34906961e-01   9.08641323e-02  -1.83587934e-01
   -8.80898994e-03  -1.13132405e-01  -2.49244359e-02  -4.53563020e-02
    6.40974783e-01   8.39808206e-01  -1.80131673e+00  -3.25664225e-01
   -2.23460358e-01   4.06706896e-01   3.67396973e-01   4.02784985e-01
   -1.29886116e-01  -5.58578382e-01  -3.56747769e-01   2.14026194e-01
   -2.12151159e-01  -1.58541102e-01]
 [  9.19215527e-01   9.64423195e-01   8.91769935e-01   1.06927981e+00
    1.30782927e+00  -1.74973076e+00  -1.59446568e-01  -8.51016508e-02
    3.15424491e-02   1.05459367e-01   1.45555589e-01   1.50663591e-01
    1.17080134e-01   2.13135311e-01   2.87379426e-01   3.56681133e-02
    1.94912978e-01   3.86935837e-01   6.10608581e-01   3.13470251e-01
    4.26512417e-01   3.44672714e-01   5.84494380e-01   6.40700144e-01
    4.64065602e-01   2.01539662e-01   4.11665566e-01   3.03075977e-01
    4.92911401e-01   4.75860363e-01   5.03798422e-01   4.77042037e-01
    1.20520785e+00   6.44149592e-01   2.04323812e-01   5.57549985e-01
    6.16533264e-01   8.48663819e-01   2.62096693e-01   3.97482023e-01
    6.82554821e-01   5.83392942e-01   1.23105200e+00   1.66446395e+00
    1.34057924e+00   7.97370695e-01   7.25542742e-01   5.77459090e-01
    6.10616101e-01   3.50231867e-01]
 [  9.07167616e-01   1.09380995e+00   1.59144328e+00  -5.85294616e-01
   -8.11055069e-01  -7.17349580e-02  -4.60028815e-03  -5.08700749e-02
    3.26883844e-01   3.13855317e-01   5.88830794e-01   1.15846712e+00
    2.12449734e+00   2.00758512e+00   1.50132212e+00   9.45042043e-01
    1.08051470e+00   1.08170425e+00   9.66582555e-01   1.57261372e+00
    3.87356678e-01   8.21967873e-01   7.50275252e-01   7.82206829e-01
    1.03539789e+00   7.95810678e-01   6.00503799e-01   9.00498435e-01
    7.98114192e-01   6.32117754e-01   5.93911936e-01   6.35669438e-01
    3.59736714e-01   3.28594720e-01   9.17320251e-01  -6.34696994e-03
   -8.45624764e-01   1.96471043e+00   7.13386692e-01   1.58061190e-01
    1.77695248e+00   1.38922660e+00   1.02140616e-01   1.41061311e+00
    1.45433213e-01   1.22649937e-01   1.48131735e-01  -1.93531757e-01
    2.55129331e-01   5.26463937e-01]
 [  5.53780298e-01   5.31855829e-01   5.00496802e-01   4.53283197e-01
    3.94116487e-01   2.20072128e+00  -2.17390707e+00  -4.72669981e-01
   -3.41066742e-01  -2.36545032e-01   1.46496874e-01   3.70623541e-01
    1.56478855e-01   3.45726072e-01  -1.53882961e-01   5.06367551e-01
   -6.38930185e-02   1.03666137e-01   7.87829913e-02   7.63143217e-02
    1.46555801e-01   3.31312068e-01  -2.28967468e-02   1.32809936e-01
    4.92268976e-01   3.95258854e-01   5.77413708e-01   2.56954223e-01
    6.14660645e-02   5.19922998e-01   1.05838778e+00   4.02582786e-01
    1.06701031e+00   3.87173499e-01   1.32130780e+00   1.01249220e+00
    6.07778383e-01   7.88403936e-01   6.07246085e-01   6.76902144e-01
    9.91947420e-01   9.44494551e-01   1.39001166e+00   1.22210527e+00
    8.61495888e-01   1.01795193e+00   5.06867406e-01  -6.10440396e-01
    2.46002137e-01  -1.41940399e-01]
 [ -1.77709438e-01  -2.16957083e-01  -2.39832422e-01   2.52816632e-02
    6.28841993e-02  -9.69454491e-02  -7.01213670e-02   4.82343506e-02
   -2.68019440e-01  -1.46332513e+00   3.58062959e+00   2.30632461e+00
    1.54104478e+00   7.51221644e-01   8.38784928e-01   4.91962043e-01
    1.20215345e+00   2.55129643e-01   1.54683718e-01   2.02563710e-01
    2.73790420e-01   6.22496242e-03  -1.75820445e-01   1.93912961e-02
   -5.48510469e-02   2.68262507e-03  -1.87008130e-01  -2.39595335e-01
   -1.74143452e-01   2.39391880e-01  -1.12247598e-01  -6.86716991e-02
   -4.19963278e-01  -1.22466007e+00   1.91963815e-02  -2.46859256e-01
    2.39917466e-01   3.25535132e-01  -1.68457077e+00   3.06989510e-01
   -6.30483378e-01  -6.07364241e-01  -3.95020870e-01  -3.64602597e-01
    3.99753921e-02  -6.65940086e-01   3.11839333e-01  -1.52539896e-01
    6.01875483e-01  -9.18639315e-02]
 [  1.35391732e-01   9.99848168e-02   5.33004326e-02  -3.47245812e-02
   -3.04918263e-02  -1.06480983e+00  -2.42364256e+00  -2.01611752e-01
   -2.49330161e-01  -1.50833284e-01  -3.29688331e-01  -1.74824664e-01
   -1.50596747e-02  -8.42563084e-02   2.09477240e-02  -3.91860256e-01
   -4.50657681e-01  -4.53070600e-01  -2.71918196e-01  -1.38186770e-01
   -3.55058544e-01  -2.91146496e-01  -1.38275188e-01  -1.92041355e-01
   -3.44666345e-01  -3.82489184e-01  -4.67973207e-01  -2.38434772e-01
   -4.36648696e-01  -1.24902738e-01  -4.42612057e-01  -2.17473747e-01
   -5.07918796e-01  -5.28707543e-01  -3.66683233e-01  -2.29965269e-01
   -5.97100134e-03  -6.05052757e-03  -5.60568489e-01  -5.32179043e-01
   -9.82427429e-01   3.45228018e-01  -4.86797203e-01  -8.38761370e-01
   -8.78859443e-01  -9.77748390e-01  -5.26338414e-01  -1.24100731e+00
   -4.06712030e-01  -8.00610726e-02]
 [ -3.08173980e-01  -2.31552980e-01  -3.94331016e-01   8.17561305e-02
   -5.52676310e-01  -5.54094767e-02  -1.65279722e-01  -2.28585840e-01
   -1.12285228e-01  -1.56141059e-01  -2.10728568e-01  -1.47371535e-01
   -2.31559745e+00   2.98696696e+00   1.14826160e+00   4.66906002e-01
    5.32253547e-01   2.23138088e-01   1.68252505e-01  -5.65136557e-01
    1.56520655e-02  -1.16787748e-02   3.72075383e-01   3.15595691e-01
   -2.81650265e-01  -2.32750051e-01  -1.52771297e-01  -2.61836733e-01
    1.71417012e-01  -3.05460846e-01  -1.90775812e-01  -8.79505299e-02
   -1.27848919e-01   2.08144235e-01  -3.50579719e-01  -1.40396587e-01
    1.08458852e-01  -3.83474873e-01   1.50229554e-01  -4.66348450e-01
   -9.06854447e-01  -1.58392135e+00  -1.09985323e+00   4.43090849e-01
   -2.69768755e+00   2.38274956e-01   3.82365845e-01  -2.93212785e-01
   -1.69488567e-01  -6.21390176e-01]
 [  1.52249574e-01   6.57561078e-02   1.34143884e-01   1.10027425e-01
    7.45770809e-02   1.01044856e-01   2.12993804e-01   1.70445980e-01
    1.90025254e-01   1.30245368e-01   1.75947208e-01   2.60286396e-01
    8.34454550e-02   1.05932767e-01   1.42173126e-01   9.90582019e-02
    1.50082085e-01   7.04675050e-01   6.91532401e-02   1.81529484e-01
    2.48479834e-01  -9.83388831e-02  -1.41203755e+00   2.96504651e+00
    1.49042990e+00   1.20861631e+00   7.78098501e-01   1.02775721e+00
   -5.54756705e-01   3.74413976e-01   8.38172934e-02  -5.24481371e-01
    3.86042487e-01   2.72122813e-01   1.84833351e-01   6.98408644e-01
   -4.68628581e-02  -2.22312245e-01   1.10624910e+00   4.28234955e-01
    7.16874641e-01   9.56524512e-01   4.71609844e-01   3.30433036e-01
    4.07067474e-01   8.70243927e-01   1.54889629e+00   2.00863995e-01
    3.31378983e-01   7.02535814e-01]
 [  4.01530024e-01   4.32888676e-01   3.59541556e-01   4.75072191e-01
    2.66497892e-01   3.90499810e-01   3.98427518e-01   4.21956554e-01
    5.67938908e-01   4.21078488e-01   2.10772389e+00  -2.51791524e+00
   -7.13173431e-01   4.12140671e-02  -1.54065781e-02   3.25121513e-01
   -2.49560151e-01   1.91639298e-01   3.99245632e-01   6.93088706e-01
    2.80577840e-01   1.04812517e-01   6.63789944e-01   2.89735152e-01
    5.87444327e-01   6.39879027e-01   4.18932963e-01   4.58365516e-01
    5.88513069e-01   3.94848559e-01   2.57893400e-01   6.17590823e-01
    3.22340694e-01   4.64211197e-01   4.08242100e-01   3.25733176e-01
    7.14572866e-02   9.46725426e-01   8.58410516e-01   1.54989562e+00
   -6.76851481e-01   1.69468896e-01  -9.81851318e-01  -7.59890745e-02
   -1.26408052e-01   2.02470105e+00   1.17169183e+00   1.71508446e+00
   -6.85869621e-03   2.95285532e-01]
 [ -2.24654473e-01  -1.86947065e-01  -1.45903892e-01   3.36229009e-01
   -4.18111537e-02  -1.39551754e-01  -6.62345704e-02   4.47785825e-02
   -1.35655916e-01  -1.07842008e-01  -2.36995626e-01  -1.17227781e-01
   -1.81083232e-01  -2.38026317e-01   1.24432589e-01  -1.31538287e-01
   -4.81707798e-01  -2.03128591e-01   9.28299296e-02  -4.64968528e-02
   -5.05427740e-03  -1.25204629e+00  -2.46602841e-01  -1.56325798e-01
   -1.47455744e-01  -9.51809352e-01  -1.21974830e-01  -1.14640780e-01
   -3.37630553e-01   2.04699502e-02  -1.01418479e+00  -1.52480038e-01
   -1.19089859e-01  -2.71976758e-01  -9.76218919e-01  -8.14682869e-01
   -5.65603843e-01   1.08256340e-01   9.27788243e-02   2.58327195e-01
   -5.65889459e-01  -4.87079259e-01  -4.76276382e-01   9.81495406e-01
    1.42796039e-01  -1.60742470e-01  -3.65872208e-01  -7.92774483e-01
   -5.49285423e-01  -4.96131624e-01]
 [ -2.79706111e-01  -5.10423496e-01  -3.95823851e-01  -3.33206889e-01
   -2.29942773e-01  -4.61660644e-01  -3.58160413e-01   6.26931832e-01
    8.29539504e-01   9.25453652e-01  -6.52036578e-03  -9.48892507e-02
   -1.21721524e-01  -4.59989459e-01  -2.30220171e-01   1.55049439e-01
    9.50820725e-02   7.76320119e-02  -1.91292253e-01  -3.71701595e-01
    1.46634093e-04  -2.14195690e-01  -1.87289397e-01  -4.41888213e-01
   -1.61803625e-01  -2.75532035e-01  -2.54449338e-01  -5.89684383e-01
   -4.32022314e-01  -1.28224013e-01  -1.34388435e-01  -3.54337744e-01
   -4.64691880e-01  -5.14579757e-01  -2.22709022e-01  -7.33976094e-01
   -7.06055458e-01  -4.59298716e-01   6.74467799e-01   5.13658787e-01
    9.71420676e-01   4.92921396e-01   6.43904859e-02  -1.08412675e+00
    3.01731453e-01  -4.39754820e-01  -1.24652114e+00   3.52296785e-01
    9.18494010e-02  -7.15170215e-02]
 [ -2.54708985e-01  -1.95778602e-01  -2.39862020e-01  -3.66204911e-01
   -2.43104622e-01  -3.76475759e-01  -4.00044110e-01  -2.51225834e-01
   -2.37245403e-01  -2.75655257e-01  -1.75382714e-01  -2.63416055e-01
   -2.94025347e-01  -9.44524548e-01  -1.66228802e+00   3.17747388e+00
    1.49740218e+00   8.17634018e-01   2.39073638e-01   2.77924556e-01
    8.37312592e-02  -2.08450657e-01   6.10887225e-01  -1.93022503e-03
   -4.24681881e-01  -3.87452649e-01  -5.45017814e-02  -3.12750918e-01
   -3.15715602e-01  -5.48655118e-01  -6.35934039e-01  -3.63060296e-01
   -2.45675323e-01  -6.11120714e-01  -2.60077482e-01  -7.11194184e-01
   -1.99859708e-01  -1.83079111e-01   4.68345305e-01   2.67413323e-01
   -8.49864608e-01   1.99107707e-01   4.05783115e-01  -1.55651879e+00
   -1.85162897e+00  -2.84704883e-01  -7.56600516e-01  -1.42096852e+00
   -6.70415036e-01  -8.07097906e-01]
 [ -8.74807525e-01  -9.97020158e-01   1.93295157e+00  -6.18925831e-01
   -8.06480439e-01  -5.90259614e-01  -6.80088040e-01  -5.45861851e-01
   -6.70215017e-01  -6.82225980e-01  -9.63313734e-01  -9.48127266e-01
   -6.55884436e-01  -7.39346805e-01  -7.08144685e-01  -3.60034758e-01
   -4.28840878e-01  -3.17157156e-01  -4.87022100e-01  -5.93386674e-01
   -8.66231496e-01  -6.94394312e-01  -5.82777464e-01  -8.07559208e-01
   -5.63935283e-01  -7.62745093e-01  -8.32977446e-01  -8.65194811e-01
   -5.46428764e-01  -9.00497394e-01  -3.06035590e-01  -5.94377840e-01
   -9.15266670e-01  -5.53712758e-01  -5.76980128e-01  -3.62470424e-01
   -1.51047742e+00  -9.75195779e-01  -9.01061424e-01  -5.86917680e-01
   -2.00368842e-01   1.46114457e-01  -5.80782481e-03  -8.75027287e-01
   -8.71256910e-01  -7.08953843e-01  -5.95231284e-01  -1.36633947e+00
   -1.32039899e-01  -8.79040935e-01]
 [ -1.20330411e-01  -1.08044014e-01   4.97908793e-01   6.92669887e-01
    1.01848020e+00   2.32404893e-01   5.50079718e-01   4.76200542e-01
    3.53788975e-01   3.38846378e-01   1.14695561e+00   8.35794041e-01
    7.33764307e-01   2.58636868e-01   6.16055495e-01   6.97170901e-01
    6.59090113e-01   7.09844291e-01   9.34764195e-01  -3.30953870e-02
    1.51849257e+00   1.22920934e+00   8.77400559e-01   8.69805598e-01
    8.12572823e-01   1.00762907e+00   7.28508651e-01   5.88155481e-01
    7.81018065e-01   4.90662557e-01   1.01338630e+00   7.33169340e-01
    7.59709829e-01   5.32465337e-01   6.14922951e-01   7.91291110e-01
   -1.40067676e-01  -1.29108465e-02   3.07007253e-01   2.81672208e-01
    4.04480329e-01   3.02333918e-01   1.03571050e+00   9.08330119e-01
    1.59108776e-01   5.90292831e-01   9.11438018e-01   6.78139718e-01
    1.16651906e+00   8.87450357e-01]
 [  3.54812066e-01   1.25639789e+00   1.03580651e-01   1.65622046e-01
   -1.32709316e-01   3.76998288e-01   4.89905373e-01   5.82828173e-01
    6.23864635e-01   2.86913348e-01   3.20042318e-01   6.80497931e-01
    5.04146140e-01   6.21222335e-01   4.16126089e-01   5.62755242e-01
    6.34187896e-01   5.84961190e-01   6.48849378e-01   5.12160148e-01
    6.95368868e-01   6.00934667e-01   7.58185261e-01   8.08486208e-01
    5.43622436e-01   8.84320910e-01   5.15638994e-01   5.48944476e-01
    7.14788426e-01   6.62054149e-01   4.42204264e-01   7.23323191e-01
    6.68137131e-01   8.24207382e-01   2.61301378e-01   4.25349743e-01
   -7.40156192e-01  -1.25476948e-01  -5.63151078e-01   3.16166452e+00
    2.91760863e+00   1.94366262e+00   1.62763564e+00   1.88904346e+00
    2.27167817e+00   2.93190117e+00   1.69924376e+00   2.01910900e+00
    1.70771920e+00   1.86138132e+00]
 [ -1.22727938e-01  -5.97949959e-02  -5.13081341e-01  -3.99482508e-01
   -2.61313129e-01  -5.34462563e-01  -2.02820212e-01  -7.12833112e-01
   -5.09736636e-01  -3.82936186e-01  -4.01736625e-01  -4.05055001e-01
   -5.33998245e-01  -1.14311042e+00  -1.05720573e+00  -1.39046710e+00
   -1.12098999e+00  -9.98156800e-01  -8.84525821e-01  -6.66986725e-01
   -8.75355534e-01  -5.28076167e-01  -9.40337956e-01  -9.30050823e-01
   -6.77168798e-01  -1.11923595e+00  -1.15105474e+00  -9.77553338e-01
   -9.80984303e-01  -9.10765161e-01  -1.69529513e+00  -1.24024149e+00
   -9.74400627e-01  -1.65390415e+00  -1.20265849e+00  -8.84993126e-01
   -8.68794863e-01  -1.85148318e+00  -1.84747225e+00  -1.39912836e+00
   -1.47633209e+00  -1.39831299e+00  -1.54158009e+00  -1.18404046e+00
   -9.33531424e-01  -8.87613990e-01  -1.38134935e+00  -1.11316383e+00
   -2.33705554e+00  -1.66746442e+00]
 [ -1.18047631e+00  -1.84528255e-01   5.36866553e-01  -2.51073066e-01
   -5.98859081e-01  -5.70762887e-01  -4.71052650e-01  -6.36959297e-01
   -4.13491686e-01  -4.02548642e-01   1.08550331e-01  -7.76953012e-01
   -8.40375805e-01  -7.89590150e-01  -1.00841196e+00  -1.25824251e+00
   -1.56068404e+00  -8.82698950e-01  -1.13994657e+00  -1.12931056e+00
   -7.68381898e-01  -1.33674003e+00  -1.10774130e+00  -9.14688493e-01
   -1.12613380e+00  -6.41031603e-01  -5.89715849e-01  -6.80361873e-01
   -8.86532977e-01  -5.22112762e-01  -1.23597979e+00  -1.12309801e+00
   -8.24815093e-01  -7.95252938e-01  -8.31334289e-01  -9.19933786e-01
   -6.03162838e-01  -4.58487528e-01  -7.17976542e-01  -1.91558465e-01
   -1.01123358e+00  -5.93119580e-01   9.60561280e-02   1.10038997e-01
   -4.10107889e-01  -1.34789848e-01  -6.07681020e-01   2.37798424e-01
   -2.19456059e-01  -7.71445751e-01]
 [ -4.53809233e-01  -1.11959080e-01  -9.73900560e-02  -1.76995735e-01
    2.36583269e-01  -1.41631466e-01   2.06031294e-02   9.36291684e-02
    3.25080866e-01  -5.64555750e-02   4.04884474e-01   1.65496593e-01
    2.04511131e-01   7.42228450e-02   8.89681957e-02  -6.26744243e-02
    2.05206969e-01  -4.61968195e-02   1.07695255e-01   2.33473918e-01
   -1.47528785e-01   4.10259922e-03   1.77232531e-02   1.01077099e-01
    1.05947590e-01  -3.06102289e-01  -1.39567592e+00   2.30301702e+00
    9.85321759e-01   2.33148464e-01   3.57245952e-01   2.51364662e-01
    2.14757155e-01   5.05751455e-01   2.50638883e-01   9.32579202e-02
    1.70692406e-01   7.78599328e-02   3.23850626e-01   4.80301388e-01
    2.85015629e-01   3.71696042e-01   5.32423114e-01   5.43742005e-01
    8.22483097e-02   6.57923291e-01   4.73382248e-01   5.33962993e-02
   -2.73326525e-01  -1.43315763e-01]
 [  1.75357175e-01   1.51331844e-01   1.96693570e-01   3.27802613e-01
    1.81649023e-01   3.07482518e-01   2.36384280e-01   1.92386348e-01
    2.58078677e-01   1.93337919e-01   2.57989704e-01   1.71719539e-01
    2.61914495e-01  -1.46862381e+00   3.44444004e+00   2.24039317e+00
   -1.03870828e-02   3.17495994e-01   4.66356129e-01   1.17973638e+00
    4.19776536e-01   4.72579599e-01   4.95205550e-01   2.39861939e-01
    3.77939966e-01   2.74904761e-01   5.85499235e-01   6.43078795e-01
    3.58422783e-01   2.47445521e+00  -2.32899594e+00   1.02760310e-01
    1.38717497e+00   1.35802306e+00  -8.69412871e-02   8.93977643e-01
    1.57503183e+00   5.49787288e-01   1.54994386e-01   7.98888814e-01
   -6.36246957e-01  -3.38494335e-01  -2.71504673e-01   3.12444086e+00
    2.41361077e+00   6.80490082e-01   1.30545626e+00   8.28520871e-01
    2.54417797e-01   9.32565271e-01]
 [ -1.99771890e-01  -2.86686134e-01  -4.32149782e-01  -5.47665760e-01
   -3.22104256e+00  -2.86617694e+00  -2.36607860e+00  -2.16750369e+00
   -2.58554997e+00  -1.95191757e+00  -2.19007350e+00  -1.88699416e+00
   -2.19430347e+00  -2.09314465e+00  -1.96100850e+00  -1.53062967e+00
   -1.94795365e+00  -1.95673436e+00  -1.52449669e+00  -2.36159877e+00
   -1.82156670e+00  -1.24415613e+00  -1.54767678e+00  -1.23784506e+00
   -1.23263630e+00  -1.13293040e+00  -1.31744472e+00  -6.23664919e-01
   -6.93217015e-01  -7.13892676e-01  -7.35893993e-01  -6.81565972e-01
   -7.66684682e-01  -8.81612553e-01  -8.50107784e-01  -1.57687230e+00
   -1.88915518e+00  -5.16636525e-01  -1.20153976e+00  -1.55544398e+00
   -1.06888345e+00  -3.59738536e-01  -1.08888223e+00  -1.14652065e+00
   -9.10367066e-01  -1.55635740e+00  -1.14768043e+00  -2.64854827e+00
   -2.46589293e+00  -1.91975451e+00]
 [  2.98961455e-02   7.77504569e-02   1.56321287e-02  -2.58354839e-01
    2.50075161e-01   8.51748642e-02   4.31857006e-02   9.61620572e-02
   -3.22247902e-02  -7.33887549e-03   3.87150895e-03   2.14206978e-01
    3.67816697e-02   1.62163775e-01   1.22451869e-02   1.42674480e-01
    2.03723787e-01   1.92281232e+00  -3.17476359e+00  -1.87323239e+00
   -9.57084909e-01  -2.12835528e-01  -6.16974965e-01   2.79466078e-02
   -5.64110973e-02  -3.76629992e-01   2.23386217e-01  -1.60967612e-01
   -3.50328431e-01   5.94215953e-02  -2.33550200e-01   9.61223240e-02
    4.52648939e-01   8.36538485e-02   1.09554342e-01  -9.46604144e-02
    7.12629780e-02   6.44475084e-01   6.07811729e-01   1.18284207e+00
    1.38397443e+00   2.31400750e-01  -9.18119053e-04  -4.95232925e-01
    8.90482179e-01  -8.63719609e-01   1.08985610e+00  -1.25171733e-01
    2.58765366e-01  -1.79652801e-01]
 [ -5.92193712e-02  -2.88738673e-01  -1.26485662e-01  -4.94622384e-02
   -1.78710257e-01  -1.00290391e-01  -2.06930497e-01  -2.97238975e-01
   -3.73236690e-01  -2.99166149e-01  -5.67196782e-01  -3.98913162e-01
   -3.86813242e-01  -6.19869892e-01  -4.15122979e-01  -5.35683597e-01
   -5.68284533e-01  -2.85934224e-01  -4.44948838e-01  -9.11862052e-01
   -4.18980818e-01  -3.52650757e-01  -6.66206779e-01  -9.08425360e-01
   -8.32391574e-01  -4.21957447e-01  -7.08276410e-01  -4.32022016e-01
   -5.20857103e-01  -3.89628692e-01  -2.56565864e-01  -7.45739551e-01
    6.97775740e-02   8.78250654e-01   7.68569202e-01  -3.19059059e+00
   -1.42110677e+00  -1.49407414e+00  -1.62961015e+00  -1.46268150e+00
   -1.30973291e+00  -3.79977214e-01  -1.43399962e+00  -1.40159692e+00
   -1.25255181e+00  -9.85063260e-01  -6.81959151e-01  -1.17230689e+00
   -8.50571526e-01  -7.81996773e-01]
 [ -1.28828673e-01  -1.27883084e-01   1.16779432e-02   7.10334261e-02
    1.05999624e-01  -1.89654390e-01  -1.16045721e-01   5.07866271e-02
   -5.81791030e-02   8.33891387e-02  -2.86571131e-02   2.07518487e-01
   -1.00968465e-01  -1.78066192e-01   5.04140431e-01   1.69438607e-01
    1.08490436e-01   8.18007382e-02  -2.44366318e-02   3.46637550e-02
   -1.10694187e-01  -1.95518592e-01  -2.91761159e-02   1.45492893e-01
   -1.71151950e+00   1.77823289e+00   7.92539890e-01   4.82683358e-01
    1.60335871e-01  -3.17982465e-01  -9.11628182e-02  -2.15076766e-01
    6.69478613e-02   2.33845415e-01   5.75854658e-01   3.31932284e-02
    9.41483386e-02   1.91064764e-01   3.22531232e-01   2.03087830e-01
    3.77967454e-01   8.91647148e-03   2.15731731e-01   3.51733743e-01
   -6.66007638e-01  -2.05210284e-01   8.92513902e-02   8.10270227e-01
   -1.99527510e-01   2.40892206e-02]
 [ -5.73403976e-02   2.31225847e+00  -1.44931183e-01  -9.37989447e-02
   -1.36455125e-01  -5.83927705e-02  -9.90805878e-02  -2.60569196e-03
   -6.03341262e-02  -4.36258175e-02  -8.16659809e-02  -1.16111641e-01
    4.21693744e-02  -1.02760773e-01  -1.03013401e-02   3.19310698e-01
    1.77988754e-01   2.60258732e-01   2.11458334e-01  -6.85515265e-02
    6.77750716e-02   1.28867522e-01   1.54655783e-01   1.00101214e-01
   -4.48044124e-02   4.55553687e-01  -1.16856313e-01   1.16044439e-01
    7.33398979e-02  -1.36035885e-02   4.43771595e-01  -1.31481724e-01
    2.64767366e-01   1.50634532e-01   2.72986044e-01   4.40126839e-01
    8.33339190e-02  -1.88981155e-01   4.13124691e-01   4.37004637e-01
    7.13166965e-01  -3.01013239e-02   2.63772480e-01   1.83475103e-01
    4.41429491e-01  -4.39323678e-02   1.98302237e-01  -2.41976656e-01
    2.77493767e-01   4.31324565e-01]
 [ -5.21794464e-01  -4.91112860e-01  -5.30116705e-01  -4.10804111e-01
   -1.58342528e-01   8.43777999e-01  -3.59775984e-01  -3.89084743e-01
   -2.51825409e-01   7.99403354e-02  -2.10794717e-02  -1.60919323e-01
   -3.86489218e-01  -9.24494576e-01   2.02347831e-01  -4.98879903e-01
   -5.39038322e-02  -1.70293353e-01   1.63216284e-01  -4.29480419e-01
   -3.24229008e-01  -5.81002382e-01   3.71695269e-01   4.22959074e-01
    2.58380345e-01  -4.11886558e-01  -1.02725709e+00  -1.95728397e-01
   -2.49377616e-01  -7.22359362e-01  -2.68018025e-01  -1.53899568e-01
   -5.51768210e-01  -5.93202675e-01   2.95957769e-01   7.21248742e-02
    2.67372082e-01   3.91088200e-01  -9.09742836e-01  -1.70980613e-01
   -2.95137888e-01  -8.54224791e-02  -4.33594298e-01  -9.78857545e-01
   -5.49326519e-01  -3.83689427e-01   7.70631374e-02  -2.66082700e-01
    1.00108328e-01  -1.04720409e-01]
 [ -2.52441001e-01  -2.48396629e-01  -2.83861288e-02  -7.54366075e-02
   -3.81287215e-02  -3.55271056e-01  -6.00991800e-01  -7.43498036e-01
   -3.57069959e-01  -4.23354750e-01  -2.85005400e-01  -3.54096988e-01
   -3.50363235e-01  -3.91620126e-01  -5.67666581e-01  -1.02576659e+00
   -3.40005653e-01  -4.53384289e-01  -6.23363814e-01  -3.67051296e-01
   -3.10326847e-01  -3.18474777e-01  -4.63576838e-01  -6.43621718e-01
   -3.28050147e-01   1.69141298e-01  -6.02453728e-01  -5.74962185e-01
   -1.80737211e-01   1.33705633e-01   1.80895665e-01   1.68557245e+00
   -2.17431599e+00  -1.51950685e+00  -2.20957417e+00  -1.15594865e+00
   -7.01525373e-01  -8.23385074e-01  -6.19844145e-01  -4.89291677e-01
   -6.22563376e-01  -7.57623399e-01  -6.17997378e-01  -9.96939483e-01
   -6.59564832e-01   7.57005164e-01   6.05990916e-01  -1.46947113e-01
   -2.32884773e-01   6.73739149e-02]
 [  1.80389309e-01   1.81616354e-01   3.22104829e-01   3.67950053e-01
    2.10430643e-01   2.57255369e-01   2.62140239e-01   2.20463510e-01
    3.97074509e-01   3.33551571e-01   1.03466063e-01   1.58024677e-02
    2.60272417e-01   1.13372063e-01   2.98960894e-01   2.41560146e-01
    2.90456924e-01   3.35104225e-01   2.11090097e+00  -2.55754337e+00
   -1.48190277e+00  -5.27716868e-01  -5.07474043e-01  -3.48862525e-01
   -9.15848282e-02   3.82501258e-01   8.70742710e-02   2.87956896e-01
    2.49827671e-01   5.49051241e-01   3.41340169e-01   1.75331021e-01
    2.78327191e-01   2.05316640e-01   4.34003434e-01   6.47421318e-01
    6.48309317e-01   4.59358419e-01   4.04005922e-01   1.42714647e-02
    8.06958209e-02   2.12562917e+00   1.97141608e+00   8.23923458e-02
   -5.18082146e-01  -2.27735315e-01   1.21349065e+00   5.23179504e-01
    1.52985665e+00   9.52600939e-01]
 [  3.28200415e-01   2.70987507e-01   3.20548505e-01   3.36967300e-01
    2.92090964e-01   1.26242465e-01   1.35065031e+00  -2.45101584e+00
   -9.08092811e-01  -2.17236773e-01  -4.09765752e-01  -3.00830591e-01
    5.24326924e-02  -6.52457375e-01   1.09842300e+00  -9.91186842e-01
    3.47663527e+00   1.62720968e+00   6.27724864e-01   2.43609220e-01
    1.41767361e+00  -2.32921007e-02   1.96848917e-01  -3.55888400e-01
    5.25518773e-01   1.36198261e-01   6.75186445e-01   7.55736065e-01
    7.51832849e-01   4.11448926e-01   3.82538724e-01   5.29909313e-01
    3.02922631e-01   8.57989020e-01   8.05048367e-01   6.71452333e-01
   -2.66448160e-01  -4.75820708e-01   1.20817204e+00   5.05424403e-01
    8.95687940e-01   3.57316855e-01   1.01139802e+00   7.74707047e-01
    1.40864420e+00   7.27292288e-01   1.10280606e+00  -4.94015963e-02
   -2.92959795e-01  -2.22380484e-02]
 [ -5.57665541e-02  -1.44162921e-01  -1.96498213e-01  -2.39736940e-01
   -1.57281059e-02  -4.13602462e-01   2.05704578e-01  -1.72818869e+00
   -9.38444893e-01  -3.88540613e-01  -5.98337717e-01  -3.86564272e-01
   -3.19571973e-01  -2.50621593e-01  -4.84314017e-01   6.85945059e-01
   -1.96286081e+00  -1.38971031e+00  -5.81775232e-01  -8.83180492e-01
   -5.50242174e-01  -8.73559288e-01  -1.00005839e+00  -4.50362625e-01
   -1.38228918e-01  -7.91827293e-01  -5.19487123e-01  -6.22683074e-01
   -8.07569753e-01  -7.85042331e-01  -2.38676038e-01  -5.37175201e-01
   -6.50159224e-01  -5.12146445e-01  -4.55018721e-01  -5.05333130e-01
   -3.71660195e-01  -6.27705584e-01  -3.71327596e-01  -5.71258231e-01
   -4.88670852e-01   1.13078282e-01  -7.58896165e-01  -3.04469586e-01
   -4.52521419e-01  -7.30991316e-01  -5.55882001e-01  -1.38509411e+00
   -1.25748812e+00  -1.13891565e+00]
 [ -2.12081792e-01  -4.13021648e-01  -3.12571508e-01  -2.03084512e+00
   -4.67683357e-01  -1.27239337e+00  -1.13659637e+00  -7.44568135e-01
   -1.13533803e+00  -7.63217931e-01  -9.38842015e-01  -6.88480146e-01
   -3.11207010e-01  -3.97640537e-01  -1.74208736e-01  -6.53572494e-01
   -4.37932419e-01  -5.27186126e-01  -6.83062883e-01  -3.48085378e-01
   -5.95015106e-01  -5.57878277e-01  -2.92750542e-01  -4.18485054e-01
   -3.92525698e-01  -5.05627593e-01  -6.05967454e-01  -4.85341590e-01
   -3.65396290e-01  -4.31105565e-02  -3.10960328e-01  -5.10885333e-01
   -5.60429963e-01  -8.24025220e-02  -6.25290872e-02   1.46705871e+00
   -2.97921898e+00  -2.52167174e+00  -2.14626676e+00  -1.07954425e+00
   -2.15716736e+00  -1.95709214e+00  -1.07147971e+00  -1.56646146e+00
   -9.01274009e-01  -1.41623274e+00  -1.01196041e+00  -3.32801867e-01
   -1.17042359e+00  -8.77101759e-01]
 [ -1.60387924e-01   1.72538834e-01  -6.82962642e-01  -2.71497401e-01
   -6.76591308e-02  -4.91637067e-02  -3.00225285e-01  -2.93835666e-01
   -4.90029575e-01  -1.35637854e-01  -4.84505808e-01  -4.75778565e-01
   -4.06639419e-01  -5.43359467e-01  -4.30128212e-01  -3.64831584e-01
   -4.24073965e-01  -3.57416390e-01  -4.86195900e-01  -5.22898368e-01
   -5.80129760e-01  -3.37575966e-01  -2.78674955e-01  -4.59755899e-01
   -4.98108774e-01  -3.43460565e-01  -5.60971352e-01  -4.63678896e-01
   -5.97711349e-01   4.13160750e-01   6.02557757e-01  -3.12287538e+00
   -1.99498995e+00  -1.46112176e+00  -1.06332752e+00  -1.15823087e+00
   -7.80115036e-01  -2.09351826e-01  -4.83690604e-02  -1.99791678e+00
   -6.79019366e-01  -1.24194889e+00   1.86801587e-01  -1.33891552e-01
   -5.09070427e-02  -9.89609083e-01  -2.23448542e+00  -1.88242730e+00
   -1.48412460e+00  -1.27210238e+00]
 [  1.34945618e-01   9.50016390e-02   1.90235313e-01   1.28449539e-01
    7.77398816e-02   7.31610570e-02   1.36581782e-01   2.94857347e-01
    1.77559415e+00  -2.58226853e+00  -7.07514290e-01  -3.03323676e-01
    4.04477163e-02  -9.37117454e-02  -1.17423570e-03   7.21070779e-03
   -4.82789670e-02  -3.66122281e-02   2.32699057e-01   2.85385128e-01
    1.87803935e-01   2.14404137e-01   2.21668508e-01   1.30506206e-01
    5.47419541e-01   3.12639876e-01   1.46351244e-02   1.17789580e-01
    1.44018089e-01   1.20164150e-01   1.58410074e-01   3.75518299e-01
   -1.44646070e-02   1.78047213e-01   2.24934632e-01   6.23700491e-01
    3.39278888e-01   1.02777095e+00  -4.16851865e-01  -7.67710696e-01
   -8.75582822e-01  -5.09908564e-01  -4.60961019e-01   6.23796096e-01
    2.64221995e-01   4.79986870e-01   3.45731756e-01   7.99645055e-01
   -2.98634082e-01  -1.80080852e-02]
 [  9.34513005e-02   5.77251934e-02  -5.53812534e-01  -2.99213624e-01
   -3.82091011e-02  -3.05868407e-01  -3.99501516e-01  -4.71393977e-01
   -8.01427278e-01  -9.79425192e-01  -4.79839707e-01  -3.45629090e-01
   -8.09634719e-01  -7.06049850e-01  -5.26556196e-01  -6.17269006e-01
   -4.85363224e-01  -4.57392944e-01  -4.33540959e-01   2.17362370e+00
   -6.76170696e+00  -3.85764345e+00  -1.63782152e+00  -1.59533917e+00
   -1.59496984e+00  -2.14581283e+00  -1.47347151e+00  -2.03392479e+00
   -1.69852786e+00  -1.10643094e+00  -1.35422216e+00  -1.12918884e+00
   -9.92437627e-01  -1.15811739e+00  -1.85655412e+00  -1.00414227e+00
   -2.02145192e+00  -1.54680200e-01  -1.43466653e+00  -1.30441898e+00
   -2.80548764e+00  -9.39120526e-01  -6.65799995e-01  -2.75584163e+00
   -2.04598607e+00  -2.53839803e+00  -1.21129328e+00  -1.75720908e+00
   -1.85252142e+00  -1.33957562e+00]
 [ -2.76874601e-02  -6.35637741e-02  -2.80640792e-01  -1.42695634e-01
   -2.30567589e-01  -4.47773767e-01  -5.27450300e-01  -4.79596701e-01
   -4.43072930e-01  -5.65873246e-01  -4.18945025e-01  -3.10781112e-01
   -3.31023582e-01  -6.31196942e-01  -4.76132136e-01  -7.52031568e-01
   -8.96776009e-01  -8.78266715e-01  -1.18875134e+00  -1.81876389e+00
   -8.92608730e-01  -7.23571332e-01  -6.76506999e-01  -3.54205090e-01
   -7.92177387e-01  -1.14727987e+00  -9.58777001e-01  -8.78815343e-01
   -7.91024624e-01  -8.25128936e-01  -8.16863988e-01  -1.03630980e+00
   -7.56394765e-01  -7.89252843e-01  -7.95885706e-01  -9.88028350e-01
   -4.54971272e-01   5.03995833e-02  -5.26108052e-01   5.60983570e-01
    6.55998249e-01  -2.94235897e+00  -3.72930651e+00  -2.63017924e+00
   -2.22788837e+00  -2.02770424e+00  -2.15733952e+00  -2.23590246e+00
   -2.29940339e+00  -1.88174214e+00]
 [ -8.33835177e-01  -6.31549718e-01  -9.75322293e-01  -8.66927268e-01
   -2.71370027e+00   1.59285602e-01  -3.59822572e-01  -1.65580781e-01
   -2.32406932e-01  -7.33473973e-01  -7.31689246e-01  -6.16269376e-01
   -4.33150979e-01  -2.75572336e-01  -4.04086105e-01  -1.76549543e-01
   -3.87519464e-01  -3.99505235e-01  -2.54744536e-01  -2.82604224e-01
   -1.55044920e-01  -3.53602059e-01  -2.90924125e-01  -4.18930528e-01
   -2.91278216e-01  -6.18898688e-01  -3.79041199e-01  -6.97591786e-01
   -5.41545948e-01  -6.94944251e-01  -2.07563678e-01  -1.59303893e-01
   -1.86947476e-01  -1.18717442e+00  -1.11582388e+00  -1.03800048e+00
   -7.03857028e-01  -1.02468676e+00  -1.26964629e+00  -6.95702441e-01
   -1.21889627e+00  -6.97486447e-01  -1.24420028e+00  -1.23505561e+00
   -1.30048405e+00  -1.02742636e+00  -1.04675323e+00  -1.10746493e+00
   -6.46787115e-01  -7.52959087e-01]]
valid_err   0.460922876007
lstm_U   [[  6.14462483e-01   4.73006242e-01   4.71126267e-01   4.46623534e-01
    5.17957164e-01   2.79317160e-01   4.73378636e-01   3.43237475e-01
    4.03658874e-01   3.04651912e-01   1.95279511e-01  -8.90286751e-02
    2.70166963e-01  -5.68022794e-02   1.72295810e-01   1.41415475e-01
    2.77417208e-01   5.05760850e-01   5.31070282e-01   2.71124675e-01
    1.05895063e-01   3.54878339e-01   2.96531300e-01   2.13311653e-01
   -9.86098912e-02   1.82646211e-01   2.67808850e-01  -2.09669810e-01
    1.36809791e-01  -2.94855478e-02   3.34357586e-01   4.71153155e-01
   -1.28296995e-01  -1.09610637e-01   2.64489012e-01   2.54153933e-01
    7.21279762e-02   4.56930611e-01   3.87405512e-01  -1.07387378e-01
    3.50900564e-01   3.42246383e-01  -7.78769882e-02   1.42418283e-02
    2.64053875e-02   5.45742180e-03   1.56888658e-01   3.36988777e-02
    4.70644293e-01   2.65388640e-01  -2.25770502e-01  -3.75417314e-01
    8.79167731e-02   4.74848418e-01  -2.42677259e-01  -2.15480166e-01
   -2.78376472e-01  -9.10924054e-02  -3.02609987e-01   1.99887460e-02
    5.40258529e-02  -4.97289101e-01  -4.10675804e-01   9.63800257e-01
   -1.52300056e-01  -3.60648528e-01  -1.21097517e-01  -1.89770502e-01
   -2.02548139e-01  -3.48844010e-01  -1.72313714e-01  -1.01492233e-01
    4.83263314e-02  -2.29647782e-01   8.73354769e-02  -6.49410216e-02
   -2.32457497e-01  -7.60498385e-02  -4.69623143e-01   2.86421935e-01
    8.09731900e-02  -3.10267144e-01   1.72397708e-02  -3.60648119e-02
    5.81208929e-02  -8.70550736e-02   2.80194462e-01  -9.85421464e-02
   -1.92926366e-01   1.80480484e-02   6.61471926e-02   1.68929177e-01
   -2.73949276e-01  -2.05779610e-02  -1.72154629e-01  -2.47231847e-01
   -6.52343893e-01   5.05402751e-01  -2.07600444e-02   1.32571922e-01
    6.45611385e-01  -5.65431133e-03  -1.11343103e-01   5.59665681e-01
   -1.12558689e-02  -2.74571159e-01   2.70162876e-01   1.10040517e-01
   -6.34145238e-01   6.00199027e-02  -4.75225033e-01  -2.12506684e-02
    7.88648638e-01   5.46972745e-01   5.17219768e-02   1.56820796e-01
   -1.47975021e-02  -4.42069126e-02   1.91077495e-01   7.15400208e-01
   -2.57400123e-01   1.62496175e-01   3.29982266e-01   3.87049531e-01
   -1.28335757e-01  -5.87066082e-01   2.45828375e-01  -1.20049931e-01
    1.55523864e-01  -5.56035159e-01   2.86344167e-02  -5.80287952e-01
   -4.36241149e-01   4.03917491e-01  -2.00623076e-01  -2.58782435e-01
    2.65706016e-01  -7.81654483e-02  -6.25938642e-02  -2.30481658e-01
   -4.72596355e-01  -9.25097586e-03  -3.64689299e-01   4.13569432e-01
    2.39751832e-01  -5.87556105e-01   2.81199889e-01  -5.31144571e-02
    5.01993472e-01  -3.49788989e-02   8.74925880e-01  -2.82639888e-01
   -3.07801314e-01   5.17421799e-01   2.50981726e-01  -6.18349924e-02
   -5.44051968e-02   2.65415509e-02   9.43864531e-02   8.91066112e-02
    9.24919795e-02   1.96685710e-02   5.33794161e-02  -2.70442728e-01
   -2.38065858e-01  -4.03693176e-01  -1.35135455e-01   1.22492746e-01
    1.07919225e-01   1.59998603e-01   5.12434859e-01   1.25899933e-01
    1.41619804e-01   2.76391766e-01   6.48066199e-01  -2.46325810e-01
    2.86948408e-01  -3.14401006e-01   2.13318277e-01  -7.32353681e-01
   -4.33307909e-01   2.91544243e-01  -1.82882979e-01   1.99829698e-01
   -9.90481059e-03   2.20818577e-01  -1.96497238e-01  -9.33107560e-01
   -2.40978407e-01   1.43702626e-02   4.12324237e-01   1.65164816e-01
    8.33816708e-02   1.83294723e-01   2.83810946e-01   6.49028193e-01
   -5.83828041e-01  -1.67946520e-01   4.44760884e-01   2.16163686e-01]
 [ -3.04690587e-01  -1.84526296e+00  -1.09702442e-01  -2.49074532e-01
   -4.32811596e-01   4.13243193e-02  -2.03829631e-01  -1.87187374e-01
   -1.45609509e-02  -3.32100492e-01   4.03367713e-02  -2.04816423e-01
    1.29642333e-01  -7.17673229e-02  -1.18200099e-01  -3.71311078e-01
    2.65776718e-01  -7.87593438e-02  -3.83893930e-01  -8.47956423e-01
   -6.89274636e-02  -1.98895940e-01  -4.61452531e-01  -5.09527553e-01
   -2.49879484e-01  -6.75112330e-02  -2.04307964e-01  -2.12805527e-01
   -2.23973610e-01  -1.57899381e-01   7.51394030e-02  -4.90014795e-01
    1.38530701e-01  -6.46278160e-01   2.03620738e-01  -7.51711678e-02
   -1.26537966e-01  -2.32445599e-02  -1.73867235e-01  -1.09079741e-01
   -2.69772894e-01   6.44874102e-02  -1.28657100e+00  -2.12610914e-01
   -2.93707929e-01  -2.00607168e-01  -8.67002260e-01  -1.23073114e-01
   -3.22957352e-01  -2.55196913e-01   1.63219284e-01   1.49893704e+00
    3.40141560e-01  -2.47532121e-01   2.52013811e-01   6.16510340e-01
    1.12768119e-01   3.23026062e-01   7.80612662e-02   4.64766162e-01
    1.21832656e-01   2.26735653e-01   2.55088915e-01  -1.19255132e-01
    3.51819588e-01   1.34616606e-01   5.63845927e-01   2.57363810e-02
    1.96549946e-01  -2.90648447e-01   4.09259298e-01   4.10672881e-01
   -2.90170898e-01   7.65612748e-01   2.76288823e-01  -1.00373484e-01
    2.93878771e-01   2.51237436e-01   2.41126840e-01   1.64928389e-01
   -3.17212407e-01   2.28269260e-01   3.77279338e-01  -5.20137060e-02
    3.11206322e-01   2.69271333e-01   2.96046818e-01   1.29408989e-01
    1.85950017e-01   1.40037163e-01   1.82644549e-01   3.69079609e-01
    8.93530851e-01   1.38696023e-01   5.05331423e-01   3.63733702e-01
   -7.79249566e-03   1.93430275e-02  -2.28627304e-01   2.89025983e-01
    6.63935106e-01   4.93999374e-01  -1.27324604e+00   1.91978052e-01
   -4.26608843e-01   1.17397352e+00   2.04838004e-01  -5.14347960e-01
    2.19986361e-01   4.15653413e-01  -4.90428530e-01   3.52232750e-01
    5.24889243e-01  -6.88580416e-01   1.84117389e-01   9.89718115e-02
   -9.54765687e-02  -4.86310657e-01  -2.19516765e-01  -3.67480620e-01
    4.06659562e-01   3.64498941e-01   1.08626459e-01  -1.31682069e-01
    1.62540725e-01   1.91104078e-01  -2.48853812e-01  -4.49657038e-01
   -1.08446343e-01   1.54926605e-01  -2.10450608e-01  -3.53957127e-01
    5.84884743e-02   3.96594761e-01   5.34501930e-01  -2.88252350e-01
    1.00865312e-01   6.41750930e-01   2.27923084e-01   4.31821951e-02
    3.40123008e-01   3.89904234e-01   5.10118928e-02   6.95552123e-01
    6.42963531e-02   5.82047715e-01   2.85267107e-01   5.06358361e-01
    1.05537739e-03  -8.37847087e-02  -4.09067944e-01  -4.21896263e-01
   -8.63386431e-02  -2.12210374e-01  -4.07418224e-01   2.93226680e-02
    1.33453212e-01  -6.37411812e-02   7.47014923e-02  -1.45635910e-01
    1.22218062e-02  -1.67161900e-01  -6.23151439e-02   2.58490543e-02
   -1.31431705e-01   2.83764507e-01  -3.00712022e-01  -1.95125732e-01
    3.55532122e-01   6.72416663e-01  -2.50426061e-01   2.58144704e-01
   -1.38343284e-01  -1.33649338e-01   6.98115502e-02  -2.56872516e-01
    1.90358397e-02   2.07148101e-03  -1.11129115e-01   4.56783173e-01
    4.59535257e-02  -6.33326134e-02   3.81305583e-01  -2.39758353e-01
   -7.54346848e-03  -4.58427665e-01   1.54443294e-01   1.82678444e-01
   -5.34875774e-01   1.22897679e-01  -2.08339150e-01   6.43109710e-02
    5.79833575e-02   3.95292806e-01   4.83954847e-02  -7.00180724e-02
   -9.21010794e-01  -2.95805347e-02   9.10645715e-02  -3.17827760e-01]
 [  3.22108459e-01   6.33158678e-01  -6.98257964e-02   3.01393167e-01
    2.37771348e-02  -1.50043476e-01   2.90441471e-01   6.96327896e-01
    3.24407093e-01   2.92619398e-02  -1.56764948e-01   4.17653590e-01
    4.67399869e-01   3.67392599e-01   4.42149579e-01   4.45461228e-01
   -5.66159992e-01   1.47776231e-01   5.31527217e-01   6.01665068e-01
    5.80958931e-01  -7.40309573e-02   4.80509857e-01   2.54209600e-01
    1.77085094e-01   5.37566072e-01   2.99330712e-01   4.82936079e-01
    2.04316482e-01  -2.81624426e-01   4.09585874e-01   5.20364499e-01
    4.71793859e-01   3.37203670e-01  -5.47174332e-01   3.03842051e-02
    1.84075518e-01   2.12304681e-01   3.53329589e-01  -1.23661847e-01
    4.30503371e-01   1.55872776e-01   2.65416580e-01   1.47116037e-01
    2.52005616e-01  -1.04979923e-02  -4.48420834e-01  -1.10525587e-02
   -4.54939657e-01   3.70001641e-01  -1.69546731e-01  -3.63338621e-01
   -3.26465933e-01  -6.83680228e-01  -2.49390150e-01  -1.93265482e-01
   -5.96626004e-02  -5.43099725e-01  -2.13562518e-01  -3.14844184e-01
   -3.18181372e-01  -8.45608712e-02  -2.77143866e-01  -5.08634538e-01
   -4.47563787e-01  -7.84473922e-01  -1.23776968e-01  -2.61742846e-01
   -6.08046105e-01  -4.64605131e-01  -5.94191550e-01  -2.15514813e-01
   -6.05852199e-01  -2.21317510e-01   3.91154695e-02  -4.89759041e-01
   -2.74625809e-01  -3.32466957e-01  -6.11875493e-01  -4.98045644e-01
    1.11998402e-01  -2.06482172e-01  -4.78250682e-01  -5.78037270e-01
   -2.85359471e-01  -7.02411604e-02  -4.72933131e-01  -3.45823732e-01
   -3.46062652e-01  -2.14046522e-01  -6.36642150e-01  -5.48188374e-01
   -1.58374554e-01  -4.60074208e-01  -5.14442472e-01  -1.59529112e-01
   -3.55376143e-01  -1.07723236e-01  -4.76234554e-01  -8.86456101e-01
   -7.01780754e-01   1.84168333e-02  -1.14177299e+00  -1.24916972e-02
   -5.44707655e-01  -6.24715532e-03  -9.60245412e-02  -3.31572370e-01
    1.92211060e-02  -6.09635861e-01   8.17289596e-02  -4.55528735e-01
   -1.47281377e-01   2.96211314e-01  -1.12081028e+00  -6.60348762e-01
   -3.30255632e-01  -1.94524354e-01  -1.67658182e-01  -2.61906426e-01
   -5.62884941e-01  -2.51438596e-01  -5.35458750e-01   4.55928404e-02
   -1.23922154e-01   1.21492247e-01  -1.05384792e-01  -1.53858089e-01
   -3.58583945e-01  -4.66763100e-01  -5.25134108e-01  -2.31557107e-01
   -3.88982337e-01  -3.66988351e-01  -3.45566823e-01  -5.63193831e-01
   -4.49972484e-01  -1.68548418e-01  -5.65486288e-01  -3.23816292e-01
   -2.71004816e-01  -7.60950131e-02  -2.22998690e-01  -4.40428308e-01
   -1.15300854e-01  -3.27467258e-01  -4.71429195e-01  -3.61620754e-01
    1.26960276e-01  -3.50288259e-01   3.39569932e-03  -2.64621061e-02
    4.03923445e-02  -2.20291343e-01   1.44435543e-01   1.61731174e-01
    2.39005420e-02   1.00541783e-01   4.30675062e-02  -2.96027259e-01
   -1.32713798e-01   1.22108341e-01  -7.72898826e-03   2.39018292e-01
   -2.38772682e-02  -1.94032496e-01   1.48070883e-01   9.31357082e-02
    1.34141959e-01   2.69198580e-01  -2.42830854e-01  -2.74330452e-01
    1.70105382e-01   3.97922501e-01   1.10857800e-01  -3.23058162e-01
    4.37935812e-02   1.23394293e-01   1.95045607e-01   1.84625425e-01
   -5.48024733e-01  -2.53262485e-02  -9.63750755e-02   6.16081050e-02
   -7.33843113e-01  -1.78029524e-02  -1.91737646e-01  -3.11854122e-01
    3.82030697e-01   7.54012128e-02  -2.62799057e-01   1.44372271e-01
   -1.62283783e-01   2.88101762e-01   2.26422057e-02  -1.03566888e-01
