***** softplus  hpm_mu 
 [  1.12509729e-07   8.90600141e-07   6.53890762e-09   6.55905398e-07
   6.74366027e-09   9.97439266e-08   6.06181105e-10   5.12317127e-08
   5.66809198e-09   4.16972782e-07   1.94355930e-07   5.18790587e-09
   1.18766619e-09   4.87832820e-08   2.86494091e-07   2.77883872e-06
   2.62680616e-06   1.71683377e-08   1.52024714e-08   6.33220587e-06
   8.26905341e-09   9.42367002e-09   3.10325877e-07   1.34465042e-06
   9.81790644e-09   1.62613460e-07   1.34840415e-07   6.37957440e-08
   1.32516753e-09   5.86260789e-08   1.53837233e-04   1.10994964e-07
   2.71520189e-08   2.13467065e-07   5.97112803e-10   7.75228311e-08
   2.28249885e-09   3.35249736e-07   3.22432909e-08   5.81083848e-10
   5.58218875e-06   1.70643943e-09   3.75721855e-08   7.48038717e-09
   1.37546816e-05   1.30773807e-05   1.23109848e-08   1.93257966e-04
   1.87441507e-09   6.79963023e-07]
*****  hpm_priorexp 
 [-0.65936884 -1.18720296 -0.78213952 -0.72856454 -0.89756946 -1.01331833
 -0.50577258 -0.75576367 -0.36102859 -1.22072754 -0.75882273 -1.08263851
 -1.14977018 -1.24803582 -0.59501001 -1.19193109 -0.96677667 -0.22953616
 -0.42699338 -0.70384128 -0.81168125 -0.55446289 -0.18214526 -0.5458341
 -0.66459721 -1.38338316 -0.1981209  -0.44387955 -1.67372653 -0.40942067
 -0.70003177 -1.46934071 -0.77458526 -0.55275201 -1.24120258 -0.93435606
  0.03158814 -1.07162321 -0.64640032  0.13897462 -1.30829484 -0.48639033
 -0.71338502 -1.63704669  0.46400463 -0.33971346 -0.89208698 -0.31553416
 -1.5349681  -1.1705511 ]
*****  hpm_b 
 [-2.60024837 -2.78916194 -4.02971612 -1.33046853 -4.69617782 -3.15698606
 -3.3529445  -2.72882464 -3.63819821 -0.99881531 -1.35676262 -2.62238435
 -2.66663177 -3.87260608 -1.62140661 -2.48895279 -3.70629649 -0.50204746
 -3.25416551 -0.86652662 -3.0241659  -2.80546164 -2.66430518 -0.36182279
 -3.06771639 -3.65682478 -1.81306028 -3.1271387  -2.17782756 -2.56306138
 -1.88928251 -4.23775327 -2.17106752 -2.13295536 -2.98512827 -3.06524799
 -0.70234838 -1.68497631 -2.32968556 -2.7630423  -2.11265335 -2.12117553
 -2.99071535 -2.87992538 -2.63077382 -0.38042394 -1.53586908 -1.59262832
 -1.61503    -2.87226654]
***** softplus  hpm_output_calibration 
 [ 0.01341039  0.00992905  0.02686422  0.23826785  0.02273509  0.01851533
  0.01190919  0.08136025  0.19927116  0.01039062  0.03810559  0.01741611
  0.10250077  0.00292225  0.1145262   0.00591465  0.07463499  0.01450831
  0.01179582  0.19512178  0.0120851   0.06187341  0.00499476  0.17093105
  0.01906267  0.00408452  0.20760708  0.13320322  0.00286208  0.01408851
  0.02522541  0.00433069  0.04133247  0.0446801   0.00114539  0.002419
  0.20514305  0.01360928  0.0178823   0.10326186  0.15023867  0.01267002
  0.00828978  0.00137251  0.18080191  0.49159838  0.00838797  0.06256083
  0.00568479  0.00431783]
***** logistic  hpm_alpha0 
 [  1.06243062e-02   4.92962067e-01   1.95018387e-03   1.94529750e-02
   5.10441838e-03   4.04864377e-02   7.48395481e-04   5.23114943e-03
   4.98715666e-04   1.81231828e-01   1.08431798e-02   3.15042496e-03
   2.65031508e-04   2.00616162e-01   6.64737754e-02   4.25143092e-01
   2.40762838e-02   7.55920654e-03   6.08432372e-03   5.05560737e-01
   2.81900058e-03   9.08432249e-04   6.00595088e-03   4.22600598e-02
   2.33193138e-03   3.92431754e-01   3.26755495e-01   5.48940669e-04
   5.63902119e-02   8.80401668e-03   1.72963247e-02   4.93582792e-02
   4.11709310e-03   2.35868204e-02   1.58514488e-03   3.15924905e-03
   2.23945762e-01   2.25172153e-01   6.59913131e-03   5.11305118e-04
   5.40879215e-01   5.33742739e-04   1.31348609e-02   1.83996515e-02
   2.41028079e-01   7.92881052e-02   1.25172754e-02   4.47904053e-01
   2.40686081e-01   2.78419898e-02]
*****  Wemb 
 [[ -5.40318272e-01   7.63416157e-02   8.05305436e-01   1.18640698e+00
   -6.37553106e-02   1.00752966e+00  -5.60682755e-01   1.36059342e+00
   -4.70755980e-01  -3.79424920e-01  -7.10404153e-01   5.38182208e-02
    6.32927890e-01   9.57789798e-01  -1.23092591e-01  -2.97182007e-01
   -4.16869066e-01   1.68453367e+00  -2.93043589e+00   5.39534431e-01
    1.75985553e-01  -1.87916611e+00  -7.94770707e-01   8.75159317e-01
    7.61588327e-01   6.30518160e-01   7.64035153e-01  -9.08973471e-01
    8.90683046e-01  -9.16976632e-01  -1.79840732e+00   1.46571271e-01
    2.39935643e+00  -1.12348308e+00   1.74468367e-01   6.85075256e-01
    2.65165377e-01  -5.39073684e-01   1.28850571e+00  -1.53455841e+00
   -1.22716736e-01   1.38107081e+00  -2.36782631e+00  -2.04591947e-01
    2.38993086e-01   8.38535737e-01   2.32745835e-01  -1.31025207e-01
   -1.46641177e+00  -1.29854971e+00]
 [ -3.11600947e+00  -2.60669871e-01  -1.41687192e+00   3.93629116e-01
   -1.79343003e+00   3.30023546e+00  -8.86380965e+00  -3.64840534e+00
   -1.03046046e+01  -1.46158785e+00  -1.33864694e+00  -4.14265575e+00
   -3.96377285e+00  -1.55660975e+00  -2.17918107e+00  -2.63460947e+00
    8.91295794e-01   3.39654189e+00  -9.56068819e+00  -1.97027666e+00
   -1.10015417e+01  -5.88754557e+00  -1.21692425e+01   7.46885426e-01
   -1.25759702e+01  -7.77303983e-01   2.95986093e-01  -9.62909847e+00
   -5.93581021e+00  -1.90181206e+00  -4.20900288e+00  -4.10621460e+00
   -7.14898396e-01  -3.53378139e+00  -1.07496266e+01  -8.15496227e+00
    2.79599669e-02  -9.94289490e-01  -2.18224633e+00  -8.44725686e+00
   -8.00107968e-02  -1.17584179e+01  -4.27528476e+00  -8.88605230e+00
   -3.03120874e-01  -1.92500133e+00  -4.68320403e+00  -3.12856102e+00
    2.82377503e-01  -1.07381609e+01]
 [ -6.77303091e-02  -9.09901417e+00  -1.96469153e-01   3.49380793e-03
   -1.07910383e+01  -7.84855785e+00  -5.09948417e+00  -2.60722151e+00
   -4.11631195e-02  -1.84161958e+00  -1.89785046e+00  -1.58880123e+00
   -2.54518083e+00  -6.45310501e+00  -3.35821505e-01  -8.93701392e+00
    1.09389308e+00  -4.94111735e-01  -9.07294581e+00   1.43276788e+00
   -2.50173492e+00  -5.71143166e+00  -7.62426151e+00  -4.91306702e-01
   -6.96742854e+00  -9.16598464e+00  -2.22908599e+00  -9.17861957e+00
   -6.15620250e+00  -2.01336977e+00  -7.65994428e+00  -8.56348114e+00
   -3.14093751e+00  -3.85735200e+00  -2.93119332e+00  -1.50518298e+00
    1.28629265e+00  -6.20101017e+00  -4.03074701e+00  -8.02346479e+00
    4.47900481e-01   2.03280871e+00  -2.74318157e+00  -5.84691445e+00
   -5.06503888e+00   9.43399298e-01  -9.27338489e+00   5.76642669e-01
    6.08632775e+00  -6.07007175e+00]
 [ -1.22266659e+00  -8.18526503e+00  -1.24741609e+00   6.80384468e-01
   -1.02025633e+01  -7.17293462e+00  -5.81637106e+00  -4.53943780e+00
   -4.84762876e+00  -5.57901367e+00  -5.90901447e+00  -2.89599259e+00
   -2.44750180e+00  -6.96510127e+00  -1.71920964e+00   9.90217409e-01
    2.80661824e+00  -9.22930592e-01  -8.51824543e+00  -1.12654366e+00
   -8.03857200e+00  -4.92933818e+00   1.88689622e+00   4.01278740e-01
   -2.82946744e+00  -6.99490483e+00  -6.25034710e-01  -1.32250788e+00
   -5.66085436e+00  -1.40976072e+00   3.05218385e+00  -4.75905880e+00
   -3.95593163e+00  -1.84493417e+00  -3.39177191e+00  -8.26530035e+00
    3.36219787e+00  -1.39648244e+00  -5.29319042e+00  -7.49222723e+00
    2.79499875e-01   4.88538250e+00  -9.29384058e+00  -8.89563684e+00
   -4.07134783e-01   5.21425313e-01  -8.66665826e+00  -1.19285477e+00
   -6.18274860e+00  -9.18359228e-01]
 [ -1.47799508e+00  -5.61507270e+00  -5.58397356e-01  -5.70370993e-01
   -2.95094587e+00  -7.44683881e+00  -3.89719610e+00  -2.74216127e+00
   -7.63786666e+00  -6.20461573e+00  -3.90843153e+00  -5.29081980e-01
   -7.39320883e+00   6.44963187e+00  -1.34382507e+00  -8.49014246e+00
    2.04775076e+00  -9.37509405e-01  -8.56854131e+00   2.21460569e+00
   -3.25288469e+00  -3.82373337e+00   4.60394742e+00  -1.14561152e-01
   -2.08294958e+00  -7.28750789e+00  -4.34401406e-01  -3.45643702e+00
   -8.52450929e+00  -1.91157857e+00  -5.67583465e+00  -7.42526454e+00
   -4.57240169e+00  -3.79759069e+00  -5.08725667e+00  -1.52044504e+00
    1.05694181e+00  -3.00011880e+00  -7.12547283e+00   1.73375930e+00
   -1.18762576e+00  -2.58482796e-01  -4.43931610e+00  -9.21436456e+00
    5.96437007e-01   1.70836473e-01  -7.22057571e+00  -2.77786050e+00
   -4.72079037e+00  -6.29556096e+00]
 [ -3.96973116e-01   3.46619140e-02  -1.31885962e+00   6.93801414e-01
   -8.85851045e+00  -6.82495192e+00   1.25924556e+01  -2.75611090e+00
   -3.77429472e+00   5.34004192e+00  -1.43804295e-01  -2.00613939e-01
   -4.02485245e+00  -6.18741533e+00  -6.92785367e+00  -7.46124671e+00
   -2.56303339e+00  -3.04430169e+00  -2.18815004e+00   5.38022211e-01
   -6.87864105e+00  -4.67728979e+00   1.17575314e+00  -4.27495884e+00
   -5.81506054e+00  -7.18742517e+00  -7.31834424e-01  -1.59453721e+00
   -6.61558085e+00  -2.40707817e+00  -5.71765201e+00  -3.12957644e+00
   -4.73692732e+00  -2.21906766e+00  -6.01526299e+00  -7.62909521e+00
   -7.61651820e-02   3.60654005e-01  -7.15955675e+00   2.16905142e+00
   -4.15830345e+00   6.02414447e-01  -8.67166464e+00  -5.58071780e+00
    9.87369375e-03   7.84757710e-01  -1.63263105e+00  -8.89786171e-01
   -5.80759566e+00  -2.35932555e+00]
 [ -1.84584946e-01  -6.57412237e+00  -6.76754083e+00   3.05007184e-01
   -6.36991326e+00  -7.29984010e+00   5.56985524e+00  -1.28215023e+00
   -2.33067691e+00  -5.00504765e+00  -5.59725810e+00  -4.34292045e-01
   -7.20125643e+00  -4.61023333e+00  -2.50633854e-01  -7.96275454e+00
    1.10383082e+00  -2.03614415e+00  -2.23292493e+00  -1.36014414e+00
   -2.38852256e+00  -4.39579631e+00  -3.02166843e+00   5.75064851e+00
   -1.46083546e+00   3.26720678e+00  -4.28789374e-02  -3.52923177e-01
    1.50834114e+00  -1.15829323e+00  -3.72397043e+00  -7.31367716e+00
   -3.25047404e+00  -3.85472045e+00  -5.62654790e+00  -3.66275533e+00
    1.69323754e-01  -5.24145491e+00  -7.77151063e+00   2.46706834e+00
   -2.74353334e+00  -4.12164202e+00  -7.36644985e+00  -5.43800453e+00
   -8.19130839e-01   2.09009047e-01  -3.66586159e+00  -2.85318394e-01
   -5.29717699e+00  -6.11293249e+00]
 [  2.35859603e-02  -6.31846811e+00  -2.54352190e+00   2.67825195e+00
   -6.08764854e+00  -4.84387979e+00  -3.41469912e+00  -1.49401521e+00
   -2.22368390e+00  -4.32964557e+00  -3.38206169e-01  -6.33042535e+00
   -3.09301585e+00  -4.30016116e+00  -2.21712390e-01  -7.79540267e+00
   -4.80859713e+00  -2.18753997e+00  -4.32278777e+00  -1.89267732e+00
   -1.30429988e+00  -5.03283992e+00  -3.30115112e+00  -8.94124199e-01
   -7.83034904e+00  -2.77360141e+00  -1.54640728e+00  -7.44193329e+00
    3.28027519e+00  -1.64620506e+00  -6.54615718e+00  -3.51172364e+00
    2.37751988e+00   2.48460199e+00   1.01543252e+01   6.40811809e-01
    2.58961133e+00  -4.83079194e+00  -7.69747306e+00   6.64381837e+00
   -2.43036297e-01  -4.56180453e+00  -7.75261638e+00  -4.02620260e+00
   -2.27850058e+00   1.02660218e+00  -1.95929375e+00  -8.86339954e-01
   -3.95813926e+00   7.61655455e-01]
 [ -8.20221251e-01  -5.93795727e+00  -2.73793087e+00  -4.49419143e+00
   -4.14284736e+00  -5.80494667e+00  -9.57031652e-01  -5.05992684e+00
   -4.35117680e+00  -3.26045226e+00  -3.52487550e-01  -3.38978077e+00
   -1.45597605e+00  -4.53925559e+00  -6.88872799e+00  -5.35150051e+00
   -3.92015032e+00  -1.76422482e+00  -2.37989115e-01  -5.40063139e+00
   -4.17211965e+00  -7.04397152e+00   6.85528542e-01  -5.73204808e+00
   -3.27145931e+00  -7.15289189e+00  -6.74517033e-01   2.89939343e-01
    1.54682072e+00  -3.51320418e+00  -2.44910970e+00   8.27392762e+00
    5.89372453e+00  -7.11788073e+00   6.69247975e+00  -5.89479996e+00
   -1.49246165e-01  -5.40198046e+00  -4.19861206e-01   1.18657143e+00
   -7.69948723e+00  -2.34046320e+00   1.00072713e+00  -6.41781498e+00
   -1.10013099e+00  -6.74278663e-01  -5.39990728e+00  -7.90456874e-01
   -4.86314186e+00  -6.19342410e+00]
 [ -6.04935857e+00  -3.66941948e-01  -5.14352209e+00  -3.30018205e+00
   -4.74368030e+00  -1.94526994e+00  -3.83482028e+00  -4.72685102e+00
   -5.73627379e+00  -2.99228237e+00  -2.36380759e+00  -3.46255740e+00
    1.06142600e+01  -4.84475503e+00   2.58644636e+00  -4.50787950e-01
   -1.43872382e+00  -2.19518648e+00  -4.98731046e-01  -5.42676842e-01
   -1.96209672e+00  -4.21297881e+00  -1.72255999e+00   6.25600720e-01
   -3.18047776e+00  -5.62620028e+00  -1.34760398e+00  -6.13154427e+00
    1.29687106e+00  -1.90120388e+00  -6.59226135e+00   1.16414217e+01
   -3.66400294e+00  -5.76505272e+00   7.32839100e+00  -1.70709815e+00
    2.71064031e-01  -5.00233644e+00   5.07778504e-01   1.84779473e+00
   -2.70911216e+00   1.87079206e+00  -2.24527507e+00  -4.44721104e+00
   -1.10193090e+00   7.85907194e-01  -7.42546488e+00  -9.94978224e-01
   -2.95345305e+00   3.81527051e-01]
 [ -2.18373369e-02  -6.75576060e+00  -1.23545298e+00  -4.14590011e+00
   -4.76593911e+00  -5.80670861e+00   3.09900712e+00  -6.20743056e+00
   -2.65281882e+00  -3.43007182e+00  -1.95573327e+00  -4.83395345e+00
    1.12092634e+01  -4.25569707e+00  -3.90062354e+00  -7.62169392e+00
   -3.76918501e+00  -3.29842408e+00  -5.06037479e+00  -1.49112286e+00
   -5.15588942e+00   3.24518888e+00  -5.77098273e+00  -1.43981465e+00
   -5.31183468e+00  -1.93683213e+00  -1.47322995e+00  -5.90104099e-01
   -1.55959755e+00  -1.23837559e+00  -6.72535909e+00   8.26073933e+00
   -4.65194368e+00  -6.43732375e+00   1.10388179e+01  -3.73150387e+00
    1.74693895e+00   7.26745308e+00  -6.21993192e+00   1.55110631e+00
   -2.69170904e+00  -4.43024715e+00  -1.37789303e-01  -4.38814564e+00
   -1.13955586e+00  -2.41652816e+00  -7.17009034e+00  -1.63086896e+00
   -4.03221094e+00  -3.75247943e+00]
 [  4.51778584e-01  -7.36310609e+00   5.14161984e-01  -3.72376354e+00
   -1.11396701e+00  -9.58629923e-01  -4.91012527e-02  -4.09288668e+00
   -5.38762151e+00  -4.36379777e+00  -5.92526095e+00   7.29685023e-02
    7.41282565e+00  -4.74176416e+00  -3.20324967e+00  -3.73466021e-01
   -3.58429100e+00   9.45803824e-02  -2.15769510e+00  -1.83432137e+00
   -6.29179656e+00   6.62738604e+00  -5.11022074e+00  -2.30811730e+00
   -4.65186209e+00  -6.87904276e+00  -1.29135408e+00  -1.50332989e+00
    3.48028248e+00  -1.50085023e+00  -5.36062804e+00  -1.34889080e+00
   -1.79525363e-01  -6.55956965e+00   2.39031663e+00  -5.01747270e+00
    2.73248915e+00  -2.59907058e+00  -5.99386234e+00   1.39324050e+00
   -8.24098513e+00  -2.75016919e+00  -7.39635557e+00   2.78464003e+00
    2.14521313e+00   2.05048183e+00   1.90626464e+00  -2.31727029e+00
   -1.21465594e-01  -6.24356250e+00]
 [  1.39823740e+00  -7.04306399e+00  -3.29711318e+00   1.57091228e+00
   -1.32519936e+00  -5.84603040e+00   2.19451596e+00  -1.41088349e+00
   -3.66619666e+00  -4.99780146e+00   3.24163275e+00   1.30386860e+01
    5.30191746e+00  -4.88439325e+00  -3.18430819e+00  -6.75898627e+00
   -2.66268530e+00  -1.69136838e+00  -4.41701047e-01  -4.87896078e+00
   -1.70879494e+00   3.72246524e+00  -5.77601954e-01  -3.53396015e+00
   -2.84469594e+00  -1.73167302e+00  -1.45033693e+00  -5.33180973e+00
   -3.81435804e+00  -1.94020451e+00  -4.56124959e+00  -2.32447410e+00
   -4.36863347e+00  -3.99679233e+00  -2.20410708e+00  -6.55305674e+00
    1.38104079e+00  -5.19901015e+00  -6.85262669e+00   1.40470940e+00
    6.15875374e-01  -2.46007545e+00  -1.59853254e+00   5.65295567e+00
    1.84680379e+00   3.61915494e+00  -6.93307245e+00  -4.26826251e-01
   -3.59019606e+00  -3.16624761e+00]
 [  9.82787384e-02  -6.63867791e+00  -5.97721443e+00   4.01045406e+00
   -7.08597960e+00  -5.95425382e+00  -4.56784496e+00   2.58975204e+00
   -6.32108085e+00  -3.96881649e+00  -6.23061930e+00   8.21691874e+00
    2.67567741e+00  -3.45772051e+00  -6.26912825e+00  -4.72997333e+00
   -4.02432629e+00  -5.10527087e+00  -1.95399511e+00  -9.50746448e+00
    5.04267849e+00   3.81881138e+00  -1.96719631e+00   2.05078537e+00
   -2.51563606e+00  -6.82618857e+00   1.91379195e-01  -3.28562179e+00
   -4.21140083e+00  -2.42042942e+00  -3.94193143e+00  -3.31391631e+00
    1.03613307e+00  -1.87946184e+00  -1.81287351e+00  -2.86428685e+00
   -1.62436312e+00   2.60992282e+00   1.92979966e+00   3.82595313e+00
   -5.12048600e+00  -5.18545187e+00  -6.69850127e+00  -1.88949604e+00
    2.59564637e-01  -3.19804022e-01  -5.90129074e+00  -9.43322809e+00
    3.83970874e-01  -5.08769834e+00]
 [ -1.10370820e+00  -7.30261664e+00   1.04654660e+01  -1.53478334e+00
   -3.21396478e+00  -4.85953515e-01  -5.48575066e+00  -2.38914863e+00
   -2.29626969e+00  -5.23602442e+00  -5.52815130e+00   1.04590713e+01
   -3.01191101e+00  -4.48192390e+00  -6.79063552e+00  -7.14079223e+00
   -2.89139434e-01  -2.19706486e+00  -3.72727912e+00   3.46034724e+00
    7.76454407e+00   9.24071954e-02  -1.75276338e+00  -3.29265561e+00
   -8.68480805e-01  -1.49270566e+00   7.36999847e-01  -6.07212550e-01
   -1.82873633e+00  -1.41495154e+00  -3.20947737e-01   7.79328100e+00
   -3.73931657e+00  -6.73080863e+00   1.47182323e+00  -3.78337450e+00
   -2.82745915e-02   9.54008269e-01  -6.48489810e+00  -1.95393401e+00
   -1.85427486e+00  -1.45660306e+00  -2.45512142e+00  -3.69774822e+00
    2.68275242e+00   2.13278810e+00  -7.37547384e+00   1.79534354e-01
   -9.19728725e-01   3.37561721e+00]
 [  1.06833752e-01  -6.16864515e+00   7.62941252e+00  -2.20742601e+00
   -4.51740779e+00  -5.19419090e+00  -4.98198402e+00  -6.82649126e+00
   -2.63818479e+00  -3.68061347e+00   4.91245667e-01   7.73100866e+00
   -5.35212853e-01  -3.51937143e+00  -7.34075104e+00  -5.99395156e+00
   -2.48887394e+00  -2.81682166e+00  -4.60895818e+00   2.61452194e+00
    8.15005912e+00  -3.84502631e+00   2.15357403e+00  -3.45726734e+00
    6.85836878e+00   2.56346800e+00  -2.20243707e+00  -2.38063136e+00
    5.31059366e+00  -3.94063096e+00  -5.56097577e+00  -3.52545447e+00
   -4.15655738e+00  -4.23207946e+00  -9.07330105e-01  -6.37678709e+00
    3.12120830e+00  -4.66712124e+00   2.27450058e+00  -4.32557903e-01
   -6.32508481e+00  -4.14935867e-02  -6.46621487e+00   1.24608010e+00
   -2.11689715e-01  -4.18920264e+00  -4.32473307e+00  -1.02509116e+00
   -4.57245253e+00  -5.89825400e+00]
 [  8.83224047e-01  -5.26372832e+00   7.73794087e+00   3.25793674e+00
   -6.14229477e+00  -3.12553199e+00  -5.97647041e+00  -6.22371204e+00
    1.18581338e+01  -2.57113690e+00  -1.13850336e+00   9.08687015e+00
   -1.97329331e+00  -3.67451221e-02  -5.38417266e+00   2.18689655e+00
   -4.54753760e+00  -5.75251453e+00  -1.75670355e+00  -2.59695891e+00
   -2.28144489e+00   1.60497533e+00   3.15385175e+00  -2.56678019e+00
    6.80848191e+00   2.44542578e+00  -8.46680458e+00  -1.43504016e-01
    5.26530917e-01  -1.09222759e+00  -4.58514747e+00  -3.44693756e+00
   -3.13145827e+00  -9.59546475e-01  -4.48041345e-01  -7.13086574e+00
   -8.19482440e-01  -2.91977034e+00  -6.13763321e+00  -3.41298082e+00
   -3.86631541e+00  -3.18674840e+00   8.31504120e-01  -2.53349161e+00
   -6.45248088e-01   2.30284992e+00  -5.65481522e+00  -5.13240871e-01
    3.84169096e+00  -5.90888421e+00]
 [ -3.77029022e-02   3.34991070e+00   6.73031378e+00  -4.49019752e+00
    9.87222843e+00  -5.99594698e+00   6.45923701e+00   1.19089890e+00
    6.80295416e+00  -4.66187536e+00  -1.87712650e+00   5.75484215e+00
   -1.51500342e+00  -4.29370486e+00  -6.19989172e+00  -6.13197866e+00
   -3.09900756e+00  -1.09147134e+00  -5.89085990e-01  -2.40416803e+00
    2.43931504e+00   1.73448375e+00  -3.49784538e+00   5.73558696e-01
    9.49405085e-01  -1.26610668e+00  -5.24072080e-01   9.36727705e-01
    4.35834419e+00  -4.85106531e+00   1.32413757e-01  -3.18280634e+00
   -3.52993143e+00  -6.51318676e+00   3.06640580e+00  -4.50708718e-01
    2.78799183e+00  -2.87051797e+00  -5.85714844e+00  -2.01442158e+00
   -6.13574061e+00  -3.20883402e+00  -3.59120632e+00  -4.31478211e+00
    2.08255714e+00   3.23264025e+00  -4.90558518e+00   1.94966417e+00
   -3.52488239e+00  -5.35537253e+00]
 [ -4.49795867e+00  -6.24383618e+00   1.85746888e+00   4.42715779e+00
    4.17924562e+00  -3.26079407e+00   6.68323160e+00  -4.33423709e+00
    4.11058425e+00  -3.33405024e+00  -3.65506177e-01  -6.00827494e-01
   -1.31281329e+00  -1.41371249e+00   2.06849570e+00  -6.42137997e+00
   -2.74937408e+00  -1.08120083e+00  -3.04518639e+00   8.82163714e-01
    6.46947498e+00   1.81637104e+00   1.44295762e-01  -4.03334014e+00
   -3.99802684e+00  -6.00313052e+00   1.72921790e-01   1.03405375e+01
   -2.33675433e+00  -1.75362623e+00  -2.46476264e+00  -1.63143507e+00
   -5.03159516e+00  -3.11746120e+00  -7.19591259e-01   1.79945281e-01
    2.15129480e+00  -1.25963815e+00  -6.11891623e+00  -2.18072411e+00
   -4.96497749e-01  -2.96967400e+00  -3.41156679e-02  -1.52985192e+00
   -6.06595655e+00  -5.37764110e+00  -2.64767480e+00   2.11753417e+00
   -3.79076213e+00  -4.43884369e+00]
 [  1.95373024e+00  -6.74014499e+00  -2.29710360e+00  -3.81038357e+00
    2.70402770e+00  -4.16697148e+00   8.07013323e-01  -1.39036646e+00
    3.44475927e+00   3.19221688e+00  -4.91806713e+00  -2.22644151e-01
   -1.98015666e-01  -1.67122624e+00  -4.40740404e+00  -6.38539573e+00
   -1.89774171e+00  -3.93791252e+00   1.27171834e+00  -3.70794352e+00
    4.64210693e+00  -2.97947210e+00  -3.02521539e+00   4.62768134e-01
    8.58284820e-01  -5.20280147e+00  -1.04020692e+00   7.13302023e+00
   -2.16228480e-01  -5.02661507e-01  -3.05414519e+00  -3.45791550e+00
   -3.94135453e+00  -9.01169295e-02  -4.27610306e+00   7.34413398e+00
    6.12034052e-01  -2.52831980e+00   1.59504801e+00  -3.33756792e+00
    2.04925240e+00  -9.17912563e-01  -4.04892879e-01  -2.01978777e+00
    1.74588378e+00   5.06418363e+00  -5.25392314e+00   2.74806729e+00
   -3.91282123e+00  -5.89096960e+00]
 [ -2.81750379e+00  -5.17489834e+00   2.84803342e-01  -4.87344983e+00
    9.52387346e-01  -6.51554289e+00   1.49782606e+00  -3.97514403e-01
    1.02002385e+00  -4.63381367e+00  -1.27522482e+00   3.58267213e+00
   -1.12551989e+00  -3.35642493e+00  -5.62525964e+00  -4.10921871e+00
   -3.47766144e+00   4.13938255e+00   8.38824254e+00   4.01086463e+00
    5.18708962e+00  -4.33686870e-01  -9.94122792e-01   1.60758857e+00
   -1.52806059e-01  -6.01577070e+00   2.58652380e+00   5.17990627e+00
   -3.25751518e+00  -2.58690329e+00   6.19161230e-01  -1.77620413e+00
   -3.81666906e+00  -9.69682114e-01  -1.35206236e+00   6.91594804e+00
    1.44364181e+00   2.63551823e-01  -5.58925785e+00   3.09037294e+00
    1.85781469e+00   2.23959708e+00  -3.14006171e+00  -2.64980842e+00
   -3.16198137e+00   4.25973681e+00  -7.09072230e-01  -6.10533351e+00
   -4.07327511e+00   7.15159211e-01]
 [  2.23223706e+00  -4.41430842e+00  -2.76641122e+00  -5.40270387e+00
   -2.87558295e+00  -5.81526259e+00  -4.36336180e+00  -6.41522977e+00
    1.99705562e+00  -3.90213276e+00  -2.71881706e+00   6.27788047e+00
   -4.25679362e-01  -3.58379464e+00   1.91913023e+00  -6.86853307e+00
   -4.29238959e+00   6.19835237e+00   4.85195953e+00  -6.60766677e+00
    4.76969634e+00  -4.90214528e+00   3.02916407e-01  -1.98605534e+00
    6.37829567e+00   3.72408662e-01   2.51289847e+00   6.10480326e+00
   -2.58546308e+00  -4.43018587e+00   2.02616060e+00   2.36982239e+00
   -3.87663181e+00  -6.65154602e-01   2.49979890e+00   4.77518552e+00
   -8.92060500e-01  -4.46611076e+00  -1.15429467e+00  -1.90958859e+00
   -8.46156622e+00  -2.91652331e+00  -3.48002374e+00   1.19996940e+01
    2.44242135e+00  -4.48746845e+00   9.06812836e-01  -7.92895789e+00
    4.03342098e+00  -5.77507019e+00]
 [  1.11986842e+01  -6.35238274e+00  -3.81106109e+00  -1.17080850e+00
   -5.32549814e+00  -5.17832444e+00  -4.54470749e+00  -1.45316994e+00
    1.13490949e+00  -2.00341650e+00  -5.51202546e+00  -2.75438147e+00
    4.58418585e+00  -3.79638728e+00  -4.81388298e+00  -6.77517812e+00
   -4.28538682e+00  -1.71161169e+00   1.15469827e+00  -4.37511719e+00
    4.76092420e-02  -2.39494666e+00  -3.57627708e+00   2.77215255e+00
    7.77365072e+00   6.71130204e-01   1.76306174e+00   5.05258146e+00
   -1.86445540e+00  -5.99882456e+00  -4.76481105e+00   3.12114950e+00
   -2.52909091e+00  -5.07437628e+00   7.18002759e-02  -3.79961463e+00
    4.62195736e+00  -4.69961199e+00  -1.41752504e-01  -2.47206692e+00
    3.32195769e+00  -3.83189535e+00   1.34254330e+00   1.19683500e+01
    3.73726450e+00  -1.68736571e+00  -5.60994948e+00  -7.64329725e+00
   -4.03167479e+00  -3.30145932e+00]
 [  9.48477304e+00   2.62056383e+00  -3.88406491e+00  -3.84449844e+00
    4.19277399e-01  -4.66165044e+00  -6.88760907e-01   1.47638015e+01
   -2.12100600e+00  -4.53758665e+00  -2.15865579e-01  -4.38562377e-02
    5.23768495e+00  -3.26511221e+00  -4.82461039e+00  -5.81633386e-02
   -4.58874683e+00   6.07984891e+00   2.75060578e+00   2.37493468e+00
    4.33761995e+00  -1.95823129e+00  -3.11237224e+00   4.92787741e+00
   -2.98050031e+00  -4.88227021e+00  -1.81761756e+00   4.90338356e+00
    1.18257096e+00  -3.77597061e+00   1.73880718e+00   3.10539310e+00
   -3.52366890e+00  -5.30584260e+00  -1.45428972e+00   1.64611138e+00
    2.49506964e+00  -2.63221265e+00  -3.71308896e-01   3.24996783e+00
   -5.68615625e+00  -3.07344623e+00   9.92475079e-01   1.73940909e-01
   -1.92855686e+00   2.53974069e+00  -4.89992724e+00  -5.03334488e+00
   -4.65905673e+00  -5.50179812e+00]
 [  8.74034310e+00  -5.26023557e+00  -1.34856211e+00  -4.69158174e+00
    6.18804407e-01  -2.60269960e+00  -4.37192119e-01   4.71224544e+00
    9.30815510e+00  -2.35861358e+00   1.99831734e+00   2.78094474e-01
   -1.99413629e-02  -2.52674089e+00  -5.48684243e+00  -7.75879781e-02
   -3.34571030e+00  -2.50357779e+00  -7.78469469e-01   1.44950208e+01
   -4.94183981e-01  -1.88902167e-01   1.23088833e+00  -2.76364729e+00
   -2.84684792e+00  -4.54302160e+00   8.13868114e-01   2.16791110e+00
    4.01659778e+00   1.02172533e+01   3.21347456e-01   2.66257108e+00
   -2.69886473e+00   3.02475128e-01  -1.54494378e+00  -2.81220578e+00
    2.66042160e+00  -4.22270845e+00  -3.10766595e+00  -2.53163305e+00
   -1.27037429e-01  -2.44837687e+00   6.10180538e-01  -2.72604317e+00
   -2.03973456e+00  -5.31606782e+00  -4.26090514e-01   8.30999958e-01
   -4.00988858e+00  -2.10152280e+00]
 [  5.59788119e+00  -6.57910566e+00  -3.16253580e+00  -5.23377385e+00
    1.52044726e+00  -4.59095418e+00  -4.66731531e+00   1.41733518e+00
    3.71075927e+00  -4.77533902e+00   9.10893213e-01   2.38709120e+00
    1.70769611e+00  -3.79105985e+00   9.30795205e-01   1.29976857e-01
   -1.18282964e+00  -2.89224919e+00  -2.31651519e+00   5.59492489e+00
    4.86649442e+00  -4.96669268e+00   5.61951903e+00   1.36930028e+00
    7.01273927e-01  -5.92071876e+00  -2.77148329e+00   5.47291568e+00
   -1.25139914e+00   5.40583344e+00   1.48257146e+01   1.65709571e+00
   -3.53189983e+00   4.88529944e-01  -1.56300424e+00   1.16035356e+01
   -5.02087423e+00  -1.16071699e+00  -1.33079483e+00   1.13191986e+00
   -4.77722382e+00   2.01477487e+00  -2.40449056e-02  -3.42559529e+00
    1.61399564e+00  -4.86580800e+00   6.20389105e-01  -4.73294389e+00
   -4.60913260e+00  -3.43419502e+00]
 [  4.83713401e+00   4.00129393e-01  -3.68810836e+00  -4.19304075e+00
   -8.18627662e-01  -2.80532419e+00  -3.74598998e+00   2.15919829e+00
   -8.43707811e-02   1.26353004e-01  -2.94065735e+00  -4.30378717e-01
    2.57799625e+00  -7.63935203e-01  -3.90733747e+00  -6.54595274e+00
   -3.44258736e+00  -7.47168318e-02  -4.26425803e+00   8.25569315e-01
    5.62314441e-01  -2.96727478e-01  -1.87540219e+00  -2.38402278e+00
    1.77112904e-01   4.65745524e-01  -7.87238857e+00   4.90745074e+00
   -5.92090553e-01   4.92322003e+00   6.36444349e+00   3.67397685e+00
   -1.74158843e+00   2.27796250e-01  -5.51153605e-03   7.30485444e+00
   -6.25078700e+00  -3.00458179e+00  -3.45802155e+00   3.38958540e+00
    7.24623686e-03  -2.96259813e+00   7.30865779e+00  -3.69770044e+00
    8.65562222e-01  -4.76015441e+00  -9.23468497e-01  -8.38915735e+00
   -3.86120234e+00   2.07327977e+00]
 [  5.00225284e+00  -6.00600120e+00  -3.93405106e+00   9.13204911e-01
   -1.96948787e+00  -4.19125096e+00  -4.30982656e+00   4.71198160e-01
    4.41706517e+00  -7.82526676e-01  -3.87130387e+00  -2.78468623e+00
    1.27959293e+00   2.90101111e+00  -5.46963045e+00  -4.53064851e+00
    2.14848413e+00  -6.58945177e-02  -4.77106873e+00  -4.78297319e+00
   -2.33901179e-01  -3.91345659e+00  -1.61298242e+00  -1.67433605e+00
    1.04342182e+00  -2.93912234e+00   7.06027052e-01   2.77551705e-02
   -9.29351656e-01   3.88266493e+00   3.50257488e+00   3.35714925e+00
   -3.58912925e+00  -2.38851093e+00  -5.89903067e-01   1.34904336e+00
    1.07509553e+00  -3.68190316e+00   2.12741621e-01   8.77368720e-01
   -3.83874094e+00  -2.85137189e+00   4.06810230e+00  -2.38638017e+00
    1.66502053e+00  -4.36201751e+00   4.92773990e+00  -2.84739437e+00
   -3.69950661e+00   2.49103759e+00]
 [  7.10226763e+00  -5.78484309e+00  -2.78838136e+00  -3.30511981e+00
   -1.61855207e+00   6.44575352e-01  -1.83816643e+00  -1.74267623e-01
   -8.60655546e-01  -1.60988736e+00  -3.49819582e+00  -1.66163380e+00
    1.83591303e+00   1.18775447e+00   9.58729916e-01  -5.87540074e+00
   -1.49263020e+00  -2.13765152e-01  -6.91254343e-01  -1.34820837e+00
    1.36098059e+00  -4.36811893e+00  -8.14359937e-01  -3.70863776e+00
    8.20066950e+00   1.34877089e+00  -5.00947557e+00  -2.20569133e-01
    8.89829751e-01  -9.57866560e-01   1.58343837e+00   2.78386788e+00
   -2.65407223e+00  -7.76328699e-01  -2.26784010e+00   7.11240514e+00
    2.06587755e+00  -2.09024248e+00   8.46849554e+00  -1.76761791e+00
   -1.83377967e+00  -2.41749806e+00   1.35732050e+00   3.68694537e-01
   -5.55865710e+00  -2.05534515e-01   3.02304472e+00  -4.95524495e-01
   -3.49252079e+00  -5.02497452e+00]
 [  5.98871609e+00  -2.79913704e+00   2.78657155e+00   2.24429025e+00
   -2.12991230e+00  -5.40783433e+00  -2.40546311e+00  -4.72978057e-01
   -1.29386019e+00  -3.39820229e+00  -5.37912109e+00  -1.32921710e+00
    1.29638575e+00   9.89126639e-01  -1.32859485e+00  -2.17655331e+00
   -2.28767985e-01   2.83269246e+00   1.83605914e+00   5.74829101e-02
   -4.60015049e-01  -4.75741887e+00  -2.59668884e+00  -4.14811033e+00
    6.02219178e-01  -4.60043328e+00  -7.14090980e+00  -3.54253718e-01
   -4.36924185e-01  -3.71078554e+00  -2.21474682e-01   3.99198688e+00
   -2.72137694e+00  -4.74139293e+00   7.09707202e-01   9.98779031e-01
    1.05775910e+00  -3.31919425e+00   2.42468892e+00  -1.15108378e+00
    1.11831218e-01  -3.05534659e+00   1.19110210e-02   1.69322185e+00
   -7.78672849e-01   2.00480448e+00   2.27392410e+00  -5.01569933e+00
   -1.77253193e+00   1.26707227e+01]
 [ -2.06770254e+00  -2.40661277e-01  -2.95258150e+00  -1.08716193e+00
   -2.35548002e+00  -4.97831688e+00  -3.33509759e+00  -3.00026931e+00
   -2.50540990e+00   2.98491586e+00  -6.68351878e+00   3.99800892e-02
    2.23217724e+00  -3.32176365e+00   8.74267067e-01  -7.87642978e-01
   -3.11227684e+00  -2.17099684e+00  -1.42979320e+00   9.45601182e-02
   -1.57614965e+00  -1.40043284e+00  -3.09215750e+00  -3.54665703e+00
    5.07204244e+00  -5.71492870e+00  -7.40994576e+00  -2.26717265e-01
   -9.00174046e-01   1.07912551e+00   2.44281620e+00   2.09159748e+00
   -1.05838094e+00   1.03919212e+01  -2.33410960e+00  -1.15912389e+00
    1.19765511e+00  -3.86746440e+00   4.37909356e+00  -4.02272112e-01
   -1.12984656e+00  -1.69702257e+00   9.43914121e-01   2.63142292e+00
   -5.00093776e+00  -4.03656527e+00  -9.91622922e-01  -5.14074899e+00
   -4.20077685e+00   5.66190427e+00]
 [ -2.31436542e+00  -4.48537316e+00  -3.69538833e-01  -3.23890152e+00
   -2.58765629e+00  -4.44294580e+00  -1.63645583e+00  -4.29885126e-02
   -1.12648708e+00  -2.60702998e-01   1.17232417e+01  -1.90488563e+00
    2.34015101e+00  -2.77880309e+00  -9.96507390e-01  -1.32482508e+00
   -1.45178992e+00   2.91826396e+00  -4.46275805e+00   9.97376126e-01
    4.74282601e-01  -4.15414765e+00  -2.67949442e+00  -2.56111785e+00
    3.78160103e+00  -4.97244150e+00  -7.26851394e+00  -7.11170449e-01
   -1.86299287e+00   8.61153211e-01   2.35415202e+00   3.44282937e+00
   -3.27607198e+00   3.00340654e+00  -2.26108609e+00   7.56978664e+00
   -7.37048485e-01  -3.30040823e+00   6.35883593e+00  -2.23631351e+00
   -3.75255193e+00  -2.05621806e+00   9.49032033e+00   1.77974246e+00
   -2.42226780e+00   5.29116834e-01   6.93574804e-01  -5.26599254e+00
   -2.80601572e+00   4.36012055e+00]
 [ -4.35830388e-01   2.34096466e+00  -1.62035528e-01  -2.62891738e+00
   -3.62351823e+00  -2.03150314e+00  -3.81951505e+00  -3.67148297e+00
   -1.17803162e+00  -1.64843114e+00   4.16763362e+00  -2.88121394e+00
   -1.97562585e-01  -2.43700665e+00  -3.77006821e+00  -6.33854545e+00
   -9.66222063e-01   5.60651136e+00  -4.97841504e+00   4.90024160e-01
    2.32302907e+00  -3.98755120e+00  -9.46104191e-01   3.61581586e+00
    2.47654856e+00  -3.73996018e+00   2.94800023e+00   6.51953320e-03
   -1.11127745e+00   9.09225290e-01  -4.51076057e+00   5.36778477e-01
   -3.04700739e+00  -2.52014296e-01  -3.80824112e-01   6.63917824e+00
    7.57275281e-01   1.15853897e+00   4.83971928e+00   1.37784948e+00
   -6.15077514e+00  -2.33706953e+00   4.63013665e+00   2.41722014e+00
   -5.93876411e+00  -1.38207815e+00   1.20554718e+01   7.85919286e+00
   -3.49624692e+00   4.56879575e+00]
 [  1.00522867e+00   9.13090738e-01  -2.97417496e-01  -2.12029685e+00
   -1.86984083e+00  -2.60535380e+00  -9.05616487e-01  -3.55239393e+00
   -1.24439803e+00   9.45814780e-02   1.32430740e+00  -2.62640180e-02
   -1.93678160e-02  -9.25821375e-01  -3.79553361e+00  -5.18868414e+00
    3.77268256e-01  -3.40864148e-01  -5.12061907e+00   4.99161530e-01
    1.40757826e+00  -2.78746588e+00   3.22503058e+00   4.64578021e+00
   -6.00660545e-02   2.05858262e+00   3.02442627e+00  -1.56552946e+00
   -7.77154742e-01   6.20805180e+00  -2.97762153e+00   2.00923015e+00
   -2.94381953e+00  -5.69198009e-01  -1.89184744e+00   3.68818485e+00
    3.64224850e-01   7.51577745e+00  -2.74666012e-01  -5.46642729e-01
    1.52823354e+00   3.01518082e+00   3.76751519e+00   4.46696418e+00
   -2.41318898e+00   4.39189150e-01   3.40570375e+00   6.05515436e+00
   -2.15688713e+00   4.85486053e+00]
 [ -2.42967192e-01   1.41676099e+00  -4.73830527e-01  -3.82326774e+00
    1.00028945e+01  -3.52803535e+00  -3.06860653e+00  -1.93942174e+00
   -7.16840856e-01  -9.34837685e-01   4.60122716e-01  -1.80638651e+00
   -5.97425693e-01   6.89731746e+00  -4.67891017e+00  -3.06576564e+00
   -1.82551636e+00  -6.78743027e-01  -2.81838231e+00  -3.74142089e+00
    1.89465690e+00  -3.35823825e+00  -2.57119604e+00   2.16341772e+00
    1.86421901e+00  -1.64060749e-01   8.24394309e-02  -1.25051426e+00
   -9.96511511e-01   6.00692490e+00  -3.47922221e+00   3.87570594e+00
   -2.97144010e+00   3.04073956e+00  -1.57790765e+00   8.23724960e+00
    1.09227346e+00   1.26592765e+00   2.76943859e+00   1.19317453e-01
   -1.80974521e-01   1.67090776e-01   1.69589014e+00   3.36436189e+00
   -7.11102322e-01   4.14045296e+00   4.21686095e+00   1.14849474e+00
   -3.38009559e+00   1.05333629e+00]
 [ -8.69802623e-01  -4.05635499e-01  -9.12980691e-01  -1.63424924e+00
    4.09852307e+00   1.52280479e+00   1.89900556e+00  -3.54120499e+00
   -9.31115102e-01  -1.42957136e+00   5.95499489e+00   2.85554027e+00
   -1.14495189e-01   3.38511326e+00  -1.66702061e+00  -4.84706109e+00
   -5.08304387e-01   4.70293852e-01   1.02623787e+01  -1.12369387e+00
    1.74836982e-02  -1.96290704e+00  -9.48663102e-01  -1.91810452e+00
   -1.49087761e+00  -3.42122040e+00  -1.20663971e+00  -1.10477244e+00
    1.86520423e+00   2.46298919e+00  -2.86276048e+00   2.76574303e+00
   -2.22966755e+00   6.07816845e-01  -1.72108414e+00   7.45011959e+00
   -7.71763531e-01  -9.53158473e-01   2.26836011e+00  -1.51446455e+00
    1.71059075e+00   4.07531614e+00   2.46255297e+00   1.40712550e+00
    6.40569421e+00  -6.19846091e-01   9.23880698e-01   4.86524007e+00
   -2.45592481e+00  -7.51768719e-01]
 [  2.71047066e+00   1.57035477e+00   1.19244212e+00  -3.01963272e+00
    6.75265238e+00  -2.92395745e+00   4.00068791e+00  -3.57188967e+00
    1.07460760e+00   1.01763333e+00   1.74733253e+00  -6.14381466e-01
    1.38354416e+00   7.55598060e-01  -3.55782115e+00   1.34687932e+00
   -2.08463126e+00   7.64171550e-01   4.01914640e+00  -5.46002750e+00
    1.44156192e-01  -2.97193460e+00  -1.59696894e+00   1.45825256e+01
   -1.20327433e+00  -1.39122367e+00  -3.83351807e+00   6.08674758e-01
    1.41459446e+00   3.12766752e+00  -3.82035290e+00   5.94949722e+00
   -2.94341300e+00   2.74893413e+00  -1.30607189e+00   5.02949646e+00
    3.33831369e+00   1.97332468e+00   4.94620062e+00  -1.73041635e+00
    1.56693077e+00  -2.37385923e+00   9.67290959e+00   2.69298647e+00
    2.65533382e+00  -3.16230989e+00   1.33037623e+00   8.54244280e+00
   -2.60759087e+00   1.12523652e+01]
 [  3.34214041e-01  -2.13700411e+00  -1.11285572e+00  -1.49313190e+00
    2.52281071e+00  -2.04233387e+00   3.27057379e+00  -2.19374834e+00
    1.21518923e-01  -4.41727865e-01   3.84331812e+00  -1.55247154e+00
   -2.09998799e-01  -1.72032257e+00  -2.65319392e+00  -4.60328700e-01
   -6.62065449e-01  -9.06611805e-01   5.47779073e+00  -4.10205178e+00
    5.34139735e-01   2.65301813e+00  -1.24764625e+00   8.50862314e+00
   -2.72205774e-01  -3.23739815e+00   5.73412754e+00  -7.78318821e-01
    9.94323508e-01   3.70307315e+00  -3.80830408e+00   1.10972292e+00
   -2.42679265e+00  -3.11126212e+00  -1.68114827e+00   4.41479511e+00
   -6.35039870e-01  -1.87297278e+00  -1.97670895e-01  -7.90902448e-01
    5.66068433e+00  -1.45732862e+00   2.36964611e+00   1.67628898e+00
   -3.72291084e+00  -5.12700695e-01  -1.06660922e+00   9.43496312e-01
   -1.46110758e-01  -1.70712391e-01]
 [ -1.86947094e+00   4.34006069e+00  -1.02011038e+00   1.12825855e+00
    3.46859126e+00  -3.27458261e+00   1.01982863e+00   7.56660190e+00
   -1.13267517e+00  -1.67575565e+00  -1.84343741e+00   3.02505690e-01
   -7.18734588e-01  -7.32114245e-01  -2.18033510e+00  -6.11865837e+00
   -1.73692032e+00   1.12325281e+01   8.76673454e-01   3.01017948e+00
   -5.47384843e-01  -2.51801372e+00  -2.48875850e-01   1.13644507e+01
   -2.03634686e+00   1.79220895e+00   3.63669214e+00  -1.61821676e-01
    8.50652268e+00  -2.86983964e+00  -2.85282057e+00   1.75786938e+00
   -1.60506039e+00  -7.69354830e-01  -2.13470258e+00   3.97766222e-01
   -3.39393582e+00  -2.31603416e+00   2.67247387e+00   2.07279645e-01
    1.92126136e+00   1.38680229e+00   2.65629549e+00   1.86116257e+00
   -3.78950211e+00  -2.82697432e+00   8.09252345e+00   1.64537917e+00
   -1.58109065e+00   2.89811077e+00]
 [ -1.34483837e+00  -1.89259898e+00  -1.67477624e+00  -7.50186675e-01
    6.53955385e+00  -3.10217097e+00   8.47783090e-02   7.43473850e-01
   -1.62613587e+00  -4.97025708e-01  -1.30835437e+00  -1.46239046e+00
    5.13679264e-01  -1.38096462e+00  -2.89416562e+00  -1.84225571e+00
   -4.41806496e-01   1.40726025e+00  -2.95764174e+00   2.31526170e-01
    2.43633300e+00  -2.57414879e+00  -1.59882682e+00   9.61291549e+00
    4.16058271e-01   5.44944467e+00   1.88992086e-01   8.26737156e-01
    2.03970160e+00  -1.52855844e-02  -3.37437247e+00   5.30020583e-01
   -1.74279828e+00  -1.39861997e+00  -8.39243829e-01   2.12453235e+00
    5.74468082e+00  -8.06038728e-01   2.04097614e+00  -7.70928420e-01
   -3.03379245e-01  -1.38671880e+00  -3.83718784e-01   3.01350420e+00
   -1.45722726e+00  -1.83679568e-01   6.57629455e+00  -1.83153331e+00
   -1.25551856e+00   2.79428129e+00]
 [ -1.58475380e+00  -1.61513973e+00   5.16480810e-01   2.59490565e+00
    1.59167200e+00  -1.52814498e-01   1.12755816e+00  -2.35142863e+00
   -1.12219230e+00   1.30030013e+00  -2.54478878e+00   2.06906219e+00
    1.98593110e+00  -6.74320719e-01   1.18139621e+00   6.03630080e+00
   -1.24207579e+00  -1.20118078e+00   6.37613733e-02   1.50365697e+00
   -1.19161443e+00  -7.14987106e-01  -1.53728878e+00   8.95933930e+00
    1.77762892e+00   1.94729704e+00  -8.95521881e-01  -4.06424720e-01
    4.45240728e+00   2.67442585e+00  -8.19004921e-01   5.84334698e-01
   -5.65663452e-01  -1.77274927e+00  -1.35185545e+00   1.07727743e+00
    2.86897456e+00  -7.68394310e-01   2.18472477e+00   1.31724637e-01
    1.49029958e+00  -1.10439436e+00   2.70139185e+00   5.40696007e-01
    1.74490531e+00   4.99624723e+00   1.62611608e+00   2.56192971e+00
    1.11745935e-01   4.64030564e+00]
 [ -2.32374010e+00  -2.79108206e+00   7.82834205e-02  -2.99600547e+00
    4.20462767e+00  -1.40170756e+00  -4.81353237e-01  -3.10982334e+00
   -1.11445952e+00  -1.67078149e-01  -3.08830929e+00  -3.33386173e-01
    8.72522139e-02  -6.26390134e-01  -2.39294050e+00   1.24851418e+00
   -3.06525670e-01   1.19368086e+00   2.72132719e+00   6.71211865e+00
   -7.75857278e-01  -1.36006208e-02   1.09290986e+00   4.31295416e+00
    3.23820448e+00   3.47086148e+00   1.57895622e+00  -1.13154818e-01
   -5.70139393e-03  -1.38040186e+00   1.07939284e+01   6.17920118e-01
   -9.61138200e-01  -3.24785280e+00  -7.45499152e-01   1.54320808e+00
   -2.08505664e+00   6.63652098e-01   1.57775068e+00  -3.49552207e-01
    2.02068620e+00  -3.27599707e-01   4.35712460e+00   1.38240928e+00
   -4.74805079e+00   8.42077144e-01   6.29794831e+00   4.27214012e+00
   -1.41442997e+00   7.10685545e+00]
 [ -3.56192792e-01  -2.92298128e+00   1.93425109e+00  -2.86814165e+00
    2.16259234e+00  -2.14446058e+00  -1.17410882e+00  -1.99071907e+00
   -1.92617746e+00  -2.45678306e+00   9.31684009e+00   2.78535439e-01
   -5.61828732e-01   6.15075319e+00  -1.80714644e+00   2.07188353e+00
    1.77881119e+00  -5.17897908e-01   2.41905877e+00   1.75131123e+00
    5.35440105e-01   3.30023449e+00   2.32153057e+00   1.05138388e+01
    2.64693614e+00   3.83518817e+00  -2.57129485e+00   8.59091519e-01
    4.70879136e-02  -1.05289300e+00   6.64159116e+00  -1.53289270e-01
   -2.59367096e+00  -2.68971006e+00  -7.10441504e-01   5.06556627e+00
   -1.65613809e+00  -1.44177120e+00   2.37574161e+00  -4.65363344e-01
   -2.21459587e+00  -1.02146471e+00   4.76748127e+00   2.76354967e+00
    1.10285158e+01   5.24791915e-01   8.34595276e-01  -1.57897091e+00
   -1.69480856e+00   2.92660873e+00]
 [ -1.55622401e+00  -1.85369159e+00   1.40084402e-01  -7.65825922e-01
    4.88126018e+00   1.09404627e+00  -2.30905596e+00  -7.66363206e-01
   -9.58682626e-01   5.01780689e+00   2.19321331e+00   1.03718563e+00
    3.24823914e-01  -5.79506464e-01  -2.32971638e+00   1.20293818e-01
   -9.03411857e-03   2.78137303e-01  -1.36796415e+00   6.09015244e+00
   -1.31948223e+00  -2.22264448e-01   2.19542604e+00   7.14631414e+00
    2.08303375e+00   1.03294953e+00  -1.67567873e+00   1.72783825e+00
    3.59241735e+00  -1.83403206e+00   9.11054586e+00   1.59390636e+00
   -2.07995424e+00   1.02094922e+01  -2.10874681e+00   4.14794265e+00
   -5.61491612e-01  -1.85828287e+00   1.07814691e+00   4.29372535e-01
    1.45931606e+00  -1.44858996e+00   2.65242098e+00   2.39701597e+00
    1.06983623e+01   2.87914650e+00   4.79920793e+00  -2.19234069e+00
   -1.61233647e+00   3.54801905e+00]
 [ -1.51361794e-01  -1.10000718e+00   5.99894680e-01  -1.72108005e+00
    4.50728159e+00   2.68818238e+00  -1.56182314e+00  -3.36460439e+00
    5.49859008e-01  -1.41368357e+00   1.99956200e-01  -5.90865217e-01
   -9.10756653e-01   3.09474985e+00  -2.14641297e+00  -8.07709103e-01
   -8.46993749e-01   9.41916426e+00  -1.11472610e+00   8.32088371e+00
   -7.80730933e-01  -1.68636242e+00   4.43968368e+00   7.16021903e+00
    3.73796147e-02   2.34742578e+00   5.54724447e+00   5.55493807e-01
   -1.04111027e+00  -4.17617337e-01   6.99926514e+00   8.40092974e-02
    2.23690394e-01  -1.07161530e+00   7.13810186e-01   2.09808654e+00
   -1.54981861e+00  -3.34534588e-01   1.00872201e+00  -1.48369329e+00
    6.32312520e+00  -6.87853577e-01   1.46578545e+00   1.56280829e+00
    1.64739654e+00  -1.27830065e+00   3.24702866e+00  -3.58567645e+00
   -1.77676921e+00   1.70225444e+00]
 [ -4.02803930e-01  -4.10629406e-01   9.59774932e-01   1.06409314e+01
    3.32523096e-01   3.70666043e-01   1.50018979e+00  -1.98486321e+00
    9.26479206e-01  -3.40405198e-01   3.40926445e+00  -8.74949959e-01
    1.17198125e-01  -1.70987121e+00   3.05289558e+00   5.46870271e+00
    2.63031872e-01  -6.69204369e-01   8.67814619e-01   3.99071194e+00
    2.17561388e-02  -1.35014475e+00  -1.90257982e-01  -1.83030994e+00
    1.03219228e+00  -3.82819511e-01   6.85966633e+00   2.84451232e-01
    1.24123700e+00  -1.23039115e+00   1.32220826e+00  -1.87595338e+00
    2.57715577e-01   3.00191148e+00   1.19065324e+00   2.19992103e+00
    2.30231047e-01  -1.03147037e+00  -1.62500890e+00  -4.24261971e-02
    1.18080072e+00  -1.56398437e+00   2.34987784e-01   1.95956875e-01
    6.70872979e+00  -6.11799839e-01   3.78323818e-01   4.18846370e-01
   -1.01198525e+00  -6.58443400e-01]
 [  6.29124340e+00   5.07225767e+00   1.53554645e-01   3.92565447e+00
   -8.17389199e-01  -2.21381983e-02   8.86388619e-01  -1.82375460e+00
   -7.02616518e-01  -8.52691321e-01   1.73961901e-01  -4.47806307e-01
   -8.66190128e-02  -1.21351852e+00   1.15898580e+00   1.65718572e+00
    2.70469311e+00  -1.01136116e+00  -9.23748776e-01   4.73753434e+00
   -9.77478961e-01  -1.20618005e+00  -7.92672992e-01   8.66802258e+00
   -1.54733628e+00   4.80393652e+00   6.91656711e+00   2.61595578e-01
    2.60969443e+00  -1.75285733e+00  -1.57452410e+00   1.30711742e+00
    2.00952487e+00  -3.09389095e-01   4.45499356e-01  -9.23322568e-02
   -2.26795201e+00  -6.80811089e-01   1.49384011e+00  -7.09101958e-01
   -1.17485374e+00  -3.16737583e-01  -3.26389116e-01  -7.32288144e-01
    4.95923275e+00   3.34855983e+00   2.39537566e+00   1.41225706e+00
   -1.68617258e+00   2.93867634e+00]
 [ -4.75065070e-02  -1.25089540e+00   3.57936895e-01  -4.39088219e-01
   -2.03724908e-01   1.27610488e+00  -1.18989293e+00  -1.43819106e+00
   -1.69416465e+00   1.36616898e-01  -4.19248204e-01  -5.32964717e-01
   -6.49902666e-01  -3.10475805e-01   9.87128647e+00   1.36881717e+00
    4.48549632e-01  -5.20623312e-02   9.67635064e-01  -1.36537801e+00
    1.56564131e-01  -7.13586440e-01   7.39375067e-01  -7.98587516e-01
   -1.81827417e-01   4.49310683e+00   5.94160602e+00  -2.43437403e-01
    7.87465908e-01  -1.70737931e+00   2.58521156e-01  -3.19061939e-01
    6.71440055e+00   2.83706729e+00   1.27570180e+00  -7.50758985e-01
   -6.75659273e-01  -1.11016136e+00   3.74369756e-01   6.72676915e-01
   -2.06845214e+00   7.11860076e-01  -4.49900951e-01  -3.07863643e-01
    1.90117341e+00   9.52420557e-01   3.58446325e+00   5.59295659e-01
   -1.08611590e+00   3.50119463e+00]
 [  1.07149094e+00   8.16011246e-01   7.24680489e-01   4.82008507e+00
    3.92879822e-01  -8.27267663e-02  -3.61793977e-02   5.69279651e+00
   -1.45924562e-01  -1.07833458e+00   1.06583093e+00  -9.09782068e-01
   -5.86532798e-01  -1.77521473e+00   2.58536534e+00   8.55925619e-02
    2.19375810e+00  -7.58038894e-01  -5.92700053e-01   4.04942629e+00
   -1.16254073e+00   4.07626112e-01   1.06492551e+00   2.29286775e-01
   -3.17560938e-02   2.55846449e-01  -4.82961091e-02   7.86207023e-01
   -1.62541097e+00  -1.28527678e+00   8.52858091e-01  -1.05975153e-01
    9.65788286e-01   5.23947561e-01  -3.84976731e-01   2.10667852e+00
    5.94924820e+00  -1.33148683e+00  -6.29462408e-01   3.15791493e-01
    3.62892045e+00  -1.23740494e+00   1.21160217e+00   1.45022291e+00
    7.37015878e+00   2.42056697e+00   7.45298619e-01   5.55166775e+00
   -7.98664836e-01  -3.84487083e-01]
 [  3.40533543e+00  -2.96864020e-01   1.47459521e+00   7.84574566e-01
    3.56192352e-01  -9.67611604e-01  -7.85239133e-01  -2.78282222e-01
   -9.42832717e-01   1.53350222e+00   1.33638249e+00   5.35938455e-01
    5.40297051e-01  -1.00058245e+00  -1.63114737e+00  -2.00288638e+00
   -2.44666358e-01  -2.16328854e+00   1.17419880e+00   4.88320140e-02
   -2.44545104e+00  -2.79659586e-01  -5.90396163e-01  -1.18034439e+00
   -3.00053361e-01  -2.10904782e+00  -1.13081546e+00   1.15311404e+00
    9.27071966e-01  -5.58194505e-01  -1.90649190e+00  -7.22157602e-01
    6.58143036e-01  -8.43540720e-01  -7.21736122e-01   1.91059724e-01
    2.74601189e-01  -1.07729255e+00   2.81442310e-01   5.34191979e-01
    5.85372637e+00   1.20104366e+00   4.31950764e-01  -1.12130036e-01
   -9.60587128e-01  -1.22899678e-01   1.12201190e+00   4.72344030e+00
   -1.74208895e+00   1.11867850e+00]
 [ -2.32675880e-01   5.40718242e-01  -8.37076333e-01   3.87785322e-01
   -2.77917010e-01   4.35818313e-01  -1.87996605e-02  -8.99803327e-01
   -5.61380220e-01  -2.62325841e-01  -3.40582449e-02   1.74716822e+00
   -1.21075088e+00  -1.23925971e-02  -4.76759761e-01  -4.09376327e-01
   -1.36129980e+00   8.70680321e-02   1.73490241e+00   1.95770092e+00
   -7.54622779e-02  -1.74524776e+00   4.49830598e-01  -1.57614268e+00
   -5.36402274e-02  -6.94358746e-01  -1.57117308e+00  -1.17866079e-01
   -3.56997316e-01   1.27742631e+00  -3.41047137e-01  -2.18918739e-01
    5.13696851e-01   1.47411488e+00   5.38510338e-01  -2.74616187e-01
   -1.06551334e-01  -1.01060010e+00   5.23028176e-01  -1.46025627e+00
    9.03451116e-01   7.77967953e-01  -1.44607007e-01  -7.39438656e-01
    2.46579561e+00   1.54246009e-01   6.33786052e-02   4.57629357e-01
   -1.65128249e+00   2.34692079e+00]]
*****  b 
 [ -0.77407489   0.74356878  -1.46477163  -2.84992602  -3.25339217
  -3.91304485  -3.81251708  -4.98280824  -5.09149702  -5.27532202
  -5.54700122  -5.43513265  -5.61627518  -6.0327425   -6.8412451
  -6.72526208  -7.31708825  -7.58158109  -7.91012614  -8.05858821
  -8.25519424  -9.16416881  -8.63860865  -8.77937025  -9.2987885
  -9.19770199  -9.37829723  -9.5451784   -9.77993595  -9.79794712
 -10.02243633 -10.03952404 -10.33754535 -10.16585617 -10.47457235
 -10.69511682 -10.52176613 -10.36749751 -10.96645062 -10.97673706
 -10.37068926 -10.74809499 -10.53850072 -10.74129137 -10.76391177
 -10.54774197 -11.38830479 -11.55527785 -13.2553651  -14.2124924 ]
*****  hpm_U 
 [[ -1.54877165e+00  -2.43870479e-01   1.09873525e-02  -5.09652897e-01
   -2.21469010e-02  -4.98287003e-01  -5.90399015e-02   1.06289147e-02
    7.95706622e-01  -1.82517966e-02  -5.22066518e-01   7.49724601e-01
   -3.05111615e-01   2.28828641e-01   5.84620887e-01  -1.20300686e-01
   -2.49422065e-01  -9.30420348e-01   1.91716488e+00  -9.30082866e-02
   -8.90214171e-01  -1.58310411e-01   1.35550999e+00  -6.89131043e-01
    2.31521191e-01   6.40888575e-01   1.48610386e+00  -5.43116764e-01
    1.77424418e-02  -1.24832626e+00   3.72800564e-02  -6.31408464e-01
   -1.98769104e-01   9.07231164e-03  -1.22880615e+00   4.39523595e-01
    2.68509850e-01  -4.82552903e-01  -4.48655267e-01   7.86342226e-01
    4.81310664e-01  -7.07646180e-01   7.73747257e-01   2.59373006e-01
    2.35087429e+00   4.36835911e-01  -6.06819278e-01   4.91259461e-01
    6.81829547e-01   9.84829104e-01]
 [ -7.54674867e-01  -1.43126296e+00   3.44876722e-01   1.24303899e+00
   -4.98237378e-01  -1.46035203e+00  -1.09810457e+00   8.92356355e-01
    6.15821701e-02  -6.47075615e-02  -1.77613075e-01   1.90628284e+00
    1.53466839e+00   6.31136961e-02   2.11886619e-01   7.00713466e-02
    1.28010656e+00  -2.70985131e+00  -9.06254289e-02   1.05274658e+00
    8.99923194e-01   1.10847118e-01   2.14699951e-01   5.47365384e-01
    1.20699953e+00  -7.01593845e-01  -1.52623432e+00   8.45258976e-01
   -6.72784978e-01   1.06286705e+00  -6.38380349e-01   2.16708433e-02
    4.25314716e-02   9.41254760e-01  -2.35059394e-01  -8.89289670e-02
    4.56545787e-01  -3.93106210e-01   5.38199082e-02   1.28271598e+00
   -4.14034739e-01   6.96848361e-01   1.76770361e-02  -1.67376039e-01
   -8.49919876e-01   1.01602480e+00   3.39095577e-01   4.85513091e-02
    9.53609198e-01   8.80438420e-01]
 [ -3.80438316e-02  -4.02557356e-01  -7.09814156e-01  -1.68036238e-01
   -1.03663981e+00  -1.47664833e-01   1.87986260e+00   1.30904450e-01
    1.80735382e+00   2.10178845e-02   1.55608323e-02   4.61592315e+00
   -4.74806893e-01  -1.21797487e-01  -4.93997249e-01  -5.04165883e-02
   -1.34278306e+00  -1.99484562e+00   2.10432838e+00   1.94658514e-01
   -1.73084200e-01  -1.17471576e-01  -7.23052333e-01  -7.01750559e-02
    1.33257076e+00   4.22544530e-01   2.43701822e-01   8.67432888e-01
    3.01598108e-01   1.56090609e-01   3.30400127e-01   2.02926700e-02
   -6.77642612e-02   2.08334927e-01  -5.52197900e-01  -2.73240736e-01
   -2.04975174e-01  -1.89204404e-01  -6.66956517e-02   5.55945024e-01
   -4.13343130e-01   4.83814331e-01   3.03002190e-01  -5.38526715e-02
   -7.46320557e-01   3.22672044e-02   1.06678778e-01   1.81003962e-01
   -8.92114541e-02   1.95697026e+00]
 [  3.07208428e-01  -8.20708797e-01  -1.54989006e+00  -1.31332802e+00
    6.32967877e-01  -1.92480400e-01   8.09871194e-01  -2.74687984e+00
    1.31016384e+00  -1.53066751e+00  -1.16872009e+00  -1.77014325e+00
    7.75861627e-01  -1.40716495e+00  -1.41023675e+00  -3.11104027e-01
   -2.02627268e+00   5.54796858e-01  -7.68470944e-01  -6.97859354e-01
   -1.73312387e+00   4.86128218e-01  -4.73050715e-02  -7.99814714e-01
   -1.69156407e+00  -2.77374235e-01  -4.99829854e-01   1.41689071e+00
    1.57271170e-01   1.20063070e+00  -1.39589294e+00   1.98650449e+00
   -4.94801743e-01  -1.59542962e+00  -4.70466352e-01  -2.83215846e+00
   -4.64936948e-01   8.10418654e-02  -1.90888159e+00  -5.21253579e-01
   -1.04636755e+00  -9.21551609e-01  -5.83449730e-01  -4.13351457e-01
    1.37747248e-01  -1.09194886e+00  -5.98510951e-02  -7.43566628e-01
   -1.82414615e+00  -1.25711937e+00]
 [  1.32041297e+00   1.39856883e+00   2.30287274e+00   1.38975311e-01
   -8.43249246e-01  -6.90330362e-01   2.53247022e-01  -6.31355520e-01
   -4.88823346e-01  -1.82038424e-01  -2.30494089e-01   2.46340202e+00
    4.08863241e-01  -7.50063969e-01  -4.61845420e-01   3.41609624e-01
    1.03149442e-01  -8.12729202e-01  -4.85924445e-01   1.63850884e-01
   -5.58943375e-01  -3.91308820e-01   2.76194605e-01  -1.07351049e+00
   -7.34423446e-01   2.95027607e-01  -7.95682131e-01  -2.38285135e+00
    5.67593579e-03  -2.12438695e-01  -6.77456922e-01  -2.11390808e-01
   -1.95859488e-01  -2.44573187e-01   9.04484451e-01  -1.05206086e+00
   -1.06619019e-01  -1.85138785e-01  -2.96162063e-01   4.58960245e-01
    5.37529431e-01  -5.22279662e-01  -7.31418207e-01  -3.88599651e-01
    4.86970586e-02   8.59602885e-01  -4.23889579e-01  -3.97468868e-01
    9.88711120e-02  -2.52695961e-02]
 [  8.07567165e-02  -1.57126747e-01   1.41631869e-01  -1.11200280e+00
    2.65217282e-01  -3.00543556e+00   9.35002255e-01   5.45443111e-01
    5.09144731e-01  -5.92343768e-01  -6.12441880e-01   7.52434707e-02
    5.50226983e-01  -4.07832668e-01  -4.44904241e-01  -1.88746316e-01
   -8.74507898e-01   1.12335517e+00  -7.94824124e-01   4.68339425e-01
    5.43509672e-02  -3.41305517e-02   6.32299029e-01  -7.00472374e-01
    2.80746237e-01   2.55761184e-01   4.07524173e-01   2.49911425e-01
   -1.27209786e-01   3.42536585e-02   1.53829276e-01  -5.91981542e-01
   -7.32842630e-01  -5.00834091e-02   6.86761123e-01  -6.55131232e-01
   -3.08465030e-01  -1.67422661e-01   5.21922068e-02   9.99318015e-02
   -2.74000328e-02  -6.05144724e-01  -2.09920031e-01   1.87417536e-01
    6.47450302e-01  -1.36432284e-01   2.13461177e-02   8.05798258e-01
   -1.28924013e+00  -1.03923366e+00]
 [ -3.07820218e-01   1.00731064e-01  -1.23458740e-01   9.28483933e-01
    3.81931571e-01   1.12348195e-01  -1.35059270e+00  -2.27049574e-01
   -7.52804868e-01   1.13834580e+00  -8.43829610e-01   1.03205523e+00
   -3.23145737e-01  -1.17066831e-01  -5.58545430e-01  -3.25194640e-01
    2.35265448e+00   2.11478888e-01  -1.00375544e+00  -5.17268163e-01
   -7.58703818e-01   8.62668865e-01  -1.39456533e-01  -6.75460334e-01
   -9.20911843e-02  -7.79446701e-01  -2.45348590e-01   1.25711402e-02
   -2.30462688e-01   9.24831946e-02   3.81084703e-01   2.73619863e-02
   -3.02827430e-02  -5.19617341e-01  -1.05827767e-01  -1.14671131e-01
    6.04746003e-01  -9.47048289e-01  -7.17672608e-01  -1.45601965e+00
    2.87172229e-01  -7.16764236e-01   3.63712003e-01  -8.98945815e-01
    5.42789183e-02   3.69303441e-01  -4.70238307e-01  -3.04325581e-01
    1.07237613e-01   1.28204969e-01]
 [  2.72922040e-01   8.96652492e-01  -1.93637217e-01   2.13993507e-01
   -3.55957264e-01   5.02941442e-01   4.25322572e-01   3.19501061e-01
    7.88350975e-01   8.88339589e-02   1.42074198e-01   3.98832063e+00
   -1.10861932e+00   2.89657708e-01   1.83665890e-01   2.31186145e-01
    4.99887604e-01   3.33969016e-01   1.57073624e+00   4.87388161e-01
   -7.74113484e-01  -7.16566158e-01  -1.35779467e+00   8.27489766e-01
    2.20106530e+00   1.49305407e-02   2.34260415e-01   6.70570482e-01
   -8.80080515e-01  -1.66106713e+00  -8.85675836e-01  -1.08883458e-02
    3.42379400e-01  -1.06062592e-01   1.28047266e-01   1.13362561e+00
   -2.06544557e-01   4.56506763e-01   6.00239468e-01   1.57981737e-01
    8.08459147e-01  -3.08736991e-01  -4.30275415e-01   6.78523396e-01
   -1.14481021e-01   3.63113018e-01   1.40212804e-01  -5.58411458e-01
    1.12615044e-01   1.49228789e-01]
 [ -1.29676236e+00  -5.76058070e-01   1.37555141e+00  -8.22511471e-02
    1.36540388e-01   6.39133506e-01   6.02284320e-01  -7.88480118e-01
   -3.18355447e+00   1.24941164e-03   2.18897346e-01   9.67667960e-01
    5.00323867e-01   2.12331362e-01  -1.01393301e-01   6.30631123e-01
    1.23321193e+00  -1.00316024e+00   1.19942440e+00   1.32321058e-01
    7.63122917e-01   3.24418743e-01   1.70757847e+00   3.79498431e-01
   -9.76861059e-01   2.17803087e-01   7.22443215e-01  -6.74883820e-01
    5.28833156e-01  -1.16877198e-01  -3.79571522e-02   5.44947442e-01
    1.33759446e-01  -1.43113051e-01   1.21899770e+00   4.66040961e-02
   -3.32578966e-01   5.83331704e-02   3.41648569e-01   1.06103283e+00
    4.06827728e-02   9.27622701e-01   5.84758443e-01  -2.18588093e-01
    1.30647835e-02  -1.48336004e+00   2.54260565e-01   3.76758424e-01
   -1.74512082e-01  -1.83333725e-01]
 [  5.61031154e-02   4.01739981e-01   8.00118298e-02  -7.88450986e-01
    7.63214157e-02  -1.30486488e-01  -2.11473085e+00  -1.88531458e-01
   -4.68042498e-01  -2.30800768e+00  -1.58578030e-01  -2.47918083e-01
   -2.86020697e-01  -3.94951948e-01  -4.49521960e-01   2.35157920e-01
   -7.56520361e-01   4.06298856e-01  -5.98851459e-01   4.03532048e-01
    1.07222429e-01  -8.72723477e-02   1.80306856e+00  -5.50048202e-01
   -3.85157232e-01  -8.58712811e-02   2.71112943e-02  -5.12739999e-01
   -3.56356434e-01   1.40957292e-01  -1.76006345e-01  -7.02158872e-01
   -2.02096056e-01  -5.07732546e-02  -3.76093587e-01   9.68622468e-01
   -1.40360443e-01  -3.32612869e-01  -2.20788470e-01   9.02652282e-01
   -3.50413881e-01   5.20833128e-01   1.47019770e-01   2.91365515e-02
   -2.29656495e-01  -1.39558554e+00   1.17121397e-01  -4.66347226e-01
   -6.17490423e-01  -4.75287247e-01]
 [  8.13818411e-01   2.12452276e-01  -1.61189043e-01  -1.18140795e-01
    7.76064533e-02  -1.83538574e-01   8.36049116e-01   5.98413392e-01
    3.77711980e-01  -3.86084460e-01  -1.79912869e-01  -7.47544836e-01
   -4.44341942e-01   3.94429128e-01   6.37234833e-01   4.26269083e-02
   -2.66302553e-01  -1.74017989e+00  -8.81501370e-01  -3.28381083e-01
   -4.99148042e-01   5.03225858e-01   8.10277827e-01  -7.41492181e-01
    7.29172993e-01   4.29215573e-01  -4.81434523e-01   8.47893292e-01
    1.26552704e+00   9.54105203e-02   2.45090941e-01   6.39071281e-01
   -6.20661565e-03  -1.87811045e-02   3.69291640e-01  -1.70362578e-01
   -1.43467655e+00   5.36344313e-01  -7.62943305e-02  -1.23688620e+00
    1.16052179e+00   7.55198365e-01   1.42608033e-01  -1.00441191e+00
   -1.81508780e-01  -4.87927218e-01  -7.18913279e-02   1.09129324e-01
   -2.16044535e-01   2.48596886e-01]
 [  8.58454027e-01  -7.15350724e-02   8.29586301e-02  -6.87012179e-01
    1.11062724e+00   2.51104263e-01  -1.38302469e+00  -4.96944188e-01
   -1.67129911e-01   3.17997796e-01   8.29481482e-01  -4.99092115e+00
    1.57150887e+00  -3.84597300e-02  -2.06747619e-01   1.06461081e+00
   -7.62327892e-01  -1.99768171e-01  -1.23995344e-02   2.61719855e-01
    9.00777745e-01   2.26558312e+00  -7.99479197e-02  -3.63256472e-03
    8.30023055e-01   6.57710527e-01   7.49140439e-01   1.47773406e-01
    3.80561043e-01   3.39922791e-01   6.01923902e-02   6.24696564e-01
    2.18139004e-01   3.56993946e-01   5.48831321e-01   1.24438108e-01
    4.11862204e-01   3.64971186e-02  -5.44933081e-01   9.77040313e-01
    3.64891753e-02   2.28648261e-01  -9.05872304e-02   1.03036027e+00
   -3.52610624e-01   3.00593263e-01   7.53041418e-03   5.80128396e-01
    8.40108202e-02   8.82780253e-01]
 [  4.43909119e-01   3.34731813e-01   8.77361175e-01   3.75354357e-01
    3.97277857e-01   4.43720863e-02   1.26606080e-01  -2.46769193e-02
    3.55161389e-01   7.73077792e-02  -2.66418418e-01  -1.38610920e+00
   -1.15894908e-01   4.97741930e-02   1.60860684e-01  -1.75164994e-01
    2.41736396e-01  -5.56447782e-01  -1.00846385e+00  -4.83743201e-01
    7.16884630e-02   4.56583340e-01  -8.46285512e-01  -1.08738426e-01
   -6.37638840e-01  -9.42681570e-02   8.44574495e-01  -1.24799243e-01
    3.33045669e-01  -4.56932488e-01   1.87211801e-01   1.94470064e+00
    3.59005940e-01  -2.95710366e-01  -2.09382377e+00   2.33321769e-01
    1.50213584e-03  -7.36404330e-01   2.29441351e-01   7.01317226e-01
    4.26413857e-01  -8.85964885e-01  -6.81934770e-01  -9.03630790e-02
   -2.25664329e-01  -7.33150682e-01  -9.80161888e-02  -2.78471614e-01
   -2.65840080e-01  -2.14033348e-01]
 [  6.83790951e-01  -5.38754290e-01   3.23155885e-01  -8.01290913e-01
   -1.19349929e+00   1.87567926e-02  -9.17597717e-01  -2.24239273e-01
    1.61781467e-01  -4.37386238e-01  -8.69200798e-02   1.25055935e+00
    1.41958399e+00  -4.79502393e+00   1.35752211e-01  -1.40940287e-01
   -1.39428247e+00   5.32379394e-01  -7.80064802e-01   1.28419432e+00
   -9.89064714e-01   5.10694214e-02   4.45671069e+00  -5.48071422e-01
   -1.34769303e+00  -7.52079844e-01   9.83884252e-01   6.45305715e-01
   -8.21232498e-01  -2.28472699e-01  -7.60826215e-01  -6.55741831e-02
   -9.80717868e-01   3.14413135e-01  -9.32253661e-01  -2.38733263e-01
    4.15810527e-01  -1.20286162e+00  -6.83594346e-01  -5.53487971e+00
    9.30924442e-01   1.12330498e+00   2.41649492e-01  -7.13198110e-03
    3.55606393e-01   1.79539926e-01   1.26861792e-01   1.58378979e+00
   -7.48170546e-02  -2.71528232e-02]
 [ -1.19146565e+00  -2.28212428e-02  -1.11467884e+00  -7.24463510e-01
    4.39807009e-02  -6.94430265e-02  -3.75800885e-01   2.00787500e-01
    1.05643139e+00  -5.44175412e-02   7.29934652e-02  -7.14303856e-01
   -5.02814333e-02  -9.46980718e-02   8.45490170e-01  -8.96049862e-02
    2.49056003e-01   1.16756329e+00  -5.03100522e-01  -1.65146911e+00
   -6.03555718e-01   3.23997851e-02  -5.35739745e-01  -9.60440477e-01
   -1.03803332e+00   1.09351306e-01  -1.67944513e+00   4.37570727e-01
   -4.76761585e-02  -7.41353434e-01   3.30343072e-01  -4.92129500e-01
   -3.01265735e-01   9.13382144e-02   1.39775405e+00   2.32530542e-01
   -1.05189297e+00  -4.24989352e-01  -3.06761065e-02  -5.42286567e-01
   -1.41251626e+00  -1.27110471e+00   7.50350847e-01  -8.57322493e-02
   -8.69647122e-01  -1.85732474e-01  -6.07942530e-01  -4.08167728e-01
   -4.05252392e-01   7.43379998e-02]
 [ -6.88925518e-01  -4.27555016e-01  -2.51808173e+00  -5.18465292e-01
   -1.43334614e+00  -6.57202328e-01   1.74512468e+00  -1.09389788e-02
    1.04297156e+00   2.88928111e-01   5.35250337e-01  -3.54613204e+00
   -1.31142110e-01   2.29525153e-01  -6.49795504e-01  -1.04226216e+00
    7.65495622e-02  -1.64117411e+00   1.84435366e-01  -1.29893030e+00
   -2.02317457e-01  -1.67101091e+00  -3.85292946e+00   9.72581072e-01
    3.53907818e-01  -1.27394744e-01  -1.72185973e-01   8.91203012e-01
    6.05125471e-01  -5.22135619e-01  -1.79520540e+00  -2.72279929e-02
    2.22920302e-02  -3.20906429e-01  -2.78342049e-01   7.79146793e-01
   -6.57318430e-01   2.54776434e-02   2.36542006e-01   8.07319339e-01
   -1.26675625e+00  -1.08969050e-02  -2.30361753e-01   8.29521938e-01
   -4.03039274e-01   6.48626702e-02  -3.70231740e-01  -7.92865656e-01
    1.24933224e+00   5.95942699e-01]
 [ -9.54812120e-01  -1.42499085e+00  -1.92499864e+00  -9.59706224e-01
   -1.11174058e+00  -2.31058496e+00  -1.97419150e+00   3.45484292e-02
   -2.70103569e+00  -1.31105658e+00  -2.15361961e-01  -1.61132519e+00
   -7.35210981e-01  -2.57542852e+00  -1.16707487e+00  -1.43676864e+00
   -5.18716905e+00  -2.05005420e+00  -9.86020901e-01  -1.65558655e+00
   -1.42398922e+00   1.72813683e-01  -1.23290481e+00  -8.78745694e-01
   -1.70704879e+00  -1.62333530e+00   8.41964300e-02  -2.42456984e+00
    8.48781744e-01  -9.96891127e-01  -2.31557720e+00  -6.65692153e-01
   -2.83413833e+00   2.71552131e-01  -1.62003894e+00  -3.19690567e+00
    1.08788424e+00  -1.56481839e+00  -1.81745615e-01  -8.05519028e-01
   -5.21884658e-01   9.49213280e-01  -4.53417112e-01  -8.48949304e-01
    1.25032342e+00   1.36863589e+00   8.24248191e-01   8.10324620e-01
   -5.05894121e+00  -1.05868748e+00]
 [ -9.61743075e-01  -4.37970159e-01   3.88736018e-02  -1.00142197e+00
   -1.18846861e+00   2.80133615e-01  -1.21906699e+00   3.03017311e-02
   -7.76884701e-01  -1.95504971e+00  -4.79373061e-01  -4.57495901e-01
   -3.04851935e-01  -2.85127844e+00  -1.91055753e-01  -1.05434565e+00
   -2.93402978e+00   1.16627195e+00  -3.17080537e-01   9.69727923e-01
   -6.55341605e-01  -5.32473235e-01  -4.38322484e-01  -8.70421734e-01
   -1.30291996e+00  -1.56923580e+00  -4.12770101e-01  -8.47031436e-01
    1.22872708e-04   5.31813074e-01  -2.26167962e+00  -7.19107254e-01
   -2.05370993e+00  -3.16489633e-01  -9.79735716e-01  -7.23198930e-01
    4.48737667e-01  -1.27777826e+00   8.02125614e-01   1.04993405e-01
   -6.92957546e-01  -1.57755365e+00  -4.26789934e-01  -7.59316734e-01
   -2.43726893e-02  -3.06876864e-01  -2.02648936e-02   2.03931585e-01
   -5.51869179e+00  -1.23504787e+00]
 [ -1.66365248e+00  -4.43051782e-01  -9.59481993e-01  -1.75677626e-01
   -9.06719881e-01  -1.70080172e-01  -4.38620417e+00  -8.09799608e-01
   -2.77371843e+00  -2.92742616e-01  -3.95434218e-01  -2.02728094e+00
   -1.17838018e+00   1.64269286e-01   2.36891934e-01   3.84416667e-01
    7.11160484e-01  -1.13138461e+00  -6.64209722e-01  -3.78924968e-01
   -1.02692980e-01  -6.18757908e-01  -1.35608096e+00  -1.15590123e+00
   -2.74428052e+00  -2.56760997e-01  -4.57302542e-01   3.15904565e-01
   -2.40457864e-01  -8.65685676e-01  -1.13809941e+00  -6.03082673e-01
   -9.57653824e-02   1.47129648e-01   7.74865536e-01   5.28003458e-01
   -3.95938171e-01  -5.83668638e-02  -4.95680078e-01  -1.45932085e+00
    6.98409589e-01  -5.77718308e-01  -1.45528379e+00   4.30406362e-01
   -2.94066298e-01   6.82461263e-01  -1.52648307e-01   5.49811562e-01
    8.34057701e-02  -4.00291141e-01]
 [ -1.53414326e+00  -3.35157493e-02  -6.76197250e-02   5.92646056e-01
    9.66363833e-01  -8.59377761e-02   1.30545642e+00   3.97443865e-01
   -1.32412614e+00   1.77163272e-01  -1.22157553e-01  -5.38695576e-01
   -3.51776826e-01  -7.57587312e-02  -9.11214258e-02   6.68541968e-01
    4.45545898e-01  -4.39325947e-01   3.25113224e-01   1.88216666e+00
   -7.58920363e-01  -6.93465272e-01   1.00077685e+00   2.91244786e-01
    7.99327490e-01  -4.76462572e-02   2.36144496e-01  -3.98822519e-02
   -6.32090429e-02   4.20617792e-01   7.65125428e-01   4.00854866e-01
    3.30460410e-01  -2.22861974e-01  -2.32482468e-03   1.81166968e-01
   -2.20972130e-01   6.33900563e-02  -9.44272654e-01   1.81304404e+00
    8.41521558e-02  -1.49380435e+00   3.38308730e-01   5.51400988e-03
    7.18054189e-01   3.43048796e-01  -7.72409592e-01  -2.87174256e-01
    1.94541162e-01  -3.97008131e-01]
 [  1.13243998e+00  -1.97845449e-02  -1.70894325e+00   1.45852649e-01
   -2.08472130e+00  -3.88605565e-01   2.61117794e+00   9.62959720e-01
   -2.88409778e+00  -3.90996650e-01   2.48230001e-01   6.11704309e-01
    6.07287785e-02  -1.25104763e-01  -2.28711295e-01  -7.56338203e-01
    1.28688039e+00   2.26036415e+00  -1.47785321e+00  -3.21215900e-01
   -6.27626031e+00   2.69736264e-01   5.67512332e-01  -1.60460919e-01
   -4.23268834e+00  -8.22127889e-01  -7.82088173e-02  -2.32101612e+00
   -5.26154380e-01   3.36599937e-01  -2.61612377e-01  -1.76556209e-02
   -2.11222879e-01  -3.44894294e-01   7.04324196e-01  -6.72270116e-01
    5.32833557e-02  -2.49319853e-01  -3.18227953e-01  -9.95196940e-01
    9.38872379e-02   2.17290040e-01  -1.16973825e+00  -1.66824891e-01
    3.90135710e-01  -4.73454829e-01  -1.83962488e-01  -2.87278448e-01
    1.86227805e-02  -1.97433115e+00]
 [ -1.91827409e-01  -1.67142628e-01  -2.88458757e-01   6.99080350e-01
    1.34359599e-01  -6.84002619e-02   2.07865589e+00  -6.00184816e-01
   -8.99117140e-01  -2.51909829e-02   2.37674121e-01  -1.24468146e+00
    7.35801057e-02  -1.25498510e-01   1.60833380e-01   4.90321135e-01
    1.96652361e-01  -7.42501014e-01  -6.82677188e-01  -3.52450873e-01
   -4.69221619e-01  -5.81550194e+00   2.59910002e-01  -9.18510418e-03
    1.56899072e-01   1.68965541e-01  -5.58541880e-02  -1.69708222e-01
   -6.56704829e-01   1.08506125e-01  -2.55394993e-01  -5.32328687e-01
   -1.35339754e-01   4.89236810e-02   1.81153510e+00  -8.33261216e-02
    4.06495900e-01   9.17076475e-01   7.89658118e-02  -2.70447738e-01
    7.09631277e-01   4.83003815e-01   4.26246478e-01   3.63190080e-01
    2.61343827e-01   5.06358594e-01  -4.97670333e-01   2.50900471e-01
    1.55122664e-01   2.40613382e-01]
 [ -1.14065797e-02  -8.69542594e-02  -4.11016840e-01  -1.10217307e+00
   -1.52181416e-01   1.17144658e-01  -3.54286725e-01   8.27774306e-02
   -4.13994209e-01  -1.23616383e+00  -3.43980063e-01  -1.14402628e+00
    6.08628788e-01  -1.27341611e+00   1.53205616e-01  -8.45534811e-01
   -1.43634786e-01   1.88633145e+00  -1.13212562e+00   4.12951155e-01
    5.88764531e-01   1.11612099e-01  -3.47093227e+00  -4.44186647e-01
   -7.69107716e-03  -1.61349714e-01   5.47527407e-01   4.96630140e-01
    5.40168332e-02  -4.52053236e-01   1.18150684e+00  -3.61579378e-01
   -8.09056458e-01  -5.43407207e-01  -8.23628575e-01  -5.35147895e-01
    1.70645982e-01  -5.94408089e-01  -9.53787215e-01   4.62340346e-01
    2.58017907e-02   1.18501281e+00  -5.01543445e-01  -1.57165800e-01
    4.80666841e-01  -1.38314495e-01  -1.17586611e+00  -1.96296023e-01
    2.81100343e-02  -2.56099275e-02]
 [  1.28947654e-01   1.12696059e+00  -3.19021031e-01  -8.64303898e-01
    3.88279173e-01  -1.43167510e-01   9.51001094e-01  -3.68618797e-01
   -1.07257975e+00  -8.43885314e-01  -5.54141657e-01  -6.51229728e-01
   -8.60583593e-01  -4.03603293e-01  -6.33879894e-01  -2.53295194e-01
   -1.56828094e+00  -5.48561344e-03  -4.68256085e-01  -3.04748823e-01
    2.53593504e-01  -7.77548093e-01  -3.83856213e-01  -3.71353152e-01
   -6.82212599e-01   3.11132391e-01   1.38000073e-01  -6.60821334e-01
   -1.70851435e+00  -2.70690598e-01  -6.00263922e-01   8.86313551e-02
   -8.47618045e-01  -2.31717516e-01  -1.00069314e+00  -4.74526846e-01
   -1.53362219e+00  -5.64496305e-01  -3.80735220e-01   3.90340116e-01
    2.56242235e-01   1.10445262e+00  -7.32253734e-01  -1.15093520e-01
   -7.55347438e-01  -3.74800151e-01  -1.18555114e-01   2.13353833e-01
   -1.14315881e+00  -7.26489336e-01]
 [ -5.43936133e-01  -4.21972948e-01  -5.92557199e-01   3.74616257e-01
   -2.37070900e-01   1.93624179e-01  -7.00505869e-01  -2.05804706e-01
   -1.83238769e-01  -7.20234437e-02  -8.17590537e-02  -1.57206994e+00
   -9.04348968e-01  -2.71888132e-02   3.34208198e-01   3.97022062e-01
    1.11917387e-01   4.69120015e-01  -8.23770142e-02  -7.48872169e-01
    1.12839454e+00  -1.67023048e-02  -5.80960237e-01   1.73507506e-01
   -1.91616952e+00   2.15821145e-02  -1.32220454e+00   2.40281101e-01
    9.45651488e-02  -5.96158283e-01  -4.53251248e-01  -4.15602778e-01
    5.83632060e-03   4.55899192e-02   2.10035225e-01   2.30003873e-01
   -2.86331034e-01   1.66237840e-01   9.13635719e-01  -2.81072033e-01
    2.13286498e-01  -1.34369179e+00   5.41653116e-01  -3.12140124e-01
    4.82422185e-01  -7.58172826e-01   2.86314058e-02  -1.53019208e+00
   -2.02326232e-01  -2.33986855e-01]
 [  5.31743644e-01  -1.83123512e+00  -1.55827378e+00   1.96504048e-01
   -9.62813657e-01  -7.44323667e-01   1.23765178e+00   5.06452457e-01
    4.77327340e-01   8.53235606e-01  -2.01025693e-01  -1.83241561e-01
    1.70685336e+00   4.11920344e-02   4.46442096e-02  -6.88482347e-02
    1.55641801e+00  -3.98460981e+00  -3.44866583e-01  -6.48168357e-01
   -1.01213494e+00   3.73013803e-01  -7.43468010e-01  -8.14293171e-01
    6.31517834e-01  -1.57274638e+00  -1.04653100e+00   7.94463391e-01
   -1.71936877e-01  -6.71998908e-02   4.80877595e-01   2.44660117e-02
    8.85686240e-01   2.14147403e-01   2.09037778e+00   4.97792706e-01
    1.77341731e-01   2.64504678e-01  -5.14063726e-01   1.76778512e-01
   -2.23549974e-01   6.27331000e-01   4.73296555e-01   9.25481753e-02
   -1.33531463e-01   1.90667037e-01  -1.44045819e-01  -1.01430734e-01
    7.67504855e-01   1.05798091e+00]
 [  2.15747004e-01  -1.33866962e+00  -1.15156807e+00  -1.11858803e-01
    4.06092430e-02  -3.88167013e-01  -9.89267744e-02  -5.27543724e-01
    1.32204707e-01   3.61777050e-01   1.78512071e-01  -7.75213807e-01
   -4.07135165e-01   5.57354375e-01   2.31329131e-02  -3.20220501e-02
   -1.35499042e-01  -2.76580023e+00   1.93434209e+00  -2.88697408e+00
    3.44830673e-02   4.15693365e-01  -8.00820587e-01  -5.57132804e-01
    5.31190857e-01  -1.48054425e-01   7.01409966e-01   1.20377924e+00
   -8.31463982e-01  -8.30576671e-01   2.85353764e-02  -7.79213008e-01
    3.40236229e-01  -2.50110820e-02   5.67000376e-01   6.23530772e-01
   -2.79474788e+00   8.80847383e-01   3.55076750e-01   5.32574393e-01
   -4.86630872e-01   7.61340175e-02   1.68797021e-01   2.23057067e-01
   -2.25110203e+00  -8.46565462e-01   8.49100335e-01  -2.52387932e-01
    4.06875580e-01   1.89902694e-01]
 [ -1.44748117e+00   3.70074007e-01   2.00958271e+00   9.08766759e-02
    3.73050882e+00   2.93399029e-01   2.16336773e+00   9.28119463e-01
    3.55312691e+00   7.17077371e-02   3.64163957e-01   1.00103364e+00
    1.41830927e-01   5.97238254e-01   9.88245674e-01  -1.72536488e-01
   -1.41387757e+00   2.33884805e-01  -4.68256338e-01   6.16902284e-01
    2.75364541e-01   8.76543239e-01  -8.36207710e-01   5.19560522e-01
    2.24703701e-01   4.55431028e-01   9.80185515e-01  -8.60781955e-01
    9.45395098e-02  -1.00131428e+00   4.02403442e-01   6.55020623e-02
   -1.56974724e-01   3.62659573e-01  -1.27664843e+00   3.26451240e-01
   -1.10173854e-01   2.62938667e-01   1.60575301e-01  -1.22518257e+00
    1.17789023e+00   2.25158982e-01   1.20313265e+00  -2.24169780e-02
    7.65458542e-01  -2.28538279e-01   3.08991324e-01   6.18520028e-01
    3.85625343e-01   3.74579234e-01]
 [ -7.72507752e-01   3.48904317e-01  -6.51237133e-01  -1.79135705e+00
   -1.06665914e-01   4.02108578e-03   5.55680672e-01  -2.50961227e-01
    4.92261068e-01   1.66494718e-01  -1.11539296e+00   1.15450071e-01
    5.29165246e-02   5.82128209e-04  -3.39225237e-01   4.92771001e-01
   -1.03686779e+00   2.63717428e-01   6.61516367e-01   1.20025432e+00
   -4.38768607e-01   3.52720375e-01   1.01025212e+00   6.57448178e-02
    1.62580568e+00   8.31507812e-01   5.30208229e-01  -3.08536716e-01
   -4.76827646e+00   5.32948125e-02   2.10242395e-01  -6.93215354e-01
   -1.69314275e+00  -1.22591796e+00  -2.30562955e+00  -2.06632696e+00
    2.52624265e-01  -1.15151314e+00  -8.08595234e-02  -2.27148808e+00
    3.57105824e-01  -7.55759905e-01  -4.23760408e-01   1.57943320e-01
    1.02491779e+00  -6.01481787e-01  -5.37421192e-01   2.24105268e-01
    5.77044438e-02  -9.68215479e-01]
 [  7.29236783e-01  -3.13010670e-01   1.05985376e-01  -8.14749039e-01
   -3.78090604e-01   1.47859740e-01  -1.37290372e-02   1.90733087e+00
    5.58530137e-01   1.27824453e-01  -1.70080412e-02   5.36552241e-01
   -4.53594810e-01  -3.72024250e-01  -2.75842744e-01   7.37054737e-01
   -6.30438013e-01  -1.68738707e+00   1.26163982e+00   7.25122042e-01
    1.63354531e-01  -8.98327280e-02   2.18404548e-01  -7.67536301e-01
    5.92593320e-01   6.89957912e-02   5.29729947e-01   1.35629144e+00
    5.16597411e-01   7.36671952e-01   1.54732591e-02  -2.68785359e-01
   -5.05650180e-01   7.42799011e-01  -4.23252957e-01   1.87988813e-01
   -6.21762352e-01  -2.75651632e-02  -7.51981959e-01   1.56954905e+00
    2.09584674e-01  -4.71024532e-01   3.80658970e-01  -2.27630327e-01
   -4.00373397e-01  -3.92409192e-01  -1.24477287e-01   8.99129838e-01
    2.86899477e-01   4.37879233e-01]
 [  5.48174992e-01  -7.20241996e-01  -6.31250702e-02   1.55726467e-01
    9.87911971e-01  -2.20173317e-01  -7.18184381e-01   5.68899661e-01
    4.00346318e-01  -8.29503032e-02  -2.41404085e-01   1.98637341e-01
   -8.25261491e-01  -1.95516225e-01   5.91381214e-01   2.17865732e-01
   -1.19443112e-01   6.67856692e-01  -8.24528550e-02   8.52923691e-01
    4.31656225e-01   5.55869465e-01  -1.98381989e+00  -5.19033849e-01
    3.59326721e-02   4.97778458e-02   2.58017650e-01  -3.13757863e-02
   -4.51653898e-01  -3.21070542e-01  -1.37369361e+00  -3.83474232e-01
   -5.04639292e-02   3.94677218e-01   5.06623607e-01  -4.84922631e-02
    2.35114163e-01  -3.25262891e-01  -4.47803810e-01   9.17499421e-01
    7.14257379e-01   1.04937550e+00  -3.22468342e-01  -2.26691034e-01
    7.96864892e-02   3.22448661e-01  -4.25698222e-01   4.74654191e-01
   -8.53476738e-01  -4.00772659e-01]
 [  1.43824485e-03  -3.90377654e-01   1.23177690e-01  -4.12494115e-01
   -8.05754518e-01  -9.57287955e-02   1.01987333e+00  -7.07977474e-01
   -2.76031556e-01  -2.41387524e-01  -7.42464890e-01  -1.34843627e+00
   -2.03582112e+00   1.06233134e-01  -2.35093727e-01  -1.71071680e-01
   -6.37189718e-01   6.98824299e-01  -1.22090993e+00  -8.48399077e-02
    5.45661171e-01  -1.15253996e+00   3.72875876e-01   2.23575835e-01
   -3.53030848e-01  -7.56489419e-02  -1.10505222e-01   1.12845703e+00
   -1.71448653e+00   2.41334595e-01  -5.61023394e-01  -6.30822754e+00
    6.71413579e-01   4.34776471e-01   2.00863833e+00  -2.40761181e-01
   -6.08091213e-01  -1.30051299e+00  -3.43804066e-01   9.81774007e-01
   -7.05813027e-01   8.05614078e-01  -1.61001050e-01  -6.39073059e-01
    5.03209855e-02  -3.61626597e-01  -4.87022874e-01  -4.85277183e-02
    7.44983168e-02  -4.06774650e-01]
 [  4.80025940e-01  -4.53129901e-01  -1.35038463e+00  -2.06129011e-01
   -7.54706187e-01   2.61696721e-02  -6.78643903e-01  -1.12140413e+00
   -2.14774957e-01  -7.20147776e-01  -1.45295717e-01  -5.21772879e-01
   -1.09422185e+00  -5.77837602e-01   1.49573131e-01   1.29206117e-01
   -3.37436242e-01   1.24116010e+00  -9.73486384e-01   1.57597555e-01
   -9.79436189e-01  -6.66452908e-01  -1.18487640e+00  -7.25706950e-01
   -8.69878972e-01  -3.75000120e-01  -2.11033964e-01  -1.47678313e+00
    3.53430461e-01   1.68460924e-01  -8.22634402e-01  -9.80597875e-01
   -3.07098545e+00  -9.14447169e-01  -7.89180385e-01  -2.69108905e-01
   -1.08161934e+00  -3.98219839e-01  -2.15627946e-01  -8.09272261e-01
    4.06542443e-01  -6.83429414e-02  -1.59089771e+00   2.63094711e-01
   -2.44931822e-01   3.93239735e-01  -6.74283047e-01   3.57179455e-03
    2.86531202e-01  -7.44750212e-01]
 [  5.35707126e-01  -1.22930225e-01   5.50448500e-01  -5.33812038e-02
   -8.38146356e-01  -1.21700978e-01  -4.78526702e-02   1.43684036e-02
   -1.52540479e+00  -2.24942536e-01   3.17706487e-02  -8.07652806e-01
    1.91580729e-01  -3.67967964e-02   5.87334430e-03   1.74321719e-01
   -4.43366752e-01  -1.24869739e+00  -8.01419240e-01   2.59054260e-01
   -1.12295899e-02  -4.66089234e-01   9.67324833e-03   3.75189796e-01
   -3.85657074e-01  -3.44739085e-02   2.27151455e-02  -6.00077548e-01
    1.99175587e+00  -6.70964963e-01   4.03584068e-01  -2.03345562e-01
   -3.43277452e-01  -8.87263317e-02   2.63865849e+00  -1.46143883e+00
    5.45593191e-01  -5.00832356e-01  -2.84138155e-01   1.30461612e+00
    7.27252864e-01  -1.15371945e-01   1.56350941e-01   1.16085174e-01
    1.58347081e-01  -7.97968124e-01  -6.62363517e-01  -5.87536814e-01
    1.72730714e-01  -1.23212958e-01]
 [  2.81074447e-01   2.45287148e-01  -1.58943665e+00   5.08623614e-01
   -4.67637030e-01  -1.02637798e-01  -1.39365354e+00   5.30312052e-02
   -2.21810732e-01   8.90100177e-02   3.26582492e-01  -2.16206823e+00
    4.21947334e-01  -1.23868093e-01   3.40371874e-02  -3.70530554e-02
    1.81258031e+00  -2.57785585e-01  -8.94915582e-01   3.52738396e-01
    4.95476953e-01  -5.52909572e-01   3.45695521e-01   4.45940727e-01
   -2.34976583e-01  -3.61422584e-03   6.70307724e-01  -6.54745451e-01
   -9.49065709e-01   1.70619053e-01  -2.90688745e-01   3.11124162e-01
    1.85382339e-01   1.05652267e+00  -2.02232149e+00   2.31973752e+00
    2.59864140e-01  -8.41119210e-02   8.61671442e-02   1.41445647e+00
   -1.97876762e-01   9.71634907e-01  -3.37075409e-01  -3.74656004e-02
   -1.69515770e-01  -1.55988824e-01   1.75507270e-01  -2.21642725e-01
    9.11875497e-03   1.17926920e-01]
 [  7.04888291e-01   4.38093586e-02   7.10299449e-01   9.70754913e-01
    2.43588216e+00   4.66390271e-01  -1.72219802e+00  -5.47585470e-01
    1.31672980e+00   3.91165539e-01   3.88986469e-01   1.89152201e+00
    5.59399023e-01  -8.01295478e-02  -2.67965154e-02  -3.25257330e-01
    1.03619384e+00  -1.59480495e+00   1.36852621e+00  -7.50844415e-01
   -1.53001848e-01   4.48057736e-01  -6.23042057e-01   6.74604970e-02
    5.31273121e-01  -2.46813240e-01  -7.63440016e-01   7.70133494e-01
    8.12740480e-01   9.56049073e-01   1.29887808e-01  -2.38556086e-01
    2.15197021e-01  -8.93210287e-02  -2.35962202e+00  -2.37539168e+00
   -1.90235074e-02   4.93503692e-01   6.02707002e-01  -3.30189742e-01
   -6.21505210e-01   1.11925433e-02  -6.86629679e-02  -5.67966904e-02
   -9.39842395e-01   4.76105367e-01   5.48203163e-01   2.11360016e-01
   -3.83232456e-01   3.12939452e-01]
 [  1.78539222e-01   1.20473164e+00  -1.07565301e+00  -9.77834826e-01
    1.59935825e+00   1.79166544e-01  -4.49981921e-01   3.58752650e-01
   -6.90121203e-01  -1.43760987e-01  -1.05543056e-01  -7.06400169e-01
   -4.90663055e-01   2.14471590e-01  -6.08519484e-01  -8.55037482e-02
   -6.14325055e-01   5.86355067e-02  -4.69858737e-01   2.77460441e-02
    1.72060969e-02  -3.48551970e-01  -8.74427462e-01  -4.67318883e-01
    4.68428419e-01   6.31487016e-01  -5.50294454e-01   5.91860987e-01
    4.83642334e-01  -1.03878255e-01  -2.50589439e-01  -2.56189943e-01
   -3.32530198e-01  -9.85526684e-02  -3.43364911e-01  -5.46538264e-01
    2.69142553e+00   1.39662796e-01   3.27751128e-01  -1.30464115e+00
    1.06908800e+00  -3.23206299e-01  -7.98071529e-01   1.81879394e-01
   -4.31256768e-01  -1.20117889e+00   5.98125592e-01  -4.18313899e-01
   -5.39281696e-01   4.73747745e-01]
 [ -4.71937539e-01  -1.48038552e+00  -4.93493314e-01  -5.38109170e-01
   -1.51145111e+00   2.52514776e-01   3.40147981e+00  -1.15278778e+00
    6.84034031e-01  -4.07479443e-01  -1.13582575e-05  -3.34828315e+00
    5.92315022e-01  -7.55898053e-02  -3.23007892e-01  -6.34946372e-01
   -3.76785762e-01  -1.68375795e+00  -7.66760481e-01   4.23775963e-01
    2.37116842e-01  -4.28821408e+00  -1.86760580e+00   1.75751871e-01
    1.39934842e-01  -6.68557037e-01  -5.60353701e-01  -8.75897317e-01
    9.56126843e-01  -3.96476409e-01  -5.05246344e-02   7.94655033e-01
    2.18198363e-01  -3.81167972e-01  -1.24340937e+00   4.24375957e-01
    5.74246609e-01  -2.85399882e+00   1.56312302e-01   5.39444148e-01
   -1.45781771e+00  -1.19139517e-01   3.43438732e-01  -3.79287006e-02
   -6.96432386e-01  -6.61025705e-01  -7.20737281e-01  -7.47512164e-01
    2.29365300e-01  -4.71024361e-01]
 [  1.02744216e+00   8.74634596e-02  -4.15309111e-01  -1.48396274e-01
    1.34403205e+00  -4.90626318e-01   2.26236998e+00  -7.30050482e-01
    7.84275424e-01   3.89006432e-01  -2.96733316e-02  -9.94619135e-01
   -9.47593605e-01   5.57031306e-01  -2.26635497e-01   1.15542916e-01
   -5.39949878e-01   1.43349377e-01  -1.03953349e+00  -1.83175941e-01
   -1.94428794e-01   6.61060479e-01  -7.11576633e-02  -3.64323482e-01
    1.74851747e+00   1.07636801e-01  -1.60420131e-01  -5.67207314e-01
    6.93357791e-01   1.51410021e+00   1.27322115e+00  -8.65845238e-01
    2.38753774e-01   6.38176336e-01  -2.08814324e+00   1.52669067e+00
    2.97342639e-02   2.35274951e-01   1.87402449e-01  -5.59951226e-01
   -4.76907981e-01   1.26266585e+00  -1.47913704e-01   1.70210978e-01
   -3.74808356e-02  -2.17119946e-02   4.23682771e-01  -1.07392247e-01
    1.37645777e-01   7.91014165e-01]
 [ -7.21862637e-01  -4.97503130e-01   7.98322020e-01   1.69102540e-01
   -1.94786414e-02  -1.51388257e-01  -1.45631890e-02  -6.97292244e-02
   -4.16862008e-01  -1.27443122e+00   4.19406362e-01  -4.56694604e-01
   -4.27335749e-01   1.03519277e+00  -1.38870255e-01   5.49693443e-02
    3.90518813e-01   1.92556628e+00   2.57033803e-01  -4.53380873e-01
   -1.09604492e+00   2.57049002e-01   3.03551492e-01  -4.05800317e-01
    4.98304951e-01  -3.60537814e-01   3.13838016e-01  -8.93464877e-01
    6.85439777e-01   1.66619405e-02   2.28351631e-04  -1.50596223e-01
   -3.12907166e-01  -8.94616486e-01   5.63495022e-01   2.36092260e-01
   -2.31967185e-02  -6.63685909e-01  -8.36835131e-01  -3.48185484e+00
    8.55926881e-01   4.83561319e-01  -4.61967235e-03   3.17488498e-01
   -7.89433085e-02  -3.68496157e-02  -1.26928581e+00   4.56026415e-01
    3.73793879e-02  -5.10379532e-01]
 [  1.01554723e-01  -5.73157598e-01  -1.20233120e+00   1.53526628e+00
   -1.83960919e-01   6.66877250e-02  -2.17182797e+00  -6.53733024e-01
    1.01589385e+00   1.17639147e-01   2.08819184e-01  -2.01011227e+00
   -9.96022276e-01  -1.71152486e-01  -6.05571310e-01  -9.12978396e-01
   -1.62298503e-01   1.60223340e+00   1.88310900e+00  -1.94554732e+00
    5.79869608e-01  -6.54482268e-01  -1.22860999e+00   8.18714668e-03
    8.00329040e-02   4.81585091e-01  -2.13234858e+00  -4.12848415e-02
    5.06299981e-01  -1.15303660e-01  -3.02599974e-01   5.96435516e-01
    6.46580663e-01  -7.23092896e-01   5.16391429e-01   2.77697274e-01
   -1.11092482e+00  -4.36234638e-01   9.77705178e-01  -2.90748118e+00
   -1.17525492e+00  -2.22940267e+00   3.98561956e-01  -3.19711079e-01
   -2.81266433e+00  -9.37918402e-01   5.47345875e-01  -1.52361939e+00
   -6.25981864e-01   8.75356338e-01]
 [ -1.15675815e-01   2.91859573e-01   8.05254545e-01  -5.94381328e-01
   -5.37930471e-01   2.63530915e-01   2.57382643e-01  -1.85214366e+00
    7.92301839e-01  -1.57276076e+00  -5.82687802e-01  -4.14682200e-02
    5.64515778e-01  -2.51784510e+00  -3.67416173e-01  -9.46051450e-01
   -1.41376099e+00  -1.04015538e+00  -8.97799312e-01   1.47268811e+00
   -1.06769175e+00  -1.64650790e-02   2.81305762e-01  -3.40778212e-01
   -1.16209030e+00  -9.41028117e-01   1.06504646e+00  -9.19792297e-01
    5.47107170e-01   4.11346338e-01  -1.53824544e+00  -6.86096242e-01
   -9.35826405e-01  -4.48061489e-01   9.50538109e-01  -1.45577051e+00
    7.46990355e-01  -5.21218881e-01  -5.02422370e-01   8.72886739e-03
    2.28101284e-01  -4.42381300e+00  -8.92725892e-01  -4.43495795e-01
    6.46782147e-01   1.54285436e-01  -9.13932108e-01   2.38067685e-01
    1.24692554e+00  -6.88988708e-01]
 [ -3.40497883e-02   1.10064163e+00  -1.61867867e-01   7.12351130e-01
    2.88864532e-01  -2.46172194e-01   2.21757703e-01   2.46246780e+00
   -7.62503178e-01   5.99196398e-01  -1.10244739e-01   2.27578801e+00
   -1.49297614e+00  -4.23050769e-01  -1.02001204e-01   1.14276648e+00
    5.65596905e-01   3.57852444e-01  -3.73917697e-01   3.17047158e-01
    1.09592956e+00   8.83351483e-01   1.28582603e+00   3.52729969e-01
    2.01608313e+00   3.80342980e-01   2.78915517e-02  -6.78565630e-01
   -1.50675944e+00   5.64291715e-01   2.06147049e+00  -2.93258820e+00
   -1.90639447e-01  -1.77569755e-01  -2.13297372e+00   1.35690857e-01
    8.22187318e-01   3.86918386e-02  -6.05032720e-01  -6.07261165e-01
   -7.10514848e-02  -2.35971770e+00  -1.29995504e+00  -7.61539993e-01
   -3.50088970e-01  -8.21181678e-01   9.31855635e-01  -2.96734938e-01
   -6.30765223e-01  -2.42775057e-01]
 [ -2.84804405e+00  -2.12080066e-02  -9.38197762e-01   4.86358266e-02
   -1.14007401e+00   3.73031119e-02   5.54975908e-01  -8.46123276e-01
   -1.48588189e-01  -4.57950219e-02  -9.84605790e-01   6.25163843e-01
   -1.51845746e+00  -1.56213050e-02   2.77674976e-01  -7.72309264e-01
    3.35706792e-01   2.18036839e-01   6.05759775e-02   4.09365861e-01
   -1.06937809e+00  -1.14816586e+00   7.67102234e-01  -1.29390559e-01
   -3.68275099e-01  -4.14949881e-01  -4.05079317e-01   1.37616551e-02
    7.61744172e-03  -9.29091964e-01  -1.96453724e-01  -3.00811043e-01
   -6.70927790e-02   1.96563121e-02  -2.55213862e+00  -5.41929639e-01
   -7.94380640e-01   8.38721863e-02  -2.36202412e-01  -7.18943091e-01
   -1.28350730e-01  -4.67489811e-01  -9.80795613e-03  -7.89201350e+00
   -4.02891404e-01   1.31317516e-01   1.67050540e+00   1.19333078e-02
   -2.59358133e-01  -1.01113245e+00]
 [ -4.08549852e-01  -2.97456564e-02   4.44699570e-01  -3.99810195e-01
    9.19266893e-01   9.90056417e-02  -6.57417023e-01  -9.24444171e-01
    1.23988286e+00  -4.82437605e-01  -5.07123839e-01  -8.73132620e-01
    6.07984373e-01  -1.86801311e-01  -4.56794906e-01  -3.90303874e-01
   -1.28814183e+00  -1.97769875e+00  -1.29420087e+00  -2.62772222e+00
    4.39785290e-02   7.97207107e-01   4.78040752e-01   2.75910810e-01
   -6.27763867e-01   1.36918477e-01  -1.37017854e+00  -8.12883130e-01
    4.42515386e-01  -1.36352230e+00   1.60971662e-01   2.98029839e-01
   -5.65665813e-02  -2.30595423e-01   7.04455733e-01  -7.22668181e-01
   -2.60756817e+00  -3.30593700e-01  -6.77056626e-01  -5.41876524e-01
   -1.32261520e+00   2.55187003e-01  -4.35969036e-01   1.41628440e-02
    1.33147067e+00  -1.44310173e+00  -2.62904400e-01  -1.38864347e+00
   -1.10199497e-01  -7.68891855e-01]
 [ -1.83244166e+00  -2.81788755e-02   1.70310815e-01  -1.04162811e+00
   -7.60371897e-01  -4.34790901e-02  -1.08689729e+00  -4.86298490e-01
    6.15393725e-01  -9.91401823e-02  -8.93435144e-01  -8.87793119e-01
    2.39087473e-01  -3.50585230e-01  -5.74201287e-01   4.48520565e-01
   -2.73741799e-01  -2.87813387e+00  -1.42964530e-01  -1.77986669e+00
    4.09812976e-01  -9.71122667e-03  -9.21569868e-01   1.85851555e-01
    1.04238672e-01  -3.86321027e-01  -1.20912112e+00  -7.34827595e-01
   -5.65572103e-01  -9.46658923e-01  -5.92999000e-01  -5.98620819e-01
   -5.05193374e-01  -5.59248332e-02  -1.41693226e-02   1.10369352e+00
   -1.00958591e+00  -9.14271856e-02   1.54475347e-02  -4.40914003e-01
   -6.89167566e-01  -4.11163155e-01   2.62504774e-01  -4.95797878e-01
    2.25931037e-01   1.50893359e+00  -5.22288279e-01  -7.23476047e-01
   -1.01930398e-01  -2.74962998e-01]
 [ -6.30238802e-02  -1.61585073e-01  -2.68362166e-01   1.90871575e-01
    5.36291761e-01   1.14756037e-02  -6.77544525e-02   1.07873098e+00
   -1.39913671e+00  -2.53546024e-01   2.36160069e-01   2.68452615e+00
    9.29682194e-02   1.05511788e-01  -5.11563176e-02   2.37928677e-01
    4.66708250e-01   1.20046933e+00   8.22208116e-01  -1.04380139e-01
    2.97211936e-01  -1.18155303e+00  -3.79333412e-01  -2.26533203e-01
   -3.23669787e-01  -3.60217631e-02   2.05377536e-02  -4.12842687e-01
   -1.36106575e+00   1.27044650e+00   1.45345544e+00   1.73317392e+00
    2.64032388e-01   9.63801918e-02   1.72827302e+00   5.65916774e-01
    7.01005244e-01   3.23683201e-02   1.02759011e-01  -6.08856673e-01
   -3.67385091e-01  -3.63993163e-01   3.37602531e-01   3.13191049e-01
    7.80574126e-02   2.74821807e-01  -1.81310356e+00   3.43132343e-01
    8.93138093e-02  -3.81431700e-01]
 [ -1.29794199e+00  -8.71304538e-01  -8.04869897e-01  -5.32918192e-01
    3.66437018e-02   5.16393644e-01   1.21200102e+00  -4.78257979e-02
    4.72180358e-02   1.63484031e-01   1.36777725e-01   1.48861635e-01
   -2.92935601e-01   9.47887267e-02  -6.44942654e-01  -9.77221566e-01
    8.94823311e-01  -1.82369645e+00  -3.86639417e-01  -1.19887263e+00
    3.50104272e-01  -1.19196517e-01   1.37529022e-01  -6.47334280e-01
   -5.00267254e-01  -4.37373375e-01  -1.26661921e+00  -5.10418205e-01
   -3.20625411e-01  -9.04318157e-01   7.84599387e-02   8.08163619e-01
    2.78113534e-01  -5.56671709e-01   2.50534076e-01   1.09555722e-01
   -1.35381183e-01  -3.25413433e-01   6.71205941e-02  -9.45217125e-01
   -2.64282187e+00  -3.98534951e-02  -2.92432677e-01   7.00059104e-02
   -1.68465024e+00  -4.78596221e-01  -1.25192477e-01   4.03793629e-01
    5.89087724e-02  -1.33175485e-01]
 [  8.08607596e-02   3.26863181e-01  -2.55166169e-01  -9.85755902e-01
   -3.33589323e-01  -1.04140601e+00  -1.42677937e+00  -1.71053739e-01
   -3.18812603e+00  -3.83304274e-01  -1.85430561e-01  -7.04060530e-01
   -5.10281202e-01  -2.02857235e-01  -9.62668965e-02  -3.23912978e-01
   -1.75156958e+00  -8.24781248e-01  -4.55701048e-01   6.00038456e-01
    3.18818313e-01   2.85761286e-01  -4.08453385e-01  -3.60608619e-02
    3.46282399e-02  -1.99950834e-01   6.06958442e-01  -1.47345027e-01
    6.23529266e-02   5.55148965e-02  -6.95329577e-02  -6.69655840e-01
   -5.25364999e-01   4.73101823e-01  -9.17181556e-01  -1.33901855e+00
    4.17328814e-02  -3.96729480e-01  -2.52522820e-01   5.60176943e-02
    5.59555769e-02  -1.19554812e+00   1.65593678e-01   3.64249964e-01
    4.93568843e-01  -4.63189479e-02  -2.81696147e-01  -1.85279538e-01
   -2.37570361e+00  -2.50040048e-01]
 [ -1.80392963e-01   2.55412255e-01   2.97226008e-01   7.81778676e-02
   -8.12233340e-01   1.06526906e+00  -4.18341301e+00   4.88940147e-01
    1.65943054e+00   2.95061762e-01  -5.04791997e-01   8.42418760e-01
    2.96352381e-01   3.57720161e-01  -2.57139392e-01  -6.63637267e-01
   -7.94135170e-01   6.21665984e-01   1.21040908e+00   4.61222497e-01
    5.87360824e-01   1.50051822e+00  -1.12450775e+00  -6.99920722e-01
   -7.90606029e-02   4.47330470e-01  -2.72176574e-01   4.99153800e-01
   -2.38258210e-01  -4.00454691e-01  -6.14459468e-01   1.92247547e-01
    2.81198058e-01  -6.43961321e-01   3.16695774e-01  -6.81126273e-01
   -1.00901342e+00   7.77928062e-01   2.77868550e-01  -7.02141866e-01
    1.63794845e-01   6.76391852e-01   9.95181174e-01   1.01836181e+00
   -3.51943555e-01   4.50245679e-01   1.43455728e+00  -5.14659082e-01
    6.30110778e-01  -1.17097622e+00]]
*****  U 
 [[ -8.08344789e+00  -9.17959906e+00  -8.17562381e+00  -8.24560856e+00
   -8.40716824e+00  -8.54107693e+00  -8.79337889e+00  -8.85706460e+00
   -8.67739390e+00  -8.25129209e+00  -8.21139844e+00  -1.03379274e+01
   -1.02839646e+01  -9.03839801e+00  -8.85863503e+00  -8.50661486e+00
   -9.20269981e+00  -9.20733272e+00  -9.43572807e+00  -8.96206350e+00
   -9.66285951e+00  -1.38053914e+01   7.41784307e-01  -3.62841643e+00
   -6.37789145e+00  -6.92017964e+00  -7.09346121e+00  -6.64633579e+00
   -7.02874338e+00  -8.38219942e+00  -8.56208785e+00  -9.09132706e+00
   -8.65066142e+00  -8.17450620e+00  -9.52205937e+00  -9.23349503e+00
   -8.57955786e+00  -8.91715300e+00  -1.02600156e+01  -9.49170589e+00
   -9.69799132e+00  -9.48712187e+00  -9.17417838e+00  -9.61078315e+00
   -9.18485974e+00  -9.46993742e+00  -7.80048796e+00  -8.42192627e+00
   -9.28891026e+00  -1.03559225e+01]
 [ -1.00061812e+01  -1.21270589e+01  -1.20924951e+01  -1.15595165e+01
   -1.11791054e+01  -1.20849341e+01  -1.23591189e+01  -1.18870616e+01
   -1.08574369e+01  -1.18093050e+01  -1.25066278e+01  -1.24013293e+01
   -1.27587542e+01  -1.24930524e+01  -1.17924098e+01  -1.21144112e+01
   -7.61532806e+00  -1.29332970e+01  -1.33407867e+01  -1.18932489e+01
   -1.14957549e+01  -1.12939522e+01  -9.18244480e+00  -1.26989277e+01
   -1.22481118e+01  -1.09305012e+01  -1.17588034e+01  -1.19115779e+01
   -1.14477115e+01  -1.10121616e+01  -1.16536443e+01  -1.15438283e+01
   -8.93688491e+00  -7.60728673e+00  -8.94618299e+00  -9.07750277e+00
   -1.21971058e+01  -1.23187600e+01  -7.28475902e+00  -9.07283835e+00
   -1.03169790e+01  -1.11942533e+01  -1.04993718e+01  -9.27530007e+00
   -9.87999165e+00  -1.03980407e+01  -7.60317042e+00  -9.29580981e+00
   -8.40701918e+00  -7.33852516e+00]
 [ -8.22134626e+00  -8.47631027e+00  -8.43052208e+00  -8.46146991e+00
   -8.41801349e+00  -8.48953523e+00  -8.52029052e+00  -8.39074810e+00
   -8.49000518e+00  -8.40334864e+00  -8.46911411e+00  -8.39495085e+00
   -8.70414164e+00  -1.12277530e+01   2.05478963e-01  -2.42949932e+00
   -3.81067046e+00  -5.47563913e+00  -6.12944408e+00  -7.17932653e+00
   -7.71616637e+00  -8.18375263e+00  -8.91087331e+00  -8.44199347e+00
   -8.13271615e+00  -8.57923718e+00  -9.54399528e+00  -8.59583485e+00
   -8.39319543e+00  -8.86481352e+00  -9.58388558e+00  -7.93782882e+00
   -8.48347684e+00  -9.33902544e+00  -8.72886253e+00  -8.83438737e+00
   -8.60446554e+00  -8.39487777e+00  -8.53980336e+00  -8.74948898e+00
   -8.75651316e+00  -9.09189604e+00  -9.15217369e+00  -8.65313255e+00
   -9.34616562e+00  -9.14917629e+00  -8.89452039e+00  -9.07560060e+00
   -9.35241015e+00  -9.84609527e+00]
 [ -1.03431981e+01  -1.01859394e+01  -1.05065538e+01  -9.77839931e+00
   -1.00925858e+01  -1.10014602e+01  -9.23367615e+00  -1.15636179e+01
   -1.18625722e+01  -1.11503265e+01  -1.15465625e+01  -1.01301327e+01
   -7.53165271e+00  -1.07986452e+01  -1.16332901e+01  -1.01412830e+01
   -1.03929502e+01  -7.85894282e+00  -1.18329876e+01  -1.10382492e+01
   -1.20212575e+01  -1.11151488e+01  -1.07575580e+01  -1.22695880e+01
   -1.19440139e+01  -1.14942335e+01  -1.08905112e+01  -1.12843837e+01
   -1.05866102e+01  -1.08085170e+01  -1.13180761e+01  -1.09663748e+01
   -1.13213523e+01  -1.21916978e+01  -1.08353157e+01  -1.08769744e+01
   -1.05611539e+01  -1.13573130e+01  -1.04852818e+01  -1.08861435e+01
   -1.32102664e+01  -1.31596067e+01  -1.43951960e+01  -1.36407739e+01
   -1.36990727e+01  -4.29485185e+00  -4.82319195e+00  -6.48971917e+00
   -6.56861609e+00  -7.04053370e+00]
 [ -1.14461272e+01  -1.19944123e+01  -1.20112217e+01  -1.16371707e+01
   -1.19856645e+01  -1.17609414e+01  -1.19313526e+01  -1.17289561e+01
   -1.17554806e+01  -1.18312390e+01  -1.17066283e+01  -1.16144776e+01
   -1.17427742e+01  -1.18120682e+01  -1.19924377e+01  -1.19987326e+01
   -1.45656982e+01  -1.62732393e+00  -5.08201460e+00  -6.84650361e+00
   -8.33457384e+00  -8.53615069e+00  -9.67292101e+00  -7.15709771e+00
   -7.01099219e+00  -7.55963275e+00  -8.57158559e+00  -8.76465887e+00
   -8.96535531e+00  -9.04324567e+00  -9.29271186e+00  -9.71736227e+00
   -1.07897302e+01  -1.04360430e+01  -6.50793172e+00  -6.48465989e+00
   -7.10870103e+00  -7.17113254e+00  -8.24089981e+00  -7.78686329e+00
   -7.98750378e+00  -8.42383942e+00  -8.43178335e+00  -8.27219531e+00
   -8.18808049e+00  -8.27717123e+00  -8.23868846e+00  -8.27922400e+00
   -8.94412180e+00  -9.54432370e+00]
 [  5.35400459e-01  -5.52797728e+00  -6.18001788e+00  -6.10770704e+00
   -6.28287490e+00  -6.21524296e+00  -5.82914442e+00  -5.98299396e+00
   -5.83351858e+00  -6.11190155e+00  -5.93314862e+00  -6.15032013e+00
   -6.36617346e+00  -6.00071332e+00  -6.92991724e+00  -6.38442147e+00
   -6.41256682e+00  -6.45921613e+00  -6.87475084e+00  -7.39256336e+00
   -7.39852150e+00  -7.33000830e+00  -6.14002510e+00  -7.32958652e+00
   -7.58302115e+00  -7.79224295e+00  -7.47104797e+00  -7.10289536e+00
   -8.05424121e+00  -7.18213539e+00  -7.04163036e+00  -6.23133635e+00
   -7.82401677e+00  -8.77538232e+00  -8.00423140e+00  -8.07604233e+00
   -6.69730732e+00  -8.15364627e+00  -7.79889381e+00  -8.31409527e+00
   -9.30216771e+00  -9.15807843e+00  -9.89361213e+00  -9.83588793e+00
   -9.12692548e+00  -1.00627796e+01  -1.08095729e+01  -1.04864699e+01
   -9.43819689e+00  -8.83439276e+00]
 [ -4.95698420e+00  -4.87604345e+00  -5.04022619e+00  -5.00396604e+00
   -7.06577328e+00   2.70972918e+00  -2.63114727e+00  -3.39699915e+00
   -3.77104518e+00  -3.58339464e+00  -5.28047512e+00  -4.48450118e+00
   -5.12315642e+00  -5.29826379e+00  -5.74280222e+00  -6.53759017e+00
   -6.74434589e+00  -5.38793372e+00  -5.84553219e+00  -7.03848611e+00
   -7.88938393e+00  -8.76725815e+00  -7.55408831e+00  -7.70175393e+00
   -8.50204196e+00  -8.14273448e+00  -8.87455775e+00  -8.65369393e+00
   -8.63190695e+00  -8.54542234e+00  -9.20499419e+00  -9.35952353e+00
   -9.39982778e+00  -9.38242118e+00  -9.65201138e+00  -9.80016307e+00
   -7.73451879e+00  -7.79232756e+00  -8.49645999e+00  -8.64074135e+00
   -8.06788835e+00  -8.33743799e+00  -8.33327394e+00  -9.20253145e+00
   -8.80258914e+00  -8.10562139e+00  -8.57636778e+00  -8.60305847e+00
   -8.88470744e+00  -8.80798487e+00]
 [ -1.32488090e+01  -1.24087358e+01  -1.29633755e+01  -1.28983505e+01
   -1.26740889e+01  -1.25869876e+01  -1.23354641e+01  -1.27651416e+01
   -1.29431298e+01  -1.28519925e+01  -1.25235347e+01  -1.22897150e+01
   -1.08324281e+01  -1.22109786e+01  -1.27760392e+01  -1.25081357e+01
   -1.24741727e+01  -1.20723056e+01  -1.21847353e+01  -1.24025714e+01
   -1.25452942e+01  -1.23848260e+01  -1.56138006e+01  -1.87938492e+00
   -4.38722737e+00  -5.67163277e+00  -7.15746583e+00  -8.26962979e+00
   -9.44100470e+00  -9.05904789e+00  -8.87198957e+00  -9.91275194e+00
   -9.46018101e+00  -9.29657811e+00  -9.57547697e+00  -9.72794395e+00
   -1.13239903e+01  -1.07843049e+01  -5.06968368e+00  -7.65230977e+00
   -9.82051293e+00  -9.85728896e+00  -1.02745424e+01  -1.11992928e+01
   -1.10692248e+01  -1.01605903e+01  -1.00537977e+01  -9.83679044e+00
   -9.26598625e+00  -9.49651179e+00]
