*****  Wemb 
 [[  7.02395459e-03  -2.02216374e-02   9.06708154e-03   1.28600132e-02
    8.06145309e-03  -7.44118275e-03  -8.02128729e-03  -5.73209632e-03
   -6.96116523e-03   1.96371300e-02   8.07036284e-03  -5.20967793e-03
   -1.43106622e-02  -1.27117531e-03  -2.42147389e-03  -1.52545751e-02
   -8.42287706e-03   8.04114590e-04  -9.26381356e-03   5.82182902e-03
   -2.45434542e-04   4.53405806e-05   1.58561384e-02  -2.81870036e-03
   -1.17374136e-02  -7.73950325e-03  -4.62485904e-03   2.32787679e-03
    2.38466764e-04   1.09755226e-03  -1.99314364e-03   5.60064103e-05
    1.38179478e-02   9.12753088e-03  -1.06163079e-02  -1.77280534e-03
   -8.82842579e-03   2.25933022e-03  -1.07424628e-02   9.02235897e-03
   -1.71318341e-02  -1.03240199e-03  -6.09433309e-03  -3.31040488e-04
    7.44110121e-03  -1.71944467e-02   1.70699298e-02   8.13763705e-03
    4.86811171e-03  -1.92263845e-02]
 [ -4.03348384e-01  -1.53295253e-01   2.08972571e-01   4.44453177e-01
    1.77889992e-01  -6.10175882e-02   1.40672459e-01   3.95624833e-01
   -3.92108933e-01  -1.72812947e-01   2.84520256e-01  -3.69685325e-01
   -1.26174499e+00   1.22529709e-01  -1.13891062e-01  -2.81275087e-01
    3.38503428e-01   1.56123265e-01  -2.72726327e-01  -7.04317497e-01
    9.57269808e-01  -3.75028012e-01  -3.24555411e-01   6.33064501e-01
    5.94817037e-01  -5.41472296e-01  -1.41908362e-01  -6.50940762e-01
   -3.84463058e-01   1.21993715e-01  -3.76152861e-01   5.51394672e-02
    4.23125035e-01  -3.69349078e-02   1.45442104e-01  -6.93981219e-01
    3.74637989e-01  -6.81684832e-02  -3.95519783e-01  -5.00000741e-01
    2.00694358e-01   8.27549401e-01   1.39242879e-01  -1.21222361e-01
   -7.00675717e-01  -4.37737764e-01  -9.68013088e-02  -2.74663950e-01
   -1.87856754e-01   6.16889373e-01]
 [ -2.84086508e-01  -7.18269130e-02  -1.60311346e-02   3.79772606e-01
   -6.55463053e-02  -4.91499267e-01  -3.58629622e-02   2.13525694e-01
   -7.61591976e-01  -1.24049041e-01   4.99540645e-01   5.83741042e-01
   -7.19263700e-01  -8.12604401e-02   2.00958994e-01   2.36052817e-01
   -3.48391677e-02   6.66765204e-02  -5.04968288e-01  -1.23187932e-01
    3.04029685e-01   2.99655508e-01  -2.28906038e-01   6.75720581e-01
    8.07629061e-01  -2.68032862e-01  -1.11531343e-01  -1.18513762e-01
   -2.67517113e-02   3.86242354e-01  -2.29872869e-01   1.09722268e-01
    2.28507868e-01  -4.72342674e-01  -2.90901229e-01   3.25281937e-01
    4.59316263e-01  -1.44018552e-02   5.46286189e-01  -6.75722343e-01
   -2.94891732e-01  -1.03687470e-01   1.89930255e-01   2.83770893e-01
    2.27377241e-01  -4.16748277e-01   2.03700934e-01   3.14419152e-01
    8.17413663e-02   7.27923293e-01]
 [ -7.31424042e-02   3.01961433e-01  -3.68989299e-01   1.85087473e-02
   -4.60416894e-02  -2.49880964e-01  -1.00450103e-01   2.37909396e-01
    2.43519638e-01   2.57949426e-01   3.04601513e-01   4.01388562e-01
   -5.25070552e-01  -1.04111462e-01   2.01146120e-01   2.38653330e-01
   -3.51001616e-01  -4.20997854e-01   1.65611377e-01  -6.52408162e-01
    4.38771698e-01  -9.12872024e-01  -5.35268275e-03  -1.00186356e-01
    7.75548820e-01  -8.93305387e-01   2.41774804e-01  -1.85829889e-01
   -5.70667242e-01  -1.00707264e-02   3.76463079e-01  -3.68154442e-01
   -2.33133074e-01  -4.91601154e-02   6.21986676e-01   9.04931464e-02
    5.90268971e-01   3.06507288e-01   7.85628613e-01  -9.87569826e-01
   -1.23369571e-01  -2.72774969e-01  -1.05167459e-01  -6.69641314e-01
   -7.19169148e-01  -8.20591996e-02  -4.06685036e-01  -4.44765743e-01
   -5.87097903e-01   6.96317805e-01]
 [ -3.86849076e-01   5.88561654e-01  -2.84208861e-01  -7.20172543e-01
    8.10472648e-01   3.82697873e-01  -7.46741965e-03   2.36140117e-01
   -3.60055393e-01   2.52317363e-01   1.35238265e-01  -1.47622967e-01
   -8.80374784e-01  -6.34392305e-02   2.95946871e-01   2.11378138e-01
   -1.17152503e-01  -1.57274575e-01   4.80329744e-02   1.05557136e-01
    8.79651714e-01  -4.70706953e-01  -3.21620906e-01  -2.15365562e-02
   -1.09641215e-01  -2.15624889e-02  -9.45478541e-02  -6.61759883e-01
    4.21044089e-01  -1.84437666e-01  -1.52605604e-01  -1.92190779e-01
   -3.43206665e-01  -2.45641445e-01   4.20701946e-01  -1.99421883e-01
    2.68776981e-01   4.01017630e-01   6.41749810e-01  -6.08734820e-01
   -2.27232388e-01   3.28039538e-01   1.29658159e-01  -5.50208916e-01
   -7.25724097e-01   7.70117691e-02   4.39008662e-01   5.83056292e-01
   -1.06755976e-02   7.84987465e-01]
 [ -7.40806041e-01   6.25850821e-01   5.64289881e-01  -2.80311062e-01
   -3.73271561e-01  -7.06463169e-01   8.83077967e-02   8.16341359e-03
   -3.97515836e-01  -2.42527331e-01   5.37140548e-02   1.58912553e-01
   -4.39557806e-01  -4.70298386e-01   3.91232434e-01  -2.71315718e-01
   -9.50060239e-02  -3.71004646e-01   6.13286875e-01   1.15036565e-01
   -1.11443728e-01   2.03014300e-01  -5.59931030e-02   1.50850861e-01
   -2.26250692e-01   2.64786629e-01  -5.99172493e-02   4.45722262e-01
    6.59087816e-01   3.18865198e-01   2.30502061e-01   1.40991795e-01
   -5.98015379e-02   1.33605862e-01  -1.36066047e-01  -8.75807183e-02
    4.08038586e-01   3.21686062e-01   6.65417100e-01  -1.32450229e-01
   -3.71240767e-01   3.14285604e-01   4.08434386e-01  -2.90601578e-01
   -4.10496233e-01  -3.59172614e-01   2.44516202e-01  -7.36578389e-02
    8.55496889e-02   1.96913598e-01]
 [  9.80093548e-02   9.49430240e-02  -5.22075052e-02  -3.09635853e-01
   -7.43302571e-01  -1.49726347e-01  -1.09522176e-01   3.27769351e-01
    8.75036423e-03  -3.65724124e-01   2.26848788e-01  -1.47640719e-01
   -1.07899604e-01  -1.12713916e-01   3.46970319e-01  -6.25532997e-02
    1.24599266e-01  -2.56223074e-01   3.02399958e-01  -4.52565681e-01
   -3.44838828e-01  -2.68673069e-01   2.52012341e-01  -1.68435607e-01
    1.26518803e-01  -1.41834985e-01   1.05650279e+00  -3.20475452e-01
    6.01845189e-01   6.08577809e-03  -1.19244046e-02   4.91404603e-01
    5.03182333e-01  -6.28272634e-01  -1.46806007e-01  -3.51770852e-01
    8.01618036e-01   3.78473249e-01   1.95625031e-01  -5.16882289e-01
    6.86882035e-01   5.07186009e-01   8.83610687e-03  -5.64526667e-01
   -1.22185420e-01  -7.10497457e-02  -1.36412514e-01   3.66449186e-01
    3.19517983e-02   6.37324890e-01]
 [ -4.74242831e-01   2.09755703e-01  -6.16341904e-01   6.07745066e-01
   -1.37535708e-01   2.14370846e-02   6.12964137e-01  -4.01767484e-01
   -1.95201382e-01  -1.25261296e-01  -3.54042542e-02   8.37992094e-01
   -1.28275199e-01   7.48164668e-02   1.85420478e-01  -5.01807448e-02
    2.83121557e-01   3.51116624e-01  -1.05812095e-01  -5.08001100e-01
    3.61439290e-01   1.27876129e-01   1.61531794e-01   4.40875244e-01
    6.11672461e-01   5.60057151e-02   8.87608211e-01  -4.27613124e-01
   -1.33579976e-01  -7.97893816e-01   4.72485322e-01  -4.81580496e-02
    5.32408435e-01  -7.16903333e-01   3.00121480e-01  -2.50988194e-01
    3.56179879e-01   7.46360877e-01   1.15766934e-02  -9.74142987e-02
   -4.23965681e-01  -1.83021176e-01  -4.89282363e-01  -2.40465074e-02
    6.89759994e-03   1.43929266e-01  -5.02405093e-01  -2.63890518e-01
   -1.23250757e-01  -7.85234739e-02]
 [ -7.52203706e-02  -3.96653354e-01   4.10900952e-02  -7.85571981e-02
   -3.12394761e-01  -3.76995060e-01   1.09592709e-01  -1.11063363e-01
    3.07358868e-01   2.89541607e-01   3.67958339e-01   1.79060879e-01
   -1.62291688e-02  -8.10564676e-01   3.44805653e-01   5.90655688e-02
    3.80450586e-01   8.27807203e-02   1.77347789e-01  -5.60393550e-01
    4.16456764e-01   2.39609307e-01   8.56551778e-01  -2.66004960e-02
   -1.35356588e-01   2.85010752e-01  -1.19251409e+00  -1.11568033e-01
   -9.10906275e-02  -7.27196323e-01  -8.71276872e-01  -2.92274666e-01
   -1.98638262e-02  -7.40413943e-01   2.35395381e-01   4.02514791e-01
   -4.39070606e-01   9.54563293e-01   1.18254183e-01  -4.87556699e-02
   -5.13872999e-02   2.00582122e-02  -5.32227622e-01  -4.12614369e-01
    9.70515074e-02  -8.34578951e-01  -3.93411863e-01  -1.60292178e-01
   -3.25614532e-01   3.03139559e-01]
 [ -5.43242651e-01  -4.10423363e-01   3.63829254e-01  -1.76258742e-01
    2.12069760e-01  -1.60918369e-01   8.21669156e-01  -3.07432254e-01
   -5.85399247e-01   2.21343006e-01   4.18424450e-01   1.28849187e-01
    9.46392807e-02  -4.74981498e-01   3.64203692e-01  -4.88543986e-01
   -7.39368187e-01   5.52768102e-01  -9.39994668e-03  -4.88297033e-01
   -1.46961027e-01  -5.57504060e-01  -7.39704560e-03  -2.26231113e-01
   -4.08729609e-01  -6.17832818e-02   1.29273329e-01  -2.75918896e-01
    1.83007823e-01  -2.06661595e-01  -4.83380119e-02  -5.74793756e-01
    1.43863451e-01   2.21483033e-01  -1.36418413e-01  -3.24491412e-01
   -5.40074864e-01   1.81895256e-01  -8.97725492e-01   6.03776581e-02
    5.55940733e-02   8.57009819e-03   6.32788655e-01  -3.65132836e-01
    4.69743991e-01  -1.56955926e-01  -4.74944000e-01   5.98644764e-02
    3.50060683e-01   2.00827607e-01]
 [ -4.31137416e-01  -1.88050233e-01   2.85252467e-01   1.32985959e-01
   -6.02456691e-01   1.50230068e-01   4.35080519e-01  -1.46767920e-02
    3.12964874e-01   4.59117041e-01   6.75260527e-01  -4.60199397e-01
    3.25292226e-01  -1.85315446e-01  -1.36142841e-01  -1.18168923e+00
   -1.45674688e+00  -4.53461182e-01  -5.39322103e-01   5.13422100e-01
   -1.94445887e-01   9.49126171e-02   1.81532495e-01   4.95141616e-02
    2.75236771e-03  -1.01505263e-01  -6.50275691e-01   8.10894718e-01
    3.86014435e-01  -8.27342425e-02   2.56710269e-02  -1.63620238e-01
   -3.21423445e-01  -6.66712610e-02  -1.32473383e+00  -2.17092497e-02
   -7.31425101e-01   5.64319230e-01   1.36105763e-01  -1.07606167e-01
   -6.01993230e-01   2.99123028e-02   2.60792607e-01   1.69800240e-01
    2.52626331e-01   3.88098673e-01   1.49108868e-01   4.73513523e-01
    1.92464327e-01  -1.55696579e-02]
 [ -1.72379532e-02  -5.58840588e-01  -1.05894487e-01  -2.41069134e-01
   -7.68531328e-01   2.90613836e-01   1.46412973e+00   2.58340939e-01
   -5.43656958e-01  -3.23108644e-01  -2.47610688e-01  -5.06015484e-01
   -2.28313135e-01   5.57394594e-01  -5.40673061e-01  -1.00247234e+00
   -5.88512927e-01  -4.74687815e-01  -5.41860272e-01   8.34634746e-01
    1.25930574e-01  -4.49004422e-01   7.66506751e-01   5.79530852e-02
   -1.86286529e-02   5.03381171e-01   1.16492835e-01   2.34904947e-01
   -1.99271165e-01  -1.85238829e-01   1.86857338e-01  -7.91139355e-01
    1.54255149e-01   2.11286673e-01  -1.04018421e+00  -1.39372250e-01
   -7.22717803e-02   4.16232568e-01   3.02173291e-01  -4.59322420e-01
    1.54699437e-01  -1.65682284e-01  -5.93757489e-01   1.56610904e-01
   -2.42295502e-01  -6.18317449e-02  -7.51590663e-02   3.46059917e-01
    5.62434992e-01  -2.54696278e-01]
 [ -4.04759060e-01   2.56218600e-01  -1.35809024e-02  -5.64073482e-02
   -1.28531540e-01  -1.45697456e-01   1.01798640e+00   6.49257662e-01
   -2.46090869e-01  -5.16592293e-01   2.69899975e-01   3.43842931e-01
   -1.75716099e-01   8.81413057e-01   2.60628882e-01  -4.70459484e-01
   -6.09823174e-01   2.70908062e-01   1.96003238e+00   6.24248542e-01
   -3.17665251e-01  -6.91866380e-01  -1.19915085e-02   3.06527578e-01
    5.18049396e-01  -4.85114574e-02  -6.13706036e-01  -6.73311461e-02
    3.20506581e-01  -1.10981398e-01   7.19399943e-02  -4.28347270e-01
   -6.61209880e-02   5.76949912e-02  -1.77412838e-01   1.04268995e+00
    9.28246875e-02   1.70383239e-01  -2.20693699e-01  -8.99406088e-02
   -2.35083656e-01  -1.15332617e-01  -4.66611150e-01   1.37803581e-01
   -1.11589843e-02  -1.15788678e+00  -3.46862355e-01  -6.39805700e-01
    4.59005131e-01   3.89504502e-01]
 [ -5.19458731e-01   5.50800568e-02  -3.40749763e-01   1.35136779e-02
    2.55740156e-02   8.09314190e-01   5.39482985e-01   3.21579345e-01
    1.25005984e-01  -3.00270239e-01   3.11880590e-01   3.28953557e-01
    1.23014313e-01   2.52820936e-01  -5.14267517e-01  -1.30611579e+00
   -4.65804259e-01   2.37570143e-01   6.27897990e-01   3.00116499e-01
   -1.13087271e-01   6.53303928e-01   4.70714690e-01  -4.46082934e-01
   -4.66742915e-02  -1.81258052e-01  -6.26910570e-01  -7.02045971e-01
    5.76779312e-01  -1.07386153e-01   5.55267586e-02  -6.06146207e-01
    9.33820602e-01   1.32926395e-01  -4.09164612e-01   5.14153186e-01
    7.00544868e-01   3.74387078e-01  -1.21561185e-01   5.93803622e-01
   -7.28169881e-01  -1.88982645e-02  -1.10951762e+00   8.84041347e-01
   -1.98759028e-01  -1.38195566e+00  -5.96790503e-01  -9.13584856e-01
    3.93099111e-01   9.78599548e-01]
 [ -9.39571982e-02  -1.26502752e+00  -5.21195203e-02  -8.51392155e-01
    4.05935265e-01  -1.46526845e+00   7.94747900e-01  -1.37758631e-01
    1.07895454e+00   6.23882553e-01  -8.72605708e-02   2.36961590e-01
    1.11956337e+00   4.81989528e-01   3.17146444e-01  -1.44996142e+00
    5.50272399e-01  -1.51597287e-01  -2.91563427e-01  -2.69193627e-01
   -3.77619867e-01  -6.77031975e-01  -1.23318608e-02  -8.23957234e-01
    9.64638627e-01   4.88340869e-01   8.84315852e-02   2.98080214e-01
    9.89967489e-02   7.80402251e-01  -1.54109423e-01   2.58903357e-01
    1.42003641e+00   7.41915274e-01   2.58573374e-01  -3.65657411e-01
    1.57258325e-01  -9.31178816e-01   5.93817445e-02   4.37740758e-01
    5.33445956e-01  -5.39542363e-01   7.57635557e-01   1.48592662e-01
    1.08580626e+00  -7.92834095e-01  -7.31312268e-01   7.67112684e-01
    1.56277773e-01  -1.60241892e-01]
 [ -1.73984582e-01  -4.73772333e-01  -7.50291329e-01  -3.64453952e-01
    2.54212456e-01  -9.08722487e-02   3.97439105e-01  -3.25417652e-01
    1.03123403e+00   8.38629776e-01   4.51566025e-01  -5.03781717e-01
    8.90642189e-01   4.79214974e-01  -2.51727472e-03  -1.81604571e-01
   -5.23550733e-01  -9.82518192e-02  -1.21537063e-01  -3.03584774e-01
    1.32983847e-01   6.85884227e-02   1.90747226e-01  -4.46781617e-01
    4.12829870e-01  -7.19861268e-01  -2.63795549e-01   6.09276089e-01
    1.00191130e+00  -4.78017652e-01   5.02361064e-01   1.18572955e-01
   -1.82702791e-01   9.91744962e-02  -9.78186157e-02   2.38153002e-01
   -6.31731640e-01  -5.82157375e-01  -4.13241344e-01   3.84189149e-02
    5.23625751e-02  -5.10218079e-02  -7.43440717e-01  -1.15920070e-01
    8.76997751e-01   4.17457112e-01  -8.89214887e-01   4.65602192e-02
    1.76558466e-01  -5.83807240e-02]
 [  4.48614430e-01   3.17344217e-01  -8.66997020e-01  -9.88218392e-01
    1.05189020e+00   4.89561945e-01  -5.81835218e-01   5.84862020e-01
    4.46273185e-01   4.42351690e-01  -2.84757936e-01   1.80169774e-01
    5.53414793e-01   2.18113436e-01  -3.24320974e-01  -2.90013722e-01
   -9.44406433e-01   1.47181349e-01  -1.39164744e+00  -1.16995100e-01
    3.69420195e-01  -7.41691933e-01  -4.19540971e-01  -3.18233633e-02
    1.96724534e-01   1.17790100e+00  -3.71842880e-01   1.36269480e-01
    5.36195313e-01  -6.10952270e-01   1.06960027e+00   1.08156173e+00
    1.82595618e-01  -2.81795174e-01  -1.77806571e-02   6.65138179e-01
   -7.45283576e-01  -6.20341125e-02  -1.69019717e-01  -1.04474287e-02
    3.59729307e-02   6.26724014e-02   5.59861444e-02   1.28007141e+00
   -2.12726450e-01   1.39718746e-01  -7.18104389e-01   2.47980907e-01
   -1.10458503e-01  -1.41063607e-01]
 [  1.01102037e+00   1.02074351e+00  -8.28855955e-01   3.54438908e-02
    6.02197487e-01   7.06149912e-01   8.52023366e-01   9.25104134e-01
   -1.05881401e-01  -6.00796420e-03  -1.24936162e+00   5.15464374e-01
   -1.05009216e+00   1.08550314e+00  -1.94682837e-01   1.79323237e-02
   -6.85361288e-03   8.03757759e-02  -4.19358573e-01   8.45276234e-01
   -3.01853292e-01  -3.21097918e-02   1.28865923e-01  -5.79034315e-01
   -3.83302453e-01   3.09675497e-02  -7.68878419e-01   1.07615062e-02
    1.01236143e-01  -1.41191679e-01   1.22573923e+00   4.75681834e-01
    2.38708964e-01   1.04141885e+00   1.31157859e-01   1.34445197e+00
    3.26679256e-01   4.97819415e-01   8.16195614e-01   1.43663604e-01
    6.88223878e-01  -1.06449053e+00  -3.33533233e-01   8.73398104e-01
    1.42179563e-01   4.74617228e-01  -2.99538451e-01  -3.56608405e-01
    4.87597751e-01  -2.08675084e-02]
 [  1.18730315e+00  -2.80136492e-01  -3.10269175e-01   2.24380911e-01
    2.20402204e-01   4.19891738e-01   7.18377193e-01  -1.06676143e-01
    8.74400230e-01   3.34840153e-01  -6.17718696e-01  -1.71957162e-01
   -1.06947359e-01   3.93207185e-01   1.00287995e-02  -5.45909502e-01
    1.18776728e-03  -4.64968162e-01   6.18646084e-01  -9.67988602e-01
    4.37388012e-02   5.48832525e-02  -3.39366549e-01  -2.45017643e-01
    5.24076566e-01   4.52119183e-01  -1.35009776e+00  -4.32608180e-02
    5.74072599e-01  -5.03828028e-01   8.35068904e-01   6.91963145e-01
    1.25887915e-01   7.09331721e-01   5.12287577e-01  -3.74851000e-02
   -6.75350830e-01  -1.31911264e+00   1.57205095e-01   1.58456794e+00
    6.13862253e-01  -2.19080557e-01  -2.80428323e-01   2.20008773e-01
    4.79549874e-01   1.01792842e+00  -3.94520519e-01   3.99378064e-01
    1.16857736e+00  -2.60161162e-01]
 [ -1.74353678e-01  -9.53463134e-01   4.19128686e-01  -5.45228839e-01
    5.68635188e-01   2.32058547e-01  -8.11776782e-01  -6.71533889e-01
    1.01217698e-01   4.79193531e-01  -5.38626727e-01   6.82352947e-01
    8.76163670e-03   9.26524539e-01  -8.44526873e-02  -2.03180757e-01
   -5.80654252e-01   7.74352068e-01   5.79830162e-01  -7.30020646e-01
    2.12324805e-01   2.09689263e-01   4.38760603e-01  -4.61146808e-01
   -4.76198937e-02  -9.32570004e-02   4.52089365e-01   4.66494850e-01
   -8.15773262e-02  -9.25406667e-01   1.13788401e+00  -5.40604708e-01
    5.84465181e-02   7.59770599e-01  -1.69528726e-01   3.58333138e-01
   -7.25969063e-01  -1.16803335e+00  -2.50130021e-01   3.88580252e-01
    1.62628668e+00  -1.07625283e-01  -2.39999327e-01  -1.82322449e-01
    7.99104853e-01   8.57262306e-01  -3.02406172e-01   8.06712354e-01
    9.76337730e-02   3.37260030e-01]
 [  1.07461592e+00   1.49302502e-01   6.64628530e-01   8.51566591e-01
    3.66784080e-01  -2.52427253e-01   2.30568493e-01  -4.22197090e-01
   -2.12837280e-01  -1.97553950e-01  -7.19099917e-01   2.29502915e-01
    5.03839452e-01   5.19558285e-01  -1.32884115e+00  -1.33772570e-01
   -3.84197521e-01   7.63195032e-01   1.11515435e-01  -8.29269539e-02
   -1.75631209e-01   1.08578514e+00  -2.13473821e-01   9.23115683e-02
    1.70930137e-01  -8.05892994e-01  -2.74451808e-01  -1.80800453e-01
   -8.90618808e-01  -3.63389291e-01   2.27147753e-01  -1.46633188e+00
    1.71711051e-01   1.06123531e+00  -4.31143125e-01   3.14928898e-01
   -7.50197954e-01  -1.00691340e+00  -4.87331790e-01   3.77877363e-01
    6.17754923e-01  -7.37998004e-01   3.47284976e-01  -1.64558280e-01
    1.30191439e+00   1.40235864e+00   1.69220087e-01   5.26804928e-01
    3.69860800e-01   3.01287282e-01]
 [  1.73270205e-01   1.17270483e+00   1.49383084e-01  -3.92186703e-01
    1.35859022e-01  -3.31038688e-01  -1.57159416e-01  -8.36505730e-01
   -1.00225945e+00  -2.20925936e-01  -1.05654266e+00   2.82732527e-01
    1.17955336e+00   5.97965886e-01  -4.18643636e-01  -3.02480067e-01
   -6.75344856e-01  -5.04102696e-01  -4.96507354e-02   5.12942952e-02
   -1.63763125e-01   9.86139405e-02   4.52032378e-01   9.49564274e-01
   -8.96266755e-01  -5.67831673e-01   9.79573876e-01   9.41324363e-01
   -9.51265231e-01   6.15234004e-01  -3.12882771e-01  -5.24620948e-01
   -1.34047138e-01   1.37809907e+00  -9.42148325e-01  -8.20655160e-01
    6.21544330e-01  -1.03915357e-01  -1.01571425e+00   4.77453217e-01
   -1.51309977e-01  -6.20420560e-01   5.16529265e-01   4.27911552e-01
    3.49160601e-01   1.31675091e+00  -3.46018224e-01  -3.58410567e-01
    5.12145815e-01  -1.01028515e-01]
 [  2.01462703e+00   8.57205091e-01   4.66740170e-01  -2.07276743e-01
    1.29646384e+00   2.31038835e-01  -5.36224911e-01  -9.00040216e-01
    1.72177860e-01   1.10333126e-01  -1.09098859e+00  -7.19246187e-01
    6.37510887e-01   4.39236463e-01   2.90624133e-01  -6.73703179e-01
   -4.57690955e-01  -1.86602167e+00  -8.09810888e-01   7.38214721e-01
    4.43123126e-01  -4.30735077e-01  -4.66583740e-02  -5.62523147e-02
   -1.23127071e-01   6.16450684e-01   5.70108865e-01   8.81840647e-01
   -1.44888847e-01  -3.10099656e-01   4.29436174e-01   5.43476759e-01
   -7.96448857e-01   4.92208438e-01  -2.05033895e-01   4.50990729e-01
   -2.15318137e-02  -7.02837542e-01  -4.74787862e-01   5.49517493e-01
    3.52893401e-01  -5.71838624e-01   1.07124924e+00   3.14470979e-01
    1.11062748e-01   1.68923884e+00  -4.30584104e-01   7.74892266e-01
   -8.90588425e-01  -5.53860365e-01]
 [  1.43774312e+00   2.99588439e-01  -7.45993495e-02   4.24265469e-02
    9.43145351e-01  -1.42431727e-01  -5.26434866e-01  -4.47546621e-01
    5.38856164e-01  -4.69448524e-01  -1.60219461e+00  -6.42910293e-01
    2.57148439e-01   1.26320846e+00   2.58069432e-01   5.32910471e-01
   -1.48911333e-01  -7.97524859e-01  -5.89102820e-01  -9.28677246e-02
   -4.27880110e-01  -2.25643053e-01   5.17567506e-01  -9.17052473e-02
   -4.99017212e-01   1.42464403e-01   1.73544393e-01   1.04454583e-01
   -1.22853995e-01   7.75953359e-01   9.57393774e-01   7.46227850e-01
    2.19121575e-01   8.32981329e-02   2.84263447e-01  -2.90046051e-01
   -2.97014569e-02   1.77716403e-02  -5.40416326e-01   9.70740859e-01
    4.69520880e-01   3.10164999e-01  -8.01930539e-01   1.66511444e-01
   -2.27692471e-01  -7.24742254e-02   9.08658340e-02   1.74346286e-01
   -1.09421687e+00  -1.23126917e+00]
 [  1.76230600e+00   1.31280157e+00  -1.19267535e+00   7.75553369e-01
    2.35832315e-01  -4.39993448e-03  -1.26998158e+00  -5.02675902e-01
    1.29889522e+00   1.04594988e-01  -1.17831120e+00  -1.00467485e-01
    2.82868405e-01   3.84573856e-01   1.59786296e-01  -5.24159992e-01
    3.14150764e-02   4.03471513e-01  -4.94708210e-01   1.07756940e+00
   -1.31211681e+00  -8.17947311e-01  -1.57772832e-01  -3.89117986e-01
    4.86098959e-01  -3.34210963e-01   1.45805493e-01  -1.29805592e+00
    6.65854867e-01   8.01294873e-01   6.49754363e-01  -4.62805873e-01
   -1.28073401e+00   6.26472429e-01   7.70116066e-01  -3.07510740e-01
    4.41454568e-01   4.73379418e-01   5.87521769e-01   1.22495145e+00
    3.49122461e-02  -4.95835897e-01  -6.99555738e-01  -2.13750686e-01
    1.78051211e-01  -6.13062032e-02  -1.37672375e-01  -6.94679040e-02
    5.92470960e-02  -1.38110777e+00]
 [  6.30887494e-01   9.41113530e-02  -8.96339088e-01  -2.01970956e-01
    3.56272452e-01   3.34079909e-01  -1.05249479e+00  -2.70149505e-01
    1.11231564e+00   6.26804711e-01  -6.87045859e-01  -8.48585282e-01
    4.26026766e-01   7.97975580e-01   2.20926175e-01  -8.05623426e-01
    2.11011272e-01   5.80403542e-02   1.20111964e+00   1.01538933e+00
   -3.62128752e-01   4.83458273e-02  -4.90749739e-01  -3.20873686e-01
    3.52476186e-01  -1.34630871e-01   3.86324700e-01  -1.20901476e-01
    8.76398785e-01   1.40660523e+00   4.54771889e-01  -2.89957132e-02
   -5.80546154e-01   1.47473101e+00   9.99608601e-01   4.43729358e-01
   -5.98235825e-01  -5.19165476e-01   1.16608085e-01   1.33738995e+00
    1.76840035e-01  -3.70709832e-01  -9.17732354e-01  -3.44639182e-01
   -6.22037390e-01  -4.23623629e-01   6.60506394e-01  -4.65837826e-01
    8.85695727e-02  -1.12154982e+00]
 [  5.57150584e-01  -4.38522341e-01  -9.58666786e-01   9.48416050e-01
    1.21942281e+00   6.30770578e-01  -6.35706420e-01  -2.08654288e-01
    3.38080689e-01   9.67155656e-01  -2.02332140e-01  -4.27174643e-01
    1.58472338e-01   7.61562748e-01  -2.48017947e-01  -1.48004070e+00
    8.55547812e-01   2.53609425e-01   7.13424506e-01   1.22978212e+00
   -7.05971066e-01   7.89962636e-01  -1.64065940e-01  -6.44675616e-01
    1.68579138e-01  -1.19723948e+00   1.46590437e-01  -1.20442930e+00
    3.24860383e-01   1.26332110e+00   1.30422801e+00   6.79360837e-01
   -7.64120210e-01   4.76494841e-01   6.63602459e-01   1.63305960e+00
   -7.47583232e-02  -1.27718352e+00   6.63084088e-01   1.22257532e-01
    4.11597818e-01  -9.41370122e-01  -1.31889007e+00  -8.63818764e-02
   -9.99957910e-01   4.84212588e-02   1.45299293e+00  -4.05616317e-01
   -4.55489247e-01  -1.34954505e+00]
 [ -1.15614218e-01   1.25553604e+00  -2.70460370e-01   1.01506154e+00
    4.84388220e-01  -2.76591802e-01  -1.19594867e+00  -1.06589679e+00
   -2.60942354e-01   1.97070995e+00  -9.14925383e-01  -6.55238155e-01
   -9.52357274e-02  -3.15894553e-01  -1.11379090e+00  -3.89585811e-01
    1.42181939e+00   1.52974204e+00   3.79932753e-01  -9.23577147e-01
   -1.22174200e+00   6.46354117e-01   8.02695509e-01   1.25602222e-01
   -9.78478021e-01  -1.23254491e+00  -1.42179098e+00   2.78344110e-01
   -1.67148591e-01  -1.26397043e-01   5.76005618e-01   6.21912429e-01
   -2.14145013e+00  -8.60231657e-01   6.99501885e-01  -1.10517599e-03
    3.19971025e-01  -1.62785799e+00   1.53734906e-02  -5.71274685e-02
   -1.12075720e+00   2.85553264e-01  -7.18040450e-01  -3.72539195e-01
    7.41679359e-01  -4.94522503e-01  -2.05733468e-01   1.01708402e+00
   -9.02147149e-01  -3.95454717e-01]
 [ -7.40556334e-02   1.01268521e-01   3.37246697e-01  -4.18138659e-01
    5.04034802e-01  -1.94628980e-01  -9.65569809e-01  -4.60441758e-01
    2.05567373e-02  -1.28393943e+00  -1.05357185e+00  -1.08194213e+00
    1.00498806e+00  -1.34745078e-02  -6.54355366e-01  -6.90101177e-01
    2.02384030e+00   6.45607586e-01   1.08728729e+00  -1.19829371e+00
   -4.68825999e-01   2.66089990e-01   1.52581033e+00  -1.19593940e-01
   -8.75664185e-01  -3.34310591e-01   2.39577124e-01   1.27663613e+00
   -6.25314271e-01   8.40480292e-02  -6.52057470e-01   1.16489894e+00
   -1.52558301e+00  -1.33240004e-01   5.02415853e-01   1.10576884e-01
   -7.73342207e-01  -1.44381539e+00   4.89344061e-01   9.24041735e-01
   -1.97413621e+00  -2.50671779e-01  -5.29586360e-01  -2.06334128e-01
   -3.67571008e-01   2.48475062e-01   8.52210233e-01   2.11078508e+00
    7.01756029e-01  -8.66178880e-01]
 [ -3.29348858e-04  -1.32863957e-01  -7.40310148e-02  -1.64075825e+00
    8.96715776e-01  -1.41559860e-01   1.13999862e-01  -6.77375129e-01
    1.32467867e+00  -6.50679604e-01   4.13222948e-01  -1.00569959e-01
    2.15963140e+00  -5.39975011e-01   4.11457450e-01  -1.47450119e-01
    1.31237519e+00   2.78604469e-01   5.16648537e-01  -5.36348979e-01
   -1.30735301e+00   3.69015946e-01   5.80475766e-01  -3.15036221e-01
   -6.88804160e-01   2.22517155e-01   7.87357606e-01   4.44918131e-01
   -3.39840127e-01  -1.41480222e-01   1.16565294e+00   1.41850398e+00
   -1.15538212e+00   4.34393760e-01  -5.95941429e-02  -2.50047773e-01
   -6.19435391e-01  -1.40322461e+00  -1.26959452e+00  -9.37369381e-02
   -7.23092752e-01  -3.93418339e-01  -1.31306191e+00   4.97493076e-01
    2.57821777e-01   7.56043915e-01  -3.25422845e-01   3.27312646e-01
   -6.30910329e-02  -4.45549182e-01]
 [ -4.42524901e-01  -1.35714745e-02   4.64521005e-01   1.26922895e+00
   -4.01616887e-02   9.35624799e-01   1.41483309e-01  -2.10127670e-01
    4.15737302e-01  -8.36317317e-02   1.68008022e-01   1.29038088e-01
    1.18019047e+00   1.60536640e-01   3.90154104e-01   9.55924701e-01
    5.82436820e-01   5.23768795e-01   1.14761381e+00   1.85683001e+00
   -4.93335862e-01   1.64332449e+00   1.88384808e-01  -5.75500718e-02
   -1.19767371e-01   1.83881261e+00  -3.80557880e-01  -1.68421159e-01
   -2.47313873e-01  -7.32645483e-01   7.70509571e-01   5.11325746e-01
   -4.75313610e-01  -4.51356854e-01   8.28377430e-01   1.24252250e+00
   -1.33817667e+00  -1.08226375e+00  -4.53805409e-01  -2.23148493e-01
   -1.92283821e+00  -8.37888196e-02   9.42721318e-02   2.24258640e-01
    1.38310859e+00  -3.31825209e-01   5.34861731e-01   4.37646532e-01
    4.74064987e-01  -5.32972524e-01]
 [ -7.17212036e-01  -3.60844324e-01  -9.22624578e-02  -3.40980703e-01
   -9.99060840e-01  -2.93369768e-01  -1.24927559e+00  -1.61058591e-01
    5.83524940e-01   7.68008165e-01   6.30790107e-01   3.24444221e-01
    7.70731030e-01  -5.57085655e-01  -4.35608408e-02   1.59729374e+00
    4.08094980e-01   3.84271705e-01   6.25541042e-01   2.36132059e+00
    2.55090616e-01  -9.66127446e-02   2.15043936e-01  -9.21571057e-01
   -6.23047288e-01  -1.27774738e+00   7.68234144e-01   1.51399347e+00
   -1.41042039e+00   5.56526089e-01   3.20646422e-01   6.09597990e-01
   -1.54059587e+00  -7.02586275e-01   1.24387607e+00   1.64878056e+00
   -5.52094702e-01  -9.00601800e-01   5.27344962e-01  -2.07857325e-01
   -7.69062627e-01  -1.47808750e+00  -5.69715978e-02   8.80858461e-01
    3.77404854e-01   1.06975813e-01   4.31730972e-01  -3.10398174e-01
    2.24316998e-01  -1.07390798e+00]
 [ -1.88646166e-01  -3.12061793e-01  -2.96378221e-02  -6.42439512e-02
   -8.23484458e-01  -1.13531053e-01  -7.34751356e-01  -1.25832081e+00
   -2.49782770e-01   4.90003585e-01   1.67921918e-01   7.70492182e-01
    1.14301183e+00  -2.12151678e+00  -6.63613534e-02  -1.99479413e-01
    5.47484146e-01   5.71383581e-01   1.91302738e+00   1.00337052e+00
   -9.39757926e-01   2.68967646e-01   1.49694726e-01  -5.10668755e-01
   -2.47967288e-01  -1.23265620e+00   3.67389589e-01  -8.75856664e-02
    5.07234001e-01   1.20812756e-01  -1.49202082e-01   9.83849770e-02
   -2.53929513e+00  -1.53042864e-01   5.02356745e-01   5.89213845e-01
   -5.30218056e-01  -1.22581084e+00  -5.30663367e-02   4.80705614e-01
   -1.00550632e+00  -1.74286085e+00   3.86723226e-01  -1.17796291e-01
    1.12551202e+00   1.00120509e+00  -6.02714746e-02  -4.73439887e-01
    9.14558104e-01   1.45695296e-01]
 [ -1.54599943e-01  -1.15052809e+00  -1.64565493e-01   2.33460437e-01
   -5.26547434e-01  -1.34534048e-01  -9.55554306e-01  -1.37875967e+00
   -1.48897435e-01   4.29943934e-01   4.58926728e-01   4.80658684e-01
    1.71683297e+00  -1.09514163e+00   3.37649539e-01  -5.19467477e-02
    3.07551844e-01   7.06674387e-01   9.54406814e-01   9.95775943e-01
   -4.26319317e-01  -1.12609876e-01  -8.94864993e-02  -5.73873558e-01
   -1.28878306e+00  -2.36479690e-01   2.10124331e+00  -1.02643292e-01
    1.02736276e+00  -1.90974657e-01   1.25512066e+00  -2.24931590e-01
   -1.10004170e+00  -1.13458599e+00  -9.41415147e-02   6.72731701e-01
   -4.60500056e-01  -1.22382264e+00  -7.77667875e-01   3.05639527e-01
   -1.43213946e+00  -4.69896050e-01   1.02965264e+00  -6.68385259e-02
    1.36647701e+00   3.82002012e-01  -4.58614608e-01   2.94003698e-01
    1.44989612e+00  -6.68391908e-01]
 [ -1.11525478e-01   1.02544695e-01   1.19917869e+00   9.43953793e-01
   -3.86930173e-02   3.76080327e-01  -2.37115148e+00  -1.97276732e-01
   -7.13394964e-01  -1.31418594e+00  -2.20108778e-01   2.52078414e-01
    3.07441576e+00   3.20861668e-01  -2.31888202e-01  -6.08064822e-03
   -9.07079791e-02   1.89008209e+00   7.01721977e-01   2.25436752e+00
   -7.42745572e-01  -8.94908485e-01   2.34473087e-01  -7.67764169e-01
   -5.15491421e-01   8.43443623e-02   7.38869499e-01   2.29029225e-01
    5.90122379e-01   2.60901051e-01   1.53767343e-01  -5.38710263e-01
   -1.01475479e+00  -3.90267220e-01  -1.35314758e-01   1.66059148e+00
   -5.58447154e-01  -3.60232839e-01  -6.98325595e-01  -3.43611137e-02
    4.99336931e-01  -4.21431664e-01  -9.21721867e-01   1.89328476e-01
    1.26721773e+00  -3.31088140e-01   1.69347343e+00   3.21777851e-01
    1.50489083e+00  -6.93082478e-01]
 [  1.33999609e+00  -1.85937778e+00  -9.48725493e-02   6.70559664e-01
    5.10781817e-01   8.81256354e-01  -1.70399761e+00  -1.01485094e+00
   -4.64776405e-01   5.28827724e-02  -2.50174395e-01   8.69330778e-01
    1.25947192e+00   3.51551528e-01  -1.19549565e+00   1.09661770e+00
   -2.29858390e-01   2.60613546e+00   4.19719387e-01  -9.04596338e-02
   -4.61692255e-01  -9.51867525e-01   3.52532579e-01  -9.47685299e-01
    8.88770886e-01  -3.45634805e-01   1.36255890e+00   5.41942100e-01
   -3.49292024e-01  -5.57516131e-01   4.01308458e-01  -1.25519813e-01
   -3.34648508e-01  -2.26190806e+00   5.43985015e-01   4.32317404e-01
   -1.39410808e+00  -1.28469932e+00  -6.93263237e-01   8.78929806e-01
    8.87321170e-01  -7.57052707e-01  -3.68868514e-02   3.36963146e-01
    1.73923282e+00   8.88174536e-01   5.72609498e-01   1.15666868e+00
    1.40678797e+00   5.86421912e-01]
 [ -1.42363504e-01  -4.76891693e-01  -1.04278374e+00   4.98105581e-01
   -1.65810913e+00  -2.67094779e-01  -7.08213509e-01  -2.15119190e+00
    8.59387825e-01  -5.55687349e-01  -5.05868946e-01  -6.21097596e-01
    8.93389208e-01  -2.94347597e-02  -4.76412661e-01  -2.51908698e-01
    1.52229938e+00   3.36590074e-01   1.17239440e+00   1.04673339e+00
   -3.68034469e-01  -9.85447545e-01  -3.27143781e-01  -6.93910909e-01
    2.29546350e-01   5.80181839e-01  -9.71644835e-01   6.82014944e-01
    2.31739851e-01   4.31468528e-01   3.99867737e-01   5.27981772e-01
   -1.57860645e+00  -9.85679126e-01   3.16642519e-01  -1.19370979e-01
   -2.16397844e-01   3.09899499e-01  -9.14374052e-01   1.97656656e+00
   -1.60136263e+00   2.41184464e-01   1.02118713e+00   7.57768442e-01
    6.84059203e-01   6.63749431e-01   1.42764938e+00   3.12496166e-01
    1.96320245e+00  -1.24889135e+00]
 [ -6.45723761e-01  -7.09550412e-01  -1.36219538e+00   2.15720111e+00
    2.05176810e-02   1.25988141e+00   8.50681333e-01   3.54278030e-01
   -1.26322814e-01  -2.82993484e-01   6.29612056e-01  -7.95113725e-01
    1.88319552e-01   3.05978340e-01  -7.34213165e-01  -1.22647172e+00
    1.34658668e+00   9.14122425e-01  -1.14990877e+00   1.57299663e+00
   -1.42717980e+00  -6.48941915e-01  -4.22843464e-01  -1.23738808e+00
    1.49885961e+00   6.83159473e-02  -5.68911038e-01   4.80478720e-01
    3.04735294e-01   5.11851745e-01  -1.22401018e-01   2.05993507e-01
   -2.35032051e-01  -1.19876321e+00   6.91620879e-01   9.73668339e-01
    1.77914247e+00  -8.40291928e-01  -2.78121866e-01   7.49668415e-01
   -8.18190796e-01  -5.59096394e-01  -2.79178888e-01   1.68407808e+00
    1.43281014e+00  -3.38302758e-01  -3.63347336e-01   1.42027758e-01
    1.57418122e+00  -1.06985291e+00]
 [  2.10390261e+00  -5.28165502e-02  -1.45158235e+00   1.68989294e+00
    7.75738128e-02   1.61621521e+00  -7.14951844e-01  -8.18246637e-01
    5.48054743e-01  -1.59475549e+00  -2.17784600e+00  -1.60950681e-01
    1.36447524e+00   4.14968114e-01  -2.58617952e+00  -1.43929623e+00
    5.43033879e-01   1.19954655e+00  -8.66603243e-01   1.00312717e+00
    2.03804557e-01  -2.23309714e+00  -1.26403434e+00  -2.20833139e+00
    3.77323469e-01  -4.62589849e-01  -1.43693874e+00  -4.18176372e-01
   -3.06995829e-01   1.39526746e+00   1.63968545e-01  -1.97963067e+00
   -8.58511664e-01  -1.60922626e+00   4.61706539e-01   7.57745044e-01
    1.51066003e+00  -5.86648087e-01   6.83836272e-01   2.35728263e+00
   -6.99863660e-01   2.91035924e-01  -9.53087694e-01   2.21207265e-02
    7.30385033e-01   1.08071750e+00   2.40750434e-01   6.88051383e-01
   -6.06032737e-02  -1.20354924e+00]
 [ -1.45675497e+00   4.23272452e-01   1.54730843e-02   7.27808918e-01
   -2.63566218e-01   1.20378721e+00  -5.55809085e-01  -3.45388083e-01
   -1.76759524e-01  -2.15225420e-01   1.04553715e+00  -8.24203950e-02
    1.47473720e+00  -1.36054174e+00  -5.63856063e-02  -8.35520343e-01
    1.11414881e-01   9.59216398e-02   1.44528372e+00   2.40946941e+00
   -5.23273801e-01  -1.54267481e+00  -7.15970548e-01  -2.25304774e+00
   -1.57182528e+00   2.21743225e+00  -1.32575553e-01   2.17318319e-01
   -5.36110960e-01  -1.02412222e-01  -3.63557736e-01  -1.32982282e+00
   -1.87447670e+00   7.04725665e-02   6.41636888e-01   9.47731573e-02
    1.66600954e+00   1.21556569e+00  -2.87805622e-01   9.30259716e-02
   -2.28955337e+00  -2.27144316e-01   8.49943531e-02   2.52192359e+00
   -3.37903285e-01  -5.86851873e-01   1.42914135e+00  -4.57525579e-01
    1.68735139e+00   8.82925128e-02]
 [ -2.23165855e+00  -1.15818758e+00   7.64227785e-01  -3.56790330e-01
    9.60417093e-01   2.39143230e+00  -1.47379384e-01  -6.29404953e-01
    1.27302188e+00   1.42308327e+00   5.10231846e-01   2.22895215e-01
    2.83763658e+00  -3.04071332e-01  -9.63640104e-01  -1.32884055e+00
   -1.55448618e+00   1.47518546e-01   4.06335507e-01   9.08500402e-01
    5.73881022e-01  -8.60614366e-01  -5.10264724e-01  -2.15214896e+00
    1.14823483e+00   1.01400637e-01   6.22704581e-01   7.51887170e-01
   -3.63118501e-01  -1.02475688e+00  -1.26396114e-01  -2.97985948e-01
   -1.74630009e+00  -1.49678810e+00   9.23314492e-02   1.28773093e+00
    6.68023226e-01   5.73740965e-02  -6.93175826e-01  -7.99285579e-01
   -6.20673406e-01   1.27585233e+00   1.18961132e+00   1.14337676e+00
    1.71982517e+00   8.44795112e-01  -2.99852376e-01   5.68754975e-01
    1.96008403e+00   1.01573516e-01]
 [  4.24731692e-01  -1.37830821e+00  -7.60265193e-03   5.50221843e-01
   -1.42562950e+00   9.53101137e-01   2.25798039e-01   1.96935761e-01
    1.55455233e+00   4.99771786e-03  -2.40436857e-01   3.91601325e-01
    1.88456320e+00   4.76801195e-01  -9.25116815e-01  -3.95020110e-01
   -7.96611743e-01   5.02265046e-01   9.49344614e-01   1.12392535e+00
   -3.22508787e-01   4.02984244e-02   2.30326408e-01  -2.30231050e+00
    7.59488453e-01   8.70243857e-01   1.32641214e+00   4.99067538e-01
   -6.04762456e-01  -4.07079821e-01   2.69784875e+00   1.14836637e+00
   -1.02706669e+00   2.27155994e-01   1.47576095e+00   6.92124369e-01
    9.06864371e-01  -3.79200872e-01  -2.97901923e-01   5.91486301e-01
    1.36615326e-01   1.43105443e-01  -3.77132557e-01   1.20753750e+00
    1.06652075e+00   2.23577801e-01   1.97457768e-01   1.07752260e+00
    1.47848025e+00  -1.47757050e+00]
 [  1.24839587e-01   7.42404148e-01   3.36998934e-01   6.38595817e-01
   -9.79787768e-01  -4.39412084e-02  -6.73971776e-01  -5.30633604e-01
    2.05205031e+00   4.56702573e-03  -2.21364304e-01   5.56069804e-01
    1.84376859e+00   8.96246646e-02  -3.09588926e-01   3.72200361e-01
   -8.10684610e-01  -6.20804775e-01   1.42316930e+00   1.69414983e+00
   -4.53185669e-01   8.65343215e-02   4.11910074e-01  -1.73960416e+00
   -1.01505204e+00  -4.53897577e-01   1.83203861e+00   3.12884443e+00
   -1.27041693e+00   4.65586070e-01   7.80362298e-01   4.95373953e-01
   -1.56995776e+00   2.30151320e-01   6.95640178e-01   1.87370102e+00
    1.45466995e+00   3.46121871e-01   3.29232788e-01   4.58673160e-01
   -7.96791776e-02   5.79741862e-01  -2.60492112e-01   4.75605578e-01
    1.79505524e-01   9.05787332e-01   8.68637502e-01  -6.40981891e-01
   -3.13557306e-01  -1.42335715e+00]
 [  6.81592832e-01   7.90509591e-02  -2.22506623e-01   2.90205324e-01
    9.32573270e-01   3.32966768e-01  -4.82064878e-01   2.64001860e-01
    1.45791838e+00   9.48521977e-01  -1.24061892e-01  -6.39402680e-01
    7.96999799e-01   1.96386403e+00  -2.66021915e-01  -1.63680676e+00
    5.11066417e-02   3.76014518e-01   1.27588979e+00   1.57895307e+00
   -5.29766184e-01   3.50912180e-01   3.42874049e-01  -1.46742563e+00
    3.24092796e-01  -1.15709546e-02   8.06733025e-01   1.72300240e+00
   -3.32898021e-01   1.15025077e+00   2.25281599e+00   1.27949148e+00
   -2.15672560e+00   6.21838410e-01   1.21993306e+00   1.92404939e+00
   -1.48883525e-02  -1.44630354e+00   3.82626989e-01   8.45624886e-01
   -5.64393356e-01   4.54499520e-01  -4.94742507e-01   1.51307525e+00
    7.22414878e-01  -5.85268951e-01   6.30593979e-01  -1.50274583e+00
    1.68851995e-01  -1.61190425e+00]
 [ -5.66450931e-01  -4.13256599e-01  -2.88779613e-01   8.83284306e-01
    1.18171971e+00   2.15973101e+00   7.28185262e-01   4.09686478e-01
    1.04297341e+00   2.53459936e-01  -9.46446994e-01  -1.42739825e+00
    5.12702672e-01   2.56727488e-01  -6.02775023e-01  -8.10565966e-01
    3.69846012e-01   5.11274725e-02   9.83978408e-01   1.77080685e+00
    8.73850708e-03  -6.96574171e-01  -6.91634513e-01  -2.28704576e+00
    5.26277656e-01   1.06833874e+00  -2.01658469e+00   1.48353908e+00
    9.45307667e-01   2.10708014e-01   1.40762974e+00  -5.99224180e-01
   -1.88807065e+00   1.49527261e+00   1.56798950e+00   1.23380848e+00
   -7.85221574e-01  -7.07491706e-01   1.01455999e+00   3.55099473e-01
    2.97847334e-01   4.31045068e-01   1.24356993e-01   1.38928849e-01
    1.28974492e+00  -5.51158544e-01   1.60444346e+00  -1.27645100e+00
    1.34351887e+00  -9.07486850e-01]
 [ -2.34297345e-01  -7.37489196e-01   1.55597712e+00  -9.26979101e-01
    1.87964743e-01   2.27537375e-01  -1.15026969e+00  -8.28327021e-01
    8.77912008e-01   7.56777362e-01  -6.95949205e-01   1.17932767e+00
    1.65488377e+00   9.01732321e-01  -3.39127097e-01   7.20925064e-01
   -1.85995864e-01  -7.30694168e-02   1.06921647e+00   1.35379051e+00
   -1.24649933e+00   1.28192739e-02   1.46259955e-01  -1.99689215e+00
   -1.24756644e+00   2.09063393e+00   4.45084973e-01   1.14702434e+00
    2.83358239e-01  -5.91928000e-01   2.16102494e+00  -2.81224042e-01
   -1.39928156e+00   7.30101977e-01   5.40238225e-02   5.88242346e-01
   -9.76894478e-01   8.11581866e-01   4.85814611e-02   1.20450334e+00
    6.02927882e-01   9.65265601e-02   7.07524564e-01   3.18635859e-01
    1.22211674e+00   6.15100783e-02   1.88646215e-01   5.42635211e-01
    1.17563622e+00  -5.12854013e-01]
 [ -5.15836693e-01   7.01554333e-01   4.71157143e-01  -2.98014532e-01
    3.52369270e-01  -2.62751059e-01  -1.06029560e-01  -7.93893304e-01
    1.19879128e+00   9.56521346e-01  -9.27058093e-01  -1.50353680e+00
    8.64456799e-01  -9.65641257e-01   7.02028048e-01   1.91264018e+00
    1.12917860e+00  -1.74574740e-01   1.90112994e+00   1.76880945e+00
   -8.07366199e-01   5.59791476e-01   3.99622687e-01  -1.30170993e+00
   -2.35508456e+00   8.88553583e-01  -1.00333822e+00   2.27001120e+00
   -1.79245590e-01  -6.27937801e-01   2.67812267e-01  -1.69047115e-01
   -1.77754459e+00   3.74047438e-02   1.69439154e+00   7.15294478e-01
   -1.12350169e+00   5.22868690e-01  -1.04342140e+00   4.57605739e-01
    9.10331412e-01   6.63329059e-01   6.95207329e-01  -9.30115190e-01
    8.35943895e-01   6.86120073e-01   1.13451945e+00  -5.60475486e-01
    1.14075058e+00  -5.85516964e-01]
 [  9.49097516e-01   1.70807153e+00  -6.35410570e-02   1.42554414e-01
   -1.03893163e+00  -1.08758795e+00  -4.64979974e-01  -1.24498988e+00
    1.30435476e+00   8.73491425e-01  -1.38780244e+00   1.09297516e-01
    1.30190171e+00  -1.09924424e+00  -5.65327735e-01   6.06357088e-01
    7.82039260e-01  -9.13047903e-01   8.91551556e-01   1.25585713e+00
   -5.33857923e-01   1.79754484e+00  -1.16886156e+00  -4.23002489e-01
   -4.65345158e-02   1.32810084e+00   8.00545371e-01   1.81054588e+00
   -1.44183858e+00   4.41576584e-02   1.78137940e+00   1.05281408e+00
   -1.26885561e+00  -2.88725846e-01   1.47496736e+00   6.86170893e-01
    4.45091053e-01   6.49900981e-01  -1.96262346e-01   1.04666188e+00
    3.40584035e-01  -3.11184212e-01   2.23537879e+00   2.87781668e-02
    1.04049902e+00   1.34595521e+00  -9.07829923e-02  -2.22271416e+00
    1.64053256e+00  -1.51013116e+00]
 [  4.78893101e-01   1.00656765e-01  -2.55066698e-01  -3.78398137e-01
    1.17110360e+00   1.74711549e+00  -4.77740574e-02  -2.44577723e-01
    8.76108404e-01  -3.57318156e-01  -1.30708314e+00  -1.26677597e+00
    5.96913466e-01   4.19943078e-01  -1.11416069e+00  -1.06571568e+00
   -8.20512728e-01   1.32827682e-01  -8.37131046e-02   1.35407331e+00
   -4.36760090e-02  -1.06259307e-01  -1.27791689e+00  -1.14663897e+00
   -1.28305447e+00   9.91050297e-01  -1.66995235e+00   2.78302487e-01
   -7.68978342e-02   4.71012250e-01   7.44802590e-01   2.24670211e-01
   -8.98492576e-01   7.11858906e-01   1.15039090e+00   1.36551237e+00
   -1.50198843e+00  -6.44011553e-01  -9.66355866e-01   1.89782450e+00
    1.89973021e-01  -5.16521074e-01   7.04567682e-01   9.59576124e-01
   -1.89464038e-01   8.03050680e-01   4.88412805e-01   1.00284525e+00
    1.24264882e+00  -1.67422666e+00]
 [  1.83863413e-01   4.51655829e-02  -1.27115913e-01  -4.93940141e-01
    5.11338603e-01   6.96323701e-01  -3.98469090e-01  -3.95726811e-01
    7.31689141e-01   6.64150476e-01   1.83732222e-01  -6.84214628e-01
    7.12695299e-01   3.33163766e-01  -4.38873849e-01  -9.83217205e-02
   -1.26103777e+00  -1.37810535e-01   5.36057957e-01   3.53237520e-01
    2.09593014e-01   1.51346246e-02   1.59734584e-01  -1.13225729e+00
   -5.54467290e-01  -2.99518354e-02  -6.91206018e-01   7.32439349e-01
    4.56886528e-01   2.51231624e-01   5.73499084e-01  -4.61526887e-01
   -1.04447437e+00   7.58146249e-02   2.57660562e-01   5.51358416e-01
   -6.53933612e-01  -1.71867118e-01   8.36917705e-01   6.55318951e-01
    1.20758946e-03  -8.70344070e-02  -3.22692145e-01   5.76140445e-03
    2.20037076e-03   1.25065051e-01   8.35899328e-01   1.75121436e-01
    3.28796258e-01  -4.60059735e-01]
 [ -6.80411423e-01   1.50856633e-01  -5.78445619e-02  -8.93436624e-02
    4.40210992e-02  -3.25609152e-01  -7.11689610e-01  -5.35158008e-01
    1.61153667e-01   1.90527463e-01   1.03598464e-01  -5.04580636e-02
    6.71926179e-01   4.62825125e-01   2.34366628e-01  -2.23336526e-01
    6.01917096e-01  -2.61148544e-01   7.90438829e-01   8.55387676e-01
    1.15783591e-02  -3.97166420e-01  -1.08271766e-01  -8.43307999e-01
    7.76293582e-01   1.89050231e-01  -3.68632167e-01   1.05559658e-01
    2.12318369e-02   2.73804242e-01   2.75963450e-01  -1.63398562e-01
   -1.18001658e+00   4.97646742e-01   3.53770520e-01   2.46790068e-01
   -1.87922002e-01   6.24345968e-02   1.10622151e+00   9.49641887e-02
   -6.38044877e-01   2.37351763e-01  -1.77667326e-01  -2.13881280e-01
   -2.57848991e-01  -9.73738937e-01   1.04086814e+00  -5.04510371e-01
    6.47628890e-01  -7.34502799e-01]]
*****  b 
 [-0.63060426 -0.28719727 -0.98036138 -1.180986   -2.40421085 -2.01917115
 -2.17181432 -2.33340849 -2.15256374 -2.36375944 -2.54723308 -2.63533804
 -2.72153392 -2.58614618 -2.81743874 -2.65872461 -2.70021664 -2.87374486
 -2.70503234 -2.88236884 -2.77573621 -2.87280889 -3.12120925 -2.77459251
 -2.68774402 -2.78010889 -2.89158862 -2.70825242 -3.04012703 -3.05640856
 -3.43816207 -3.23829679 -3.25109896 -3.20723105 -3.34375113 -3.29044372
 -3.54267694 -3.52618626 -3.64062904 -3.64848629 -3.63289839 -3.82863765
 -3.77908283 -3.81843325 -4.02059944 -3.90672292 -4.18317665 -4.34615034
 -4.92653521 -5.15117436]
*****  hpm_priorexp 
 [-0.25848654 -0.71093202 -0.88650867 -1.83547174 -2.03425631 -1.16099566
 -2.14644647  0.2588393  -0.69075993 -0.66639754 -0.75058348 -0.16310041
  0.03408319 -0.64751264 -1.91049252 -2.31319279 -1.40459176 -0.99798964
  0.51354013 -1.02217659 -0.90787084 -0.35292289 -1.56395368 -1.03078697
  0.47030862  0.34025531 -1.16795702 -0.04167816 -0.0565398  -2.82728211
  1.20701433 -0.98191038 -0.52926958 -2.67127012  0.21845166  0.09428358
 -0.66421952 -0.39350947 -0.71908655 -2.63700293 -2.7521697  -2.63523475
 -1.05427484  1.50786952 -0.5522751  -1.61609949  0.61249433 -0.45987345
 -0.37457674  0.78877845]
*****  hpm_b 
 [ 0.22876712  0.28188854 -0.03686222 -0.15283604  0.18492278  0.20487979
 -0.0618739  -0.02136191  0.19783802 -0.18859525  0.30621923  0.2214921
 -0.31409798  0.32611103 -0.13608157 -0.08205348 -0.11406291 -0.04214828
 -0.14304045  0.08180355 -0.03311654  0.04098933 -0.00439653 -0.16872634
  0.08632956  0.17468022 -0.04430782  0.01615525 -0.05542436 -0.24804339
 -0.00776166 -0.12179626 -0.01074991  0.12402331  0.22775826  0.07458079
 -0.03376451 -0.08626301 -0.11721421  0.24450748 -0.02713711 -0.07645118
  0.29740634 -0.36186375 -0.07782529  0.00138568  0.0595347   0.06692542
  0.10502268  0.10559547 -0.67426244  0.22655577 -0.68772706 -0.03593911
 -0.57123586 -0.91066224 -0.22929206 -0.39420905 -0.4415526  -0.30978397
  0.21405439 -0.36485195  0.07158233 -0.36812062 -0.22730411 -0.47562472
 -0.52372707 -0.32508159 -0.61139649 -0.69192118  0.09069381 -0.53337814
 -0.13988352 -0.44543742  0.09707296 -0.10789192 -0.78129384 -0.66630378
 -0.19838448 -0.10506441 -0.47823834 -0.33700005 -0.866566   -0.75496821
 -0.07137651 -0.10562002 -0.47102854 -0.6324183  -0.13204531 -0.82874242
 -0.10267293 -0.34640623  0.2296555   0.34201506 -0.61487984 -1.06827478
 -0.06187659 -0.25836597 -0.32230877 -0.56816289]
*****  hpm_gamma_exp_for_alpha 
 [-0.79570762 -1.04548554 -0.983419   -1.16292876 -1.63338254 -1.09829455
 -0.1669652  -0.77895983  0.10432585 -0.41346869 -1.21579887 -0.2221151
  0.22343865 -1.08850426 -0.99681391 -1.10094414 -0.44053194 -0.85627334
 -0.51427707 -0.89902207  0.35108637  0.02767537 -1.10440674 -0.02938407
  0.08756122  0.18655258  0.04385121 -0.2240158   0.27198223 -1.30822077
  0.08809033  0.14916388 -0.13627575 -0.10362593  0.23393673  0.15585392
  0.20091758  0.17599448  0.16673583 -1.37503889 -0.15851254 -0.0085991
 -1.2089461  -1.19284459  0.16787412 -1.036612    0.13895615  0.22634947
 -0.18712451 -1.19267954]
*****  hpm_alpha0 
 [-1.22565137  1.06195426 -1.18543079 -2.21214083 -1.79706755 -1.30370784
 -0.45579592 -1.20080576 -0.40250743 -0.82769202  1.28877025 -0.25189405
  1.0008161  -1.06624806  0.86638592 -1.32717254 -0.80112932  1.34183708
 -0.44215776  1.22787701  0.32064856  0.93238499  1.47738564 -0.31825469
  0.32560984 -0.71012476  0.64133266  1.12661376  0.64701928  1.33669425
 -0.75029497 -0.51801319 -0.48637381  0.30548636  0.45411705  0.54540781
 -0.57485484  1.05040376 -0.50868959 -1.23112219 -0.51078438 -0.55671074
  1.29687959 -0.39046207  1.12033508 -1.13229764  0.39732845  0.60781014
 -0.51815102  1.37694374]
*****  hpm_U 
 [[ -1.24277243e-01   5.03588790e-02   3.60627711e-01   4.65019721e-01
    8.40839881e-02  -8.09394976e-01  -1.61329746e-01  -3.09719094e-01
   -2.32301075e-01   3.17849943e-02   4.34069472e-02   4.94814174e-02
   -1.16050384e-01   1.71560766e-02   5.22809587e-02  -2.75816194e-01
   -1.49607726e-01   4.52813046e-02   5.45638001e-02  -3.57541973e-01
   -1.18158757e-02   2.39490196e-01   1.90075303e-01  -5.52237875e-02
   -1.04698927e-01   8.61854195e-03   6.84251702e-02  -6.83546464e-02
    1.03905831e-01   3.29600568e-01  -4.71688333e-02   1.55806754e-01
   -3.94061456e-02  -4.23633277e-02   8.65515601e-02   4.19618044e-02
   -2.20169034e-02   6.68868653e-02   2.86646913e-01  -3.56287551e-01
   -1.80714634e-02  -1.01715240e-01   6.41517029e-02   3.91608788e-01
   -1.48857472e-01   1.25594885e-01   1.75226259e-02  -7.42313029e-02
    1.78065721e-01   3.17515161e-02   4.97028120e-01   1.93851847e-01
    4.06810121e-01  -4.28575040e-01  -6.89700370e-01   1.63216110e-01
    8.75370250e-02  -9.49160553e-01   7.25860571e-02   2.97894089e-01
    1.88393205e-01  -1.48773676e-01   1.06232716e-02  -5.22531013e-01
    4.85818961e-02  -1.05380566e+00   3.71546501e-01   6.64376686e-01
    5.76323701e-01   7.10844850e-01   4.20298314e-01   1.92837724e-01
   -3.84716670e-01  -9.85548306e-02   1.52829345e-01  -1.45024963e-01
    3.68801983e-01   1.08393774e+00   2.64057319e-01  -4.43741112e-01
   -1.32258630e-01  -6.78293680e-02   1.71955935e-01   2.26738233e-01
   -3.38151943e-02   4.01840963e-02  -7.96826665e-02   2.95392805e-01
   -9.89701985e-02  -2.49795303e-01   1.06297338e-01   2.16575486e-01
    2.17944818e-01  -2.98653216e-01   2.52599241e-01   2.66124346e-01
    1.08974675e-01  -1.79291149e-01  -2.35235622e-01   1.24866941e-01]
 [  3.88927368e-01   2.00916279e-01  -2.40253471e-02  -1.87441303e-01
    2.10732107e-01   2.94096153e-01  -7.55390425e-02   5.75621760e-02
    2.89053891e-01  -1.68643822e-01   1.69683038e-01   2.00864592e-01
   -2.64221285e-01   2.38767050e-01   7.58200709e-02   1.73877335e-03
   -1.37175974e-01  -2.80146370e-01  -1.53132908e-01   8.99019864e-02
   -5.71780256e-02  -8.07560365e-03   1.54245324e-01  -1.56219580e-01
    1.17589227e-01   1.21911709e-01   1.01591009e-02  -5.50805609e-03
   -5.54171524e-02  -2.87715989e-01  -1.51474395e-02  -3.61423472e-02
    6.66151447e-02   1.20232932e-01   1.53136374e-01   1.24447249e-01
   -3.99260719e-02  -7.16026833e-02  -2.02073975e-01   1.38721238e-01
    5.55824846e-02  -7.30366232e-02   1.44920564e-01  -3.54989728e-01
   -1.21565997e-01   2.32863125e-01   5.54046976e-02   7.70044284e-02
    8.48797943e-02   1.39395230e-02  -5.35117110e-01   7.27120800e-02
   -6.39126303e-01  -1.64616678e+00  -6.56295350e-01  -9.59955152e-01
   -2.79639459e-01  -3.88862738e-01  -4.15146061e-01  -1.55884526e-01
    7.79765363e-02  -3.45534265e-01   4.20006622e-02  -7.31663409e-01
   -1.14421367e+00  -3.81519298e-01  -5.37539092e-01  -9.44000486e-01
   -5.87366394e-01  -5.76632940e-01   2.05678958e-01  -3.63246301e-01
   -6.85574093e-01  -3.82069507e-01   1.70349995e-01  -1.59562194e-01
   -5.56097249e-01  -6.68605807e-01  -2.04777476e-01  -6.84263067e-01
   -4.45767569e-01  -2.66852815e-01  -7.29856443e-01  -5.83007227e-01
   -1.17959287e-01  -1.00343372e-01  -2.73058563e-01  -6.29116349e-01
    4.13637870e-02  -1.03386384e+00  -2.57460755e-01  -3.17002186e-01
    3.84586799e-02   2.76879597e-01  -5.36807138e-01  -1.00893964e+00
   -3.61894182e-02  -1.91073616e-01  -1.97038996e-01  -3.50751315e-01]
 [  4.63223816e-03   9.48577998e-02   6.17889390e-01  -5.07018402e-02
    2.00904350e-01  -3.73553776e-02   4.30996342e-02   1.40606587e-01
    8.89514871e-02  -1.01098877e-01   5.41164812e-02   6.72253532e-02
   -2.64237531e-01  -2.72942534e-01  -6.62982736e-03   2.92406784e-01
    9.48341618e-02   2.73458509e-01  -8.45544284e-02  -6.34158256e-02
   -4.47346197e-03   1.55454460e-01  -2.29785511e-01   8.53391467e-02
    1.14909744e-01  -3.71431734e-01  -2.18434973e-01   9.41400350e-02
    4.66078660e-02   2.04605450e-01  -1.53751726e-01   8.35281046e-02
   -5.31640225e-02  -1.15454056e-01   4.05747449e-02  -2.80262954e-03
    7.87157593e-02  -8.78778982e-02  -1.30648408e-02  -2.54315144e-01
    1.01642281e-01   1.08326225e-01   4.67854349e-02   7.09703928e-02
    2.81360426e-02   4.47955447e-02  -4.05295989e-01  -7.95267391e-02
    1.52721093e-01   2.30428154e-01   5.39973209e-02   3.77618155e-02
    1.01307955e-01  -6.95945888e-01   7.32742243e-01   3.85584899e-01
    5.80104584e-02   9.04631658e-02   9.07855323e-02   9.89902338e-02
    5.75997538e-02   8.74080515e-02  -2.43216072e-01   2.12937740e-01
   -5.76210535e-01   4.31623736e-01  -6.33564857e-01   5.95528132e-02
   -1.43585971e-01   1.73464616e-01   7.56771045e-02  -9.39702323e-02
    7.21415707e-01   7.19833864e-02  -3.86854584e-01  -2.32551263e-01
   -2.54047097e-01  -6.37271255e-02  -1.91529075e-01   6.33622136e-01
   -2.80649416e-01   5.08303894e-01  -1.07196642e-01  -3.61364958e-01
    4.25212208e-02  -2.09648424e-01  -1.14728552e-01  -1.18718413e-01
   -1.33990954e-01   2.91479398e-01   2.22068963e-02  -2.95050395e-02
   -1.22504952e-02   2.40082096e-01   1.47086480e-01  -3.88821704e-01
    1.30525378e-01  -3.69508146e-02   1.34023017e-01  -2.12786027e-01]
 [  1.84781419e-01   6.50404946e-02   5.02871798e-01  -6.70818899e-03
   -1.61672101e-01  -7.32845743e-02   1.25304432e-01   2.75319813e-02
    1.32015381e-01   3.82905170e-02  -5.37801034e-04  -1.83362343e-01
   -1.05043594e-01   1.39133123e-01  -8.63077176e-02   1.33044961e-01
    1.23342103e-01  -7.41156170e-03  -1.10287825e-02   1.33428755e-01
   -1.60550173e-01   1.72169040e-01  -1.10010382e-02   8.51117164e-03
    3.05206605e-02  -1.86411571e-01  -1.10801147e-01  -1.17987896e-01
   -3.62791773e-02  -1.23548281e-01  -3.09217787e-02   2.64666582e-01
    1.72000267e-02   3.42101863e-02   2.23333082e-02  -8.96204243e-02
   -1.49118406e-01  -2.68092037e-01  -1.53281459e-01   2.08916975e-01
    2.01531944e-01  -6.27741385e-01  -1.97728284e-02  -2.95031638e-01
    4.60822165e-02   3.69664716e-02   2.25105694e-01   2.85450821e-02
    1.81095163e-01  -2.45962718e-01  -5.33949468e-01  -1.87761588e-01
   -5.03768269e-01   1.00007941e+00  -4.11387563e-01  -4.50440241e-01
   -2.34005568e-01  -1.05772360e-01   1.05072695e-01  -3.90272530e-01
   -1.66079764e-01  -2.38088059e-01  -2.63338457e-01  -3.81053874e-01
   -4.66906757e-01   1.70329216e-01  -3.56194893e-01  -4.62083271e-01
   -5.16912046e-01  -3.29953311e-01  -2.09633835e-01  -2.43212464e-01
   -3.91155585e-02  -3.09718939e-01   1.79655365e-01   9.82831262e-02
   -8.03541588e-02  -4.50746374e-01   1.54342667e-01   3.12902209e-02
    8.67542746e-02  -6.99058212e-02  -4.80236221e-01  -1.79950863e-01
    6.49878166e-02  -5.19522438e-02   7.64656689e-02  -2.57615405e-01
   -9.63970967e-02  -3.17917245e-01  -6.46175524e-01  -6.35477789e-01
   -1.90720171e-01  -5.95254728e-01  -2.77501563e-01  -2.22177304e-01
    9.12009226e-02   5.02333030e-02  -4.28496864e-02  -4.12611112e-01]
 [ -3.83335185e-01   1.14052882e-02  -7.24437394e-02   2.37366818e-01
    4.75852532e-01  -3.46106182e-01  -4.62922639e-02  -2.29550152e-01
   -9.65691569e-02   1.56129446e-01   6.78339719e-03  -3.37169897e-02
   -1.26870931e-01  -1.27721568e-01  -2.12818075e-02  -5.85166984e-02
    1.39000293e-01   9.43207370e-02  -5.09579072e-02  -3.31819652e-01
    1.00788408e-01   9.85999446e-02   2.76762331e-02   2.25202402e-02
    5.74485130e-02  -1.38876795e-01  -2.47785477e-01   8.75483518e-02
   -4.75451972e-02  -2.17801969e-01  -4.55120183e-02   8.37734413e-02
   -1.65304240e-01  -3.32020928e-01  -8.43267957e-02  -7.60764503e-02
    1.36188533e-01   1.33678130e-02  -8.30289332e-02  -4.69803866e-02
   -1.51570241e-01  -6.23256863e-02   1.35707539e-03  -1.05642814e-01
    2.26397292e-01  -4.55743385e-01  -2.63994898e-01  -1.98723416e-01
   -4.87584375e-02   1.96110366e-01   1.49444272e-01   1.22080612e-01
    4.45709767e-01   4.67593788e-01  -5.15955658e-01   5.83407298e-01
   -1.81558566e-01   1.30449743e-02   1.27315539e-01  -7.24536708e-02
    1.09333746e-01   1.25366243e-01   1.71519051e-02   3.20829365e-01
    5.35033358e-01  -5.18175904e-01   4.54342587e-01   1.93989896e-01
    3.84571989e-01  -2.30336899e-02  -1.30198621e-01  -1.41983339e-01
    7.58667990e-01   3.45430225e-01   1.21771351e-02  -3.99160055e-02
    1.78613737e-02   4.44234231e-01  -3.33685453e-03   9.32312254e-03
    1.68071257e-01   4.47191219e-01  -2.38111913e-06   9.91135539e-01
   -1.34775941e-01   1.63707099e-01   1.61862979e-01   1.46759477e-01
   -1.59554094e-01   3.31796675e-02   8.82741916e-02   6.20259772e-02
    1.56439083e-01   4.02104214e-01   2.58676374e-01   2.45191970e-01
    2.22504121e-01   6.07014822e-02  -2.80571982e-01   2.89431561e-01]
 [  6.01808505e-02   1.06436476e-01   2.51873969e-02   1.26555902e-01
    1.40449433e-01  -3.30624567e-01  -1.66889693e-01  -1.93392935e-01
   -2.62615867e-02  -1.07742614e-01   1.04525655e-01   7.62358307e-02
   -4.53577017e-02   3.42856371e-01   2.33067241e-01   1.31736254e-01
    6.38839544e-02  -6.54635985e-02   1.04718914e-01  -2.52196668e-01
    1.11862791e-01  -5.22819726e-02  -1.58182681e-01  -6.35046206e-03
    3.71057926e-04   1.72725326e-01  -2.59767527e-01  -1.04757397e-01
   -1.59866697e-01   2.66317261e-01  -3.67331232e-02   2.07582189e-02
    1.71690230e-02  -1.02303047e-01  -1.26599263e-01   3.63069578e-02
   -7.89535214e-04   8.77226715e-03  -1.14465190e-01   2.47547396e-01
   -5.03918097e-02  -5.46132729e-02   9.37599869e-02  -6.51842519e-02
   -1.83980766e-02   5.42679669e-02  -1.67923953e-02  -2.13661862e-01
   -1.34775598e-01   1.12155652e-01  -3.15622929e-01   1.93405416e-01
   -4.81257551e-02  -5.97807449e-01  -3.62604517e-01   8.64089278e-02
   -2.98133113e-01  -6.24062531e-02   4.85206499e-02   1.61647058e-01
    2.24540930e-01   2.66678568e-01  -4.17506621e-02  -8.83171777e-02
    4.09608212e-01  -4.56229146e-01   6.14094574e-02  -1.36857013e-01
   -5.76310944e-03  -3.82943364e-01  -1.78118701e-01  -1.98842305e-01
    3.22790602e-01  -1.77727488e-01  -5.65943868e-02  -2.25720009e-02
   -3.45649801e-01  -1.55746645e-01  -1.20615358e-01  -3.85344128e-01
   -2.72527093e-01  -2.96897155e-01   9.89297181e-03  -4.39524434e-01
   -3.73195533e-01  -2.74261364e-01  -1.31268326e-01  -3.34096130e-01
   -4.16764453e-02  -7.40113518e-01  -3.35019927e-01  -2.36732764e-01
    1.82608469e-01   2.99802021e-01  -2.41187675e-01  -3.15025493e-01
   -8.74271799e-02  -2.02481223e-01   3.99974674e-02  -4.28228955e-01]
 [  4.49765297e-01   3.01167292e-04  -1.97373158e-01   7.24922854e-01
    2.28997618e-01   5.66801933e-01   1.43067410e+00   4.32737398e-02
   -1.23430459e-01   2.55580910e-01   2.01732268e-02   1.69907021e-01
    2.56616554e-02  -9.36453081e-03  -2.75669647e-01   1.76962382e-01
    2.45296405e-02   2.53173485e-01  -4.58812557e-02  -5.68730517e-02
   -1.93473525e-01   6.10797889e-02   1.08724327e-01   5.32709178e-02
   -2.16420382e-02   7.55223299e-02  -4.10192503e-01   9.30102922e-02
   -4.81608202e-02   5.00225824e-03  -2.11426798e-01  -1.47127894e-01
    7.05408083e-02   2.59020289e-02   3.37997022e-02   9.21399182e-02
   -2.22208333e-01  -3.12080048e-01  -1.35768505e-01   1.34274989e-02
   -1.19014836e-02   5.07853177e-01  -9.80416175e-03   9.06582859e-02
   -1.29624855e-01   1.97980501e-01   5.41419133e-02   1.62694799e-01
   -5.73527685e-02  -9.17846683e-02  -5.37349836e-02   1.12515555e-01
   -3.43738550e-01  -1.29663145e+00  -2.49178843e-01  -3.36683279e-01
   -1.91589127e-01  -1.82765978e-01  -5.46205886e-03  -9.21180256e-02
    1.10412753e-01  -6.65121713e-02  -2.72431553e-02  -9.12490474e-02
   -5.72929856e-01  -3.50497262e-01   4.26690822e-01   3.43781113e-01
   -3.70056997e-01   1.22819362e-02   1.42524516e-01  -4.45738113e-01
   -7.62687644e-01  -1.01625789e-01   1.61392505e-01   3.87958030e-02
   -6.16022808e-01  -6.04442057e-01  -6.34273227e-01  -6.97648608e-01
   -4.00426007e-01  -1.64179822e-01  -4.95420087e-01   5.67366364e-01
   -4.43599297e-02  -2.75512760e-01   2.28893287e-01  -5.63325554e-02
    5.82348522e-02  -1.29088465e-01  -5.97531613e-01  -7.55537452e-01
    1.42906840e-01   3.27181653e-01   1.03378974e-01  -2.68417933e-01
   -4.09193612e-02   3.16050845e-02  -3.73941710e-01  -4.43653334e-01]
 [  3.48153497e-02   5.62926164e-02  -1.32734755e-01  -3.70932909e-01
   -2.12689878e-01  -9.94369602e-02  -2.88079464e-02   7.48351122e-01
    5.62243897e-02  -1.96126007e-01   4.21835632e-02   6.63667080e-02
   -7.38646199e-01  -8.62419707e-02   2.56786240e-02   1.81955625e-01
   -1.59660457e-01  -7.25322337e-02  -1.13753010e-02   6.43275849e-02
   -2.56846799e-03  -6.50504954e-02  -8.95033875e-02   3.59509118e-02
    2.12794978e-02  -5.52901661e-02  -2.07726231e-03  -1.09418512e-01
   -5.64183244e-02  -6.66526838e-02   1.26772818e-01   7.24382748e-02
    2.21184129e-01  -2.05387857e-03  -1.24599393e-01  -1.46188284e-01
   -5.67227195e-03  -6.21652487e-02   6.47036300e-02  -5.09050682e-01
    2.35087367e-01  -2.15247223e-03  -8.56906543e-03  -1.31531304e-01
   -6.74331962e-02  -1.42004808e-01  -4.50926243e-02   3.46593917e-03
    2.78390321e-01   5.04043298e-01   4.84436911e-02   6.94375018e-02
    7.79459432e-01  -1.73088016e-01   3.96478552e-01   2.12534095e-01
    2.18765550e-02  -8.37690170e-02  -7.80685717e-02  -1.68173876e-01
    7.66321485e-02   1.52984814e-01   1.97068144e-01  -2.06832672e-01
   -6.20556650e-01  -6.73218291e-02  -1.85429166e-02  -2.72830090e-01
    4.39751609e-01   9.09971364e-01   3.74212826e-01   1.04982138e-02
    2.46115042e-01  -2.69496078e-01  -5.01873664e-02   1.00708428e-01
    8.00240848e-02   3.65922466e-02  -1.06554770e-01   1.47093242e-01
   -9.18845309e-02   5.34636757e-03   2.13707306e-01   6.28373691e-02
    6.02714620e-02   1.10256941e-01  -3.03459097e-02  -2.42070684e-01
    1.62661272e-01   6.78723771e-03  -1.74271268e-01   4.82880687e-02
    9.77212217e-02  -5.27868512e-01   2.54870420e-02   1.41948291e-01
   -5.23996772e-02  -8.38982399e-02  -1.06024650e-01   4.71612457e-01]
 [ -9.01571171e-02  -4.84526492e-03   7.66788504e-02  -2.00487185e-02
   -3.63523538e-01  -6.94685694e-02   5.78059523e-02   5.27349941e-02
    8.74352813e-01   1.24006363e-01   1.80657321e-02   9.09790091e-03
    1.78529454e-01  -7.28014668e-02   1.99733448e-01   1.48749887e-01
    5.91917888e-03  -3.15655885e-01  -6.24186946e-02   8.57039530e-02
    1.78729145e-01   6.06160998e-01  -1.76812589e-01  -8.20895744e-02
   -5.46730518e-02   7.18294047e-02  -1.62285108e-02   8.32276335e-03
    1.38824491e-01  -7.14184823e-02   7.68753227e-02  -1.32651095e-01
   -1.75650681e-01  -1.22617810e-01   1.19604865e-01  -4.31062762e-01
    1.60220532e-02  -1.79225210e-02  -1.09467843e-01  -4.22195836e-02
    6.71834641e-02   1.38224039e-01  -1.31790923e-02  -1.47321606e-01
    8.31508959e-02  -2.88588167e-01  -1.69237571e-01  -5.16954576e-02
    1.55308854e-01  -1.29531970e-01  -1.87259438e-01   8.65672878e-02
    3.26250799e-01   1.99532322e-01  -2.65208634e-03  -1.78467704e-01
    1.26172459e-01   7.97724962e-02  -1.31050669e+00   1.17489781e-01
    1.19501337e-01   3.20339882e-02  -1.72334688e-01   2.75180938e-01
    2.61589157e-01   4.80288972e-01   6.40053207e-02  -1.42023799e-01
    3.27789468e-02   5.42727387e-02  -3.35922238e-01   1.19078283e-01
    2.10724931e-01  -1.22614059e-01   2.94229386e-02  -1.32771822e-01
    1.42815481e-01  -5.94931047e-02   3.39906875e-01   3.50063245e-01
   -7.36919073e-02   2.47453034e-01  -2.73504751e-01   5.12020572e-01
   -3.52124931e-01   1.70649813e-01   1.39916593e-01   1.62543342e-01
    3.55769082e-01  -1.03208646e-01  -1.39839133e-02  -3.29523495e-01
    1.03072208e-01   2.81169272e-01   2.96453370e-01   2.81362929e-01
   -1.47086545e-01   1.56831997e-01  -3.39958536e-01   2.66573745e-01]
 [ -6.59609970e-02   4.26686621e-02  -7.66748352e-02  -5.79355649e-02
    1.00662259e-01   1.81260399e-01  -1.61562834e-02  -2.06859246e-01
   -2.93032255e-01   1.61039018e+00   1.53192386e-02   2.59268852e-01
    1.38101910e-02   3.17150363e-01  -1.75615530e-01   5.02748221e-02
    2.45103164e-04  -3.20358585e-01  -2.25629167e-01   5.24208174e-04
    8.46498420e-02  -1.93387839e-03   7.59337209e-02  -4.12131033e-01
   -2.40646284e-01   4.42421095e-02  -2.50728551e-01   4.40175505e-02
    2.03537748e-01  -1.32656177e-01  -1.08464195e-01  -1.25947394e-02
    1.92326223e-01   3.60104479e-01  -7.74966427e-02   8.95087658e-02
   -1.79168555e-01  -2.93493511e-02   9.44680682e-02  -5.93275173e-02
   -1.67994906e-01  -1.92121272e-02  -7.28376620e-03  -4.58266074e-03
   -1.51172422e-01   1.22183383e-01  -9.29838362e-02   1.50830017e-01
   -2.82820634e-01   8.94339145e-02  -2.79003240e-01   9.70943793e-02
   -4.48216743e-01  -1.38436682e+00  -1.67747228e-01  -1.24097719e-01
   -5.11374460e-02  -4.10882248e-01  -3.17620906e-01  -5.18421120e-01
    5.81467761e-02  -6.74029176e-01  -1.64091915e-01  -2.11374796e-01
   -1.03457546e+00  -5.03163966e-02   2.03917581e-01  -2.96032266e-01
   -2.39322002e-01  -3.02994547e-01   4.28116033e-02  -2.20309786e-01
   -4.96083005e-01  -6.63635503e-01  -4.13274642e-01   1.09762551e-01
   -3.19838387e-01  -3.01550095e-01  -1.80567842e-02  -3.54245309e-01
   -2.05323921e-01  -7.50366854e-01  -7.59142140e-02   3.21751616e-02
   -1.56107183e-01  -2.16430493e-02  -1.65962110e-01  -1.16421827e-01
   -6.46052648e-01  -3.18929558e-01   9.38978262e-02  -4.60941410e-01
    1.09932927e-01   3.77056028e-01  -6.80877736e-01  -5.33426773e-01
   -2.49166186e-01   5.04423477e-02  -2.87506913e-01   4.10267373e-02]
 [  3.63494413e-01   1.43489900e-01  -3.53582368e-02  -1.88648257e-01
    1.15575114e-01   3.06147333e-01  -4.07211714e-02   3.27315672e-02
    2.32954585e-01  -1.94016386e-01   1.60802688e-01   1.54487481e-01
   -2.87737415e-01   2.40016696e-01   8.51288846e-02   6.71606203e-03
   -1.10046232e-01  -2.09066708e-01  -1.30688557e-01   5.64212180e-02
   -3.97791355e-02  -1.78056543e-02   1.73042484e-01  -1.45938265e-01
    8.47787819e-02   1.52211409e-01  -2.25256326e-03   5.64416952e-04
   -8.06648358e-02  -3.10692497e-01  -2.06219845e-02  -3.85603022e-02
    2.30779932e-02   6.24239765e-02   2.08104410e-01   7.28877988e-02
   -2.01303074e-02  -6.53116612e-02  -2.30301344e-01   1.47527608e-01
    7.78319509e-02  -6.56749672e-02   1.24591922e-01  -3.29973768e-01
   -1.19356798e-01   2.67800429e-01   4.98574437e-02   1.06914209e-01
    6.94876493e-02   1.56998921e-02  -5.38707413e-01   1.22481127e-01
   -6.45640796e-01  -1.58015327e+00  -6.65821703e-01  -9.34545697e-01
   -3.20302271e-01  -4.28859417e-01  -4.70790459e-01  -1.93168203e-01
    7.07060912e-02  -3.28052475e-01  -6.76254829e-03  -6.96226866e-01
   -1.15897124e+00  -3.98218916e-01  -4.89868790e-01  -8.85550663e-01
   -5.66160030e-01  -5.43852424e-01   1.77634649e-01  -3.29111535e-01
   -6.63552510e-01  -3.62928006e-01   1.65436054e-01  -1.23373043e-01
   -5.59524197e-01  -6.66418558e-01  -2.08606169e-01  -6.49359757e-01
   -4.55810920e-01  -2.67662063e-01  -7.31781438e-01  -5.69508763e-01
   -1.25259573e-01  -9.55803626e-02  -2.84632698e-01  -5.93876136e-01
    2.03807602e-02  -1.06476158e+00  -2.38260528e-01  -2.81446434e-01
    6.49073393e-02   2.70809927e-01  -5.16678167e-01  -1.03921169e+00
   -3.79428051e-02  -1.88371152e-01  -1.68761598e-01  -3.41439732e-01]
 [ -9.70955748e-02  -3.24848911e-02  -9.60684686e-02  -2.40560707e-02
    9.20322553e-02   6.48673312e-03   8.60716537e-02   1.86942438e-01
    2.75185384e-01  -9.36327398e-02   3.99365226e-02   1.12858177e+00
    1.09073358e-02   7.54879268e-02   1.04649754e-01   1.38279993e-01
    1.69511716e-01  -7.87607337e-02   1.08069688e-01   5.61322396e-03
   -2.59656063e-01  -2.33641554e-01   1.58238633e-01  -6.54514178e-02
   -1.06681936e-01  -9.93092603e-02  -3.03707468e-02   1.93413756e-02
   -5.30846804e-02  -1.52979360e-01   8.76784906e-02   6.35114037e-03
    1.43243761e-01   1.09919558e-02  -1.17299354e-02   3.46630104e-02
    1.31465996e-01  -7.18292732e-03   1.55999334e-02  -1.42000660e-02
   -3.08219816e-02   8.75214853e-02  -2.79088896e-03   3.91486952e-01
   -9.62603984e-03   3.49412676e-01  -1.21201386e-01   8.88046314e-02
   -4.30922484e-02  -3.79315839e-01  -4.10953445e-01   8.80689875e-02
    2.75730825e-02  -1.05606530e+00  -9.17508768e-02  -1.59141582e-01
   -2.30337325e-01  -1.73213226e-01  -1.54863293e-01  -6.24020010e-02
    7.81521813e-02  -1.32152745e+00   1.46041672e-02  -2.15212449e-01
   -8.70956075e-01  -1.20899663e-01  -2.84622285e-01  -1.96400595e-01
    9.65959173e-02   1.37994397e-01  -6.68214179e-01  -3.56567754e-01
   -8.06933655e-01  -2.90019075e-01  -7.63499100e-02   3.66128728e-02
   -2.27358827e-01  -4.21756605e-02  -2.61951469e-02  -5.14138022e-01
   -2.05583822e-01   1.09082402e-01   1.69341577e-02  -1.83805820e-01
   -1.67926692e-01  -1.89225824e-02  -2.03109236e-01  -1.46532817e-01
   -4.76630193e-01  -4.36466096e-01  -1.66168530e-01  -1.49975126e-01
    1.10722682e-01  -2.32548627e-01  -1.22885125e-01  -2.24953441e-01
   -4.91899442e-02  -8.83982633e-02  -1.84657076e-01  -7.18794599e-01]
 [ -1.49872798e-01  -2.06111924e-02   5.16116176e-02   2.48974585e-01
    1.66644181e-01   1.01944880e-01  -3.04929495e-01  -4.26109718e-01
   -3.11348029e-01   1.85199907e-01  -1.97916864e-02  -2.44004768e-01
   -8.06058737e-01   1.12907077e-01  -1.74053518e-01   1.70543833e-01
   -1.79416492e-02  -2.18330574e-01   4.62063899e-02  -1.24193399e-02
   -1.43547536e-01   1.34108724e-01  -6.43978606e-01  -1.89009446e-02
   -1.75209835e-02  -2.06161631e-02  -1.83411980e-01  -5.16609614e-02
    1.53350721e-01   7.69525345e-01  -4.96743203e-01   9.86139430e-02
   -3.42276254e-01   9.72403798e-02   2.50255471e-01   2.11662261e-01
    1.62458079e-01   1.62655405e-01   2.28480113e-01  -2.89825755e-01
   -8.93426686e-02  -3.04474757e-01  -3.83988363e-02   6.76307516e-01
    4.10197022e-01  -2.11023812e-01  -9.17121392e-03   1.35919970e-01
    2.52891548e-01   1.81812454e-01   6.99749732e-01  -8.63040469e-02
   -8.07455307e-02   1.58910109e-01   6.34707882e-02   3.10287599e-01
   -4.92424017e-02   7.77168962e-01   5.44637918e-01   2.07530354e-01
   -5.57403358e-02   8.50160611e-02   4.62447774e-01   7.34059205e-01
    4.23132487e-01   1.12728170e-01  -1.62171071e-01   6.58656875e-01
    1.29164053e-01   2.11683329e-01  -5.17553480e-01   5.08105278e-03
    1.51086894e+00  -1.48888533e-01  -9.02149977e-01  -8.10081752e-02
    1.80869406e-01   9.09791789e-02  -9.04635975e-02   1.31569163e+00
   -2.39081985e-01   5.84432420e-01   2.72644731e-01  -2.49852440e-01
    6.70110225e-02   2.33960794e-01  -1.75651006e-02   3.73106678e-02
   -6.54600158e-01   1.36280053e+00   1.67267931e-01   3.28033341e-01
   -1.08887138e-01  -1.16896524e+00   1.07577188e-01   4.25830989e-01
   -1.28032283e-01  -6.71117208e-03   2.31139327e-01   2.19378894e-01]
 [ -4.43273183e-01   5.96107219e-03   1.15887590e-01  -5.27948251e-02
   -3.87972809e-01  -5.55273486e-01  -1.36070470e-01  -1.48075359e-01
   -2.49173081e-01   2.30801156e-01   1.93787315e-02  -1.48760587e-01
    2.65128283e-01  -4.47644400e-01   1.41197914e-01   2.03483615e-01
    1.84656177e-01   8.67273058e-02  -1.61830104e-02   6.84376627e-02
   -1.27713531e-02   7.48168823e-02  -1.46152602e-01   1.77072561e-01
   -7.38420477e-02   2.96615345e-03  -1.23448928e-01   2.89575893e-01
    3.95121559e-03   1.52392828e-01   2.37190206e-03  -4.45610720e-02
   -1.55016862e-01  -1.27459531e-01  -1.32799281e-01   1.61182977e-01
    1.99274712e-01   1.46003890e-01  -7.10664457e-02  -2.78605738e-01
   -5.29538051e-02  -1.76962627e-01   2.52483450e-02   4.15190946e-01
    1.25304649e-02  -4.50500133e-01   2.59207692e-01  -2.39521928e-02
    1.09176552e-01   3.17612422e-02   9.53210475e-01   1.71163146e-01
    7.22821725e-01   4.58987713e-01   8.39567783e-01   3.64935873e-01
    4.03561822e-02   4.77625056e-01   1.10807825e-01   4.93065148e-01
    1.63116254e-01  -1.01670006e-02   2.44244750e-01  -4.56399654e-01
    7.70647324e-01  -7.31775282e-01   7.46966834e-01   5.17944215e-01
    1.29632676e+00   1.11917934e+00  -3.59260246e-01   2.35621855e-01
    1.55844417e-01  -5.02450514e-01   2.00737795e-01   2.64270793e-01
    3.89934594e-02   3.80038206e-01  -7.14807685e-02   1.58316134e-01
   -2.78681079e-01  -3.65949842e-01   2.33669735e-01  -8.15073817e-02
   -4.74720248e-01  -8.97047786e-02   3.86914300e-02   1.16699541e-01
    1.43376158e-02  -1.67800539e-03   9.95704965e-02   3.78470246e-01
    1.84284732e-01  -3.29689640e-02   1.98085308e-01   1.38721571e+00
    1.28187553e-01  -4.76752886e-02   1.90109128e-01   3.38464683e-02]
 [  5.75910010e-02   1.02885200e-01   2.82632516e-01  -3.76459521e-02
    1.22741243e-02  -1.57919295e-01   4.12283673e-01  -1.11245234e-01
    3.23213744e-01   5.04858926e-02   1.78884951e-01  -1.34511475e-01
   -3.29318226e-01  -3.48866312e-02   2.21245114e-01   1.70869401e-01
   -8.66362096e-02  -3.87001797e-01   5.84484081e-02  -3.70232877e-02
   -9.05874484e-02   2.46580117e-01  -2.56141657e-03   1.12375003e-01
   -1.80133506e-01   2.51388472e-01  -1.42920160e-01  -2.13354062e-02
    1.08803651e-01  -2.58419250e-01   3.23899512e-02   3.53702078e-01
    2.24924597e-01   1.88858562e-02  -3.06820806e-01  -4.25042770e-02
    9.18277732e-02  -1.46367095e-01  -7.80262569e-02   1.78718631e-02
    6.79104862e-02   3.12310006e-01   1.18020350e-01   5.56195501e-02
   -6.75109616e-02   3.75008155e-02   3.24940047e-02  -2.09146641e-02
    6.47278099e-02  -1.59660324e-02  -7.75355523e-01   6.41860165e-02
   -3.64960559e-01  -7.40447945e-01  -2.72756445e-01  -5.19080349e-01
   -4.62845796e-01   2.25763363e-01   2.02059962e-02  -3.40108912e-01
    9.03370507e-02  -4.91744438e-01  -1.23266248e-01  -6.07875192e-01
   -9.14229361e-01   2.66731485e-02  -5.62634627e-01  -5.71144769e-01
   -3.32243293e-01  -4.13653415e-01  -2.04505049e-01  -8.91935892e-02
   -5.10242555e-01  -2.08115426e-01   1.67312280e-01  -2.21917955e-01
   -2.61284293e-01   1.96365267e-01  -2.21031945e-01  -4.75758487e-01
    3.75049204e-02  -2.73919358e-01  -5.36162212e-01  -3.28179029e-01
    3.48376473e-02   1.40295336e-01   3.32611430e-02  -2.42328845e-01
   -1.53615269e-01  -4.87587984e-01  -6.18800847e-01  -9.18846462e-01
    8.94658631e-02   2.01876079e-01  -2.09507620e-01  -4.94531281e-01
    1.77575233e-01  -2.32155079e-01  -1.18854562e-04  -4.28124053e-01]
 [  2.05310206e-01   5.72555410e-02  -1.59009341e-01   5.67534974e-02
    1.82651509e-01   2.57977354e-01   5.34470689e-02  -8.50366772e-02
   -1.87780072e-02  -1.77859400e-02   4.29797933e-02  -8.38893268e-02
   -8.52702245e-02   1.87515966e-01  -9.69560410e-02   7.53246190e-01
   -3.95013469e-03  -1.20711190e-01  -1.87035984e-01   6.36768179e-02
    3.67366874e-02   1.46452777e-02  -7.75426134e-02  -2.67653487e-01
    2.20086552e-01  -6.74688173e-02  -4.90196336e-01   1.69630528e-01
    1.03726153e-01   1.75676656e-01  -1.26880412e-01  -4.57271997e-02
    2.90767410e-02   7.45030855e-02   8.53317479e-02   1.13671212e-01
    1.20320731e-01  -1.84891407e-01  -2.65063092e-02  -1.02679663e-02
   -6.06020050e-03   5.25535457e-02   7.69817543e-02  -9.25656620e-03
    3.14140235e-01   2.77870853e-01  -2.76893018e-02  -3.36752492e-01
    4.92126772e-02  -2.73027029e-01  -3.10179850e-01   7.59469039e-02
   -4.07520038e-01  -2.23502165e-01  -9.91558760e-01  -8.96661797e-02
   -3.75858010e-01  -4.20754403e-01   3.08956356e-02  -4.38010006e-01
    5.32770204e-02   1.63688212e-01  -1.16288748e-01   1.68179634e-01
   -2.41024161e-01  -2.63151232e-01  -8.56693367e-01  -1.53758759e-01
   -5.17414897e-01  -8.51802997e-01  -6.87725320e-02  -1.32213138e-01
    5.78061187e-01  -3.55911683e-01  -9.57165286e-02  -1.93351237e-01
   -5.82324926e-01  -3.61490633e-02  -2.49114851e-01   3.84412779e-03
   -1.35416420e-01   2.41502293e-01  -2.13661411e-01   6.81346179e-01
    2.26205208e-02   1.85212175e-01   5.43565463e-02  -1.80082261e-01
    2.06767085e-02   3.39712230e-01   1.48501097e-01   2.28941840e-01
    4.17360853e-02   3.63573721e-01  -3.36572697e-03   1.18543475e-01
   -4.03556054e-02   7.12181034e-03  -5.46008150e-01  -1.76582477e-01]
 [ -1.28098136e-01   4.67011023e-02   1.05788132e-01  -2.10553077e-01
    1.24241934e-01   6.47967322e-04  -8.35261116e-02   2.83500753e-01
   -4.51004086e-02   1.36726561e-01   5.67801126e-02   8.07203577e-02
   -5.24588783e-02  -1.90956607e-01  -8.56003957e-03  -1.20907329e-01
    1.23431603e+00  -3.64945878e-01  -5.29109190e-02  -1.15282890e-01
    3.48935334e-02  -1.64194900e-01   7.88283517e-02  -2.04297459e-01
   -8.02418436e-02  -9.75303539e-02   1.69940270e-01  -1.10281400e-01
    1.71345042e-02  -3.58448451e-01   4.88392747e-03  -8.42716776e-02
    2.13631163e-02  -8.74106914e-03   3.30312248e-02  -2.23906661e-01
   -2.17011931e-02  -1.63204445e-02  -4.14418040e-02   4.50539569e-02
    2.06231848e-01   2.22327155e-01   2.05157916e-02  -5.36830948e-01
   -1.28761282e-01  -6.26255749e-02  -6.23425691e-02   1.29567509e-01
    1.65654353e-01  -4.50821471e-01  -5.83896652e-01   6.55212576e-02
   -5.64397485e-01   6.84500377e-01   8.43378594e-03   9.74944234e-02
    7.31795372e-02   2.37578602e-01  -2.21887912e-01   4.15868315e-02
    6.06947691e-02   2.13227907e-01  -7.91216506e-02  -1.46513157e-01
    1.95403655e-01   2.43639574e-01  -6.53284328e-01  -6.67730684e-01
    1.87449029e-01  -5.79895632e-01  -1.55717904e-02   2.07192031e-01
   -1.93314171e-01   1.64495005e-01  -2.77198176e-01  -1.42480742e-01
    2.00663697e-01   1.13034653e-02  -1.11936032e-01   5.37738519e-02
    3.05620196e-01  -2.61762375e-01   1.63501147e-01  -9.84469903e-02
   -1.40535730e-01  -2.39885854e-01   3.66887655e-02   2.54845409e-01
   -1.09452954e-01  -5.17944983e-01  -9.00931710e-02  -3.45020370e-01
    1.18859321e-02   7.07365137e-01  -3.74374495e-01  -4.06486669e-01
    1.24474222e-01  -3.06789516e-01  -3.41688475e-01  -1.42825570e-01]
 [  3.27625823e-01   1.93116051e-02  -1.40287290e-01  -1.71360950e-01
    1.67060353e-01   8.82806093e-02  -3.91982739e-01   1.04569874e-01
    1.88082738e-01   1.17250967e-01  -6.42771451e-03   1.15168727e-01
   -1.50368747e-01   2.12241465e-01  -2.80426984e-01  -1.37258262e-01
    1.16746249e-01  -2.98539718e-01  -9.91631610e-02  -2.50009163e-02
    3.20015566e-02  -1.68458945e-01   2.62244641e-01   6.20007162e-02
   -5.90312821e-02  -9.49114373e-02  -1.11961387e-02  -2.40083810e-02
   -4.31448308e-02   1.64923199e-01   1.71847582e-01  -2.93740251e-01
   -2.36051808e-01  -9.35092054e-02   1.62567204e-01   3.80618616e-03
    2.83472337e-02   1.06977259e-01  -6.73065454e-02   3.63375947e-02
   -7.04950281e-02  -3.07198074e-01   1.12577632e-02  -2.29202811e-01
    2.95091799e-01   1.26704111e-01   9.66216227e-03   1.51339164e-01
   -1.20890176e-02  -3.14663356e-01   1.53288335e-01   1.10245045e-01
   -1.64601053e-01   2.02825552e-01  -2.33793204e-01  -1.48449820e-01
    4.38900751e-01  -2.39652922e-01  -1.64008925e-01  -2.58809912e-01
    7.66258075e-02   2.53346958e-01   5.19893309e-02  -5.60393706e-02
    1.14784625e-02  -5.22022678e-01   1.02559369e-01   1.02313466e+00
   -4.57508811e-01  -2.65005431e-01   2.81235080e-02  -3.83168730e-02
   -8.26445290e-01   1.30721115e-01  -2.60164754e-01   5.23509496e-01
    1.40022277e-02   7.56911963e-02   3.04427336e-01  -3.15029145e-01
   -3.07751160e-02  -3.07566167e-01   3.25811546e-01   1.51465968e-01
    3.93542883e-02  -5.80784826e-02   7.99533814e-02   6.31142794e-02
    9.90450072e-02  -3.54630929e-02   8.02700057e-02   3.68116687e-01
    1.48736117e-01   1.85912868e-01   6.12569346e-01  -4.50275762e-01
   -9.45740643e-02   1.70639347e-01  -2.06954635e-01  -2.15016387e-01]
 [  4.90707404e-01   1.70780142e-03   1.19163056e-01  -2.89712656e-01
   -1.48433332e-02   2.50365832e-01   3.07506619e-02   2.06124099e-01
    1.03309469e-01   2.02402830e-01  -2.84887988e-02   5.38732091e-03
   -1.88447617e-01  -1.14437859e-01   2.66074106e-01   8.62152142e-02
    1.29846955e-01  -3.63554401e-02   1.64201197e+00   4.85424878e-03
   -5.89971408e-02  -1.21222420e-02  -4.21853911e-02  -8.88174214e-01
   -5.04593601e-02  -2.44702285e-01  -1.38880996e-01   2.18627216e-01
    3.04420445e-02  -2.54622394e-01   5.68765526e-02   5.48409391e-02
    1.41465290e-01   6.86705680e-02  -8.61383759e-03  -5.57360009e-02
    8.12093741e-02  -2.27621284e-01  -2.28663935e-01   2.42183117e-01
   -2.17814642e-02   5.58819783e-02   9.55657824e-03  -2.18311914e-01
    4.88761627e-02  -2.41604274e-01  -1.17185973e-01   3.36156985e-02
   -1.18584189e-01   2.59546401e-03  -3.63437033e-01   5.98696812e-02
   -3.66001412e-01  -9.81481507e-01   3.45616618e-02  -2.09843170e-02
   -3.77226791e-01  -3.81507173e-01  -2.44683954e-01  -5.26881098e-01
   -5.09142397e-04  -1.16231266e-02  -2.65935646e-01  -5.90839903e-01
   -4.81341674e-01  -1.41815986e-01  -4.66484360e-01  -9.44498968e-01
    7.56735571e-01   1.84919300e-01  -5.02009759e-02   2.97882178e-01
   -4.11462452e-01  -1.07122433e+00   7.51824103e-01   2.83771617e-01
    2.66771912e-01  -1.62999543e-01  -9.24500545e-02  -6.00508674e-01
    1.46171022e-01  -1.06641831e-01   2.25610361e-01  -6.85729652e-01
    3.93262224e-01   4.21759996e-01  -5.12570147e-01   1.48895798e-01
   -9.62548737e-02  -1.60878093e+00  -1.28187129e-01  -2.99027520e-01
   -7.83509149e-03   5.30763025e-01  -2.00319991e-01  -1.08396459e-01
   -1.03989344e-01  -5.78752962e-02  -5.53773598e-01   2.03913126e-01]
 [  7.95051620e-02   2.99747109e-02  -1.62027323e-01   1.27726002e-01
    2.58318992e-01  -1.04374746e-01  -1.22124881e-01   4.51770339e-02
    1.24862769e-01  -7.38330834e-02  -1.38124917e-02   1.95146917e-02
   -1.64438856e-01   4.52146330e-02  -2.33655994e-01   1.09487889e-02
    5.74330351e-02  -8.41340718e-02   7.63513977e-02  -8.71291734e-01
    7.20650380e-03  -2.44082487e-01  -1.85537909e-01  -1.59495850e-02
   -1.41510552e-02   2.44345367e-01   5.18553524e-02   6.60475490e-03
   -9.63584825e-02  -2.47498875e-02   3.28881451e-02  -9.09475031e-03
    2.05769996e-01  -1.14823476e-01  -1.21486450e-01  -1.07979971e-01
    1.60613329e-01  -1.07159849e-01   4.87820026e-02  -2.00876168e-01
    4.50289147e-02   7.91384753e-02   6.57525160e-02   2.93726620e-01
   -9.56670218e-02  -1.28434852e-01  -1.56020600e-01   6.50466662e-02
    1.58986777e-01   3.92384544e-02   5.41752042e-02  -4.38740017e-02
    3.79106675e-01  -4.79175879e-01  -5.70346347e-01  -2.97068985e-01
   -5.67036791e-02  -3.54273910e-01   1.32536963e-01  -2.87228865e-01
   -3.03122531e-02  -8.16879786e-02   2.63844565e-02   3.40569855e-02
   -4.32804217e-02   3.04299822e-01   6.78144777e-02  -4.65435647e-01
    2.09216829e-01   2.13790164e-01   4.10025534e-02   7.47378872e-02
    5.31852034e-01  -1.85960236e-01   5.52162495e-02  -7.44828922e-02
    7.92206796e-02  -3.67151904e-01  -1.05510846e-01   4.67847477e-02
    8.28391160e-04  -1.09304698e-02   2.49024763e-01  -1.16177847e-01
   -1.03530783e-01  -1.08488961e-01  -1.65756309e-02  -9.82469979e-02
    5.17318322e-02   2.25026783e-02  -7.65139878e-02  -2.34933977e-01
   -1.22591517e-01  -1.16405123e+00  -2.43655039e-01   1.04792130e-02
   -1.13873134e-01   1.86432654e-01  -1.52355019e-02   1.89450294e-01]
 [  7.63150353e-02   4.43260855e-02  -2.58351102e-01   3.24964188e-02
    5.25438198e-02  -1.30435191e-01  -5.45613114e-02   2.03963322e-01
    1.76724170e-01   2.62141128e-01  -2.22694840e-04   4.53434941e-01
   -2.27369800e-01  -2.27048131e-01   2.02609314e-01  -1.55066915e-01
   -5.62112629e-01  -1.47693193e-01  -2.43595033e-01   1.73176213e-01
   -1.54568746e+00   3.60443143e-01   1.08731168e-01  -5.17229284e-02
   -5.64482093e-02   2.72501956e-01  -9.46040866e-02  -3.09294187e-01
   -7.11829740e-03  -2.45446429e-01  -6.64962302e-02  -1.18539228e-01
    1.74067224e-01   1.19916181e-02  -3.26876598e-02   3.81492319e-01
    1.21277724e-01  -2.54439220e-01   4.71459581e-02  -2.12203628e-01
    1.47590926e-01  -1.67184795e-01   5.42140009e-03   6.25383804e-01
    6.24965758e-01   9.13838836e-02  -1.91935788e-01   6.06413003e-02
   -1.81675454e-01  -4.18715710e-01  -1.00482494e-02   1.23758700e-01
    1.38578194e-02  -4.65673988e-01   1.08226690e-01  -9.13181832e-02
    2.80637512e-01  -2.59478554e-01   4.07907485e-01   5.28593999e-01
    9.66157503e-02  -5.00697344e-01  -6.30557288e-02  -8.35404157e-02
   -3.44902759e-01   3.93203986e-02  -1.64725580e-01  -1.83933528e-01
   -9.88413751e-02  -1.37145224e-01   4.53618646e-01   2.40827217e-01
   -7.38306041e-01  -1.05354415e-01   1.74110982e-01   4.40361916e-01
    6.81499631e-01  -1.37259663e-01   4.32180605e-02  -5.73990085e-01
    4.29929233e-01   2.53143657e-01  -1.91726969e-01  -2.26997004e-01
   -4.54362847e-01  -1.09806499e-01  -3.55567680e-01   4.05495736e-01
    1.35462259e-01  -2.95101762e-01   2.96199593e-01   1.94418118e-02
    1.62648970e-01  -6.76540902e-01   1.17543749e-01  -7.39532063e-01
   -4.54693207e-01  -2.69002914e-01   8.35144705e-02  -9.37335722e-01]
 [  1.46744206e-01   2.56404237e-02  -8.38555107e-03  -4.95354296e-01
    3.88376880e-01   3.11789259e-02  -3.89431706e-02   5.13429986e-02
   -2.11599003e-01  -4.75271176e-02  -4.44180577e-02  -1.54069256e-01
    2.66279171e-01   6.22138877e-02  -1.79565356e-01   1.51103828e-01
   -5.42241941e-02   3.50045708e-02   3.77725289e-02  -4.67594073e-02
    6.14112553e-02  -1.40074718e+00  -1.26139319e-01  -1.96532589e-02
   -6.38398671e-02  -4.97892336e-02  -1.55194933e-01  -5.35258574e-02
    1.65146588e-01  -2.41676283e-01   1.39051803e-01   4.44973988e-02
    8.63576058e-02  -4.64208268e-03   2.40540983e-02  -2.46387109e-01
    5.44834920e-02   1.33918633e-01   5.76843695e-03   6.08128486e-02
    4.67582155e-02  -1.20025503e-01   7.60129725e-03   2.23549354e-01
   -9.64829724e-02  -1.57591934e-01   5.67633117e-03  -5.96528474e-02
   -1.68628786e-01  -1.20930214e-01  -1.30319430e-01  -1.36107709e-01
    1.22038994e-02  -3.88535205e-01  -8.26160949e-02  -5.25273674e-02
   -3.37095427e-01  -2.04333374e-01  -9.90486096e-01  -1.97492998e-01
   -1.14442106e-01  -1.14248595e-01  -2.67591754e-01  -8.81801858e-02
    1.09931574e-02  -7.58152793e-02  -2.55551433e-01  -5.96383460e-01
    9.18696116e-02  -1.33430167e-01   7.69782430e-02   2.07351623e-01
    3.59324134e-01  -1.98581536e-01   3.70403836e-03  -8.10806092e-02
   -6.29235317e-02  -1.11940380e-01   1.43120313e-01  -2.44683598e-01
   -2.18203634e-01  -2.49644483e-01  -4.13125105e-02  -4.48424194e-01
   -2.34126402e-01   9.94099319e-02   2.60194748e-03  -1.40101978e-01
   -3.81207851e-01  -1.59217891e-01  -3.87508897e-01  -5.14376222e-01
   -1.34341204e-01   6.84293027e-02  -1.46872725e-01  -6.21021642e-02
   -6.01291253e-03  -1.67116318e-01  -5.64437230e-01   1.55563193e-01]
 [ -8.04561506e-02   3.58861452e-02   1.19487904e-01  -8.25072959e-02
    1.02135856e-01  -3.72238825e-01  -1.55446798e-01   3.33884617e-01
   -4.71819384e-02  -1.14982057e-01   3.20917818e-02  -1.27018912e-01
   -1.18053752e-01   7.29045371e-02  -4.66515545e-02  -1.15991216e-01
    3.91073054e-02   1.22638718e-01   6.69236280e-02  -6.68995397e-02
    9.19254764e-02   1.82664992e-01   2.16135680e-01   6.02591050e-02
    4.61846970e-02   8.02617263e-02   8.28967092e-02   2.00586716e-01
    1.17774450e-01  -2.58717114e-01  -1.11785895e-01   1.71184245e-01
   -2.58036115e-01   1.58225975e-01  -1.11382438e-01   1.61787010e-02
    2.61893361e-01   5.74783660e-03   3.27336973e-02   1.02520700e-01
   -5.37814789e-02  -4.55035283e-02  -1.14715632e-02   1.41279536e-02
   -4.46717254e-02  -4.29719179e-02   1.23709060e-03  -6.65296238e-03
   -1.62509564e-02  -1.13166725e-01  -2.81342459e-02  -1.55360354e-01
   -1.94381852e-01   6.71154840e-01  -6.74746728e-01   5.68202725e-02
   -3.36529376e-01  -3.24041277e-01   1.58618127e-01  -5.75287691e-01
   -1.66700020e-01  -2.37993868e-02  -9.85524705e-02   4.74790545e-01
   -2.10099354e-01  -3.72476344e-01  -3.35884102e-01  -1.51782505e-01
   -7.14480232e-01  -2.15248504e-01  -7.97529463e-02  -6.05243704e-02
    9.78910194e-02   3.80949960e-02  -6.69919049e-02  -2.75742770e-01
    6.25358420e-01  -1.37552529e-01  -8.71261025e-02  -2.65412616e-01
    6.98109174e-02  -2.76518167e-01  -1.41139052e-02  -7.55899570e-02
   -3.06512363e-02  -1.24005980e-01   1.25473745e-01   1.59352282e-01
   -1.14439730e-01   1.55688362e-01  -6.20178821e-02  -2.77264258e-01
   -1.62646885e-01  -4.55803717e-01  -9.66116617e-02  -3.50716606e-02
    4.69221165e-02   5.74810351e-02  -4.86936821e-01  -3.01782183e-01]
 [  1.15509076e-01  -1.59443159e-02  -4.86767260e-02  -2.16350957e-01
    2.47044149e-01  -4.09974890e-01   1.09908248e-02   7.82075435e-03
   -4.26650798e-02  -8.66070319e-02  -1.60025241e-02   1.06846824e-01
   -6.70791408e-02  -1.96633675e-02  -1.18639729e-01  -7.66170849e-02
   -1.17620421e-01   2.04885456e-01  -6.70005768e-02  -1.89165437e-01
    8.05925180e-02  -3.39776816e-01   2.13622627e-01   2.11370099e+00
   -2.72426254e-01  -1.72707671e-01  -6.27241243e-02  -2.29296960e-01
    1.97585385e-02  -4.18555289e-01   1.15757609e-02  -1.14349658e-02
    2.91714845e-01   3.11062058e-02  -1.43560205e-01   2.05118810e-01
    1.04201390e-01  -5.09187595e-03  -5.30624384e-04   4.60091761e-02
    4.82944104e-02   2.35862934e-01   3.17701447e-02  -6.92068395e-01
   -2.54200523e-01  -1.57888975e-01  -2.70071181e-02  -2.16028087e-01
   -2.36631957e-02   7.09396117e-02   1.10476865e-01  -1.42683198e-01
   -2.25272895e-01   6.46468975e-01  -6.79850438e-02  -5.82615432e-02
    2.34350634e-01  -7.90634936e-01  -2.75640990e-01   2.54166971e-01
   -1.42797999e-01   7.62364874e-02  -1.49745796e-01  -2.57563715e-01
   -5.63929928e-01  -2.96156041e-02   6.37701040e-02  -4.26902031e-01
   -7.91636168e-01   3.32462609e-02   9.26308836e-02  -4.89597502e-02
   -3.88980012e-01  -1.61341375e-01   5.30494202e-01   2.81771127e-01
   -2.51528832e-01   2.36220812e-01   3.28671582e-01  -1.57246286e-01
    1.82986052e-01  -1.42798764e-01   2.89970350e-01   9.12462319e-02
   -2.61363618e-01  -1.75548859e-01   2.88827037e-01  -3.18750681e-01
    2.10477544e-01  -1.27641304e-01   4.42544936e-01  -6.51853511e-01
   -1.66450897e-01   1.92683816e-01   5.14886725e-01  -9.47351156e-01
   -1.97544330e-01  -9.86294337e-02  -5.17587620e-01   2.83327436e-01]
 [  1.86964176e-01  -1.80308292e-02   1.13766436e-01  -2.22998834e-01
    3.75505622e-02   2.72836387e-03   1.55157631e-02   1.68826526e-01
    9.38669371e-02  -4.47390699e-02  -5.25163638e-02   9.93075025e-02
    3.83765938e-01  -1.68490141e-01   1.22025845e-01  -5.19804116e-03
   -1.60130990e-02  -3.69035689e-02  -1.57898855e-01   1.11512077e-02
    2.90326908e-02  -5.49484036e-01   8.51701690e-02  -2.71134659e-01
   -1.55594582e+00  -7.95498035e-03   1.07670645e-01   1.88096714e-01
   -5.34364196e-02  -4.52770290e-01  -1.93787487e-02  -4.12447102e-02
   -1.94101917e-01  -1.28325426e-01   1.07136915e-01  -4.07463195e-03
    3.92301580e-02   1.23897125e-01  -6.47156915e-02   1.26206214e-01
    1.09863556e-01   3.42534761e-01  -3.71471925e-02  -3.93782386e-01
   -2.72671569e-01   3.43815627e-01   9.45322672e-04  -4.51374623e-02
    1.80468671e-01   2.94876743e-02  -7.04015340e-01   7.16295594e-03
    1.04953747e-01  -4.72900527e-01  -1.92766424e-01  -1.90870765e-01
    3.22203209e-01  -3.81433094e-01  -5.38354885e-01   2.94795965e-01
   -5.03655276e-02  -6.40035965e-01  -1.70222458e-01  -3.77549033e-01
   -5.88349277e-01   1.14667977e-01  -1.88192204e-01  -5.96460088e-01
   -2.48520567e-01   4.41502818e-02   5.65770033e-01   1.58455689e-01
   -1.26863708e+00   2.35846107e-01  -1.22149853e+00  -2.39693325e-02
    2.87912646e-01  -2.26796234e-02   3.20781526e-01  -1.06504047e+00
   -1.25204700e-01  -1.51641400e-01  -3.03477183e-01  -3.70214753e-01
    5.21048874e-01  -2.29292682e-01  -1.22252337e-01  -7.14318144e-01
    8.38244735e-02  -6.30575154e-01   2.71247516e-01  -6.14621777e-02
   -6.49529181e-03   1.29764922e+00   2.54542197e-01  -5.31523060e-01
   -2.75501544e-01   3.31185143e-02  -5.31277425e-01  -9.38707137e-02]
 [ -2.83507813e-01  -5.69624148e-04   2.71762268e-01   7.04994230e-01
   -2.78312324e-02   1.95545947e-01   4.45767281e-02  -1.49439424e-01
   -2.26097707e-01  -2.09308277e-01  -2.21748531e-04   9.64170508e-02
   -5.13647080e-01   1.79156632e-01   8.05149769e-02   3.39005032e-01
   -7.78429966e-02   1.61148640e-01   1.74283245e-01   9.70233805e-02
   -1.83318462e-01   2.48638091e-01  -5.34254712e-01  -2.55837127e-01
   -1.48809215e-01   1.52726748e+00   1.78195632e-01   7.19190307e-02
   -5.68789465e-02  -2.62184228e-02  -8.21533685e-02   1.63080180e-01
   -9.31010556e-02  -2.93368778e-02   9.60087972e-02  -1.02224107e-01
   -1.38643597e-01   4.40037279e-01   2.67855774e-01   9.87861753e-02
   -1.22626757e-01   1.04158196e-03   9.64775096e-03   1.73928239e-01
   -1.56791697e-01  -8.90957136e-02   2.86655971e-01   1.15335204e-01
    1.32068162e-01  -1.20514827e-01   3.90420954e-01   5.49096441e-02
   -3.97815449e-01  -3.46984220e-01  -2.86965269e-01   1.04975949e-01
    9.45740446e-02   8.32141912e-02   7.63047045e-02   1.03425650e-01
    6.08261880e-02   5.68863867e-01  -1.04945375e-02   2.82323660e-01
    1.32797176e-01  -1.53262165e-01  -3.86043481e-01   3.88213214e-01
   -4.56013886e-01   1.13777963e-01  -2.40241198e-02   2.51487304e-01
    9.67862678e-01  -3.50531311e-01  -9.13014582e-01   2.57515792e-01
   -3.50849949e-01  -3.79975702e-01  -1.86287757e-01  -1.74752817e-01
   -5.52325660e-02   4.46930877e-02   2.17514333e-01   6.67221472e-02
    2.84090020e-01  -7.71768661e-02   1.14109350e-01  -2.93231490e-03
   -8.69126505e-02   4.72970662e-01  -2.40609823e-01   2.97487129e-01
    2.57003012e-02   7.82664163e-01   1.57395243e-01   2.80689746e-01
    2.16050284e-01   6.02023157e-01  -1.04978050e-01  -2.29625563e-01]
 [  1.90799440e-01   6.27504279e-02   1.77596845e-01   3.81021531e-01
    1.84191560e-01   5.93927505e-02   6.46268486e-02   2.41657926e-01
    2.46708760e-01  -1.01616041e-01  -2.26832211e-03   1.17497561e-01
   -1.72907449e-01  -9.63814107e-02   3.72702227e-01  -8.31860693e-02
    1.64975962e-01   2.71861776e-01  -3.46020122e-02  -6.49418593e-03
    2.63760700e-01  -8.29230322e-02   2.13811487e-01  -5.16711507e-02
   -5.95979784e-02  -4.06192315e-02  -1.22322689e+00  -1.84068368e-01
   -1.80529877e-01  -2.05400697e-01   6.31613656e-02  -2.06614334e-01
    4.36907743e-01  -7.64939894e-02  -1.08942468e-01   2.77152183e-01
   -2.32494375e-01  -4.27248588e-02  -1.65444230e-01  -3.60183791e-01
   -1.52044964e-01   8.65422709e-02   3.58842974e-02  -7.36550096e-02
    7.65485526e-02  -9.80980872e-02  -5.51026572e-02   1.02096430e-01
   -3.98556440e-01  -4.45399287e-01  -4.88051640e-01  -2.43571281e-02
    7.85754172e-03   7.18006034e-01  -1.52134781e-01   2.80028952e-01
   -2.33658015e-01  -4.90928207e-01  -2.35865000e-01   2.19167251e-01
    1.52535004e-02  -1.54831083e-01   7.43853151e-02  -2.00000731e-01
    6.21053334e-01   3.00106813e-01   8.38752707e-03   1.21898545e-01
    6.72401389e-02  -4.13796588e-02   3.15113169e-01  -5.50006898e-01
    2.10082435e-01  -3.01617293e-01  -1.28516510e-01   1.12863116e-01
   -1.21789293e+00  -1.59389570e-02   2.05903323e-01  -6.21845841e-01
   -2.49526628e-01   2.29811309e-01   2.22066084e-01  -1.67584096e-01
    2.97804328e-01  -8.45170452e-02  -4.15642179e-01  -2.54453728e-01
   -1.03831530e-01  -1.56795583e-01  -2.12400356e-01  -6.46039793e-01
   -1.60409175e-02   4.83239598e-01   1.67230785e-01   3.61984533e-01
    4.35479020e-01  -4.88043726e-01  -4.91909837e-01   2.62251614e-01]
 [ -4.69435581e-01   3.04698717e-02   7.85241705e-04  -1.80224684e-01
    2.62913293e-01   8.25191811e-02  -1.34466266e-01  -3.90646144e-01
    2.60635128e-01   1.88445716e-01   3.41661537e-02   1.62563926e-01
   -3.73061354e-02   2.42947546e-01   1.36314116e-01   3.10954873e-01
    1.00140134e-01   3.56144353e-01   2.64189996e-02   6.04431423e-02
   -3.71985087e-02  -1.19100385e-01   1.77982499e-01   8.27545726e-03
   -1.42560815e-01  -1.93007824e-01  -2.42694250e-01  -1.68669724e+00
   -1.00216262e-01  -1.47373602e-01   7.90213672e-02  -1.66316379e-02
    8.61645661e-02   3.18848834e-02   5.54949200e-02  -1.62260711e-01
   -8.62595650e-02  -6.60662860e-02   8.21967691e-02  -4.07717352e-01
   -3.45438444e-01   7.66525576e-02  -2.05698918e-02  -6.77445278e-01
   -1.79902199e-01  -1.21306521e-02   1.03080256e-01  -6.66238265e-02
    6.11514971e-02   1.49099571e-01   2.11051751e-03  -8.13779802e-02
   -1.55754449e-01   2.56760568e-01  -2.74628162e-01   2.98465262e-01
    3.51171748e-01  -2.53632340e-01  -1.35105931e-01  -1.76867612e-02
   -1.00892056e-01  -5.10507998e-02   2.77415967e-02   1.77112514e-01
   -5.46171851e-01  -3.46067173e-01  -2.15788436e-01  -8.09681908e-02
    5.74754055e-01   1.03578393e-01   1.61721179e-01  -3.90842902e-01
   -1.69908632e-01   6.20081236e-02  -1.10781471e-01  -3.94666761e-02
   -1.05457035e-01  -3.94070173e-01   3.39169241e-01  -6.06336246e-01
   -3.67089064e-01  -1.59075689e-01  -2.17552083e-01   1.33945875e-01
    1.58370961e-02   1.37184989e-01   1.90476417e-01   1.62324919e-01
    2.87455324e-01  -1.30309433e-01  -2.96308081e-01  -6.10363293e-01
   -1.33139845e-01   1.76375780e-01  -5.15507773e-02  -1.08644748e-02
    4.17005371e-01  -6.62170598e-01  -1.27685335e-01   1.10606580e-02]
 [ -3.72397308e-01   8.74520089e-02   8.58571983e-02   5.36355000e-01
    3.12555159e-01  -2.41690927e-01  -1.47267677e-01  -1.78104238e-01
    4.33947515e-01   1.91833710e-01   7.94630832e-02   4.88302173e-01
   -8.81439223e-02   7.09239407e-02   5.54627360e-02   2.50289254e-01
   -6.01415433e-02   8.77356597e-02  -9.03068805e-02   1.14601731e-01
   -1.95902692e-01   1.64611986e-01   1.96737459e-01   1.16213716e-01
    3.81141709e-02   4.89730771e-01  -2.54085979e-01  -1.71959101e-01
   -1.61712836e+00  -2.35560251e-01  -1.45463187e-01  -1.92895699e-01
    1.65585284e-01   6.73531070e-02  -9.96442319e-02   3.43009442e-02
    1.52264447e-01   1.13394925e-01   2.48549434e-01  -3.77015087e-01
   -1.28261809e-01  -2.77060258e-01   1.98995419e-03   1.00135027e-01
    1.54159520e-01  -2.08065145e-01  -4.28621365e-02   1.55470455e-01
    1.90656476e-01   1.35655144e-01  -4.71972606e-01   8.80209076e-02
   -1.10196697e-01  -4.53484774e-01  -2.90076143e-01  -2.07187010e-02
   -3.94854761e-01  -2.22031824e-01  -2.91001969e-01  -2.80142874e-01
    2.80334526e-02  -4.99082210e-02  -2.26387892e-01  -1.46905132e-01
   -8.35168132e-01  -1.51730910e-01  -5.18355113e-01  -4.00533311e-01
   -6.13644786e-01  -3.08144589e-01  -3.24564563e-01  -8.41091426e-01
   -4.96559213e-01   1.50477590e-01   5.91193720e-01  -2.43609909e-01
   -8.57242692e-02  -6.85682456e-03   2.96560421e-01  -4.25182763e-01
   -6.78703840e-01  -2.83304058e-01  -1.22401542e-01  -8.12540189e-01
    3.48752828e-01  -6.57626659e-01  -2.96405754e-01  -6.04819235e-02
    1.81256402e-01  -4.04472026e-01  -7.36076632e-01   1.18644763e-01
    2.97663075e-02  -8.86582241e-01  -2.29508296e-01  -3.58007180e-01
   -9.31829358e-02  -4.81554556e-01  -2.64363255e-01   2.36141826e-02]
 [  4.25168642e-02  -6.09495257e-03  -1.81083987e-02   1.04805342e-02
   -9.43078579e-02   5.99440568e-01   2.59337670e-02  -3.50519379e-01
    1.03487082e-01   1.43655112e-01  -2.30212430e-02   2.48146946e-01
    2.40058304e-01   6.03105168e-01   1.10263860e-01   3.74178726e-02
   -8.24930221e-02  -2.57133463e-01  -1.78320928e-02   3.28785080e-02
   -6.58130386e-02  -1.56097220e-01  -1.21951040e-01   5.95576630e-03
   -2.39211102e-01   4.48184290e-02   1.47849226e-02  -3.48558441e-02
   -1.82628124e-01   6.19656308e-01  -2.22429031e-01  -5.88128583e-02
    1.60188074e-01  -1.58927734e-01   1.53901589e-02  -5.85192974e-02
   -2.08872880e-01  -1.22211102e-01  -5.40334273e-02  -1.79062446e-01
