*****  Wemb 
 [[  0.00000000e+00  -1.14576470e+00  -1.46479533e+00  -3.93571386e-01
   -1.67385568e+00   0.00000000e+00  -3.06255775e+00   0.00000000e+00
   -7.53249923e-01   0.00000000e+00  -1.22955750e+00  -4.90242348e-01
   -2.26204932e+00  -8.75319010e-02  -5.67467207e-01   0.00000000e+00
   -1.00853319e+00   0.00000000e+00  -1.48170264e-01  -3.94494031e-01
   -2.78893062e-01   0.00000000e+00   0.00000000e+00   0.00000000e+00
    0.00000000e+00  -8.08267628e-01  -2.01302855e+00   0.00000000e+00
   -1.52321193e+00   0.00000000e+00  -8.32446687e-01  -3.06310552e-01
   -2.45461251e+00  -2.48811865e-01   0.00000000e+00  -2.79032774e-01
   -2.25286237e+00  -2.67177551e+00  -2.93146997e+00  -4.00000000e+00
   -1.87858125e+00  -3.17952619e+00  -5.49432874e-01  -1.93899186e+00
    0.00000000e+00  -8.99830961e-02   0.00000000e+00  -2.66651543e+00
   -1.07050836e+00  -1.80760645e+00]
 [ -8.98472704e-01  -6.47396117e+00   6.35094192e-01  -1.93225630e+00
   -2.98021027e+00   8.43456070e-02   3.53513025e-01  -2.42532003e+00
   -4.11629470e+00  -3.82247115e-01   3.17210584e+00   1.18168047e+00
    6.00362775e+00  -1.05747673e+00  -1.78053180e+00   4.13325913e-01
   -8.63422563e-01   1.38025028e+00   7.81144372e-01   7.49511762e-03
   -2.47622484e+00  -1.10651216e+00  -2.80763456e+00  -1.84086440e+00
   -1.60539378e+00  -9.26058509e-01   3.01471752e+00  -4.04496440e+00
   -1.20624203e-01  -9.18378783e-01   2.32407201e+00   3.38305949e-01
   -1.59863813e-01  -1.80391030e+00  -1.74260910e+00  -3.75639549e-01
    9.86147997e-01   2.15270535e+00   2.33599354e+00   4.34419182e-01
    3.82858693e+00  -1.89706975e+01   4.75033120e+00  -1.05248858e+00
    1.10756576e+00  -1.50459793e+00  -2.24071797e+00  -7.13430387e-01
   -1.16761579e-01  -4.57653261e-01]
 [ -9.60301177e-01   3.73956513e+00   7.61664623e-01  -1.79026825e+00
   -3.55512582e+00  -5.37780270e-01  -1.56633409e+00  -1.09236150e+00
    1.64173305e+00   5.89851311e+00   3.16393972e+00   1.47519556e+00
   -1.22341725e+01  -9.21217138e-01  -1.77153730e+00   4.37643802e-01
   -1.83070287e+00   1.45103314e+00   7.89337136e-01   3.69956374e-01
   -2.51717146e+00  -1.12029988e+00  -1.91119885e+00   4.32165840e-01
   -1.53918111e+00  -4.11770670e-01   3.11861369e+00  -3.54724995e+00
   -1.79079628e-01  -2.79280254e+00   1.17394046e+01  -9.95020401e-01
   -3.64473412e-01  -1.64631401e+00   5.00423632e-01   3.76089573e-01
    3.29458407e-01   1.70586769e+00   2.41882881e+00   4.94087387e-01
    3.89219451e+00  -6.05585471e+00   4.86576479e+00  -1.47782365e+00
    1.16542418e+00  -9.97193764e-01  -1.99323643e+00  -9.35267606e-01
   -3.55607111e-01  -1.13557689e+00]
 [  6.25860947e-01  -1.26831784e+01   6.04872337e-01  -4.81735090e-01
   -3.64545406e+00   2.45035070e-01  -1.52804557e+00   9.04490852e-01
    1.68667788e+00   1.04576632e+01   3.55125594e+00   2.02493727e+00
   -1.15900473e+01  -1.07682131e+00  -2.01368780e+00  -2.16906451e-01
   -3.23083414e-01   1.45581732e+00   9.20803894e-01   2.57069994e-01
   -2.69064370e+00  -6.45800177e-01   2.59555161e+00  -4.18266280e+00
   -1.49332106e+00  -5.94550304e-01   2.89065942e+00  -4.30866488e+00
   -1.65076821e-01  -1.53405081e+00   1.06518040e+01   7.98503955e-01
   -3.91273083e-01  -1.35444553e+00  -1.89153433e+00  -5.37788262e-01
    5.03135528e+00   1.76708841e+00   2.56548361e+00   4.35818169e-01
    3.71620608e+00   2.91292348e+00   4.72644532e+00  -3.71938153e-01
    9.89607106e-01  -6.55043802e+00   3.58228787e+00  -8.72830257e-01
   -7.49698370e-01  -1.29650232e-01]
 [  1.58968020e+00  -2.22998478e+00   5.72943359e-01  -9.46745298e-01
   -4.56070769e+00  -1.23706260e+01  -1.53445026e+00  -2.56608292e+00
    9.03422409e-01   1.24140092e+01   3.13619111e+00   1.72482435e+00
   -1.27193640e+01  -9.59545562e-01  -2.28679087e+00   7.74679700e-01
   -3.62766633e-01   1.42100880e+00   9.77082337e-01   1.75381065e-01
   -2.10151915e+00   1.24488851e-01  -1.37383724e+00  -2.70221625e+00
   -1.70510552e+00  -7.53057322e-01   2.95396939e+00  -4.50082441e+00
    1.20964981e+01  -1.24596893e+00   4.35201818e+00   3.01725794e+00
   -1.84536088e-01  -1.79117576e+00  -1.64203092e+00  -7.21851767e-01
   -2.23993638e+00  -1.66888051e+01   2.30597955e+00   4.69107627e-02
    3.94094613e+00   3.40763701e+00   4.89188495e+00  -1.47996336e+00
    8.51844663e-01  -1.07453723e+01   3.76647323e+00  -5.43714490e-01
    1.28713861e+00   2.92206093e+00]
 [ -8.59624157e-01  -4.42418017e+00   3.37857613e-01  -1.69701428e+00
    1.25274887e+01   6.32111922e-01  -1.64332572e+00  -1.15107529e+00
    2.40458662e-01  -1.35526398e+00   3.04538334e+00   2.06250583e+00
   -9.23351032e+00  -8.19389589e-01   1.89841698e-01   9.01267024e-01
   -1.66213289e+00  -9.41736166e+00   3.76864356e-01   3.07287318e-01
   -2.53730468e+00  -3.14797339e-01  -2.18567156e+00  -2.38982293e+00
   -1.00329965e+00  -9.49821009e-01   2.84861884e+00  -4.00663918e+00
    1.01738585e+01  -1.81484266e+00   3.11430140e+00  -1.78757844e+00
    6.72198286e-01  -1.91132496e+00  -1.96727459e+00   8.88592789e-01
    4.29147621e+00   9.33735679e+00   2.28382560e+00   4.47015637e-01
    3.95686858e+00   3.62171892e+00   4.55878071e+00  -1.58957656e+00
    1.09945728e+00  -5.41105895e-01   2.03846461e-01  -1.06187825e+00
   -1.49833941e+00   2.86559290e-01]
 [ -1.01672045e+00  -2.37256076e+00   1.39236917e+00   6.21988185e+00
    5.81253899e+00   3.79667151e-01  -1.57700070e+00  -3.91960781e+00
    1.34775919e+00  -1.06424032e+01   2.84758617e+00   1.88292836e+00
   -1.14816241e+01  -1.00191989e+00   6.69164483e+00  -7.48550128e-01
   -2.95644093e+00   1.26694072e-01   8.64914954e-01   3.03352382e-02
   -2.28235582e+00  -6.90904905e-01  -7.32977956e-01  -2.58332117e-01
   -1.85980575e+00  -1.93748988e-01   2.19024722e+00  -3.90765405e+00
    7.11686227e+00  -2.25910284e+00   3.09919994e+00  -1.89039017e+00
   -4.25458061e-01  -1.73764189e+00  -1.88761029e+00   3.91011741e+00
    3.21797452e+00   1.66830718e+00   2.34073881e+00   5.98958173e-01
   -1.29018297e+00   2.03680842e+00   4.70928917e+00  -1.28484575e+00
    9.99775025e-01  -7.90460551e-02   2.16337413e+00  -8.77819580e-01
   -1.93238150e-02  -9.47737102e-01]
 [ -8.76916021e-01  -2.17571578e+00   2.37564391e-01   6.83512481e+00
    3.96804321e+00  -1.95621517e-01  -1.69639017e+00  -2.32558104e+00
    2.57303691e+00  -1.35860031e+00   3.43330910e+00   1.48202784e+00
   -3.05936253e+00  -1.24451954e+00   7.81781616e-01   1.02757617e+00
   -1.97043098e+00   1.75915153e+00  -1.10763816e+01   1.32869571e-01
   -1.92316687e+00  -2.76484217e+00  -1.86054548e+00  -1.33743505e+00
   -1.96183038e+00  -5.18811954e-01   2.92747305e+00  -3.19552041e+00
    7.00060459e-01  -1.66814480e+00   4.19404631e+00   2.50100766e+00
   -9.74046632e-01   1.05237725e+01  -2.11880643e+00  -8.01187679e-02
    3.20560855e+00   1.79844275e+00   1.77749783e+00   5.47470794e+00
    3.92400524e+00   2.02089185e+00   4.56744967e+00  -9.52028724e-01
    8.20971331e-01  -9.11458759e-01   4.55794133e+00   1.58432103e+00
   -3.80555110e-01   2.57135663e+00]
 [  6.68331252e-02  -1.86517505e-01   3.80792987e-01   5.23120799e+00
    1.28042172e+01   9.26914247e-01  -1.81707182e+00  -1.52164023e+00
    5.85551127e+00  -1.10841067e+00   3.06182967e+00   2.23596970e+00
    3.71204777e-01   4.91565581e-01   7.12333375e-01   1.03968035e-01
   -5.35514553e-01   5.05472737e-01  -7.77457121e+00   3.22995763e+00
   -2.50124217e+00  -1.57861284e+00  -1.04779015e+00  -1.05997190e+00
   -1.26612218e+00   4.75547716e+00   3.28397876e+00  -5.33690849e+00
   -2.94780611e-01  -1.86326065e+00   1.75384836e+00   1.41694521e+00
   -4.57763101e-01  -5.57208818e-02  -2.16747320e+00  -5.45761085e-01
    3.09208561e+00   3.98438406e-01   2.43406198e+00  -1.46092080e+00
   -9.20376936e+00   2.44150154e+00   5.04156509e+00  -1.93561908e+00
    5.09837971e+00   5.75123059e-01  -8.05202542e-01  -1.13426936e+00
   -9.00151661e-01   1.59590241e+00]
 [ -1.53685207e+00   2.65910147e-01  -6.61680079e-01   6.55717251e-01
    9.16034308e+00   9.71618272e-01  -1.51869282e+00  -2.07953124e+00
   -3.58022648e+00   3.36715499e+00   3.32281311e+00   1.72860450e+00
   -3.17418641e-01  -6.36535331e-01  -1.86066884e+00  -9.60917840e-03
    4.89257724e-01   8.59697752e-01  -2.51017396e+00   6.98202476e-01
   -2.89521338e+00  -1.06257742e+00  -5.03679157e+00   6.30684519e-02
   -1.45325634e+00  -1.22390369e+00  -2.67755130e+00   6.27666918e+00
    3.93346745e-01  -1.85797566e+00   4.75129284e+00   1.82762121e+00
   -1.11268472e+00  -7.50422884e-01  -2.26447332e+00  -5.00425051e+00
    1.63153626e+00   3.03325811e+00   2.26157497e+00  -9.84794909e-02
   -3.34872585e+00   3.25037934e+00   4.73942161e+00  -1.54810110e+00
    2.77715603e+00   3.55487723e+00  -2.16646408e+00  -1.04896479e+00
   -1.35587327e-01   1.44456268e+00]
 [ -7.17190325e-01  -4.39027364e-01   1.41917245e-02  -2.13897679e+00
    1.00318790e+01   3.65413209e-01  -1.47160713e+00  -2.11652535e+00
   -8.80182527e-02  -2.47951844e+00   3.33071558e+00   1.91924619e+00
   -1.01976064e+00  -1.13659974e+00   3.12931953e+00  -1.14733785e+00
   -1.75976211e+00   1.14861270e+00   1.07998947e+00   1.20379089e+00
   -2.58420828e+00   6.73510997e-01  -1.38797957e+00  -4.15932126e+00
   -1.87933215e+00  -1.01938418e-01   1.36498833e+00   5.74893058e+00
    4.31109675e-01  -2.37914242e+00   1.83055792e+00   1.65224456e+00
    5.05984295e-01  -1.28576857e+00  -1.08433992e+00  -8.03239083e+00
    1.94675051e+00   4.44242118e+00   2.70388382e+00   4.71099298e-01
    4.14121435e+00   2.63592404e+00  -9.49962617e+00  -1.68426659e+00
    2.94833608e+00  -2.31740343e-01  -1.18582518e-01   8.50116772e-01
   -3.22134819e-01   2.51129862e+00]
 [ -1.72040868e+00   1.05954881e+00  -7.76606636e-02  -2.53799935e+00
    7.34642326e+00   8.83452121e-01  -1.99706488e+00  -1.01575415e+01
    5.88611759e-01  -3.47630925e+00   2.27936488e+00   2.22329333e+00
   -3.01997507e+00  -1.06093147e+00   1.65894621e+00   5.40663763e-01
    3.25530422e+00   8.15409630e-01   7.64254646e-01   6.50227443e-01
   -2.69409037e+00   3.51129552e-02  -6.47282848e+00  -4.38800686e+00
   -1.96061890e+00   1.14453876e-01  -2.34172959e-01   9.71283066e+00
   -7.68872379e-01  -1.33178407e+00   2.90856531e+00   2.83915487e+00
    1.68455703e-01  -9.65763824e-01  -2.33019307e+00   1.65580376e-01
    2.32103773e+00  -4.39315007e+00   2.74740919e+00  -2.28827131e+00
    4.73412580e+00   1.38268613e+00   2.98440377e+00  -1.43551275e-01
   -1.26204614e+01  -5.11461344e-01   7.92456220e-01  -1.00148381e+00
    1.43889696e-02   2.23100267e+00]
 [ -4.04550974e-01  -1.66896475e+00   5.34385350e-01   4.23748824e+00
    8.00021220e+00   9.23056001e-01  -1.56293769e+00  -3.51647802e-01
    1.06616585e-03  -1.60410990e+00   2.83703233e+00   2.10588724e+00
   -5.32970414e+00  -8.98937060e-01   3.09832303e+00   4.49476933e-01
    6.36744335e+00   1.75221711e+00  -2.98077380e-01   5.68745828e-01
    1.14026977e+01  -1.18385764e-01  -2.03958010e+00  -3.20630569e+00
    5.32021301e-01  -8.66214164e-03  -5.61215391e+00   6.98242208e+00
    7.49784251e-01  -1.94162447e+00   2.35019038e+00  -2.79522384e+00
   -6.17800467e-01  -3.99705447e-01  -1.82003328e+00  -1.14592348e+00
   -6.01178739e+00  -6.83715012e+00   2.46496215e+00  -8.60342022e+00
    4.33436942e+00  -1.45500558e+00   4.38502898e+00  -1.22025606e+00
   -5.38999216e+00  -1.11564291e+01  -8.21216812e-01  -6.95562842e-01
    2.42591981e-02   2.32512719e+00]
 [ -1.25473966e+00   2.09052122e+00   6.34287743e-01   7.76738850e+00
    7.48668699e+00  -3.29790229e-01  -1.95852048e+00   1.01981305e+01
    1.41936491e+00  -7.60066772e+00  -2.34614575e+00   2.79040411e+00
    1.81262499e+00  -1.28691866e+00   3.07675640e+00   3.02006619e-01
   -2.81660972e+00   9.44893611e-01   7.75348875e-01   5.48980416e-01
    7.24370435e+00  -1.71223711e-01   1.16126950e+00  -2.31826780e+00
   -1.76518155e+00  -5.95650464e-02   1.01439928e+00   6.88900748e+00
   -1.31696908e+00  -2.07397878e+00   3.64447282e+00  -1.68679308e+00
    5.15588606e-01  -1.94068751e+00  -2.52716213e+00  -2.53389081e-01
   -7.31329875e-01  -2.87295319e+00   2.97737777e+00  -4.35106763e+00
   -5.46685833e+00   3.65873268e+00   4.60842897e+00  -2.31235009e+00
    4.38122831e+00  -9.57032992e+00  -5.56577903e+00  -4.58454016e-01
   -1.00862713e+00   2.59152997e+00]
 [ -1.61009084e+00  -6.36961416e+00  -8.78707164e-02   4.30334660e+00
   -4.39744508e+00   3.41389825e-01  -1.69741764e+00   3.75351081e+00
   -1.15793395e+00  -8.86687432e+00  -5.81196882e+00   1.86891501e+00
   -9.37995067e+00  -9.82991044e-01   1.19830093e+00  -3.48890771e-01
   -8.19581434e+00   2.18057687e+00   1.05967964e+00  -4.40758297e+00
    4.39847417e+00  -1.05890502e+00  -2.02310074e+00   8.35639843e-02
   -1.62687272e+00  -6.61573156e-01  -4.32678527e+00   5.44952167e+00
    2.64104144e-01  -1.86155323e+00   2.71856410e+00  -2.74068967e+00
   -1.26928986e-01  -2.56415304e+00  -1.18648849e+00  -3.26330310e-01
   -5.03135911e+00  -1.32105323e-01   2.57114026e+00   6.63702418e+00
   -5.26638059e+00   1.14485365e+00   3.78290284e+00  -1.00036220e+00
   -7.87114607e+00   1.69281021e-01  -1.44111849e+00  -7.00557056e-01
    4.37411560e-01  -2.90910054e+00]
 [ -1.37331344e+00  -2.89234603e-01  -8.30759102e-02  -3.58636628e+00
    5.56635815e+00   2.48129398e+00  -1.85262641e+00   3.84893155e+00
    2.73684129e-01   6.28580321e+00  -4.17040946e+00  -3.22883335e+00
   -3.47273331e+00  -8.16373972e-01   3.02704053e+00  -2.11298438e-01
   -4.76444303e+00   1.23318089e+00  -8.15354695e+00  -1.33024619e+00
    1.58980179e+00  -6.44542894e-01  -7.70836130e+00  -2.53604506e-01
   -9.66552149e-01  -1.51217455e+00   4.11569870e+00   9.62524195e+00
    1.60671253e-01  -1.26692522e+00   1.49291733e+00   1.31722923e+00
    1.75550065e-01  -9.54576272e-01  -1.92295140e+00   4.58309339e-01
    2.12704917e+00  -5.20161020e+00   1.54937915e+00  -2.12534639e+00
    4.06850965e+00   1.69953588e+00   2.91769985e+00  -1.00366048e+00
   -2.69738863e+00  -9.90381623e+00  -3.52295801e-01  -5.08706602e-02
   -3.61804863e-03   5.09898661e+00]
 [ -1.69965418e-01  -6.74809623e-01   7.14623572e-01  -2.68696263e+00
    5.90626080e+00   1.43245033e+00  -2.20538955e+00   9.67112300e+00
   -5.05289543e+00  -2.03249500e+00  -3.65769507e+00  -1.97886271e+00
   -1.74803331e+00  -1.03931536e+00  -3.37963518e-01   8.61326636e-01
    7.10361606e+00   1.37357571e+00  -6.17749252e+00   3.69136709e+00
    4.95085416e+00  -2.42634643e-02  -8.07665557e+00   4.90150764e+00
   -1.69238871e+00  -6.81539331e-01   1.60900992e+00   7.89190697e+00
   -2.36175853e-01  -2.00972441e+00   1.41186521e+00  -6.23773505e-01
   -1.31265982e+00  -2.20508984e+00  -2.54658642e+00   1.17611427e+00
   -1.27662327e+00  -6.51428606e+00  -1.18193121e+01   6.65944612e+00
    3.55126483e+00   8.94834397e-01   4.50192846e+00  -1.03265293e+00
    3.67622061e+00   1.25573514e+00   4.24755817e+00  -7.61148792e-01
   -8.29860164e-01   2.23792636e+00]
 [ -8.50425970e-01  -7.18333465e+00   5.33563945e-01  -2.88188708e+00
    8.51733572e+00   1.77029411e+00  -1.87940861e+00  -2.64599036e+00
   -7.33558868e+00   5.92705915e-01  -4.37881304e+00  -6.60381182e+00
   -7.05879381e+00  -1.49346930e+00   2.58730701e+00  -2.96712477e-02
    4.65640942e+00   1.65083486e+00  -4.55546816e+00   2.92065618e+00
    3.29448974e+00  -1.00294281e+00  -1.21506787e+00  -2.76191838e+00
   -1.50229015e+00   6.12504728e-01   3.46962052e+00   1.02477746e+01
   -4.32151409e-01   1.31517932e+01   2.22335815e+00   2.55385130e+00
    4.13253159e-01  -1.39327037e+00  -1.94454022e+00   7.44392397e-01
   -5.40187861e-01  -5.69056171e+00   8.72949300e-01   5.59669279e+00
    5.43127417e+00   1.62719952e+00  -2.68944524e+00  -1.72918138e+00
    4.39881983e+00   5.03877640e-01   1.71342403e+00  -2.30963635e-01
   -7.07878479e-01   4.10879979e+00]
 [ -5.46394794e-01  -1.60901662e+00  -2.38459055e-01  -8.58024771e-01
   -5.88783472e+00   2.92181097e+00  -1.53153668e+00  -1.29832400e+00
   -6.99611587e+00  -5.31734381e+00  -4.74412285e+00  -3.79498222e+00
   -5.63709469e+00   8.92202065e+00  -8.85763362e-01  -1.27249690e-01
    9.57382792e-01   3.76165229e-01  -3.93573253e+00   3.31516872e+00
   -2.59027568e+00  -4.17849485e-01  -8.76262765e+00   2.52804681e+00
   -1.84999890e+00   6.55405717e-01   3.28842102e+00   8.91773723e+00
    8.25570342e-01   1.55652306e+01   2.97009654e+00  -3.89958192e+00
    3.74305940e-01  -2.30286241e+00  -2.01725722e+00   2.95097368e-01
   -4.19526747e+00  -7.63362813e+00   2.07875178e+00  -3.26330285e+00
   -3.60213736e+00   1.61179209e+00  -2.99286941e+00  -1.15659357e+00
   -4.77575612e+00  -1.70216137e+00   2.70002972e+00  -7.59499326e-01
   -1.07295324e+00  -2.35544769e-01]
 [ -1.73938921e+00  -2.65230174e+00  -5.97622309e-01  -1.16567898e+00
    1.27054792e+00   2.99480590e+00  -1.63104290e+00  -1.74468935e+00
   -7.45694577e+00   6.65576354e-01  -5.50879439e+00  -1.29502471e+00
   -6.97103324e+00   6.50067497e+00   6.85986014e-01  -1.09184111e-01
    4.94268928e+00   1.32666563e+00   1.02004534e+00  -1.21991520e+01
   -3.13969460e+00  -1.38721377e+00  -5.28426897e+00  -1.40737209e+00
   -1.87241807e+00  -1.96887272e+00  -3.02320940e+00   8.19490371e+00
   -5.25686625e-01   1.08952533e+01   3.20648942e+00  -3.17229154e+00
    2.25533914e-01  -1.73217017e+00  -2.00503607e+00   9.72581993e-01
   -3.02934957e+00  -5.17608353e+00   2.06532474e+00   1.13097693e-01
    5.60560351e+00   8.26899107e-02   3.93114114e+00  -1.60281833e+00
   -5.62493641e+00  -6.28723934e-01   1.95664766e+00  -1.77467301e-01
    2.53663350e-01   6.99381110e+00]
 [ -1.03887543e+00  -1.68859923e+00   5.91154755e-01  -1.06287981e+00
   -1.51925921e+00  -3.40387830e+00  -1.97813201e+00  -1.09454990e+00
   -8.26639727e+00   7.25733293e-01  -4.78863529e+00  -4.12404651e+00
   -7.00893209e+00   6.66482308e+00   2.53244022e+00  -2.98009989e-01
    1.76430090e+00   1.69407141e+00  -7.52942740e-01  -8.35739088e+00
   -2.59231791e+00  -2.04182030e+00   9.67356091e+00  -2.32788508e+00
   -1.66343941e+00  -1.93607888e-01   4.18337517e+00   7.58423404e+00
   -8.58087414e-01   1.46196502e+01   3.20641828e+00  -1.39203198e-01
    5.91209264e-01  -1.70743326e+00  -2.40676066e+00  -8.64705472e-01
   -2.53031779e+00   2.10147235e+00   5.02912008e+00  -1.55797451e+00
    3.62024807e+00   2.99187348e+00  -2.33972171e+00  -1.90319764e+00
   -4.17924029e+00   7.32525386e-01   2.14102364e+00  -3.31486141e-01
   -5.77507676e-01   3.54932175e+00]
 [ -8.00706580e-01  -6.09896617e+00  -6.96774328e-01  -1.76451721e+00
   -2.56824430e+00   3.16462976e+00  -2.19360763e+00  -6.48728877e+00
   -6.75363133e+00  -5.55269700e+00  -3.85312565e+00  -3.45145011e+00
   -6.25223524e+00   1.73676151e+00   1.19081671e+00   4.08212247e-01
    5.42247631e+00   1.32451612e+00   1.17231562e+00  -6.86432346e+00
   -3.23909040e+00   8.27970200e-01   8.71064322e+00  -2.12052021e+00
   -1.98040887e+00   8.29090934e-02   2.89750360e+00  -6.00847960e+00
    4.84548654e-01   7.81478087e+00   1.12927001e+00  -2.58833035e+00
   -7.40915532e-01  -3.08492827e+00  -2.14890957e+00  -5.58123985e-01
   -7.47386004e-01  -4.39308848e+00  -9.32042998e+00   6.80960227e+00
   -2.49067289e+00   3.96454554e+00  -2.94903002e+00  -8.97513313e-01
    3.99564671e+00   7.37242392e+00   3.73213812e+00  -9.33868352e-01
   -9.56601928e-01   4.62523809e+00]
 [ -6.24592291e-01  -7.71858622e+00  -1.37970175e-01  -2.32750162e+00
    4.81731067e+00   1.46191847e+00  -1.86700444e+00  -3.54787681e+00
    3.83198961e+00  -5.01461949e+00   4.70140337e+00  -5.03730509e+00
   -1.16440479e+00   3.84201049e+00   1.16264436e+00  -1.18837273e-01
    4.47963365e+00   5.40780160e-01   1.75284677e+00  -6.66652776e+00
    1.21776395e+00  -2.97665911e+00   6.94946284e+00  -7.47001535e-01
   -1.83756278e+00   1.91478229e+00   3.71973263e+00  -5.88157969e+00
   -1.44585010e-01   8.10264164e+00   1.89517431e+00  -1.92888624e-01
    4.72351610e-01  -2.52924370e+00  -1.79287382e+00  -1.40287658e+00
   -1.67828856e-01  -6.80597383e+00  -5.05421527e+00  -3.09788013e+00
   -3.97358412e+00  -3.07679244e+00  -3.37438518e+00  -1.34843337e+00
   -3.71331910e+00   5.13822555e+00   1.71839611e+01  -1.43166539e+00
   -9.55391481e-01   6.54591085e+00]
 [ -1.00893800e+00  -6.61273953e+00  -9.58259702e-01   1.09041832e+00
    5.63263039e+00   4.52834006e+00  -2.00783877e+00   5.39344918e+00
    1.61123669e+00  -2.87528396e+00  -3.56589065e+00   3.12602942e+00
   -6.08516209e+00   6.19683589e+00  -1.90034371e-01  -5.57945044e-02
    3.29151600e+00   2.46111949e-01  -4.20612377e+00  -5.73613190e+00
   -2.06180603e+00  -6.44812164e+00   6.11767726e+00  -1.54540506e+00
   -1.90782501e+00   5.04661576e+00  -2.03744660e+00  -1.88456567e-01
    1.39827379e-01   7.44999083e+00   2.16307122e+00  -6.19895144e-01
    3.90426438e-01  -2.47216048e+00  -2.56572424e+00  -6.82615107e+00
   -5.78493445e-01   1.96408723e+00  -3.77811091e+00  -3.58366214e+00
   -4.67504706e+00  -2.59747782e+00  -1.80843619e+00  -1.53166706e+00
    1.29512357e+00   4.24415224e-01   1.50527947e+01  -1.45996531e+00
   -6.68499987e-01  -5.60409745e+00]
 [ -1.85449028e+00   1.92277458e+00  -5.70442351e-01  -5.75129814e+00
    2.20598587e+00   5.09058813e+00  -1.62270176e+00   5.88864564e+00
   -5.63765029e+00  -1.19783238e+00  -2.82088821e+00   5.68493412e-01
   -2.29952549e+00   1.21869454e+00   5.52234813e-01  -5.89489287e-02
   -3.52440393e+00   1.51289015e-01  -5.35037517e-01  -5.26174085e+00
    5.69444530e-01   5.92190258e+00   1.38732792e+00  -1.25030025e+00
    9.46088530e+00   4.66731547e+00   3.51645224e-01   1.96702244e-02
    1.07139193e-01   9.49102606e+00   3.01198924e+00  -1.22953260e+00
    5.84640133e-01  -1.89061205e+00  -2.64915769e+00  -7.49514528e+00
   -2.62303663e+00   9.87920027e-02  -2.68821842e+00  -1.47540148e-01
    6.23697200e+00   1.45521336e+00   4.10940522e+00  -1.00784324e+00
   -1.69642047e+00  -5.64706318e+00   1.39601620e+01  -7.86694099e-01
   -2.87744586e-01  -4.82931984e+00]
 [ -2.23657395e+00   1.14963024e+00  -3.36080683e+00  -2.36991915e+00
   -5.36713827e+00  -5.65583113e+00  -2.14796919e+00  -1.62362117e+00
    1.90588226e+00  -2.46177647e+00  -4.00202477e+00  -4.29254277e+00
   -2.15099625e+00  -1.43824870e+00   9.32922299e-01  -4.07886106e-01
   -1.04932159e+00  -6.94016996e-01   5.40547017e-01  -2.82265331e+00
   -1.23753424e+00   2.84734074e+00  -7.52179204e-01  -2.42199306e+00
    2.34902244e-01  -7.96479271e-01  -3.17438870e+00   4.30856656e+00
   -4.63835167e-01   6.97737636e+00   3.25279310e+00   4.48177873e-01
   -8.11670232e+00  -1.58242144e+00  -2.13035931e+00  -6.04516375e+00
    1.29575156e+00  -5.15616352e+00  -3.16226703e+00   4.82565638e+00
    4.91312482e+00   4.98390232e+00  -4.35061297e+00  -5.21234056e-01
   -1.95778570e+00  -5.19998269e+00   1.30471461e+01  -1.19659080e+00
   -6.39381480e-01  -4.34822833e+00]
 [ -1.41982646e+00   1.43861098e+00   7.01582757e-01  -5.75062691e+00
   -2.42006640e+00  -5.45541971e+00  -1.69186960e+00  -1.79422878e+00
   -1.92214701e+00  -1.76656382e-01  -2.74727575e+00  -3.25472015e+00
    4.70702003e+00  -1.17824576e+00   5.53162448e-01  -3.79910301e-01
    2.67758029e+00   2.00151969e+00  -4.06418169e+00  -4.63736654e+00
   -2.79110647e+00   1.42017218e+00   6.99998822e+00   4.64942539e+00
    6.94675759e+00  -1.49294278e+00   3.10960209e+00   1.93658324e-01
   -6.37044293e-01   7.17145024e+00   3.05345083e+00   2.07711896e+00
   -5.15011110e+00  -8.76175019e-01  -2.62859877e+00   1.23686677e+00
   -6.14932948e-01  -4.79007559e+00   2.70506738e+00  -5.98043449e-01
    3.84347730e-01   7.94649914e+00  -2.94913100e+00  -9.96094170e+00
    4.76865333e+00  -6.86730022e+00   8.98937682e+00  -1.12239022e+00
   -1.28727085e+00  -7.64751680e+00]
 [ -8.80193683e-01  -2.91174575e+00  -3.35201429e+00  -6.70751273e+00
   -3.02529762e+00   1.91909019e+00  -6.70918175e-01  -3.86217507e+00
   -3.49338912e+00  -2.46654082e+00  -3.14128562e+00  -4.90471952e+00
    9.94314791e-01  -1.45774882e+00   7.95869384e-02  -9.66427609e-01
    2.07330696e-01   1.98049252e+00  -3.68250219e+00   1.63368226e+00
   -1.91181512e+00   4.79039394e-01   7.80190319e+00   3.03687727e+00
    6.19512587e+00  -1.45091093e+00  -1.87576014e+00   3.21960547e+00
   -1.17381203e-01   9.82953830e+00   2.23488327e+00   8.79540098e-01
   -1.16482652e+00  -1.07777204e+00  -2.00324047e+00  -8.94110134e-01
    6.16175091e-01  -5.33400914e+00   4.17112437e+00  -2.28687583e+00
    6.01021542e+00   6.92316791e-02  -2.97810172e+00  -2.61527232e+00
    2.93228008e-02  -5.38658303e+00   1.23790474e+01   8.09500205e+00
   -1.42644466e+00   9.75680212e-01]
 [ -4.50729402e-01   5.41082605e+00  -1.40035420e+00  -4.87069512e+00
   -2.05164360e+00   3.46766563e+00  -6.97845231e-01  -1.43172533e+00
   -6.03835689e+00   3.51700342e+00  -4.15452003e+00   3.94812812e+00
   -1.52622221e-01   6.61246182e+00   6.13421276e-01  -1.37041774e+00
    2.52877572e+00   1.50519509e+00  -9.17283252e-01  -3.45839449e+00
   -3.18039177e+00   1.48933831e+00   6.48765078e+00   2.95007234e+00
   -1.25771520e+00   4.03982976e-01  -3.75359588e+00   1.95368530e+00
    2.09133317e-03   1.09695735e+00   2.14058893e+00  -3.65981128e+00
   -2.98860326e-01  -2.90564402e+00  -2.84982768e+00   4.74201259e-01
    1.20364748e+00  -1.84573685e+00  -5.17203534e+00   2.63805305e-01
    5.01690695e+00   3.81354316e+00  -2.33653246e+00  -2.11366376e+00
   -2.77683761e+00  -4.62659774e+00   5.77928040e+00   1.26372679e+01
   -6.72438559e-01   6.83566896e-01]
 [ -1.44312265e+00   6.59686480e+00   7.43288075e-01  -5.59676715e+00
   -8.82123876e-01   3.69752216e+00  -5.02495926e+00   8.03990809e-01
    3.79711380e+00  -2.05492839e+00   3.77587714e+00   2.20402833e+00
    1.05938060e+00  -1.01732700e+00   3.78207614e-01  -4.57761757e-01
    2.92992948e+00   2.69866404e+00  -3.04902985e+00  -5.09133148e+00
   -3.50626127e+00   1.92358944e-01   7.09864666e+00   4.32843107e+00
   -2.19223699e+00   2.49007095e+00   5.39326830e+00   9.20949741e-01
   -1.60602483e+00   6.80771699e+00   1.55357179e+00   1.01262861e+00
   -5.72227265e-01  -2.74666700e+00  -3.62138561e+00  -7.56537898e+00
    5.37723437e-01   6.27249846e-01  -3.87219052e+00  -3.04390477e+00
    3.74702066e-01   6.35979608e+00  -1.53212764e+00  -1.07988337e+00
   -7.94579516e-01  -5.73524766e+00   6.11562426e+00   1.23392887e+01
   -1.10165051e+00   4.41421474e+00]
 [ -6.39761317e+00   2.99506768e+00  -1.19455410e-01  -6.82607703e+00
   -3.87372285e+00  -1.90620343e+00  -3.57437259e+00  -5.21450687e+00
    1.40458406e+01   1.89233626e+00   4.08726026e+00   1.98434252e+00
    4.66081367e+00  -9.24048838e-01   1.39904420e-01  -5.39117786e-01
    1.02661257e+00   3.00273141e+00  -3.37053718e+00  -5.59223184e+00
   -3.54092364e+00   5.54609086e-01   6.53012511e+00   5.56747804e+00
    6.41190589e+00   3.75737682e+00   3.62118681e+00   6.86300886e-01
   -7.41592426e-01  -1.22951336e+00   2.91811303e+00  -6.60299281e-01
   -5.83649673e-02  -2.34356776e+00  -2.92587712e+00  -9.03166413e+00
    1.59884582e-02  -1.59577631e-01  -6.61940950e-01  -4.10664824e+00
   -4.04850401e+00   4.15301594e+00  -1.69657488e+00  -1.77649910e+00
   -2.59618495e+00  -9.02553193e-01   7.29729363e+00   8.83741361e+00
   -1.00539965e+00  -7.74227329e-01]
 [ -2.68937045e+00   1.93007211e+00  -1.05598941e+00  -6.05934452e+00
   -1.69927931e+00  -6.03740104e+00  -1.59654221e+00  -4.62896743e+00
    8.10604994e+00   1.16280073e+00  -2.72395675e+00  -2.05805436e+00
    4.60385102e+00   3.78882561e+00  -1.21967800e+00   4.43450456e-01
    2.19302269e+00   1.34151928e+00  -4.05060991e+00  -5.02797153e+00
   -3.22692047e+00   1.37762479e+00   5.51546029e+00   4.67192095e+00
    6.12765732e+00   1.39148278e+00  -4.45353643e-02  -1.31341353e+00
   -4.97012514e-02   3.75608765e+00   3.17826575e+00  -7.86316939e-02
    7.36116382e-01  -2.15008031e+00  -2.35020096e+00   1.15853151e+01
   -2.10942129e+00  -9.06460138e-01   6.04584419e-01  -3.29985696e+00
   -2.61127318e+00   3.96064002e+00  -6.43334718e-01  -6.75283203e+00
   -1.22378377e+00  -4.70578071e+00   9.27964398e+00   8.79967515e+00
    3.49976797e+00  -2.03956513e-01]
 [ -1.63502768e+00   1.77125633e+00  -1.34987558e+00  -4.58451197e+00
   -1.55754575e+00  -3.41459326e+00  -2.65461698e+00   4.97788910e+00
    5.16955402e+00   1.03665809e+01   4.87143203e+00  -2.52848343e+00
    2.42137029e+00   5.50747691e+00   3.43576494e-01   1.12725381e+00
    3.85971493e-01  -1.70721684e+00  -4.31834470e+00  -2.73215756e+00
   -3.58074922e+00   6.06718423e-01  -2.37502425e+00   2.99869652e+00
    2.29139785e+00   7.22838898e-01  -2.58969496e+00   9.97180436e-01
   -1.15270662e+00  -3.37895034e+00   1.78611984e+00   2.52952592e-02
    1.34340849e+00  -5.10669142e+00  -2.01335022e+00   1.12163453e+01
   -9.11853299e-01  -1.33966394e+00  -1.20000323e+00  -3.37524894e+00
   -3.46814653e+00   6.24703511e+00  -1.13744853e+00  -6.14102010e+00
   -2.31876212e+00  -5.44769947e+00   9.14544880e+00   1.16136848e+01
   -7.66745927e+00  -1.70734357e+00]
 [ -1.95063731e+00   6.61845356e+00  -5.09142374e+00  -5.13572861e+00
    3.60487199e+00  -3.39787963e+00  -3.58713106e+00   7.62207033e+00
    7.12997029e+00   9.00245953e+00  -2.99632406e+00  -3.70060789e+00
    3.31221564e+00  -5.01172287e-01  -8.21172720e-03   2.03963489e+00
   -2.56563878e+00   1.94328136e+00  -3.11682734e+00  -4.86862205e+00
   -3.93779606e+00   1.09426753e+00  -8.72215335e-01   5.56446881e+00
   -1.36911949e+00  -8.51008925e-01   3.64877431e+00   3.69348589e+00
   -6.83099391e-01   4.92875165e+00   1.03481108e+00   1.97744696e-01
   -3.17139915e+00  -5.55719237e+00  -2.91481301e+00   8.33441619e+00
    1.04341243e-01  -1.62220788e+00  -2.06641691e+00  -4.01413530e+00
   -2.65304535e+00   4.39763900e+00  -3.28529255e+00  -1.88276991e+00
   -3.79206835e+00  -3.03600192e+00   1.11622473e+01   1.01831936e+01
   -1.14737115e+00  -1.35495314e+00]
 [ -1.62438349e+00   6.52075947e+00  -3.86092012e+00  -5.57766094e+00
   -1.66790526e+00   3.58018141e+00  -7.45378173e-01   9.67332960e-01
    7.35773526e+00   8.24965483e+00  -4.34200901e+00  -3.59711330e+00
   -2.44317350e+00  -1.51981673e+00   2.46761233e-01   2.48315207e+00
    4.72507205e+00   9.82208283e-01  -3.89734518e+00  -5.33927047e+00
   -6.27160736e-01   6.43233609e-01   5.21194214e+00   4.94152144e+00
    1.84317389e+00  -1.38325624e+00   4.43724198e+00   2.63305612e-01
   -1.23911100e+00   9.62473727e+00   4.87273377e+00   8.18504383e-02
   -2.01965633e+00  -1.10985052e+00  -3.97908335e+00   6.06943306e+00
   -3.00224757e-01   7.15393128e+00  -4.77199538e+00  -3.81752795e+00
   -1.07060290e+00   6.63531149e+00  -1.57823854e+00  -3.39936236e+00
   -3.53962256e+00   1.15183148e+01   1.07783272e+01   8.17983372e+00
   -7.11023915e-01   2.59104897e+00]
 [ -3.35512320e+00   8.48596167e-02  -4.15218206e+00  -9.91893917e-01
    5.98439967e+00  -3.33155158e+00  -4.53867250e+00   7.28814712e+00
    4.77868217e+00   4.20672344e+00  -3.64056872e+00   4.43538925e+00
   -5.46336099e+00  -1.89625373e+00   9.23375372e-02  -5.07709799e+00
    8.33998376e-02   2.57031853e+00   1.53646337e+00  -4.95496480e+00
   -3.84711992e+00   2.00455751e-01  -6.70674850e+00   5.11041626e+00
   -2.81072568e+00  -1.26076606e+00  -1.04273000e+00  -2.81318726e-02
   -2.34289059e+00   1.39447131e+00   3.01537165e+00  -4.84126899e-01
   -3.22244624e+00  -1.92482061e+00  -4.73493866e+00   7.36919150e+00
   -1.22504728e+00   4.42641445e+00  -4.35694940e+00  -3.04019583e+00
    5.96310737e+00   6.15983180e+00  -1.99303414e+00  -4.03862225e+00
   -2.33240647e+00   1.02473429e+01   8.66668351e+00   8.38971194e+00
   -2.64998635e+00  -1.54438781e+00]
 [ -7.97305388e-01   5.41267970e+00  -3.72101078e+00  -1.84256448e+00
   -1.81258109e-01  -2.32494644e+00  -1.25573460e+00  -1.03447016e+00
   -1.15463407e+00   2.45986452e+00  -3.36285455e+00   4.26667803e+00
    4.19489035e+00  -3.69173176e-01  -3.61326939e+00  -1.70568304e+00
   -3.84233533e+00   1.94973421e+00   1.31906595e+00  -4.10998361e+00
   -2.42504959e+00   6.38161094e-01  -4.49838237e+00   2.46853987e+00
    3.72877563e+00  -9.36044624e-01  -2.64871511e+00   3.41878020e+00
    1.90088593e+00   6.19975647e+00   2.95772827e+00  -2.29053383e+00
   -3.90519453e-01  -2.58269962e+00   1.52117718e+00   6.58920987e+00
   -1.74770921e+00   2.31363499e+00   5.67148390e-01  -3.17154690e+00
   -8.97810231e-01   2.67369329e+00  -3.36499137e+00  -2.79391931e+00
   -2.26100675e+00   7.24459292e+00   4.36038373e+00   9.72703065e+00
   -8.72698611e-01  -3.30559363e+00]
 [ -2.91155460e+00   4.15669505e+00  -4.93173172e+00   1.18932562e+00
   -2.26127159e+00  -2.41464802e+00  -2.65970584e+00   2.22936890e+00
   -3.78490815e+00  -7.16649973e-01   5.13028191e+00  -4.09694666e-01
    1.06888101e+00  -2.47969744e+00  -2.80368103e-01  -6.82513027e-01
    2.18508635e+00   3.00940078e+00  -7.63661265e-01  -2.56610338e+00
   -3.62482087e+00  -1.37113322e+00   5.09342343e+00   2.49257743e+00
   -2.28321302e+00  -1.00431339e+00  -2.48742023e+00   2.37406234e+00
   -8.35950307e-01  -2.27204410e+00   1.77761536e+00  -6.11266872e-01
   -4.86988267e-01  -4.23676757e+00  -4.36402834e+00   3.95893114e+00
    2.94139229e-01   7.38093718e+00  -8.34271965e-01  -3.13023780e+00
   -2.08832857e+00  -3.07469404e+00  -9.34279158e-01  -3.25008994e+00
   -1.03511214e+00   8.27576828e+00   1.08384626e+00   2.86662908e+00
    2.76988059e+00  -1.83836874e+00]
 [ -4.06666868e+00   4.00503166e+00  -1.64824514e-01  -5.37521325e-01
   -1.67139036e+00  -3.27734290e+00  -5.65922862e+00   5.70655459e+00
   -4.70808618e+00   1.23752560e+00  -2.84537799e+00  -3.45662492e+00
    6.73122314e-03  -1.96188812e+00  -2.25077258e-01  -7.90442607e-01
   -2.80688055e+00   1.94720603e+00  -3.87470099e+00  -3.69899346e+00
   -3.78395926e+00   8.70816125e+00   5.72855303e+00   4.02246212e-01
   -2.90598905e+00  -5.22242951e-01  -2.72288993e+00  -8.53294272e-02
   -2.63173233e+00  -1.73237969e+00   4.38394623e-01   6.03689147e-01
   -5.53867087e+00  -6.61069693e+00  -4.50646869e+00   5.57722027e+00
   -2.78069075e+00   8.02837281e+00   3.64656642e+00  -2.09786895e+00
    8.88132385e-01   9.70221399e-01  -2.37593310e+00  -5.32726843e+00
   -2.98136892e+00   5.13308311e+00  -5.48459434e-02   9.16095344e+00
   -2.93175022e-01  -9.13698654e-01]
 [  8.05043936e-02   2.15549074e+00  -3.28399244e+00  -2.06926387e+00
   -4.20799165e+00  -1.54179788e+00  -4.04883080e+00   5.10462264e+00
   -2.41537001e+00  -3.65745362e+00  -3.76158259e-01   4.69307192e+00
   -4.70811372e+00  -2.08751570e+00  -9.61730414e-01   1.14426413e+00
    1.42965291e+00  -2.64844062e+00  -8.10738192e-01  -3.58075347e+00
   -3.80013757e+00   2.28967989e+00   3.54244878e+00   3.59065246e+00
   -2.26325071e+00  -3.95145875e-01  -2.27740579e+00   4.01313045e-01
    2.49852845e+00   3.62704604e+00  -2.90764985e-01   7.67622076e-01
    2.13509153e-01  -4.71566983e+00  -5.99964361e+00   5.55143554e+00
   -3.58551834e-01   9.20566255e-01   2.82421208e+00  -4.25723946e-01
   -2.64341269e+00   6.26218567e+00  -1.29025250e+00  -3.32530686e+00
   -7.30331930e-01  -1.87536829e+00  -2.74037995e+00   3.77166258e+00
    1.30703345e+00   3.46027249e-01]
 [  2.04480385e+00   7.57984658e+00  -3.02662370e+00  -4.21425526e+00
   -2.88979129e+00  -1.91931951e+00  -7.42426470e+00   6.38780094e+00
   -3.31660714e+00   8.89520064e+00  -2.22261639e+00   4.20579516e+00
   -3.49466134e+00   2.74749751e+00   2.02603638e-01  -2.02922395e+00
    2.73648450e+00  -2.69889161e+00  -1.83162756e+00  -3.11068959e+00
   -2.34940246e+00  -9.48709428e-01   4.69586609e+00   3.96167867e+00
   -3.55388458e+00   1.23141256e+00  -1.49910602e+00   2.18072041e+00
   -2.86536432e-01   5.95601314e-01   5.08396018e+00  -7.63136367e-02
   -4.83913501e-02  -5.28706615e+00  -3.54124951e+00   7.12809592e+00
   -9.81091857e-01   5.81874425e+00   4.85353379e+00  -9.33886636e-01
   -7.93985541e-01   6.05673491e+00  -1.19819201e+00  -5.64738916e+00
   -1.71904427e+00  -3.59549249e+00  -3.88181335e+00   8.29689839e+00
   -2.17932910e+00  -1.64123799e+00]
 [ -1.21214525e+00   5.80962208e+00  -5.06596096e+00   2.49771917e+00
    3.56315978e+00  -2.31375595e+00  -3.40007542e+00   6.58405448e+00
   -2.99705719e+00   4.16911004e+00  -9.36613090e-01   3.98523442e+00
   -2.68839818e+00  -1.60385942e+00  -2.74069014e-02  -6.02791907e+00
   -2.01039774e+00   2.84700864e+00  -1.35543925e+00  -3.47029545e+00
   -2.70950982e+00   5.54204891e-01  -2.19364435e+00   8.75073442e-01
    1.68458368e+00   3.49106156e+00   4.61018382e+00   4.42083130e+00
   -3.55509381e+00   5.77568576e+00   6.76915747e+00  -1.45333223e+00
    1.36566677e-01  -6.16166269e+00  -4.79327279e+00   4.93060103e+00
   -1.67997932e+00   6.24743910e-01   5.81054988e+00  -9.28428338e-01
    6.13602657e+00   6.08471932e+00  -1.01801393e+00  -6.43573491e-01
   -4.13393047e+00  -1.89328785e+00  -4.36208900e+00   7.52465868e+00
    4.09980446e+00  -3.03375135e+00]
 [ -9.46305653e-02   5.26148899e+00  -3.57461096e+00  -3.05523515e+00
    2.60511421e+00  -1.61678183e+00  -5.67364986e+00   5.48147216e+00
   -4.19020723e+00   6.42521655e+00  -2.00949151e+00   4.94015867e+00
   -3.50167552e+00  -3.48137145e+00   4.02088767e-01  -5.08959485e+00
   -2.76418247e+00  -4.20609884e+00  -1.95881840e+00  -4.13761670e+00
   -4.33936729e+00   5.33295399e+00   4.00193076e+00  -1.31287177e+00
    4.14803622e+00  -1.02519152e+00  -2.02955673e+00   2.01560420e+00
   -3.42520306e+00   4.37723243e+00   1.39843308e-01  -5.91140927e-01
   -4.58126052e+00  -6.79504725e+00  -3.91092730e+00   7.09295401e+00
   -1.74374866e+00   2.99817394e+00   5.52416504e+00  -9.77593140e-01
    4.97762748e+00   5.20442085e+00  -1.23627096e+00  -4.94099793e+00
   -1.53859014e+00  -2.53372714e+00  -2.58212374e+00   5.78169917e+00
   -7.06680902e+00  -2.04577803e+00]
 [ -4.49815618e+00   7.24148149e+00  -1.46267014e+00   9.43085991e+00
   -3.16668157e+00  -7.05579065e-01  -4.04349508e+00   4.61548973e+00
   -1.81786190e+00   1.69169130e+00  -1.40670172e+00   5.09281906e+00
   -3.99903111e+00   5.22269768e+00  -3.91310684e-01  -3.04134474e+00
   -3.52725162e+00  -5.05206708e-01   2.76951628e+00  -3.40134622e+00
   -4.19982485e+00   2.47214297e+00   4.83169898e+00   1.58460137e+00
    3.68794340e+00  -1.14049626e+00  -5.61580939e-01   1.63578030e+00
   -5.36027030e+00   1.45980453e+00   3.71827776e+00   1.58178686e-02
    1.36995826e+00  -6.38702981e+00  -7.16357947e+00   7.72787518e+00
   -7.73061044e-01   7.35578605e+00   7.25395670e+00   7.09061333e+00
    7.33386001e+00   5.76874047e+00  -1.32862328e+00  -5.86614028e+00
    7.03719019e-02   3.50150559e+00  -3.82905703e+00  -1.32097213e-01
   -5.73538362e+00  -3.30588697e+00]
 [ -1.32387602e+00   4.49109992e-01  -2.12391138e+00   8.61454499e+00
   -1.32387076e+00   7.13229931e-02  -4.02797247e+00   4.47281652e+00
   -1.85861527e+00   2.56977006e-01   8.23323318e-01  -2.41031542e+00
   -1.67490033e+00  -4.83791233e-01  -1.12935321e-02  -5.55958540e+00
   -1.03333884e-01   2.83289360e+00  -1.44007595e+00  -1.31563558e+00
   -4.62691059e+00   2.15540469e+00   4.14967084e+00   1.28838055e+00
   -3.25227645e+00  -6.67215575e-01  -2.43313864e+00   1.69786492e+00
   -1.20032250e+00   4.06665380e+00   2.92672933e+00  -1.28822580e+00
   -2.78640609e+00  -6.51637696e+00  -5.57080163e+00   1.68652277e+00
    4.51639202e-01   1.82126564e+00   1.40259554e+00   4.33795114e+00
   -5.86527702e-02   6.00095922e+00  -2.29590461e-01  -4.87770163e+00
    6.29652423e+00   1.72752938e-02  -2.74288173e+00   2.63766388e+00
   -5.62312559e+00   7.27253945e+00]
 [ -2.31957444e+00  -6.54814120e-01  -4.74608520e+00   8.70380461e+00
    1.00333543e+00   4.98832999e+00  -1.42473209e+00   2.53388011e+00
   -1.67437777e+00  -9.11340758e-02  -3.02084393e+00  -1.93486063e+00
   -3.54687221e+00   4.91081960e-02  -2.67707291e+00  -8.77865871e-01
   -7.13542729e-01   3.87904133e+00   1.20832190e+00  -1.45378452e+00
   -3.26431732e+00   1.71829275e+00   9.05695916e-01   1.33985380e+00
    1.69654615e+00   1.50382134e+00   4.14593035e+00   1.99871225e+00
   -2.78820882e+00  -4.52190087e-01   1.96030000e+00  -1.27732003e+00
   -1.47312184e+00  -5.83662732e+00  -4.93141863e+00   2.85075776e+00
   -4.56068621e+00   2.98238413e+00   3.13801797e-01  -5.69195981e-03
    1.69884790e-02   5.51605236e+00  -1.70677065e+00  -5.53699840e+00
   -3.60656430e-01  -1.67649338e+00  -8.12189559e-01   1.89266959e+00
    5.39689620e-03  -1.03398664e-01]
 [ -5.26745885e+00   3.21366997e+00  -4.92474546e-01  -3.13274138e+00
   -1.98036353e+00  -2.51400200e+00  -5.58108148e+00  -1.41294976e+00
    7.00391639e-01  -3.03028489e+00   7.90327042e+00  -2.79805911e-02
    4.24290457e+00   2.25583704e+00   3.04741408e-02  -3.58017262e+00
   -4.77686147e+00   3.44401174e+00   2.58163120e+00   5.16892368e+00
   -4.79303951e+00  -3.63290953e+00   1.31545039e+00  -3.55650600e+00
   -3.60915367e+00   2.21895117e+00   5.10907961e+00   1.54958606e+00
   -2.50036840e+00   2.47907163e+00   4.12708082e+00  -1.55375853e-01
    2.07381869e+00  -3.92435991e+00  -6.23772242e+00   4.57194629e+00
   -3.33269089e+00   1.09759809e+00  -3.77290387e+00  -3.99932774e+00
   -1.29980738e+00   2.40651771e+00  -6.23141044e-01  -4.65079431e+00
    7.07028264e-01   3.97676418e+00   2.87917392e-01   2.82634170e+00
    1.31393028e+00   8.17008511e-01]
 [ -5.61515030e+00  -2.72464813e+00  -3.97607351e+00   4.46639538e+00
    4.30809352e-03  -8.63985014e-01  -5.03521140e+00  -4.55444764e-02
   -4.02108706e+00  -6.06339842e-01  -1.33859248e+00   1.50770943e+00
    1.33015560e+00   3.19949551e+00  -2.05633032e+00  -3.22019702e+00
   -1.38297613e+00  -2.34920393e+00   8.02378144e-01  -1.21332611e+00
   -6.97045745e+00  -7.70180966e-02   1.13275533e-01  -4.19624251e+00
   -4.94842445e+00   1.78697426e-01  -3.34618148e+00  -4.23820653e+00
   -1.45358261e+00   9.53773802e-02   1.31370042e+00  -1.07049238e-01
   -6.12483975e+00  -3.08842665e+00  -3.96317317e+00   2.14377855e+00
   -2.69889540e-02   1.88701359e+00   4.85485692e+00   2.05651832e-01
    2.01274512e+00   3.72049384e-01   2.99370178e-01  -3.81741653e+00
   -2.85968753e-01   6.27075280e+00   2.06811483e+00   2.76456863e+00
   -5.86952118e+00  -6.44434235e-01]
 [  2.25730520e-01   1.20342527e+00  -1.41847614e+00   7.58979314e-01
   -2.15371521e+00   1.60636644e-01  -4.63381437e+00  -2.58442693e+00
    8.52635452e-01  -9.88522963e-01   1.59366449e-01   6.19764776e+00
   -2.75454725e+00  -1.23768615e+00   9.54060710e-03  -2.82502624e+00
   -3.71351559e-01   4.78601423e+00  -1.82669406e+00   7.81504817e-02
   -3.86822842e+00   2.50081054e+00   1.42397699e+00  -3.87007358e+00
    1.62734741e+00  -2.05359580e+00  -8.30551928e-01  -2.72408541e-01
   -3.92956007e+00   1.95768043e+00  -6.08332358e-01  -1.56770927e-01
   -2.85292793e+00  -1.78063259e+00  -1.46988631e+00  -1.15901100e+00
    2.35184693e-01   4.72953757e-02   4.80570265e+00  -1.52287909e+00
   -1.97600572e+00  -1.09036747e+00  -1.88818314e+00  -3.46221848e+00
   -1.37275133e+00  -9.81067368e-01   2.88407444e-01   1.39993688e+00
   -4.23299421e+00  -1.33169220e+00]
 [ -3.48831500e+00  -1.23583359e+00  -1.18141779e+00   8.81547322e-02
    6.46041968e-02  -1.13599484e-01  -1.91811187e-02  -1.81286505e+00
   -2.56297244e+00  -7.57405822e-01  -1.74609437e+00   1.20725833e+00
   -1.23974738e+00  -1.30407866e+00  -1.15775425e-03  -2.39113891e+00
   -4.04081477e-01  -1.38306687e+00   1.49295094e-02   3.65605054e-02
    6.91367548e-01   2.65335230e-01   6.44449121e-01  -4.62260068e-01
    1.68411747e+00  -1.71437474e+00  -3.96545098e+00   7.88301569e-01
   -3.34326339e+00  -2.84897216e+00  -2.89369256e-01  -1.59958220e-02
   -1.42296385e+00  -3.40827615e+00  -3.51785867e+00   3.91666867e-02
   -8.32645210e-02  -1.94831282e+00  -1.39708959e+00  -3.03782655e-01
   -7.22786582e-01   2.00428610e-02  -5.84661154e-01  -6.19711460e-01
   -2.44368423e-01  -7.76497527e-01  -2.13834309e-01  -2.87618442e-02
   -3.64894954e+00  -3.36223583e-02]
 [ -2.92637183e+00   1.08888271e+00  -1.41747824e+00  -2.70865509e-01
   -6.96722242e-03  -7.33976342e-01  -3.90292521e+00   2.34268837e-01
   -1.04460684e+00   1.79335727e-01   1.00337078e-01   2.28207180e-01
   -1.89916537e+00  -2.22210908e+00  -1.84173267e-03  -1.82757906e+00
   -1.65696425e-01  -7.32469527e-02   6.70103809e-01   4.70687267e-01
   -3.46450327e+00  -1.59603633e+00  -2.53694237e-01  -2.00573734e+00
   -2.24604253e-01   3.03952604e-01  -2.88321269e-01   1.03177552e-01
   -1.22401998e-01  -9.45116561e-01   3.92122605e+00  -2.62741339e+00
   -2.47051307e+00  -2.23776696e+00  -4.06396911e+00   9.28913158e-01
   -1.30877270e+00   4.60674844e-01  -1.52505310e-01   1.29961781e-01
   -5.60234356e-01  -4.97894958e-03  -2.14639588e-01  -9.14697496e-01
   -5.84615048e-01  -9.13369788e-01  -4.91590138e-01  -1.88530524e+00
    1.59692384e+00  -1.75102570e+00]]

*****  hpm_b 
 [-1.35438974 -0.55007062 -0.84289571 -1.5114336  -0.16469016 -4.49417896
 -0.75676138 -0.91423748 -1.10445953 -0.91206732 -0.82176884 -1.13360953
 -1.59296954 -1.15545079  0.75443241 -1.27049252 -0.66844569 -2.01090838
 -1.90011809 -1.09834068 -1.31483626 -0.44973228 -1.20649796 -0.70692572
 -1.51906971  0.04453893 -1.09505205 -0.43140502 -0.8492301  -0.55054726
 -1.30418927 -1.27425637 -1.41276278 -0.3169113  -0.76354401 -0.87491158
 -0.70139219 -1.49112894 -1.28381558 -2.74851663 -2.74733781 -1.33254536
 -2.79643431 -1.4660909  -1.18495668 -1.65175097 -1.16319096 -0.96420667
 -1.19075141 -3.25237275]

*****  hpm_U 
 [[ -3.96810055e+00   1.02461384e+00   7.42998933e-02  -2.40791908e-01
    3.82142034e-01  -7.28780257e-02   1.25296654e-01  -2.25151962e-01
    8.70779535e-02   7.02304209e-01   3.80203103e-01  -1.50773617e-01
   -4.13359858e-01   1.01037267e-01  -8.90963219e-01   1.75784801e-01
   -9.75571083e-02   1.95413646e-02   2.72552316e-01   2.90694153e-02
    2.25247387e-01  -8.97084376e-02   8.26313123e-02  -2.35633678e+00
    3.23897080e-01  -1.54073442e-01  -2.64166732e-01  -9.99274842e-01
    1.14006216e-01   3.66701642e-01   7.43298003e-02   4.36157751e-01
    6.48672360e-02   2.12559955e-01   2.49693805e-02  -7.16255351e-02
    4.90620960e-01   3.08933734e-02   2.32310825e-01   1.85178794e-01
   -4.39519487e-02   8.70486255e-01  -6.00851620e-02   2.07693514e-01
   -6.69255090e-01   4.59476296e-01   5.92782572e-01  -1.21830002e-01
    3.27303387e-01  -1.83348194e-01]
 [  1.04629491e+00  -1.58709250e+00   4.74774971e-01  -1.22664846e-01
    5.98866280e-01  -2.60875250e-01   1.03088745e+00  -3.03242150e-01
    1.57468542e+00   1.06481164e+00   4.48434593e-01  -1.40336875e-01
    1.80340172e-01  -1.74595050e-02   1.19238357e+00  -8.45388321e-02
   -1.08398246e-01   5.12566444e-01   1.31239902e-01   7.38129414e-02
    3.93824314e-01   2.42115540e-01  -1.37491937e-01   2.39647722e+00
   -8.10980999e-02  -4.38353285e-01  -6.25282157e-02  -4.64022973e-01
    6.92774147e-01  -3.70519798e-01   2.13973886e-01  -7.55233794e-01
    6.77795010e-01  -1.94625614e-02  -2.39572797e+00   8.07513190e-02
   -7.65596522e-01  -6.85946344e-01  -3.56716927e-02  -1.12915038e-01
   -5.79459483e-01   6.75252092e-01   9.66073669e-02   5.28289578e-01
    4.79928766e-01   9.37149611e-02  -5.09728367e-01  -1.32088529e-01
    3.23560649e-01  -4.26588086e-01]
 [  2.49099895e-01  -2.58897088e-01  -3.35544197e+00  -7.09365223e-01
   -3.20794300e-01  -5.63360863e-01   2.80922373e-01   3.04989673e-01
    1.14384008e-01  -6.48502896e-02  -2.76412941e-01  -4.90490750e-01
    2.12969844e-01   2.96806989e-01   2.22419322e+00   3.18723160e-01
   -5.25044780e-01  -5.40595362e-01  -6.51388899e-02  -1.04453193e+00
    1.05398147e-01  -6.02535508e-01   2.31060034e-01  -5.53773050e-01
    3.18378620e-01  -3.19321351e-01  -9.06354648e-01  -1.73264267e+00
    3.13742029e-01  -6.63876906e-01   8.88042470e-02  -5.84717703e-01
   -1.84110747e-01   3.45535892e-01   3.08610140e-01  -3.31775259e-01
   -9.69539641e-01   5.98433108e-01  -8.62792364e-01   2.42581810e-01
   -1.25616417e-01  -2.60725250e-01  -1.19133622e+00   1.99499122e-01
   -1.07008044e+00  -4.45273563e-01   7.96901587e-02   4.53934539e-02
    3.95112106e-01  -4.03015488e-01]
 [ -5.19581947e-02   8.15872985e-03  -9.80849056e-03  -5.78758464e+00
    4.08828304e-01  -3.59138069e-02  -6.02131415e-02  -1.06988849e+00
    4.05567429e-01   1.25741375e-02   9.94245138e-02   1.77160666e-01
   -2.27145645e-01   1.37661628e-01  -1.40572100e+00  -3.66055901e-02
   -9.11968118e-01   2.99312694e-01  -1.72584030e-01  -2.09084068e-01
   -1.46253406e-01   6.58838906e-01  -3.88093410e-01  -3.84511888e-01
    3.24092532e-01  -8.58325619e-01  -3.14493932e-02   3.38323238e-01
   -3.14253377e-02   3.06137907e-02  -2.94008446e-01  -4.89470338e-01
    3.45207948e-02  -5.45175978e-01   1.72807672e-01  -5.36920825e-01
    1.90937019e-01   3.11190544e-01  -4.44078496e-01  -1.27820063e+00
    1.74836968e+00  -1.57372475e-01  -8.49093829e-01  -7.35723462e-02
   -5.00266330e-01   2.91722946e-01   9.87068040e-01   4.89269448e-01
   -7.16977941e-02  -2.72122968e-01]
 [  8.31689376e-02  -8.12257426e-01  -3.09339553e-01  -6.63087864e-01
   -5.10380263e+00   1.94433838e-01   6.96206228e-02   4.51647227e-01
    2.26517557e-01   5.42194650e-01   1.26936668e+00   1.50518867e-01
   -1.45090633e+00   2.87248546e-01  -1.21186178e+00  -1.01075552e-01
    1.88651445e-01   3.46654995e+00   5.94185381e-01  -1.20972531e-01
    4.76512020e-01   2.10616354e-01   3.26947436e-01  -1.81200883e+00
    4.24657116e-02   1.20737963e-01  -5.11993444e-01  -3.27004142e-01
    1.47672982e-02  -3.35988345e-01  -1.56158507e-01   3.96887518e-01
    1.36305111e-01  -5.85629485e-02  -1.41284214e-02   9.21975421e-01
    7.52058715e-02   4.28141821e-01   3.09705945e-01  -4.63658914e-01
    1.18025966e+00  -9.93031419e-02  -7.37442853e-02  -1.67031906e-01
    5.73039442e-01   6.92309900e-01   2.33999309e-01   2.15137559e-01
   -5.32263366e-04   5.66720905e-01]
 [ -5.97430560e-01   6.64618086e-01   7.61218351e-02  -1.42389838e-01
    1.20105069e+00  -1.43555694e+00   3.64392835e-01   1.25577141e-01
   -3.65241405e-01  -6.14511622e-01  -1.12335926e+00   1.08303712e+00
    7.56603140e-01   1.97567441e-01   2.08983359e+00  -5.18386226e-01
    3.36303830e-01  -1.40781609e+00  -1.51758401e+00  -5.81682174e-01
    1.03907095e-01   3.16126776e-01  -8.75581186e-01   4.87718505e-02
    3.48354329e-01   5.88440450e-01  -6.84331896e-01   9.21465595e-01
    1.57908576e+00   1.51291807e+00  -2.74398972e-01  -2.03159014e-01
   -9.53575926e-01   5.19798666e-01   2.75271006e-02  -9.00666669e-01
    1.40794015e+00   1.50345231e+00   2.65739107e-01  -2.02453630e-01
   -1.81829154e+00  -6.98657162e-01  -9.21097209e-01   5.34464439e-01
    3.20921208e-01  -5.49347362e-02   1.46894652e-01   6.25882521e-01
   -5.28678588e-01  -1.08094108e+00]
 [ -1.12174639e-01  -3.44203565e-01   8.38627545e-02  -1.80340527e-01
    2.82834803e-04  -4.16856175e-01  -3.84440330e+00  -6.34713315e-01
   -4.21885544e-01  -2.25771441e+00  -1.01543915e-01  -3.31063651e-01
   -6.26422704e-01  -5.31904838e-02  -8.05507853e-01   6.30576214e-02
    8.92288588e-03  -1.99469994e-01  -1.56284068e-01  -1.46934859e-01
    5.07764625e-02   9.51144745e-02   3.60228858e-01  -7.56415984e-02
   -1.43842094e-01  -2.86286631e-01   1.32395779e-01   2.62131527e-01
   -1.66876220e-01  -1.09202523e-02  -4.42093255e-01   8.03278712e-01
   -8.88128904e-02  -3.70559369e-01  -1.25217873e-01  -2.02938096e-01
    4.09028283e-01   2.92782811e-01   1.39437600e-02   1.83847052e-02
   -2.52633992e-02  -5.14622777e-01   2.83462868e-01   1.25438754e-02
   -1.67999269e-01  -2.79484876e-02  -1.00642380e+00   1.25386318e-02
    4.29586431e-02   2.82219826e-01]
 [  1.47132206e-01  -1.27428458e-01   8.90017886e-02   4.69069879e-01
    1.65430959e-01  -6.34786811e-01   2.43532563e-01  -2.28108089e+00
    7.75704518e-01   5.98687482e-01   3.09220887e+00   5.10093446e-01
   -2.59342428e-01   4.39093891e-01   2.75164725e-01   5.53698910e-03
    3.27828516e-01  -1.88948445e-01   2.76153488e-01  -5.50630091e-02
   -1.76322179e+00   2.74087364e-01   6.06161704e-01  -2.57543775e+00
   -3.72890568e-01   8.44837817e-01  -8.05910332e-01   5.53222408e-01
    1.75551348e-01   3.10461085e-01   4.38491391e-01   3.44914930e-01
    9.13567188e-02   5.44289697e-01   1.72923521e-01   1.05421618e-01
    8.37475389e-01   2.90273495e-01  -1.51080010e-01   1.06400213e+00
   -5.73346218e-02   1.06448903e+00  -2.02751318e-01  -2.93417243e-01
   -1.15700163e-01   2.86730571e-01   2.22917722e-01   2.18895149e-01
    5.07572912e-01   6.97882523e-02]
 [ -5.09236848e-02  -1.90476122e+00  -5.64908442e-01  -2.81498495e-01
   -2.65608725e-01  -3.11640351e-01   4.10799222e-01   1.99880333e+00
   -4.99770169e+00  -1.34219986e+00  -4.38403568e-02  -6.69788131e-01
   -1.50278286e+00  -2.48537772e-01  -1.40226797e+00   1.56638653e-01
    1.54240653e+00   5.20353671e-01   1.37591015e-01   4.70902842e-02
    1.48691498e-01  -7.28544462e-02   3.09552018e+00   1.24594414e+00
    8.99292898e-02  -3.57880636e-01   4.67119505e-01  -7.84028809e-01
    1.50502220e-01   1.34889648e+00  -5.23845703e-01   3.61458216e-01
   -2.09534743e-01  -5.89014950e-01   2.70310640e-01   3.10462971e-01
   -1.57961664e+00   4.66045325e-01  -4.30481218e-01  -5.12184589e-01
   -5.13345731e-02  -8.33723099e-01  -1.65516715e-01   8.96465025e-02
    5.12560691e-01   2.71295642e-01   2.40716276e-02  -1.48769848e-01
    4.05530078e-01  -3.51297486e-01]
 [ -1.19488748e+00  -1.16382010e+00  -1.77442077e-01   4.20426290e-01
   -1.50124148e+00   3.68529237e-01  -1.07361909e-01   4.67482487e-01
   -1.29849327e+00  -3.41278989e+00   1.85774456e-02   9.21767059e-01
   -7.94606573e-01  -1.59308426e-01   2.51725296e-01  -1.47103660e-01
   -1.04367336e-01  -1.54407966e-01  -2.39186300e-01  -4.71300440e-01
    2.96275442e-01  -4.49302423e-01   7.55848519e-01   8.47006854e-01
    3.52884103e-01   5.54075806e-01  -4.96929511e-01  -3.05131099e-01
    1.67130222e-01  -9.81368846e-02  -1.29822241e+00  -2.39801897e-01
    2.68080727e-01   7.28965833e-02  -1.07953911e-01   7.76162075e-02
   -1.00958110e+00  -4.09457714e-01  -4.13052098e-01  -7.11952969e-01
   -1.54131043e-01   4.89130340e-01  -3.26569889e-01  -1.49122057e-01
   -2.11274063e-01   2.69489289e-01   2.14831740e-01   1.93107184e-01
   -5.26521315e-01  -1.49456687e-02]
 [  2.88724842e-01   8.40747096e-01   1.13809670e-01  -8.02271706e-01
   -5.69940238e-01   1.80254954e-01   7.80161683e-02  -1.76573933e-03
   -8.35489492e-01  -2.98545445e-02  -6.82567701e+00  -2.42896233e+00
    9.33542830e-01   1.37415077e-01   1.81365086e+00   1.30064029e-01
   -1.31086359e+00   4.91277703e-03  -7.52042629e-01  -1.86542507e+00
    8.22829405e-01  -1.03545429e-01   9.81586564e-01   2.88648365e-01
    1.58609103e-01   1.30379910e-01  -1.20326893e+00   5.07845891e-01
    1.74245823e-03   1.35168665e-01   2.48143548e-01   1.45978550e+00
    1.70546312e-01   1.16688102e-01  -7.86519460e-03  -5.51809561e-02
    8.11942309e-01   7.91264365e-01  -1.24951034e-01  -3.90054062e+00
   -1.72371044e+00   3.04280229e-01   1.83156999e-01   1.12258045e-01
   -1.94944106e+00  -9.78248941e-01  -5.63078475e-01   1.88903060e-01
    6.69682165e-02   6.92237824e-02]
 [  8.70045743e-02   1.05647266e-01   6.56878962e-02  -9.09434883e-03
    5.30846993e-01  -9.48743142e-03   2.59493649e-01  -6.88616882e-01
   -4.60288103e-01   6.14145151e-01  -1.24716348e+00  -6.77476141e+00
   -2.66026470e-01   8.25684822e-02   1.51910378e+00  -1.04040887e-01
   -6.00475479e-01   6.54947958e-01   4.04049071e-02   1.62686903e+00
   -3.57667765e-01  -1.42590950e-01  -8.20676563e-01   9.44189914e-02
    2.06291479e-01  -3.20009074e-01   9.76587924e-01   4.36431270e-01
   -1.60538604e-01   7.08116343e-01  -1.74502982e-01   7.69315839e-01
    1.99290736e-01   1.92849357e-01   1.62508724e-01   3.78324407e-02
    8.07442127e-01  -5.78037572e-01  -1.15565859e+00  -1.31239304e+00
    2.47487911e-01   5.99579781e-02  -3.10359243e-02  -3.28091762e-02
    1.22532620e+00  -3.17870573e-02  -5.24025422e-01   2.64739247e-01
   -2.57058293e-02   7.18765612e-02]
 [  4.27213067e-01  -2.54579882e-01   2.32245652e-01  -4.91338107e-01
    6.28340468e-01  -6.68265420e-01  -2.95996102e+00  -5.83938378e-01
   -1.14823270e+00  -3.56449729e-01   4.12684406e-01   3.38177295e-01
   -1.49038621e+00   2.56149011e-01  -4.01889881e-02  -4.64155964e-02
   -3.33165369e-01   2.79402938e-01  -3.88478326e-02  -7.63772578e-02
    1.53175097e-01   5.58261729e-02  -9.83140747e-02  -7.96667479e-03
    5.23379502e-02   3.86176794e-02   1.45298383e-01  -2.78528404e-01
    7.11863735e-01   9.59865319e-01   3.84523495e-01  -5.18759178e-02
    4.53784878e-01   4.30832304e-01   9.80729557e-01  -1.64059421e-01
    1.02539043e-01   5.60405917e-04  -3.50973976e-01  -6.89268668e-01
   -2.77960655e-01   8.55048366e-01  -9.95348301e-02   6.20169124e-01
    1.32895940e-01   1.96266801e-01  -2.97321823e-01   2.32841749e-01
    1.57005332e-01  -6.34443139e-01]
 [  1.59920717e-01  -2.16536956e-01  -9.42145934e-02   6.51414402e-01
   -2.02237534e-01  -6.11589426e-01   9.16863540e-02  -4.90562788e-01
   -2.93870428e-02   2.01390209e-01  -1.59773174e-01   9.10741664e-01
   -9.19805559e-01  -4.70526807e+00  -1.72229380e+00   1.73009044e-01
   -1.19506270e+00  -2.41003506e-01  -5.17079791e-01   1.92879067e+00
    3.59005293e-02   2.48885001e-01  -5.92304725e-01   3.10925978e+00
    4.80502982e-01  -3.60029489e-02   9.08676911e-01   5.97514795e-01
    9.05395218e-02   3.50229607e-01   1.11044894e-01   4.85657957e-01
    2.03487082e-01  -1.22289961e-01   2.34229048e-01   5.39806199e-01
   -1.32129979e+00  -3.84950517e-01   4.60290662e-02   4.24540432e-01
    8.50300783e-01  -7.18804339e-01   2.82870942e-02   2.16528065e-01
    6.85699996e-01   7.66235763e-01  -1.03692901e-01   1.57760628e-01
    2.04585493e-01   6.36018893e-01]
 [  2.88622177e-02   2.98378086e-02   5.93819175e-02  -1.08985207e+00
   -1.23057278e-01  -1.89393743e-01   5.14120317e-03  -6.02510736e-01
   -6.89448114e-01  -1.74997795e-01  -1.12409025e+00  -8.51942112e-01
    2.46580687e-02  -5.72095904e-02   1.58506825e+00   3.74071467e-02
   -3.14277767e-01  -6.28925023e-01   2.39372168e-01   2.75397250e-02
   -1.16476729e-01  -5.57527323e-01  -1.34286346e+00  -2.40888877e-01
   -6.49860987e-02   4.03658031e-01  -1.74745100e-01  -4.24167664e-01
    2.21991619e-01  -5.11863590e-01   2.91364183e-02   1.35842872e+00
    6.93480682e-03   7.04325529e-02  -1.17325228e-01  -8.09807755e-01
    3.59488203e+00  -3.74497891e-01  -7.80600830e-02   6.10857658e-01
   -2.36053602e-01  -4.06210484e-01   1.29202562e-01  -5.59520175e-02
    3.59683336e-01  -1.95810468e-01  -1.52426086e-01  -2.06537276e-01
   -1.20932806e-01  -2.13198770e-01]
 [  2.57806036e-01   2.54023093e-01   1.15453210e-01  -1.13949119e+00
   -1.33922855e+00   3.31137660e-01   2.83794878e-01   2.32208465e-01
    3.02198287e-01   8.34952645e-02  -1.68397696e-01  -5.01097164e-01
   -1.26485744e-01   1.78357681e-01   4.50187446e+00  -4.01360831e+00
    1.11229353e+00   1.34797081e-01   1.54699881e-01  -1.67593427e-02
    1.28195609e-01   5.05068558e-02  -7.74414588e-01  -1.00558699e-01
    3.34257894e-01  -1.72930959e-01   1.15375467e-01  -8.80787927e-01
    2.15379127e-01   1.70632184e-01   1.19143465e-01   8.40023813e-01
   -1.52257138e-01   1.73043087e-01   3.32145400e-01   3.06344160e-02
    2.95423249e-01   3.63425936e-01   5.66404695e-02   1.76203202e-01
   -9.78417957e-01  -9.26228293e-01  -9.86394502e-01   2.85214268e-01
   -2.05737270e-01  -4.53694340e-01  -1.12620357e+00   1.93541828e-01
    3.68380152e-01  -6.18350898e-01]
 [ -8.50667847e-02   2.34453686e-01   6.73589538e-04  -2.12975678e-02
   -1.61227379e+00   1.89957059e-01  -1.86582989e-01   1.02392167e-01
   -1.91598228e-01   4.47400901e-02  -1.51331035e+00  -3.83224791e-01
    1.26941413e+00  -2.14769389e-01  -6.91738169e-01  -8.12464428e-02
   -5.01660332e-01  -2.68777275e-01  -2.24756133e-01  -4.26699096e-01
   -1.07781012e-01  -5.44281876e-01   4.43812185e-01  -2.22467546e+00
   -3.57256564e-02  -1.08628635e+00  -2.91474692e-02  -1.30588398e+00
    8.57516767e-02  -1.09859920e+00  -8.07964115e-02  -5.83464618e-02
   -4.64972159e-01  -1.16446036e+00  -4.12355160e-01  -1.85780064e-01
    1.86982717e+00   2.12661749e-01  -4.69627499e-01  -2.31557085e-01
   -5.57452105e-01  -1.54200867e-01  -6.54583135e-01  -1.40136222e-01
   -1.84360321e-01  -9.12957958e-01  -4.22994483e-01  -2.85868997e-01
   -1.72609446e-01   7.49150810e-02]
 [  3.38700309e-01  -4.06839700e-01   1.93480176e-01   4.89230580e-01
    1.88217665e+00  -7.03845163e-01   2.08299579e-01   8.14908345e-01
    1.77020487e-01  -5.42883971e-01  -4.61770136e-01   2.96043890e-02
   -4.17363751e-01  -1.61659207e-01   8.56215278e-01   7.37987204e-02
    8.22215184e-01  -4.25031382e+00   3.23522475e-01   4.91096705e-01
    5.51392275e-01  -5.31713470e-02   6.22798874e-01   1.70600461e-01
    5.39516455e-01  -5.54232898e-02   3.84674598e-01   1.51521689e+00
    1.40394088e-01   2.84247412e-01   5.40724141e-01   2.04259640e-01
    4.55880325e-02  -1.79728443e-01   1.01015177e-01   6.32192719e-02
    1.04061240e+00  -3.32452621e-01   9.27818128e-02  -1.75219653e-02
   -2.02775317e+00   7.52157696e-02  -2.32055334e-02   3.56238898e-02
    9.78670478e-02  -8.53728061e-02   2.71577887e-01   3.30296023e-03
    1.48669914e-01  -1.36498728e+00]
 [  3.00729496e-02   1.78761756e-02   1.32015272e-01  -7.81973323e-01
    5.46047910e-01  -2.80284976e-01   3.70411204e-01  -1.02693093e-01
   -2.36283630e-01   4.44447706e-01  -5.64541417e-02  -1.14576765e+00
   -4.54273002e-01   5.35998184e-01   9.81329567e-01   2.48270213e-01
   -5.37797474e-01  -7.57164762e-01  -2.73267380e+00   1.51575429e+00
    6.12256367e-01   6.53289413e-02  -1.35623907e-01  -1.43117287e-01
    3.33426166e-01  -4.54029851e-01  -3.23304130e-01  -6.01231861e-02
    3.50862601e-02   7.63742481e-01  -1.85100300e-01   1.03704441e+00
    5.52975851e-01   1.74518582e+00   3.35853538e-01   5.13438909e-01
   -9.47122129e-01  -2.07853351e-01   9.47046866e-01   7.70388343e-02
   -3.10046833e-01   1.17701563e+00   2.10649314e+00   1.41851275e-01
    6.53200005e-01   1.14853152e-01  -2.59649862e-01   8.90010014e-01
   -2.95639967e-02  -1.02715763e+00]
 [ -1.38116969e-01   2.04005162e-01  -2.07371453e-01   8.58694035e-01
    5.63762549e-01  -8.98824317e-02  -8.41173889e-02   1.34065331e-01
    8.85360263e-01  -3.32459471e-01  -4.01650679e-01  -2.58914369e-01
    5.66998380e-02  -4.37592912e-02   4.34748307e-01  -1.05026851e-01
   -1.99936507e-01   1.05505196e+00   1.10896780e+00  -9.18025749e+00
   -3.57985809e-02  -4.57634676e-02   1.26535325e-01  -6.30715579e-01
    1.57541313e-01   7.11568505e-01   1.17483713e-01   1.77119796e-02
   -7.18025360e-03   1.66506717e-01   2.98248987e-01   2.36597609e-01
    2.21497345e-01  -2.81467958e-01   1.98397843e-01   2.25399171e-02
    4.44225689e-02  -3.67029155e-01   1.10270181e+00  -1.93691303e-01
    1.95915558e+00   5.05847488e-01   9.58388917e-01  -5.25425682e-02
    1.29904587e+00   1.02321069e+00   1.03453735e+00  -1.52591467e-01
    4.13012559e-02  -8.36507532e-01]
 [  1.69246013e-01   5.64328557e-01  -2.16400709e-01   4.73906909e-01
   -1.59867112e-01  -4.51763209e-01   4.30591887e-02  -1.85202465e-01
   -2.91073717e-01  -9.32975657e-02   1.99945435e+00  -1.01774763e+00
    2.88402713e-01   4.82870394e-01  -1.65001690e+00  -6.73211459e-02
    4.47863824e-01  -4.05278144e-01  -1.37000733e-01   3.91909852e-01
   -5.90532376e+00  -2.02293374e-01   3.09544848e-01   1.85910678e+00
   -1.32061118e-01   6.06916209e-02   1.93177184e-01   1.26765424e+00
   -1.31076304e-01   5.72089644e-01   9.02513172e-02   8.94172991e-01
    2.68668775e-01  -1.73350332e-01   3.76138628e-02  -1.09000729e-01
    1.35511509e+00   1.18102927e-01  -2.41296436e-01   3.45070950e+00
    7.34596307e-01  -5.04425765e-01   1.79327159e-01   1.39954995e-01
    1.59674728e+00  -2.49300270e-01   2.81076315e-01   2.19610091e-01
    6.77394095e-02  -2.81361035e-01]
 [ -2.30737789e-01   1.24154575e-01   1.27517818e-01   1.38649746e+00
    1.02486145e+00   1.68995803e-01   1.48976410e-01   8.34939420e-01
    6.31679866e-01   2.44010701e-01  -2.09454570e-01   1.41722348e-01
    1.85846037e-01  -3.76094527e-02   2.74684996e+00  -4.08588586e-02
    6.84889178e-01   1.35556829e-01   3.05731182e-01   4.44614213e-01
   -1.45158447e-01  -2.45000337e+00  -2.18017365e-01  -8.59863716e-01
   -6.46582545e-01  -3.68838961e-02   2.16820996e-01  -3.73922618e-02
   -1.79109383e-01   4.00272911e-01  -1.70776366e-01   9.88822055e-02
   -2.42596830e-02  -1.88970175e-01   1.63985033e-01   2.95427595e-01
    1.11892237e+00   2.78958323e-01   4.82418835e-01   7.16520164e-01
   -3.40406327e-01  -4.40920986e-01   1.07172339e+00  -6.37148181e-02
    6.47196864e-01   6.16743598e-01   1.44781586e+00   7.55163714e-01
   -1.92838664e-01  -2.48621607e-01]
 [ -4.05677101e-01   6.97628191e-01   2.54849633e-01   1.95777120e-01
   -8.72095367e-01   1.30118256e-02   2.70823771e-01  -2.05068087e-01
   -5.83404770e-01  -1.13067895e+00  -1.34673663e+00  -8.61925567e-01
    2.80084756e-01  -1.28932691e-01   4.15283699e-01   4.40220927e-01
   -6.66748723e-01  -6.43419600e-01  -5.60591470e-01   9.09805429e-01
    3.92142755e-01  -6.47883183e-01  -2.02982953e+00   8.60640126e-01
   -5.39350062e-01  -1.39086219e-01   9.18015889e-01   5.37634440e-02
    1.26317357e+00  -5.10443829e-01   4.50982080e-01  -3.25682547e-01
    1.41482946e-01   1.38444042e+00   1.29279782e-01   3.99841464e-01
    1.26531906e+00   3.02925598e-02   8.39185426e-01  -7.92612169e-01
   -8.41477088e-01  -2.06090685e+00   4.13823991e-02  -7.41625744e-01
   -4.73794196e-01  -9.79892137e-01  -8.99997177e-01  -3.75614168e-01
    3.14374551e-01   1.04444041e+00]
 [ -7.96242378e-02   3.04766974e-01   6.11084256e-03   7.11797297e-01
   -5.59885558e-01   1.41724399e-01   9.09965003e-03   4.95411509e-01
    7.58672183e-01   1.33399409e-01   3.59371710e-02  -2.65812328e-01
    9.25767085e-01   1.93256790e-01   1.39912810e-01   9.30402139e-02
   -8.96689985e-02  -2.89944411e-01  -2.84192623e-01  -6.79021706e-01
   -1.04216509e-01  -9.45104346e-02   9.49435273e-01  -5.97864120e+00
   -1.82974194e-01   9.18210359e-02  -2.95761707e-01  -6.05867280e-01
    4.36137537e-02  -1.58376101e+00   5.65866880e-02   3.72028364e-01
    7.84057731e-02  -1.78936605e-01   6.09415390e-02   2.18767329e-01
    1.07628624e+00   1.06921360e+00  -2.46037798e-01  -1.13066006e-01
   -3.51446804e-01  -6.22522290e-01  -5.20125621e-01   1.68810628e-01
   -2.95095173e-01  -3.86605874e-01   8.58992733e-01  -1.56301273e-01
    2.20259159e-01   3.95659427e-02]
 [  1.60551287e-01   4.39013178e-01   1.48275292e-01  -1.11403230e-01
    4.87847655e-01   1.68166016e-01   2.21645080e-01   7.22674305e-01
    7.71460981e-01   3.98839932e-01   2.30015025e-01   6.97511520e-01
    5.24809374e-01   2.13788638e-01  -1.91838630e+00   1.26823567e-01
    2.12046921e-01   4.54067453e-01  -1.02890373e-01   1.50654973e-01
   -3.23433484e-02   5.07535597e-01   2.40757929e-01  -1.47537828e+00
   -4.78327201e+00   3.45450951e-01   2.43897136e-01  -1.05388646e-01
    6.48380208e-02  -1.81414944e-01   3.28949355e-01   6.96454645e-01
    3.36408409e-01  -4.86817729e-02   3.29986356e-01   2.12997240e-01
    1.69594861e+00   4.89630096e-01   3.60550143e-01   1.82878387e-01
   -3.18924473e-01   2.36443423e-01   6.66807694e-01   2.10933556e-01
    5.47332977e-02   4.48546560e-01   3.85014025e-02   1.95043616e-01
    1.08275988e-01   8.97020081e-01]
 [ -1.04093950e-02  -6.16037951e-01  -6.73096430e-01   6.63894841e-01
   -1.03290253e+00   1.92087931e+00  -1.96985298e-01   6.84168971e-01
    1.58517492e+00   2.71650748e+00  -2.56818717e-02   3.29074923e-01
   -1.08841272e+00  -7.05195137e-01  -1.95153530e-01  -2.56662988e-01
   -2.25560999e-01   1.16824628e+00   7.97422788e-01   1.54927279e+00
   -2.11804849e-01   1.68582185e-01  -2.07518392e+00   1.09834765e+00
   -5.91177924e-01  -1.89450883e+00   3.92768899e-01  -6.93321231e-01
   -2.70922862e-01  -1.59757860e+00   3.67915468e-01  -4.88714022e-01
    1.32688390e-01   5.40179731e-01  -6.42574526e-02  -2.67099983e-01
    1.29016343e+00   2.05796931e+00   2.26861445e+00   1.27316576e+00
    6.47232881e-01  -4.32356411e-01   2.49560337e+00  -2.68730458e-01
    3.06649222e+00   1.26247823e+00   1.33518991e+00  -6.87080729e-01
   -5.47811556e-01   2.67980715e+00]
 [  2.08044629e-01  -1.85933932e-01  -1.39888526e-01   2.14803953e-01
   -7.47952915e-01  -2.54667946e-01   8.22800680e-02   6.34002039e-02
   -1.39796251e+00   3.64524747e-01  -1.34386782e+00   1.51007589e-01
    8.25665957e-02   3.44451792e-01   7.78996325e-01  -6.00435681e-02
   -6.32639914e-01   6.62963402e-01  -2.82455322e-01   2.02731627e-01
    1.11839928e+00  -5.32858785e-01   4.89231926e-01  -1.81981693e-01
    2.55075382e-01   5.27495545e-03  -5.19601001e+00   1.51913505e+00
    6.44425258e-02  -3.51907724e-01   6.00019706e-03  -3.75510316e-01
    3.05085235e-01   1.66739363e-01   1.00402937e-01   2.53654959e-01
    9.09293038e-02  -7.30248868e-01  -2.22758151e-01  -4.77669392e-01
   -7.80473390e-01   2.70946447e-01  -8.48333571e-01   5.66561417e-02
   -8.13316492e-01   8.52772307e-01  -9.84236299e-01   1.51109262e-01
   -3.32159498e-02  -7.06908222e-03]
 [  6.01998767e-02  -2.59434314e-01   2.36347220e-01  -2.53496688e-01
    5.34031643e-02  -1.11638242e-01   1.06640222e-01  -2.58446479e-01
    2.85024154e+00  -3.05324603e-01   1.29939189e+00   9.13324217e-01
   -8.10528321e-01  -8.78663358e-02  -3.05144080e-01  -5.57538403e-02
   -8.11313027e-01  -1.77026517e+00   1.68657039e-01   1.34576602e-01
   -7.65430678e-01   7.58830361e-01   2.88302294e-01   1.49193859e+00
   -2.07656734e-01   5.90027500e-01   3.21337002e+00  -6.53803113e+00
   -2.83876377e-02  -1.04053302e-01   3.44877657e-02   1.06748772e-01
    1.75336086e-01  -2.01556890e-01   8.05778481e-02  -8.23880527e-02
   -4.14727056e-01   2.86547694e-01  -2.17927472e-01   1.04377543e-01
    2.95852202e-01   3.41901335e-01   8.66619334e-01   1.66409241e-01
    4.50572266e-01   7.59212957e-01   2.44407159e+00   1.74044665e-01
   -2.22560316e-01  -1.77217661e-01]
 [  1.11627229e-01  -4.33427323e-02  -5.02746802e-03  -4.77329755e-03
   -1.25521359e-01   1.11256354e+00   3.05863832e-02   8.41231292e-01
    1.52652474e-01   1.94005087e+00  -7.40934992e-01  -7.53908178e-01
   -1.29293055e+00  -1.38193617e-01  -8.64236511e-01   8.61554676e-02
    6.65918766e-01   3.33289318e-01   5.58992376e-01  -5.23184380e-01
   -4.54367703e-02   3.79101486e-01  -6.48587613e-01  -2.56809697e-01
   -1.85688670e-01   1.76621183e-01  -9.22950985e-01   5.34365135e-01
   -4.41909172e+00   3.49619181e-01  -8.25056656e-02   3.84517448e+00
   -3.53826790e-01   2.68127096e-01  -1.10393561e-01   9.94648379e-01
    1.38827922e+00  -3.38030900e+00  -2.89019539e-01   1.61999393e+00
    7.62954650e-02   5.44114458e-01  -1.28302688e-01  -1.22333210e-01
   -3.79988678e-01  -1.35568644e-01  -1.31308221e-01  -6.73813755e-02
   -1.64152724e-01   3.13266200e-01]
 [ -1.07278591e-01  -3.91067339e-01   9.73826439e-03   5.25633894e-01
   -1.16984035e-01  -6.54436615e-01  -9.96932630e-02   6.07394248e-01
    9.01933294e-01  -1.32561026e-01   5.97147152e-01   2.19923669e+00
    8.23811238e-01  -7.23677906e-01  -5.07537523e-02  -3.10077535e-01
   -2.52596932e-01  -6.10382546e-01   7.02529146e-02   1.35961972e+00
    1.35577682e-01  -3.93140211e-01  -5.43505630e-01   3.02078899e+00
   -2.67825912e-01  -4.41044855e-01  -9.69309034e-02   7.33472794e-02
   -2.11225677e-01  -7.84404488e+00  -1.27234685e-01   2.74558201e-01
    1.13861165e-01   2.01743228e-01  -3.40921380e-02  -3.08761606e-01
    3.02231686e-01  -2.30509530e-01  -1.02143802e-01   3.45934789e-01
   -2.18082797e-02  -2.92379683e-01   1.40646022e-01  -8.93764158e-02
    1.23907818e+00  -1.95003975e-02  -2.32071221e-01  -8.66684485e-02
   -1.85746532e-01  -7.03625651e-01]
 [ -5.18039319e-02  -1.93561627e+00   4.00035823e-02  -1.16906227e+00
   -4.90088765e-01   4.47753452e-02  -1.19790108e-01   9.90619816e-02
   -1.12156254e+00  -2.74620077e+00   5.37401816e-01  -5.03562898e-01
    9.40848330e-01  -8.70905516e-02  -2.64768545e+00   7.97818731e-03
    4.57998892e-01   4.35054455e-01  -1.27063308e+00  -5.68796205e-01
    3.79520813e-01   5.96569534e-01   7.60343174e-01   1.07229805e+00
   -5.27340053e-01   1.76389581e+00   3.51192887e-02   1.76101349e+00
   -7.31790149e-02  -2.16185933e-01  -4.05699029e+00   1.12152515e+00
   -3.26265081e-02   2.97020311e-01   3.11203706e-01   4.67083036e-01
   -1.24206299e+00   5.77608893e-01  -5.26878061e-01   2.64221324e-03
   -1.02133389e+00   9.42811942e-01  -2.18373781e-01  -3.27900587e-03
   -5.78564792e-01   2.43860252e-01   4.90032653e-01   2.09479390e-01
    1.11156556e-01  -2.00943782e-01]
 [ -9.84953938e-02   5.84933460e-01   2.71776698e-01   7.36916944e-01
    6.21311209e-02   7.24808914e-02   1.89268789e-01  -2.30082497e-01
   -1.75182890e-01   1.50761258e+00   7.43182651e-01  -1.08235501e-02
    9.32935872e-01   1.03481842e-01   2.20466127e+00  -6.76133890e-02
    7.61332993e-01   2.95410017e-01   7.17583676e-01  -7.15843746e-02
    1.81998516e-01  -3.79478721e-01   1.49491546e-01  -3.19148325e+00
    6.40041394e-01  -1.12221520e-01   3.62602381e-01   9.57942007e-01
   -7.53063406e-03  -2.79945123e-01  -2.44111763e-01  -1.41165403e+00
    8.68814377e-02  -3.09032807e-01   8.82285787e-02  -1.50499196e-01
    2.10145122e+00   9.69380638e-01   4.54798488e-01  -1.42586623e-01
    1.41186621e+00   1.89470485e-01   8.99460670e-01   8.93741863e-02
    1.39933937e-01   3.24068485e-01  -2.13484548e-01   5.00480749e-01
   -8.17026871e-03   7.25073552e-01]
 [  2.40512243e-01  -1.60630098e-01  -1.57807525e-01  -1.73696454e-01
    1.09933337e-01  -5.92720258e-01   1.97469910e-01  -1.05817000e-01
   -3.14218463e-01  -6.92359544e-01   8.67069366e-01   1.04099096e+00
    5.38245156e-01   2.34937565e-01   1.08262368e+00   6.53000668e-02
   -3.33994865e-01   3.72142370e-01  -5.93595397e-01  -2.53531392e-01
    3.25252737e-01   2.66645676e-02  -2.29482537e-01   1.50611942e+00
    9.46204281e-01   7.75668917e-02  -1.37768466e-01  -1.70044219e-01
    8.79546805e-02  -1.30333159e+00   2.71325140e-01   1.36862713e-01
   -4.01911793e+00   2.49494929e-01   2.79882047e-01   5.96451852e-01
   -2.63838346e+00  -3.57600732e-01  -3.84557272e-01  -6.47166445e-01
    2.07667847e-01  -4.14956537e-02   5.01486098e-01   2.54909608e-01
    5.33319252e-01   4.65680039e-01   5.64103327e-02   3.93277362e-01
    1.04908442e-01   3.63181299e-01]
 [  3.57311653e-01  -2.08878769e-02   2.76332954e-01   1.51619330e-01
   -6.89357385e-01  -5.07787110e-01   1.61899949e-01   4.64282644e-01
    1.28750899e+00  -4.48297366e-01  -1.53851557e+00  -5.03325371e-01
    1.45502041e+00   2.84480708e-01  -1.46162614e+00   1.01915316e-01
   -7.49592022e-01  -5.33930845e-01   6.14614651e-01  -1.34752644e+00
    2.62644664e-01  -2.36498022e-01   3.76764027e-01   3.91734098e-01
    1.89498459e-01  -4.84983338e-01  -6.18457840e-01   5.00252644e-01
    1.38050110e-01   2.33736878e-01  -7.09870700e-02  -1.08620783e+00
   -4.26426708e-02  -3.71400385e+00  -4.03665818e-02  -2.81170435e-02
   -4.54332100e-01  -5.17423964e-01  -2.01100980e+00  -3.98042788e+00
    8.69496350e-01   1.33668164e+00  -1.99790150e+00  -1.94772347e-01
   -5.12301905e-01  -2.80856664e-01   9.53275704e-01  -8.13508001e-03
   -2.46171506e-02  -1.29565632e+00]
 [ -1.17527696e-02  -3.72477524e-02  -1.63048053e-01  -5.05025783e-02
    7.27988508e-01   2.41259196e-03  -3.69112297e-02   1.55518932e-01
   -6.98575887e-01   8.40013554e-01   1.02821533e-01   2.09927383e-01
   -2.05462766e-01   2.11451131e-01  -2.18981082e+00   8.99136791e-02
   -1.70939269e-01  -3.75581801e-01  -1.97727692e-01   1.07338551e-01
   -4.68930386e-02   2.39996589e-01   1.70009474e-01  -7.15785115e-01
    1.83032304e-01   8.72302960e-02   1.73514681e-01   1.04703919e+00
   -2.94123063e-02   3.16093290e-02   1.20205666e-01   2.24414935e-01
    1.54242285e-02  -6.56412768e-02  -4.20455719e+00  -7.50006898e-02
   -8.64361555e-01  -2.85119246e-01   7.92551157e-02  -1.42792990e-01
    1.85284737e-01   2.27653056e-01   6.06201545e-01   5.59442776e-02
   -1.54502889e-02   1.15071486e-01  -9.57294040e-01   1.86267650e-01
    9.79311172e-02  -5.25304135e-02]
 [  4.78517233e-01   6.42612965e-01  -1.74197170e+00   7.92622097e-01
    5.98686406e-01  -4.83225431e-01   5.85086206e-01   1.96458678e-01
    6.59014110e-01   4.91214142e-01   5.04994438e-01   3.45385358e-01
   -2.42947411e-04  -2.69042347e-03   1.43299458e+00   4.04077282e-01
   -1.67458614e-01   1.12658783e+00  -8.97406703e-02   2.17037063e-01
    9.08174141e-02   6.93601461e-01   4.70278636e-01   2.40353897e+00
    1.66047737e-01  -2.61353044e-01  -1.80900367e-01   7.58316431e-01
   -9.40335210e-01   8.93915727e-03  -4.66831694e-01  -1.57317425e-01
    4.32967764e-01   9.75499930e-01   5.83720956e-01  -4.04579518e+00
    1.47032779e+00  -4.57481865e-01   5.10666394e-01  -1.94836799e-01
   -1.41608021e-01  -3.38421533e-01  -2.14628762e-01   3.96565787e-01
    1.70731295e-01  -8.10116379e-02  -6.73177058e-01   2.71940763e-01
   -8.10701707e-02  -5.69016520e-01]
 [  3.69210053e-01   7.03530503e-01   9.73056573e-02  -6.51395745e-01
   -1.28294430e+00   4.61737381e-01  -4.77288341e-01  -5.80393506e-01
   -2.91128466e+00  -1.87515376e+00  -1.60787124e+00  -8.62170014e-01
    5.37181749e-01   2.26732484e-01   2.48750521e+00   2.64619560e-01
    3.76512907e-01  -1.02015374e+00   9.05806420e-02   4.55931594e-02
    4.90191968e-01  -5.67817358e-01  -1.51091269e+00  -5.34829087e-01
    5.42678805e-01  -9.36974074e-01  -1.16874273e+00  -4.32017974e-01
    1.67031980e-01   3.56466440e-01   5.32702693e-01   5.50727135e-01
   -3.26276257e-01  -9.07575710e-02  -3.84654258e-01  -4.36899326e-01
    8.05127103e-01  -1.33315374e-01   5.51183936e-01   1.60647793e+00
   -9.44453725e-01  -1.41231953e+00   6.24293050e-01   1.34323495e-01
   -3.78991227e-01  -2.08984258e+00  -1.48639011e+00  -4.56978263e-01
    3.94021639e-01   9.59752584e-01]
 [  6.22951040e-01   4.38722631e-02  -1.13968350e-01  -2.20481614e-01
   -9.33264787e-01   7.09045790e-01  -5.98813123e-02  -4.74400131e-01
   -4.23170189e-01  -3.89718736e-01  -1.06933236e+00  -2.61257018e-01
   -3.08246175e-01   1.49497122e-01  -2.05686206e+00  -1.39355938e-01
   -1.35837946e-01  -1.25094597e-01  -9.56072782e-02  -1.04909991e-01
    5.70467323e-01  -8.14921331e-01  -1.14798443e-01  -6.95703903e-01
   -1.21563186e-01   5.57791445e-01  -3.35674819e-01  -9.92008131e-01
   -1.42469027e+00  -1.69600715e-01   4.00095196e-01  -8.03109605e-01
   -2.87970297e-01   4.34386917e-01  -2.60507248e-01   2.50453980e-02
    9.78445038e-01  -3.12412160e+00  -5.21244769e-01  -3.43697458e-01
   -3.36314318e-01  -9.77958776e-01   5.19009602e-02  -5.59626920e-02
   -1.87412093e-01  -3.65675429e-01  -6.73133055e-02  -2.18035939e-01
    5.79582938e-01  -7.99993125e-01]
 [ -1.55988777e-01   2.28745274e-01  -1.58840603e-01   1.04175252e-01
    6.31738576e-01  -1.87697954e-01  -1.12685283e-01  -1.85602760e-01
    1.73627355e+00  -6.42305020e-01   5.38568646e-01  -7.17688443e-01
    1.89167048e-01  -1.55208968e-01   2.10925876e+00  -2.26519019e-02
    1.07602847e-01  -4.15330225e-02  -1.62419234e-01   1.48904984e+00
   -2.63300240e-01  -4.57520307e-01   4.39604596e-01  -2.47944726e-01
    1.70415563e-01   3.25488409e-01   9.57862308e-01   6.10018623e-01
    1.49017427e-01   4.96363559e-01   9.66909741e-02   4.38399433e-01
    1.32787057e-01  -5.78405368e-01   4.54939541e-02  -1.57655272e-01
   -6.61811254e-02  -3.09705330e-01  -5.81541789e+00  -5.12803933e-01
    3.83045686e-01  -8.44807359e-02   9.23152745e-01   1.69343030e-01
    7.11334583e-01   9.43357943e-01   1.45009914e+00  -3.97732109e-01
    5.89149929e-02  -2.67993187e-01]
 [ -2.36175036e-02   1.17926166e-01  -4.56456883e-02  -2.25646006e-01
    3.80167101e-01   1.49620319e-01  -3.96606814e-02   6.52426340e-02
    7.94960928e-03  -4.29832633e-01   6.89571356e-01  -4.92781602e-02
    4.43151768e-02   5.19142208e-01   9.66332130e-02   1.63239709e-02
    8.12504533e-01   4.04483420e-01   1.08544868e+00   5.59354527e-01
    9.42214558e-01  -7.31129525e-02  -8.51424961e-02   8.95984040e-01
    4.07221217e-01  -4.97181666e-01   1.16793742e-01  -4.84716032e-01
   -4.31285093e-02   4.65318850e-01  -4.35509197e-01  -1.14488107e+00
   -3.99347520e-02  -1.70542520e+00   2.27172347e-02  -4.74319707e-01
   -5.70873758e-01   3.52909722e-01  -4.68226810e-01  -1.15289921e+00
   -1.38954810e+00  -3.77895235e-01  -1.82768874e-01   8.38263344e-02
   -4.22912551e-01  -5.56479265e-01   1.86727073e-01   7.51719313e-02
    8.94669024e-02   5.72019214e-01]
 [ -1.77305855e-02  -3.61435120e-01  -2.70200913e-02   2.18072662e+00
    6.60700392e-01   5.87559858e-01  -2.86159312e-02   1.89044677e-01
   -1.00818600e+00   1.02695094e-01  -1.29503125e+00   1.44425963e-01
    4.19612278e-01   3.12851824e-01   2.55825930e-01  -1.66912202e-02
    5.95715108e-01  -2.28728452e+00   2.92496667e-01   1.38891878e+00
    5.22246993e-01  -4.83819748e-01   8.57112617e-02   5.18990023e-01
   -4.33454656e-01   2.21921858e-01  -2.34311011e+00   1.43348768e+00
    1.86429032e-01   2.70820818e-01  -4.09667906e-01   9.97452354e-01
    3.23867148e-02   9.93437668e-01   2.00082083e-01   9.38259352e-01
    1.51859895e-01   2.96152027e-01   6.72415122e-02   6.38528742e-01
   -4.28279030e+00   3.86971101e-01   7.85778360e-02  -2.24951566e-01
    3.09366490e-01   2.20119144e-01   3.75107153e-02  -5.13562036e-01
   -1.99436638e-03   1.40777407e-01]
 [ -1.87000351e-01  -9.97096559e-01   1.28376198e+00   1.89515686e-01
   -2.65719053e-01  -3.61373295e-02   1.28664151e+00  -9.90285933e-01
   -4.58646817e-01  -1.17047263e+00   7.21755046e-01   1.90920566e-02
   -3.05215845e-01   2.55055219e-01  -1.09961053e+00   8.35191664e-01
   -7.24245651e-01   1.33257910e+00   2.00606381e-01  -5.63668679e-01
    4.51395186e-02   1.18649496e-01  -5.79002519e-02   1.60854497e+00
    6.36978862e-01   1.10723270e+00  -3.15954498e-02   2.16697925e-02
   -4.09620404e-01   5.19163641e-01  -4.90310518e-01   6.13419837e-02
   -2.50298458e-01  -4.49317703e-01   1.55996289e+00  -5.81561825e-01
   -2.02251764e+00  -1.02362398e+00   1.52169172e-01  -7.82799503e-01
    6.64043282e-01   6.43203042e-01   5.18909041e-01   1.29286430e+00
   -1.76417616e-01   7.32821432e-01  -4.43197220e-01  -7.27210180e-02
    4.03925886e-01  -1.04180644e+00]
 [  5.74630023e-02  -8.41455591e-02  -2.41539137e-01  -3.01716874e-01
    4.54820730e-01   7.71584426e-01   6.30594831e-02   1.22667211e-01
   -3.92464004e-01  -3.57883638e-01  -9.26641939e-01   6.12220403e-02
   -8.70489773e-02   4.77888232e-02   1.29553631e+00  -5.75710452e-02
   -3.77509721e-02   3.45699903e-01   5.18102719e-01   2.92853899e-01
    3.63879782e-01   2.68893250e-01  -3.96801637e-01  -3.11346474e-01
   -8.47119890e-02   1.17901832e+00  -1.08829203e+00  -1.73266859e-02
    1.20010934e-01   9.53797152e-01   1.29089240e-01  -1.78308140e-01
    3.80450898e-01  -4.77713655e-01   3.17201650e-01   4.70652966e-02
   -1.12836186e+00   2.71796983e-01   9.96186007e-01   5.71821695e-01
   -5.69447350e-01   2.89034019e-01  -8.01192653e+00   1.10899616e-01
   -3.82093088e-01   3.56470355e-01  -5.87115699e-01  -1.36680908e-01
   -1.02484276e-01   5.23858243e-01]
 [  3.25114596e-01   1.33179167e-02   1.90433351e-02  -1.78470723e-01
    4.41259959e-01  -1.65635011e-01   2.77056150e-01  -1.82405453e-01
    5.45365860e-02  -1.15427763e+00  -2.32653793e-01   6.17879883e-02
   -1.53030488e+00   1.57713875e-01  -1.16174739e+00   1.55503967e-01
   -1.53899261e-01  -4.69558592e-01   2.66778886e-01  -3.65367862e-01
    2.21150757e-01   1.60304037e-01   7.00658940e-01   1.07043432e+00
    3.74248075e-01   2.66759458e-01   5.05914859e-02   3.06712993e-03
    1.67512931e-01   6.77289440e-01  -2.97787253e-02   6.20399073e-01
    1.01396327e-02   9.55718870e-02   2.44938115e-01  -2.24399647e-01
   -3.16732535e-01   4.30042000e-01   9.61505050e-02   5.15994585e-01
   -2.77543107e-01  -5.50772956e-01  -1.29265927e-01  -4.25097277e+00
    8.86189798e-01   1.12152317e-01   2.11987860e-01   1.01087596e-01
    3.15773604e-01   6.55483790e-01]
 [ -5.01692838e-02   2.32457027e-01  -4.15705998e-01  -6.82412850e-02
    4.86472293e-01   6.31404259e-02   1.01250506e-01   6.64386641e-01
    2.28738912e-01   7.72092169e-02   8.68350679e-01  -6.73632645e-01
    2.91935408e-02  -2.91528056e-01   1.43142163e+00  -7.71661215e-02
    7.33785192e-01   1.79457076e-01  -1.05424687e+00  -1.97479801e+00
    8.09847562e-01   5.35963518e-01  -3.16769067e-01   3.93313216e-01
    3.32466825e-01   6.64398468e-01  -7.63946096e-02  -6.68526392e-01
   -5.94343126e-02   3.95819344e-01   6.60295122e-01  -7.13693867e-02
    3.74385776e-02  -1.13229690e-01   1.08005180e-02   1.53391794e-01
   -1.29203398e-01   8.36818308e-01  -5.62531497e-01  -1.23254194e+00
    2.07472554e+00  -4.09261035e-01  -2.51564264e-01   8.77607782e-02
   -1.06831897e+01   1.95168079e-01   5.52049022e-01   6.21510832e-02
    6.76052589e-02   5.36810450e-01]
 [  5.98575535e-01   3.44290178e-01   3.75188527e-01   1.70382450e-01
   -7.15807958e-01  -2.79705482e-01   1.07485454e-01   8.33109845e-01
    1.55760963e+00  -1.85301831e-01   3.87043374e-01   5.69778074e-01
    1.13777055e-01  -2.38167203e-02  -5.40271844e-01   1.09216359e-01
    5.41078569e-01  -1.16665079e-02   3.16878850e-01   3.21135793e-01
   -2.30005448e-01  -2.07940940e-03   2.00187524e-01   5.12143603e-01
    7.00540421e-01   1.84664586e-01   5.30439351e-01   1.83294060e-01
    2.77378954e-01  -4.25558340e-01   1.77565464e-01   1.59928058e-01
    5.45290371e-01   1.23637576e-01   7.53280954e-02   6.03585077e-01
    1.13308450e+00   1.89567225e-01   1.01942425e+00  -3.90960783e-02
    6.58487239e-01  -1.27920153e+00   1.04548399e-01  -9.80773843e-02
   -9.97279986e-02  -3.81937160e+00   4.28276976e-01   3.65662967e-01
    7.47632043e-02   2.18053558e-01]
 [ -2.28487302e-01   5.24163640e-01   5.03440552e-01   1.16463764e+00
    9.94569349e-01  -7.57166102e-01  -3.70648348e-01  -1.60465328e+00
   -1.26836335e+00   9.58026208e-01   5.27332038e-01  -3.38192120e-01
   -3.31002070e-01  -3.84526748e-03  -4.77782590e-01  -2.12883087e-01
   -7.00397609e-01   3.67514171e-01  -7.13218781e-01   5.08476121e-01
    3.11844764e-02   1.36312729e+00  -2.93559228e+00  -8.28358130e-01
   -7.00013453e-01   3.49819438e-01   3.71980713e-01  -2.05689477e-01
   -5.28518503e-01  -1.01166915e-01  -6.52409020e-02  -2.58814755e-01
    4.19234307e-02   6.09806905e-01  -2.07858947e-01  -3.01683615e-01
   -1.11876594e+00  -4.25946773e-01   1.06836933e+00   3.28339077e-01
   -2.67233863e-02   1.20917218e+00   3.49541725e-02   1.02490077e-01
   -2.80709317e-01   8.89225443e-01  -7.93819716e+00   1.27941178e-01
   -3.93759552e-01  -3.62078755e-01]
 [  3.79088999e-02  -2.53165061e-02   1.06472945e-01   8.40210830e-03
    5.33473111e-01  -8.58299985e-02   1.74404945e-01   4.04029456e-01
    6.27197926e-01   3.73041329e-01   2.09656804e-01  -6.48197207e-02
    5.68790795e-01   3.28553732e-02   6.52099203e-01   4.78099964e-02
    2.73813126e-01  -6.43041281e-03   1.01518156e+00   9.09003357e-02
    6.11854568e-02   2.64087439e-01   6.82303544e-01   1.04655360e+00
   -5.26630698e-02  -2.95439967e-01  -1.30157059e-01   5.18065352e-01
    7.45992146e-02  -3.36317387e-01   2.53213786e-02   7.10357047e-01
    1.50209107e-01   1.70083536e-01   1.78086491e-01   3.26042656e-01
    9.46636984e-01  -1.74886665e-01   8.20343751e-02  -7.85475194e-01
   -2.00189749e-01   3.10145913e-01   7.11653926e-01   1.16728410e-01
   -5.59440744e-02   1.16675656e-01   1.06763077e+00  -4.86719467e+00
    9.57269782e-02  -3.11549934e-01]
 [  3.16782113e-01  -5.88931411e-01   1.19287626e-01  -6.07612427e-01
   -6.82048793e-01   4.33079496e-01   2.94326689e-01  -4.16541972e-01
    1.85003634e-01  -1.12839351e+00  -6.88304580e-01   1.45906299e-02
   -3.15560120e-01   3.02341665e-01  -9.01762138e-01   2.92383021e-01
    6.08381012e-01  -6.55506718e-01  -1.18487288e-01  -7.64116400e-02
    1.93184481e-01  -3.53823320e-01   1.38713100e-01   2.51325536e-01
    1.85958180e-01   1.97290060e-01   8.47410864e-02  -2.61333055e-01
    1.86776459e-01   1.49392688e-01   2.63322184e-01   7.47150244e-02
    1.02852819e-01   2.41934452e-02   3.49672585e-01   5.71336615e-02
    1.38447176e-01  -2.68749967e-01  -2.83913228e-01   1.60234994e-01
   -4.44816578e-01  -4.86596373e-01  -1.28231626e-01   3.67831210e-01
    1.78456382e-01  -1.51565659e-01  -4.97662295e-01  -1.86365873e-02
   -4.33512975e+00  -3.39675755e-02]
 [  3.56427533e-01  -2.81737292e-01   9.67520328e-02  -3.27562918e-01
    5.63492976e-01   3.02145032e-01  -5.85154189e-02   1.32228097e-01
   -2.64824708e-01   1.36598643e+00   3.35450267e-01   2.09630905e+00
    1.98081762e-01   4.32997849e-01   8.39890706e-01   3.44707411e-01
    5.00519932e-01   4.32286305e-01  -4.82151297e-01   5.61006180e-01
   -1.26194305e-01   3.91359328e-01   4.14014188e-01   1.78134078e-01
    2.78425787e-01  -6.65663501e-01  -1.12052310e-01   4.95625619e-01
   -1.02490254e+00   2.66171691e-01  -6.08053608e-01   4.69683165e-01
   -1.49255795e-01  -1.47394167e-02  -2.03067271e-02   6.07049786e-01
   -1.75407462e-01  -2.61833886e+00  -9.37212156e-01  -5.55102794e-01
   -1.51843325e-01  -5.76823109e-01  -3.20903222e-01   1.63787293e-01
   -6.89401120e-02  -1.41850079e+00   4.76417867e-01   3.46474063e-01
    3.97330552e-01  -2.10426224e+00]]

*****  b 
 [ -8.9055275   -9.6435588  -10.48940942 -10.46501817 -10.85528479
 -10.89304441 -10.94807455 -11.23659172 -11.31080884 -10.92117363
 -11.30825719 -11.09728807 -11.76907904 -11.66065639 -11.33346441
 -11.33608445 -11.84537577 -11.74055585 -11.74393525 -11.84127634
 -11.79015197 -12.15363608 -12.61459749 -12.43132065 -13.01049651
 -13.20503752 -13.12158944 -13.34226503 -14.02472769 -13.8075751
 -14.42545706 -14.08820393 -14.45526828 -13.76182083 -15.20635345
 -14.46321862 -15.24761075 -14.83449251 -14.6795215  -15.62325527
 -15.91456753 -16.19060304 -15.64679022 -16.31468436 -16.32691291
 -16.68918942 -17.3824767  -17.09934661 -20.42611744 -20.60285441]
*****  U 
 [[ -6.23696131e+00  -6.12029043e+00  -3.97021955e+00  -3.01876888e+00
   -6.27247307e+00  -6.62917262e+00  -6.10015878e+00  -5.14614419e+00
   -6.36405491e+00  -5.79951134e+00  -6.69125453e+00  -5.53671404e+00
   -5.91115405e+00  -6.50538670e+00  -6.13523693e+00  -5.35614768e+00
   -5.88990963e+00  -5.44617084e+00  -6.51739030e+00  -5.71611144e+00
   -5.74305287e+00  -5.61990058e+00  -5.75719078e+00  -5.84793585e+00
   -5.79278335e+00  -5.58914349e+00  -5.38973384e+00  -5.22211653e+00
   -4.74341750e+00  -4.75375833e+00  -6.80618265e+00  -6.25027680e+00
   -5.85124227e+00  -6.12889050e+00  -6.02778397e+00  -6.47278279e+00
   -5.92400616e+00  -7.15794074e+00  -6.80537806e+00  -5.30986637e+00
   -3.69768140e+00  -4.08782514e+00  -3.83866350e+00  -6.63885257e+00
   -5.23528735e+00  -6.31858696e+00  -6.40226902e+00  -7.99417256e+00
   -4.80268979e+00  -6.53923317e+00]
 [ -8.53876963e+00  -6.00776751e+00  -8.75852390e+00  -8.12057465e+00
   -8.29342069e+00  -8.44088791e+00  -8.67794707e+00  -8.00776383e+00
   -7.90951392e+00  -8.04366510e+00  -7.07069538e+00  -8.04171291e+00
   -6.98568168e+00  -8.19138616e+00  -8.27330187e+00  -8.38661326e+00
   -8.02336005e+00  -7.74067458e+00  -8.35669157e+00  -7.75963946e+00
   -8.21606719e+00  -8.12735770e+00  -8.19738840e+00  -7.97711616e+00
   -7.45337508e+00  -7.20338569e+00  -8.75772805e+00  -8.13158605e+00
   -5.74653487e+00  -4.27661276e+00  -5.64721975e+00  -7.20859232e+00
   -7.92210238e+00  -6.52673573e+00  -5.58304201e+00  -6.61847527e+00
   -7.11812526e+00  -4.69686126e+00  -6.18498285e+00  -4.51592153e+00
   -3.74844395e+00  -3.87468406e+00  -3.67746835e+00  -4.35306827e+00
   -2.74913856e+00  -3.55318679e+00  -3.77028041e+00  -4.52283890e+00
   -5.88115462e+00  -4.84823070e+00]
 [ -3.60193607e+00  -3.19355806e+00  -4.16076516e+00  -4.73932013e+00
   -4.10069912e+00  -1.73607052e+00  -4.37923629e+00  -3.55414491e+00
   -6.29656711e+00  -4.94472187e+00  -4.58137728e+00  -3.90459773e+00
   -4.17010953e+00  -4.70190871e+00  -4.07325008e+00  -3.30714934e+00
   -3.79300288e+00  -4.49348107e+00  -3.93327837e+00  -3.13824016e+00
   -3.89488459e+00  -3.89428152e+00  -4.53060897e+00  -4.78613996e+00
   -4.25965650e+00  -4.02802411e+00  -3.93638012e+00  -4.55544395e+00
   -3.61425835e+00  -2.99597883e+00  -3.23184460e+00  -3.43654811e+00
   -2.91872570e+00  -4.09290221e+00  -3.38783141e+00  -2.77411021e+00
   -4.82827316e+00  -4.01612340e+00  -2.10729313e+00  -4.19448925e+00
   -4.09710929e+00  -4.95561002e+00  -4.40819545e+00  -7.65349323e+00
   -5.00927388e+00  -8.72758686e+00  -5.74502247e+00  -6.23880074e+00
   -4.96523751e+00  -5.07489792e+00]
 [ -4.18878554e+00  -4.16807052e+00  -4.48857631e+00  -4.24956494e+00
   -4.56447178e+00  -4.68043773e+00  -2.75603854e+00  -3.85924468e+00
   -4.49844065e+00  -4.73454500e+00  -5.26518224e+00  -3.24915215e+00
   -2.69843190e+00  -3.36356453e+00  -5.53696746e+00  -5.66608997e+00
   -5.45865836e+00  -4.75039993e+00  -4.73489808e+00  -5.15428186e+00
   -4.93091381e+00  -4.57695310e+00  -4.45547382e+00  -4.53398728e+00
   -3.95941104e+00  -4.24016912e+00  -4.91683874e+00  -4.69691326e+00
   -4.95777587e+00  -5.45057284e+00  -5.17141058e+00  -5.62316348e+00
   -5.73794258e+00  -5.63232846e+00  -6.26090924e+00  -6.15250181e+00
   -5.08029197e+00  -6.98688498e+00  -6.46895693e+00  -7.12124241e+00
   -8.05408466e+00  -6.97021746e+00  -7.54568055e+00  -4.48189516e+00
   -5.03552189e+00  -3.78728492e+00  -4.86268334e+00  -3.70749415e+00
   -4.62438848e+00  -4.32214887e+00]
 [ -6.40747758e+00  -6.53635974e+00  -6.04631068e+00  -6.36433413e+00
   -6.83317020e+00  -4.70793868e+00  -5.24622171e+00  -4.99037792e+00
   -4.47216038e+00  -5.86374518e+00  -4.94999415e+00  -4.78483198e+00
   -5.38711260e+00  -6.17660594e+00  -5.89640335e+00  -5.59506754e+00
   -5.34316613e+00  -7.93212997e+00  -6.86437837e+00  -7.02567038e+00
   -6.70597607e+00  -6.65528570e+00  -6.71059134e+00  -7.00630755e+00
   -9.18991334e+00  -6.38977125e+00  -7.29082849e+00  -7.49027293e+00
   -7.46544587e+00  -8.16667890e+00  -7.15665620e+00  -8.13543783e+00
   -7.64964655e+00  -8.24319073e+00  -7.41257826e+00  -7.33446036e+00
   -7.19622934e+00  -6.87894939e+00  -8.72179009e+00  -7.85948217e+00
   -7.41013841e+00  -8.44559764e+00  -7.19707892e+00  -7.79504634e+00
   -8.01984180e+00  -7.50069134e+00  -7.55406199e+00  -7.12577629e+00
   -7.65095490e+00  -7.97255348e+00]
 [ -3.71138672e+00  -1.97446569e+00  -4.10543790e+00  -1.06849845e+00
   -5.50118707e+00  -3.58556952e+00  -3.09272245e+00  -5.26509004e+00
   -4.52446751e+00  -3.78015462e+00  -4.27621075e+00  -3.76776075e+00
   -2.73542701e+00  -4.70180225e+00  -3.43664718e+00  -2.69897057e+00
   -4.79228553e+00  -7.53746620e+00  -3.73581756e+00  -3.99703159e+00
   -5.94289716e+00  -6.10330470e+00  -1.15376412e+01  -3.37154211e+00
   -4.27736144e+00  -1.71575516e+01  -1.42916436e+01  -2.11558471e+01
   -1.70911878e+01  -2.12006727e+01  -2.34151138e+01  -1.67892482e+01
   -2.29183668e+01  -1.19471435e+01  -8.91629278e+00  -1.11677441e+01
   -7.60842948e+00  -7.04880986e+00  -1.33641405e+01  -8.47020661e+00
   -7.33953451e+00  -3.65582311e+00  -4.78549566e+00  -3.92897540e+00
   -3.87417845e+00  -4.83256708e-01  -2.68569631e+00  -2.05163651e+00
   -2.03738414e+00  -1.64980395e+00]
 [ -1.37841519e+00  -5.90684412e+00  -5.85199504e+00  -6.24185179e+00
   -6.10183508e+00  -5.94350117e+00  -5.92756375e+00  -5.59848269e+00
   -5.40999999e+00  -5.41719689e+00  -6.18909649e+00  -5.98719290e+00
   -5.83253261e+00  -5.75375346e+00  -5.85250238e+00  -5.85461900e+00
   -5.79205488e+00  -5.58607617e+00  -5.59697240e+00  -5.80799275e+00
   -5.75803964e+00  -5.63327102e+00  -5.76665536e+00  -5.44446389e+00
   -5.99207628e+00  -5.94962959e+00  -5.58936070e+00  -4.55591546e+00
   -4.41147193e+00  -7.22186743e+00  -6.26654868e+00  -5.66776186e+00
   -6.57444410e+00  -6.45477496e+00  -5.88943971e+00  -6.55578411e+00
   -6.62895962e+00  -6.66460289e+00  -7.17452153e+00  -7.68605032e+00
   -9.14445501e+00  -9.16756511e+00  -7.59950552e+00  -8.26426478e+00
   -9.31821571e+00  -6.79077607e+00  -7.84453543e+00  -7.86992441e+00
   -7.60004488e+00  -5.90550197e+00]
 [ -7.43830875e+00  -8.24298706e+00  -6.85907958e+00  -7.70495116e+00
   -7.61012154e+00  -7.85107702e+00  -7.65751972e+00  -7.60167578e+00
   -7.36468460e+00  -7.36901116e+00  -7.83705524e+00  -7.82759469e+00
   -7.38959680e+00  -6.44927271e+00  -5.87767608e+00  -6.43148899e+00
   -8.15973420e+00  -6.82665893e+00  -6.74906890e+00  -6.95366105e+00
   -8.13950349e+00  -8.00700576e+00  -7.99692773e+00  -5.55475836e+00
   -7.59652492e+00  -8.04610032e+00  -8.48236418e+00  -7.74633981e+00
   -7.78218542e+00  -7.48713895e+00  -7.89895230e+00  -8.90210749e+00
   -6.48874014e+00  -7.38931341e+00  -7.76482914e+00  -6.71017617e+00
   -8.72154351e+00  -6.50692972e+00  -7.53347926e+00  -6.00532169e+00
   -5.31482836e+00  -4.79539996e+00  -4.87122115e+00  -5.46818130e+00
   -4.44117866e+00  -5.30430296e+00  -5.60973127e+00  -6.39867532e+00
   -7.32274713e+00  -6.26522400e+00]
 [ -4.51974957e+00  -5.12297091e+00  -3.15206707e+00  -4.92968128e+00
   -4.46651713e+00  -4.87168222e+00  -4.69664104e+00  -3.54923187e+00
   -5.18167500e+00  -4.63570586e+00  -4.86307134e+00  -4.83942757e+00
   -4.86524331e+00  -4.50016668e+00  -4.45839524e+00  -4.62251244e+00
   -4.97690243e+00  -4.71783503e+00  -5.06808462e+00  -5.06999178e+00
   -5.15817200e+00  -3.79600048e+00  -5.39975205e+00  -4.64159086e+00
   -5.22400277e+00  -5.12701877e+00  -6.08681807e+00  -7.26224165e+00
   -7.28542022e+00  -6.59180156e+00  -2.15553705e+00  -2.99673431e+00
   -4.79238016e+00  -4.63208515e+00  -4.17775545e+00  -4.97059789e+00
   -6.17798112e+00  -7.42780743e+00  -8.32297232e+00  -9.27611682e+00
   -9.49846674e+00  -9.50472739e+00  -1.21035297e+01  -1.18854987e+01
   -1.21974315e+01  -9.28364179e+00  -8.42162585e+00  -5.34572332e+00
   -6.24848907e+00  -6.09998299e+00]
 [ -5.62982790e+00  -5.80161764e+00  -4.54474118e+00  -4.60315963e+00
   -5.70607852e+00  -5.50974012e+00  -5.56152903e+00  -5.95525270e+00
   -5.48804636e+00  -5.76836077e+00  -6.04644838e+00  -5.65647833e+00
   -6.26473689e+00  -5.95022040e+00  -5.07660969e+00  -5.79711943e+00
   -5.57633825e+00  -5.99572555e+00  -5.74835521e+00  -5.63723157e+00
   -5.96253663e+00  -6.18587003e+00  -5.57655224e+00  -6.12898689e+00
   -6.36127020e+00  -6.85428063e+00  -6.20825039e+00  -5.97452384e+00
   -5.84372385e+00  -7.35380180e+00  -6.53760573e+00  -6.61257156e+00
   -5.71872838e+00  -5.29470870e+00  -5.53243598e+00  -4.11263263e+00
   -5.57045018e+00  -4.96006066e+00  -5.55629478e+00  -6.01759723e+00
   -6.11676024e+00  -5.46163847e+00  -6.08934098e+00  -4.21958669e+00
   -5.51616339e+00  -6.90711019e+00  -7.37547794e+00  -8.23949483e+00
   -7.22817519e+00  -6.29361520e+00]
 [ -2.84583011e+00  -3.13723734e+00  -3.03187247e+00  -3.19790400e+00
   -2.97437651e+00  -3.22462885e+00  -2.95131893e+00  -2.95409706e+00
   -3.53695580e+00  -3.00219524e+00  -3.05280298e+00  -2.98812038e+00
   -1.38035911e-01  -7.25489154e+00  -3.01157004e+01  -2.05698766e+01
   -2.63819207e+01  -2.54843425e+01  -2.08511676e+01  -1.96204761e+01
   -2.09570014e+01  -1.40695164e+01  -6.43568639e-01  -4.67812653e+01
   -2.51474935e+01  -1.72092435e+01  -1.30357974e+01  -1.10750452e+01
   -1.37028911e+01  -6.39572371e+00  -1.73171439e+01  -1.06964192e+01
   -2.88813597e+00  -2.29727526e+01  -1.05657120e+01  -1.59749039e+01
   -6.72769227e+00  -1.08936086e+01  -6.38412253e+00  -8.37858856e+00
   -1.07013510e+01  -7.52899551e+00  -7.47864758e+00  -1.08784968e+01
   -6.64072539e+00  -8.01319104e+00  -7.72428864e+00  -6.61736378e+00
   -4.90198394e+00  -3.69133522e+00]
 [ -3.16539705e+00  -3.03956605e+00  -2.82261248e+00  -2.68818746e+00
   -2.84215215e+00  -2.96735002e+00  -2.93064621e+00  -2.75408351e+00
   -3.22916777e+00  -2.50267193e+00  -3.09311088e+00  -3.06055380e+00
   -3.03454822e+00  -1.71321549e+00  -5.69915878e-01  -8.25028913e+00
   -7.89873131e+00  -3.36076222e+01  -3.25460388e+01  -4.49519122e+01
   -3.81600001e+01  -2.74580027e+01  -1.72200125e+01  -5.52990367e+00
